0
-0
0
0
-0
-0
0
-0
288589
-1.22892e+08
-3.56651e+07
5.53028e+06
5.28828e+06
-2.65218e+06
0
-1.22892e+08
5.23319e+10
1.51875e+10
-2.355e+09
-2.25195e+09
1.1294e+09
0
-3.56651e+07
1.51875e+10
4.40767e+09
-6.83458e+08
-6.53551e+08
3.27769e+08
-0
5.53028e+06
-2.355e+09
-6.83458e+08
1.05978e+08
1.0134e+08
-5.08243e+07
-0
5.28828e+06
-2.25195e+09
-6.53551e+08
1.0134e+08
9.69059e+07
-4.86003e+07
0
-2.65218e+06
1.1294e+09
3.27769e+08
-5.08243e+07
-4.86003e+07
2.43741e+07
0
0
0
0
0
0
0
0
25891.2
4.31624e+07
1.69063e+07
4.10288e+06
1.11714e+06
1.76709e+06
0
4.31624e+07
7.19545e+10
2.8184e+10
6.83977e+09
1.86235e+09
2.94585e+09
0
1.69063e+07
2.8184e+10
1.10394e+10
2.67908e+09
7.29468e+08
1.15387e+09
0
4.10288e+06
6.83977e+09
2.67908e+09
6.50167e+08
1.77029e+08
2.80024e+08
0
1.11714e+06
1.86235e+09
7.29468e+08
1.77029e+08
4.82021e+07
7.62457e+07
0
1.76709e+06
2.94585e+09
1.15387e+09
2.80024e+08
7.62457e+07
1.20605e+08
0
-0
0
0
-0
-0
0
-0
9956.11
-1.93849e+07
-636627
2.26654e+06
1.52515e+06
-627977
0
-1.93849e+07
3.77432e+10
1.23954e+09
-4.41304e+09
-2.96953e+09
1.22269e+09
0
-636627
1.23954e+09
4.07081e+07
-1.4493e+08
-9.75233e+07
4.01549e+07
-0
2.26654e+06
-4.41304e+09
-1.4493e+08
5.15986e+08
3.47206e+08
-1.42961e+08
-0
1.52515e+06
-2.96953e+09
-9.75233e+07
3.47206e+08
2.33634e+08
-9.61981e+07
0
-627977
1.22269e+09
4.01549e+07
-1.42961e+08
-9.61981e+07
3.96093e+07
0
-0
0
0
-0
-0
0
-0
592879
-1.32121e+08
-1.69649e+07
3.19425e+07
1.8654e+07
-1.18071e+06
0
-1.32121e+08
2.94427e+10
3.78057e+09
-7.11827e+09
-4.15699e+09
2.63118e+08
0
-1.69649e+07
3.78057e+09
4.85442e+08
-9.14016e+08
-5.33775e+08
3.37855e+07
-0
3.19425e+07
-7.11827e+09
-9.14016e+08
1.72096e+09
1.00502e+09
-6.36132e+07
-0
1.8654e+07
-4.15699e+09
-5.33775e+08
1.00502e+09
5.86921e+08
-3.71494e+07
0
-1.18071e+06
2.63118e+08
3.37855e+07
-6.36132e+07
-3.71494e+07
2.35139e+06
0
-0
0
0
0
0
0
-0
14100.5
-3.29687e+07
-1.25191e+07
-1.08253e+06
-470875
-824293
0
-3.29687e+07
7.70852e+10
2.92712e+10
2.53109e+09
1.10097e+09
1.9273e+09
0
-1.25191e+07
2.92712e+10
1.1115e+10
9.61121e+08
4.18065e+08
7.31846e+08
0
-1.08253e+06
2.53109e+09
9.61121e+08
8.31086e+07
3.61503e+07
6.32831e+07
0
-470875
1.10097e+09
4.18065e+08
3.61503e+07
1.57245e+07
2.75267e+07
0
-824293
1.9273e+09
7.31846e+08
6.32831e+07
2.75267e+07
4.81869e+07
0
-0
0
0
0
-0
0
-0
203816
-1.19517e+08
-4.08359e+07
-333763
831575
-2.62342e+06
0
-1.19517e+08
7.00839e+10
2.39459e+10
1.95717e+08
-4.8763e+08
1.53836e+09
0
-4.08359e+07
2.39459e+10
8.18173e+09
6.68715e+07
-1.66611e+08
5.25619e+08
0
-333763
1.95717e+08
6.68715e+07
546559
-1.36176e+06
4.29602e+06
-0
831575
-4.8763e+08
-1.66611e+08
-1.36176e+06
3.39284e+06
-1.07036e+07
0
-2.62342e+06
1.53836e+09
5.25619e+08
4.29602e+06
-1.07036e+07
3.37673e+07
0
-0
0
0
-0
-0
0
-0
133966
-8.22635e+07
-2.51135e+07
1.52278e+06
1.75612e+06
-2.42913e+06
0
-8.22635e+07
5.0515e+10
1.54213e+10
-9.35082e+08
-1.07837e+09
1.49164e+09
0
-2.51135e+07
1.54213e+10
4.70783e+09
-2.85463e+08
-3.29205e+08
4.5537e+08
-0
1.52278e+06
-9.35082e+08
-2.85463e+08
1.73093e+07
1.99616e+07
-2.76118e+07
-0
1.75612e+06
-1.07837e+09
-3.29205e+08
1.99616e+07
2.30203e+07
-3.18427e+07
0
-2.42913e+06
1.49164e+09
4.5537e+08
-2.76118e+07
-3.18427e+07
4.40462e+07
0
0
0
0
0
0
0
0
303635
1.65097e+08
6.38492e+07
2.26903e+07
9.89517e+06
6.68768e+06
0
1.65097e+08
8.97686e+10
3.4717e+10
1.23375e+10
5.38034e+09
3.63632e+09
0
6.38492e+07
3.4717e+10
1.34264e+10
4.77138e+09
2.08079e+09
1.4063e+09
0
2.26903e+07
1.23375e+10
4.77138e+09
1.69562e+09
7.39455e+08
4.99763e+08
0
9.89517e+06
5.38034e+09
2.08079e+09
7.39455e+08
3.22474e+08
2.17945e+08
0
6.68768e+06
3.63632e+09
1.4063e+09
4.99763e+08
2.17945e+08
1.47299e+08
0
-0
0
0
-0
-0
0
-0
667043
-1.56671e+08
-2.20463e+07
2.96886e+07
1.5842e+07
-1.44831e+06
0
-1.56671e+08
3.67978e+10
5.17809e+09
-6.97308e+09
-3.72086e+09
3.4017e+08
0
-2.20463e+07
5.17809e+09
7.28646e+08
-9.81232e+08
-5.2359e+08
4.78677e+07
-0
2.96886e+07
-6.97308e+09
-9.81232e+08
1.32138e+09
7.05092e+08
-6.44611e+07
-0
1.5842e+07
-3.72086e+09
-5.2359e+08
7.05092e+08
3.7624e+08
-3.43967e+07
0
-1.44831e+06
3.4017e+08
4.78677e+07
-6.44611e+07
-3.43967e+07
3.14463e+06
0
-0
0
0
0
0
0
-0
26914.3
-4.14292e+07
-1.25703e+07
-1.41221e+06
-331968
-1.48296e+06
0
-4.14292e+07
6.37719e+10
1.93494e+10
2.17381e+09
5.10999e+08
2.28272e+09
0
-1.25703e+07
1.93494e+10
5.87092e+09
6.59569e+08
1.55045e+08
6.92614e+08
0
-1.41221e+06
2.17381e+09
6.59569e+08
7.40992e+07
1.74185e+07
7.78117e+07
0
-331968
5.10999e+08
1.55045e+08
1.74185e+07
4.09459e+06
1.82912e+07
0
-1.48296e+06
2.28272e+09
6.92614e+08
7.78117e+07
1.82912e+07
8.17101e+07
0
-0
0
0
-0
-0
0
-0
79251.6
-6.28295e+07
-1.53361e+07
3.16914e+06
1.4393e+06
-1.2409e+06
0
-6.28295e+07
4.98103e+10
1.21582e+10
-2.51244e+09
-1.14106e+09
9.83766e+08
0
-1.53361e+07
1.21582e+10
2.96771e+09
-6.13264e+08
-2.78522e+08
2.40128e+08
-0
3.16914e+06
-2.51244e+09
-6.13264e+08
1.26728e+08
5.75552e+07
-4.96214e+07
-0
1.4393e+06
-1.14106e+09
-2.78522e+08
5.75552e+07
2.61394e+07
-2.25362e+07
0
-1.2409e+06
9.83766e+08
2.40128e+08
-4.96214e+07
-2.25362e+07
1.94296e+07
0
0
0
0
0
0
0
0
84311.1
7.0051e+07
2.0179e+07
4.24521e+06
1.54137e+06
2.55652e+06
0
7.0051e+07
5.82027e+10
1.67659e+10
3.52718e+09
1.28067e+09
2.12412e+09
0
2.0179e+07
1.67659e+10
4.82962e+09
1.01604e+09
3.68911e+08
6.11876e+08
0
4.24521e+06
3.52718e+09
1.01604e+09
2.13753e+08
7.76106e+07
1.28725e+08
0
1.54137e+06
1.28067e+09
3.68911e+08
7.76106e+07
2.81793e+07
4.67381e+07
0
2.55652e+06
2.12412e+09
6.11876e+08
1.28725e+08
4.67381e+07
7.75199e+07
0
0
0
0
0
0
0
0
144136
1.07356e+08
4.38362e+07
1.63459e+07
6.50648e+06
5.45502e+06
0
1.07356e+08
7.99618e+10
3.26504e+10
1.21749e+10
4.8462e+09
4.06305e+09
0
4.38362e+07
3.26504e+10
1.33319e+10
4.97131e+09
1.97882e+09
1.65904e+09
0
1.63459e+07
1.21749e+10
4.97131e+09
1.85374e+09
7.37878e+08
6.18635e+08
0
6.50648e+06
4.8462e+09
1.97882e+09
7.37878e+08
2.93712e+08
2.46247e+08
0
5.45502e+06
4.06305e+09
1.65904e+09
6.18635e+08
2.46247e+08
2.06453e+08
0
-0
0
0
-0
-0
0
-0
288090
-1.07755e+08
-2.702e+07
1.2713e+07
9.24404e+06
-2.31917e+06
0
-1.07755e+08
4.0304e+10
1.01064e+10
-4.75509e+09
-3.45758e+09
8.67447e+08
0
-2.702e+07
1.01064e+10
2.53422e+09
-1.19236e+09
-8.67002e+08
2.17516e+08
-0
1.2713e+07
-4.75509e+09
-1.19236e+09
5.61009e+08
4.07927e+08
-1.02342e+08
-0
9.24404e+06
-3.45758e+09
-8.67002e+08
4.07927e+08
2.96617e+08
-7.44162e+07
0
-2.31917e+06
8.67447e+08
2.17516e+08
-1.02342e+08
-7.44162e+07
1.86697e+07
0
-0
0
0
0
-0
0
-0
105017
-7.58065e+07
-2.43393e+07
-1.12824e+06
582105
-1.34721e+06
0
-7.58065e+07
5.47208e+10
1.75693e+10
8.14419e+08
-4.20192e+08
9.72484e+08
0
-2.43393e+07
1.75693e+10
5.64099e+09
2.61487e+08
-1.34912e+08
3.12237e+08
0
-1.12824e+06
8.14419e+08
2.61487e+08
1.21211e+07
-6.25378e+06
1.44736e+07
-0
582105
-4.20192e+08
-1.34912e+08
-6.25378e+06
3.22658e+06
-7.46754e+06
0
-1.34721e+06
9.72484e+08
3.12237e+08
1.44736e+07
-7.46754e+06
1.72827e+07
0
0
0
0
0
0
0
0
151073
1.19605e+08
4.90795e+07
1.82338e+07
8.03905e+06
4.70293e+06
0
1.19605e+08
9.46919e+10
3.88565e+10
1.44358e+10
6.36455e+09
3.72333e+09
0
4.90795e+07
3.88565e+10
1.59446e+10
5.92367e+09
2.61167e+09
1.52786e+09
0
1.82338e+07
1.44358e+10
5.92367e+09
2.20073e+09
9.70275e+08
5.67622e+08
0
8.03905e+06
6.36455e+09
2.61167e+09
9.70275e+08
4.27782e+08
2.50257e+08
0
4.70293e+06
3.72333e+09
1.52786e+09
5.67622e+08
2.50257e+08
1.46403e+08
0
0
0
0
0
0
0
0
334012
1.75861e+08
7.46454e+07
2.76993e+07
1.31309e+07
8.09835e+06
0
1.75861e+08
9.25923e+10
3.93015e+10
1.45839e+10
6.91357e+09
4.26386e+09
0
7.46454e+07
3.93015e+10
1.66818e+10
6.19027e+09
2.93452e+09
1.80983e+09
0
2.76993e+07
1.45839e+10
6.19027e+09
2.29707e+09
1.08894e+09
6.71588e+08
0
1.31309e+07
6.91357e+09
2.93452e+09
1.08894e+09
5.16214e+08
3.18369e+08
0
8.09835e+06
4.26386e+09
1.80983e+09
6.71588e+08
3.18369e+08
1.9635e+08
0
0
0
0
0
0
0
0
24352.3
3.6894e+07
1.45406e+07
2.15578e+06
726874
1.44113e+06
0
3.6894e+07
5.58948e+10
2.20292e+10
3.26604e+09
1.10122e+09
2.18332e+09
0
1.45406e+07
2.20292e+10
8.68209e+09
1.2872e+09
4.34012e+08
8.60488e+08
0
2.15578e+06
3.26604e+09
1.2872e+09
1.90841e+08
6.43465e+07
1.27576e+08
0
726874
1.10122e+09
4.34012e+08
6.43465e+07
2.1696e+07
4.30152e+07
0
1.44113e+06
2.18332e+09
8.60488e+08
1.27576e+08
4.30152e+07
8.52835e+07
0
-0
0
0
0
-0
0
-0
27840.8
-3.99907e+07
-1.30364e+07
-597355
136699
-1.09389e+06
0
-3.99907e+07
5.74429e+10
1.87256e+10
8.58044e+08
-1.96355e+08
1.57126e+09
0
-1.30364e+07
1.87256e+10
6.10428e+09
2.7971e+08
-6.4009e+07
5.1221e+08
0
-597355
8.58044e+08
2.7971e+08
1.28169e+07
-2.93302e+06
2.34705e+07
-0
136699
-1.96355e+08
-6.4009e+07
-2.93302e+06
671193
-5.371e+06
0
-1.09389e+06
1.57126e+09
5.1221e+08
2.34705e+07
-5.371e+06
4.29796e+07
0
-0
0
0
-0
-0
-0
-0
1.25222e+06
-2.32973e+08
-5.78251e+07
4.02504e+07
2.17396e+07
45172
0
-2.32973e+08
4.33441e+10
1.07582e+10
-7.48851e+09
-4.04461e+09
-8.40416e+06
0
-5.78251e+07
1.07582e+10
2.67025e+09
-1.85869e+09
-1.00389e+09
-2.08596e+06
-0
4.02504e+07
-7.48851e+09
-1.85869e+09
1.29378e+09
6.98782e+08
1.45198e+06
-0
2.17396e+07
-4.04461e+09
-1.00389e+09
6.98782e+08
3.77418e+08
784225
-0
45172
-8.40416e+06
-2.08596e+06
1.45198e+06
784225
1629.52
0
-0
0
0
-0
-0
0
-0
369899
-1.16612e+08
-2.48678e+07
1.32773e+07
7.75765e+06
-1.98642e+06
0
-1.16612e+08
3.67626e+10
7.83968e+09
-4.18574e+09
-2.44564e+09
6.26228e+08
0
-2.48678e+07
7.83968e+09
1.67182e+09
-8.92615e+08
-5.21536e+08
1.33544e+08
-0
1.32773e+07
-4.18574e+09
-8.92615e+08
4.76582e+08
2.78457e+08
-7.13015e+07
-0
7.75765e+06
-2.44564e+09
-5.21536e+08
2.78457e+08
1.62696e+08
-4.16599e+07
0
-1.98642e+06
6.26228e+08
1.33544e+08
-7.13015e+07
-4.16599e+07
1.06674e+07
0
-0
0
0
-0
-0
0
-0
741730
-1.50414e+08
-3.06771e+07
3.34282e+07
2.12582e+07
-1.70689e+06
0
-1.50414e+08
3.05021e+10
6.22093e+09
-6.77883e+09
-4.3109e+09
3.46137e+08
0
-3.06771e+07
6.22093e+09
1.26877e+09
-1.38255e+09
-8.79213e+08
7.05949e+07
-0
3.34282e+07
-6.77883e+09
-1.38255e+09
1.50654e+09
9.58062e+08
-7.6926e+07
-0
2.12582e+07
-4.3109e+09
-8.79213e+08
9.58062e+08
6.09266e+08
-4.892e+07
0
-1.70689e+06
3.46137e+08
7.05949e+07
-7.6926e+07
-4.892e+07
3.92795e+06
0
0
0
0
0
0
0
0
117501
9.33555e+07
3.51148e+07
1.21382e+07
4.6624e+06
4.09056e+06
0
9.33555e+07
7.41713e+10
2.78988e+10
9.64389e+09
3.7043e+09
3.24997e+09
0
3.51148e+07
2.78988e+10
1.04939e+10
3.62746e+09
1.39334e+09
1.22244e+09
0
1.21382e+07
9.64389e+09
3.62746e+09
1.25391e+09
4.81639e+08
4.22566e+08
0
4.6624e+06
3.7043e+09
1.39334e+09
4.81639e+08
1.85002e+08
1.62311e+08
0
4.09056e+06
3.24997e+09
1.22244e+09
4.22566e+08
1.62311e+08
1.42404e+08
0
-0
0
0
-0
-0
0
-0
302886
-1.17673e+08
-3.60156e+07
1.02173e+07
6.97284e+06
-2.37542e+06
0
-1.17673e+08
4.57165e+10
1.39923e+10
-3.96946e+09
-2.70898e+09
9.22863e+08
0
-3.60156e+07
1.39923e+10
4.28255e+09
-1.21492e+09
-8.29128e+08
2.82457e+08
-0
1.02173e+07
-3.96946e+09
-1.21492e+09
3.44659e+08
2.35215e+08
-8.013e+07
-0
6.97284e+06
-2.70898e+09
-8.29128e+08
2.35215e+08
1.60524e+08
-5.46853e+07
0
-2.37542e+06
9.22863e+08
2.82457e+08
-8.013e+07
-5.46853e+07
1.86295e+07
0
0
0
0
0
0
0
0
20109.9
3.49913e+07
1.23157e+07
2.81946e+06
838716
1.59265e+06
0
3.49913e+07
6.0885e+10
2.14294e+10
4.90587e+09
1.45937e+09
2.77121e+09
0
1.23157e+07
2.14294e+10
7.5424e+09
1.72669e+09
5.13647e+08
9.75369e+08
0
2.81946e+06
4.90587e+09
1.72669e+09
3.95295e+08
1.1759e+08
2.23293e+08
0
838716
1.45937e+09
5.13647e+08
1.1759e+08
3.49801e+07
6.64239e+07
0
1.59265e+06
2.77121e+09
9.75369e+08
2.23293e+08
6.64239e+07
1.26133e+08
0
0
0
0
0
0
0
0
19678.8
3.64236e+07
9.77297e+06
2.69344e+06
1.04364e+06
1.38665e+06
0
3.64236e+07
6.74166e+10
1.80888e+10
4.9853e+09
1.93168e+09
2.56656e+09
0
9.77297e+06
1.80888e+10
4.85349e+09
1.33763e+09
5.18298e+08
6.88645e+08
0
2.69344e+06
4.9853e+09
1.33763e+09
3.68651e+08
1.42843e+08
1.89791e+08
0
1.04364e+06
1.93168e+09
5.18298e+08
1.42843e+08
5.53484e+07
7.35395e+07
0
1.38665e+06
2.56656e+09
6.88645e+08
1.89791e+08
7.35395e+07
9.77094e+07
0
-0
0
0
-0
-0
-0
-0
963664
-2.03967e+08
-4.44321e+07
3.07097e+07
1.79651e+07
109315
0
-2.03967e+08
4.3171e+10
9.40439e+09
-6.49993e+09
-3.80245e+09
-2.31374e+07
0
-4.44321e+07
9.40439e+09
2.04865e+09
-1.41595e+09
-8.28327e+08
-5.04026e+06
-0
3.07097e+07
-6.49993e+09
-1.41595e+09
9.78645e+08
5.72506e+08
3.48362e+06
-0
1.79651e+07
-3.80245e+09
-8.28327e+08
5.72506e+08
3.34915e+08
2.03791e+06
-0
109315
-2.31374e+07
-5.04026e+06
3.48362e+06
2.03791e+06
12400.4
0
-0
0
0
-0
-0
0
-0
431928
-1.59225e+08
-4.83135e+07
2.94902e+06
4.13104e+06
-2.64234e+06
0
-1.59225e+08
5.86966e+10
1.78102e+10
-1.08712e+09
-1.52286e+09
9.74068e+08
0
-4.83135e+07
1.78102e+10
5.40412e+09
-3.29864e+08
-4.62079e+08
2.9556e+08
-0
2.94902e+06
-1.08712e+09
-3.29864e+08
2.01347e+07
2.8205e+07
-1.80408e+07
-0
4.13104e+06
-1.52286e+09
-4.62079e+08
2.8205e+07
3.95101e+07
-2.52718e+07
0
-2.64234e+06
9.74068e+08
2.9556e+08
-1.80408e+07
-2.52718e+07
1.61646e+07
0
-0
0
0
0
0
0
-0
3173.22
-1.41752e+07
-4.7038e+06
-128294
-67215.8
-325194
0
-1.41752e+07
6.33221e+10
2.10124e+10
5.73106e+08
3.00261e+08
1.45268e+09
0
-4.7038e+06
2.10124e+10
6.97263e+09
1.90176e+08
9.96368e+07
4.82048e+08
0
-128294
5.73106e+08
1.90176e+08
5.18699e+06
2.71756e+06
1.31477e+07
0
-67215.8
3.00261e+08
9.96368e+07
2.71756e+06
1.42378e+06
6.88832e+06
0
-325194
1.45268e+09
4.82048e+08
1.31477e+07
6.88832e+06
3.3326e+07
0
-0
0
0
0
0
0
-0
9545.36
-2.56312e+07
-7.78287e+06
-1.36522e+06
-625517
-792805
0
-2.56312e+07
6.88251e+10
2.08986e+10
3.66589e+09
1.67964e+09
2.12884e+09
0
-7.78287e+06
2.08986e+10
6.34582e+09
1.11314e+09
5.10019e+08
6.46419e+08
0
-1.36522e+06
3.66589e+09
1.11314e+09
1.9526e+08
8.94642e+07
1.13391e+08
0
-625517
1.67964e+09
5.10019e+08
8.94642e+07
4.09908e+07
5.19533e+07
0
-792805
2.12884e+09
6.46419e+08
1.13391e+08
5.19533e+07
6.58477e+07
0
-0
0
0
-0
-0
0
-0
1.50783e+06
-2.13342e+08
-4.15214e+07
6.25782e+07
3.40865e+07
-800618
0
-2.13342e+08
3.01858e+10
5.87487e+09
-8.85419e+09
-4.8229e+09
1.13279e+08
0
-4.15214e+07
5.87487e+09
1.14339e+09
-1.72324e+09
-9.3865e+08
2.20469e+07
-0
6.25782e+07
-8.85419e+09
-1.72324e+09
2.59714e+09
1.41467e+09
-3.32275e+07
-0
3.40865e+07
-4.8229e+09
-9.3865e+08
1.41467e+09
7.70573e+08
-1.80991e+07
0
-800618
1.13279e+08
2.20469e+07
-3.32275e+07
-1.80991e+07
425108
0
0
0
0
0
0
0
0
358855
1.71511e+08
7.35112e+07
2.82501e+07
1.23483e+07
7.27006e+06
0
1.71511e+08
8.19715e+10
3.51339e+10
1.35018e+10
5.90172e+09
3.47464e+09
0
7.35112e+07
3.51339e+10
1.50587e+10
5.78702e+09
2.52954e+09
1.48927e+09
0
2.82501e+07
1.35018e+10
5.78702e+09
2.22393e+09
9.72092e+08
5.7232e+08
0
1.23483e+07
5.90172e+09
2.52954e+09
9.72092e+08
4.24907e+08
2.50164e+08
0
7.27006e+06
3.47464e+09
1.48927e+09
5.7232e+08
2.50164e+08
1.47284e+08
0
-0
0
0
0
0
0
-0
130465
-9.83224e+07
-3.66756e+07
-4.34502e+06
-1.72619e+06
-1.59267e+06
0
-9.83224e+07
7.40989e+10
2.76399e+10
3.27455e+09
1.30091e+09
1.20029e+09
0
-3.66756e+07
2.76399e+10
1.031e+10
1.22145e+09
4.85257e+08
4.47723e+08
0
-4.34502e+06
3.27455e+09
1.22145e+09
1.44707e+08
5.74892e+07
5.30426e+07
0
-1.72619e+06
1.30091e+09
4.85257e+08
5.74892e+07
2.28393e+07
2.10727e+07
0
-1.59267e+06
1.20029e+09
4.47723e+08
5.30426e+07
2.10727e+07
1.94428e+07
0
0
0
0
0
0
0
0
167748
1.11928e+08
4.43362e+07
1.33102e+07
5.70032e+06
3.81012e+06
0
1.11928e+08
7.46827e+10
2.95829e+10
8.88107e+09
3.80347e+09
2.54226e+09
0
4.43362e+07
2.95829e+10
1.17182e+10
3.51792e+09
1.50661e+09
1.00702e+09
0
1.33102e+07
8.88107e+09
3.51792e+09
1.05611e+09
4.52299e+08
3.02319e+08
0
5.70032e+06
3.80347e+09
1.50661e+09
4.52299e+08
1.93705e+08
1.29473e+08
0
3.81012e+06
2.54226e+09
1.00702e+09
3.02319e+08
1.29473e+08
8.65404e+07
0
0
0
0
0
0
0
0
771092
2.74029e+08
1.19092e+08
5.57937e+07
2.63811e+07
1.36499e+07
0
2.74029e+08
9.73841e+10
4.23227e+10
1.98279e+10
9.37527e+09
4.85087e+09
0
1.19092e+08
4.23227e+10
1.83933e+10
8.6171e+09
4.07445e+09
2.10817e+09
0
5.57937e+07
1.98279e+10
8.6171e+09
4.03705e+09
1.90885e+09
9.8766e+08
0
2.63811e+07
9.37527e+09
4.07445e+09
1.90885e+09
9.02568e+08
4.66998e+08
0
1.36499e+07
4.85087e+09
2.10817e+09
9.8766e+08
4.66998e+08
2.4163e+08
0
0
0
0
-0
-0
0
0
772.424
6.02307e+06
1.27808e+06
-97992.9
-167018
222762
0
6.02307e+06
4.69656e+10
9.96596e+09
-7.64111e+08
-1.30235e+09
1.73701e+09
0
1.27808e+06
9.96596e+09
2.11475e+09
-1.62142e+08
-2.76354e+08
3.68589e+08
-0
-97992.9
-7.64111e+08
-1.62142e+08
1.24318e+07
2.11886e+07
-2.82605e+07
-0
-167018
-1.30235e+09
-2.76354e+08
2.11886e+07
3.61138e+07
-4.8167e+07
0
222762
1.73701e+09
3.68589e+08
-2.82605e+07
-4.8167e+07
6.42431e+07
0
0
0
0
0
0
0
0
13131.1
3.41534e+07
1.3492e+07
4.65484e+06
2.29811e+06
871098
0
3.41534e+07
8.88317e+10
3.50922e+10
1.21071e+10
5.97729e+09
2.26569e+09
0
1.3492e+07
3.50922e+10
1.38629e+10
4.78279e+09
2.36128e+09
8.95042e+08
0
4.65484e+06
1.21071e+10
4.78279e+09
1.65009e+09
8.14657e+08
3.08796e+08
0
2.29811e+06
5.97729e+09
2.36128e+09
8.14657e+08
4.02198e+08
1.52453e+08
0
871098
2.26569e+09
8.95042e+08
3.08796e+08
1.52453e+08
5.77875e+07
0
0
0
0
0
0
0
0
166209
9.43028e+07
3.61527e+07
1.04906e+07
2.78118e+06
4.59887e+06
0
9.43028e+07
5.35052e+10
2.05122e+10
5.95211e+09
1.57798e+09
2.60929e+09
0
3.61527e+07
2.05122e+10
7.86371e+09
2.28185e+09
6.04946e+08
1.00032e+09
0
1.04906e+07
5.95211e+09
2.28185e+09
6.62134e+08
1.7554e+08
2.90267e+08
0
2.78118e+06
1.57798e+09
6.04946e+08
1.7554e+08
4.65378e+07
7.69534e+07
0
4.59887e+06
2.60929e+09
1.00032e+09
2.90267e+08
7.69534e+07
1.27247e+08
0
-0
0
0
-0
-0
0
-0
439086
-1.46757e+08
-4.29016e+07
6.8588e+06
4.6626e+06
-2.20673e+06
0
-1.46757e+08
4.90507e+10
1.43391e+10
-2.29243e+09
-1.55839e+09
7.3756e+08
0
-4.29016e+07
1.43391e+10
4.19177e+09
-6.70151e+08
-4.55567e+08
2.15612e+08
-0
6.8588e+06
-2.29243e+09
-6.70151e+08
1.07139e+08
7.28328e+07
-3.44705e+07
-0
4.6626e+06
-1.55839e+09
-4.55567e+08
7.28328e+07
4.95116e+07
-2.3433e+07
0
-2.20673e+06
7.3756e+08
2.15612e+08
-3.44705e+07
-2.3433e+07
1.10904e+07
0
0
0
0
0
0
0
0
8.78077
740958
274206
46479.3
9937.03
27959.7
0
740958
6.25252e+10
2.31386e+10
3.92212e+09
8.38528e+08
2.35936e+09
0
274206
2.31386e+10
8.56288e+09
1.45145e+09
3.10313e+08
8.73125e+08
0
46479.3
3.92212e+09
1.45145e+09
2.46029e+08
5.25997e+07
1.47999e+08
0
9937.03
8.38528e+08
3.10313e+08
5.25997e+07
1.12455e+07
3.16415e+07
0
27959.7
2.35936e+09
8.73125e+08
1.47999e+08
3.16415e+07
8.90292e+07
0
0
0
0
0
0
0
0
214791
1.11901e+08
4.35305e+07
1.08885e+07
3.44136e+06
4.72759e+06
0
1.11901e+08
5.82975e+10
2.26783e+10
5.67265e+09
1.79286e+09
2.46296e+09
0
4.35305e+07
2.26783e+10
8.8221e+09
2.20672e+09
6.97442e+08
9.58116e+08
0
1.08885e+07
5.67265e+09
2.20672e+09
5.51978e+08
1.74455e+08
2.39659e+08
0
3.44136e+06
1.79286e+09
6.97442e+08
1.74455e+08
5.51372e+07
7.5745e+07
0
4.72759e+06
2.46296e+09
9.58116e+08
2.39659e+08
7.5745e+07
1.04055e+08
0
-0
0
0
-0
-0
0
-0
383868
-1.36395e+08
-3.37832e+07
1.42051e+07
8.89492e+06
-3.61137e+06
0
-1.36395e+08
4.84632e+10
1.20037e+10
-5.04732e+09
-3.16051e+09
1.28318e+09
0
-3.37832e+07
1.20037e+10
2.97318e+09
-1.25016e+09
-7.82819e+08
3.17828e+08
-0
1.42051e+07
-5.04732e+09
-1.25016e+09
5.25666e+08
3.29159e+08
-1.3364e+08
-0
8.89492e+06
-3.16051e+09
-7.82819e+08
3.29159e+08
2.06112e+08
-8.36821e+07
0
-3.61137e+06
1.28318e+09
3.17828e+08
-1.3364e+08
-8.36821e+07
3.39753e+07
0
-0
0
-0
-0
-0
0
-0
193441
-8.19155e+07
2.77937e+06
1.42177e+07
8.48285e+06
-2.1968e+06
0
-8.19155e+07
3.46884e+10
-1.17697e+09
-6.0207e+09
-3.59219e+09
9.30267e+08
-0
2.77937e+06
-1.17697e+09
3.99342e+07
2.04281e+08
1.21882e+08
-3.15637e+07
-0
1.42177e+07
-6.0207e+09
2.04281e+08
1.04498e+09
6.23481e+08
-1.61462e+08
-0
8.48285e+06
-3.59219e+09
1.21882e+08
6.23481e+08
3.71994e+08
-9.63349e+07
0
-2.1968e+06
9.30267e+08
-3.15637e+07
-1.61462e+08
-9.63349e+07
2.49478e+07
0
-0
0
0
0
0
0
-0
198337
-1.12911e+08
-3.78326e+07
-4.67552e+06
-866343
-2.74763e+06
0
-1.12911e+08
6.42792e+10
2.15377e+10
2.66173e+09
4.93201e+08
1.5642e+09
0
-3.78326e+07
2.15377e+10
7.21655e+09
8.91853e+08
1.65255e+08
5.24109e+08
0
-4.67552e+06
2.66173e+09
8.91853e+08
1.10219e+08
2.04229e+07
6.47717e+07
0
-866343
4.93201e+08
1.65255e+08
2.04229e+07
3.78423e+06
1.20018e+07
0
-2.74763e+06
1.5642e+09
5.24109e+08
6.47717e+07
1.20018e+07
3.80639e+07
0
-0
0
0
0
0
0
-0
69514.4
-7.52161e+07
-2.62765e+07
-3.57275e+06
-963716
-2.74122e+06
0
-7.52161e+07
8.13856e+10
2.84317e+10
3.8658e+09
1.04276e+09
2.96607e+09
0
-2.62765e+07
2.84317e+10
9.93251e+09
1.3505e+09
3.64285e+08
1.03618e+09
0
-3.57275e+06
3.8658e+09
1.3505e+09
1.83624e+08
4.9531e+07
1.40887e+08
0
-963716
1.04276e+09
3.64285e+08
4.9531e+07
1.33605e+07
3.80031e+07
0
-2.74122e+06
2.96607e+09
1.03618e+09
1.40887e+08
3.80031e+07
1.08097e+08
0
-0
0
0
-0
-0
0
-0
1.22621e+06
-1.78179e+08
-3.69642e+07
4.3125e+07
2.70787e+07
-3.31841e+06
0
-1.78179e+08
2.58909e+10
5.37122e+09
-6.26644e+09
-3.93478e+09
4.82194e+08
0
-3.69642e+07
5.37122e+09
1.11429e+09
-1.30001e+09
-8.16292e+08
1.00034e+08
-0
4.3125e+07
-6.26644e+09
-1.30001e+09
1.51668e+09
9.52343e+08
-1.16706e+08
-0
2.70787e+07
-3.93478e+09
-8.16292e+08
9.52343e+08
5.97988e+08
-7.32815e+07
0
-3.31841e+06
4.82194e+08
1.00034e+08
-1.16706e+08
-7.32815e+07
8.9804e+06
0
-0
0
0
-0
-0
0
-0
150776
-8.55376e+07
-2.74793e+07
4.28084e+06
3.29254e+06
-2.04844e+06
0
-8.55376e+07
4.85267e+10
1.55894e+10
-2.42858e+09
-1.86791e+09
1.16211e+09
0
-2.74793e+07
1.55894e+10
5.00815e+09
-7.80192e+08
-6.00072e+08
3.73333e+08
-0
4.28084e+06
-2.42858e+09
-7.80192e+08
1.21542e+08
9.34818e+07
-5.81594e+07
-0
3.29254e+06
-1.86791e+09
-6.00072e+08
9.34818e+07
7.19e+07
-4.47324e+07
0
-2.04844e+06
1.16211e+09
3.73333e+08
-5.81594e+07
-4.47324e+07
2.78301e+07
0
0
0
0
0
0
0
0
161599
1.02281e+08
3.75798e+07
1.02569e+07
3.23056e+06
4.63704e+06
0
1.02281e+08
6.4737e+10
2.37854e+10
6.49193e+09
2.04472e+09
2.93492e+09
0
3.75798e+07
2.37854e+10
8.73916e+09
2.38524e+09
7.51264e+08
1.07834e+09
0
1.02569e+07
6.49193e+09
2.38524e+09
6.51021e+08
2.05048e+08
2.94319e+08
0
3.23056e+06
2.04472e+09
7.51264e+08
2.05048e+08
6.45825e+07
9.26997e+07
0
4.63704e+06
2.93492e+09
1.07834e+09
2.94319e+08
9.26997e+07
1.33058e+08
0
0
0
0
0
0
0
0
21843
3.64457e+07
1.32793e+07
2.29788e+06
602114
1.57836e+06
0
3.64457e+07
6.08107e+10
2.21569e+10
3.83408e+09
1.00464e+09
2.63354e+09
0
1.32793e+07
2.21569e+10
8.07306e+09
1.39698e+09
3.66051e+08
9.59552e+08
0
2.29788e+06
3.83408e+09
1.39698e+09
2.41736e+08
6.33422e+07
1.66043e+08
0
602114
1.00464e+09
3.66051e+08
6.33422e+07
1.65976e+07
4.35083e+07
0
1.57836e+06
2.63354e+09
9.59552e+08
1.66043e+08
4.35083e+07
1.14051e+08
0
-0
0
0
0
0
0
-0
181861
-1.11977e+08
-3.7498e+07
-6.05923e+06
-1.80337e+06
-2.88914e+06
0
-1.11977e+08
6.89468e+10
2.30885e+10
3.73082e+09
1.11038e+09
1.77892e+09
0
-3.7498e+07
2.30885e+10
7.73173e+09
1.24935e+09
3.71838e+08
5.95713e+08
0
-6.05923e+06
3.73082e+09
1.24935e+09
2.0188e+08
6.00845e+07
9.626e+07
0
-1.80337e+06
1.11038e+09
3.71838e+08
6.00845e+07
1.78826e+07
2.86493e+07
0
-2.88914e+06
1.77892e+09
5.95713e+08
9.626e+07
2.86493e+07
4.58984e+07
0
-0
0
0
-0
-0
0
-0
371176
-1.34494e+08
-2.3669e+07
1.15034e+07
5.45305e+06
-2.27136e+06
0
-1.34494e+08
4.87335e+10
8.5764e+09
-4.16822e+09
-1.9759e+09
8.23021e+08
0
-2.3669e+07
8.5764e+09
1.50932e+09
-7.33547e+08
-3.47729e+08
1.4484e+08
-0
1.15034e+07
-4.16822e+09
-7.33547e+08
3.56512e+08
1.69e+08
-7.03937e+07
-0
5.45305e+06
-1.9759e+09
-3.47729e+08
1.69e+08
8.01124e+07
-3.33693e+07
0
-2.27136e+06
8.23021e+08
1.4484e+08
-7.03937e+07
-3.33693e+07
1.38993e+07
0
-0
0
0
-0
-0
0
-0
133606
-8.78648e+07
-2.51473e+07
1.60778e+06
2.16211e+06
-2.70958e+06
0
-8.78648e+07
5.77836e+10
1.65379e+10
-1.05734e+09
-1.4219e+09
1.78194e+09
0
-2.51473e+07
1.65379e+10
4.73322e+09
-3.02616e+08
-4.06953e+08
5.09997e+08
-0
1.60778e+06
-1.05734e+09
-3.02616e+08
1.93476e+07
2.60183e+07
-3.26064e+07
-0
2.16211e+06
-1.4219e+09
-4.06953e+08
2.60183e+07
3.4989e+07
-4.38485e+07
0
-2.70958e+06
1.78194e+09
5.09997e+08
-3.26064e+07
-4.38485e+07
5.49515e+07
0
-0
0
0
-0
-0
0
-0
34015
-4.34211e+07
-1.49327e+07
896406
569055
-850758
0
-4.34211e+07
5.54281e+10
1.90619e+10
-1.14429e+09
-7.26413e+08
1.08602e+09
0
-1.49327e+07
1.90619e+10
6.55547e+09
-3.93524e+08
-2.49816e+08
3.73484e+08
-0
896406
-1.14429e+09
-3.93524e+08
2.36232e+07
1.49964e+07
-2.24203e+07
-0
569055
-7.26413e+08
-2.49816e+08
1.49964e+07
9.52001e+06
-1.42328e+07
0
-850758
1.08602e+09
3.73484e+08
-2.24203e+07
-1.42328e+07
2.12785e+07
0
-0
0
0
-0
-0
0
-0
90882.6
-7.07358e+07
-2.24309e+07
821466
1.01358e+06
-889008
0
-7.07358e+07
5.50552e+10
1.74585e+10
-6.39365e+08
-7.88893e+08
6.91934e+08
0
-2.24309e+07
1.74585e+10
5.53624e+09
-2.02748e+08
-2.50165e+08
2.19418e+08
-0
821466
-6.39365e+08
-2.02748e+08
7.42504e+06
9.16153e+06
-8.03553e+06
-0
1.01358e+06
-7.88893e+08
-2.50165e+08
9.16153e+06
1.13041e+07
-9.9148e+06
0
-889008
6.91934e+08
2.19418e+08
-8.03553e+06
-9.9148e+06
8.69622e+06
0
-0
0
0
0
0
0
-0
262.597
-4.36512e+06
-836276
-145540
-71750.8
-126141
0
-4.36512e+06
7.2561e+10
1.39014e+10
2.41931e+09
1.19271e+09
2.09684e+09
0
-836276
1.39014e+10
2.66324e+09
4.63495e+08
2.28501e+08
4.01715e+08
0
-145540
2.41931e+09
4.63495e+08
8.06638e+07
3.97669e+07
6.9912e+07
0
-71750.8
1.19271e+09
2.28501e+08
3.97669e+07
1.96049e+07
3.44663e+07
0
-126141
2.09684e+09
4.01715e+08
6.9912e+07
3.44663e+07
6.05934e+07
0
-0
0
0
-0
-0
0
-0
202733
-9.12803e+07
-2.62846e+07
8.55295e+06
5.99803e+06
-2.46995e+06
0
-9.12803e+07
4.10988e+10
1.18346e+10
-3.85095e+09
-2.7006e+09
1.11209e+09
0
-2.62846e+07
1.18346e+10
3.40783e+09
-1.1089e+09
-7.77651e+08
3.20231e+08
-0
8.55295e+06
-3.85095e+09
-1.1089e+09
3.60833e+08
2.53046e+08
-1.04203e+08
-0
5.99803e+06
-2.7006e+09
-7.77651e+08
2.53046e+08
1.77457e+08
-7.30754e+07
0
-2.46995e+06
1.11209e+09
3.20231e+08
-1.04203e+08
-7.30754e+07
3.00919e+07
0
-0
0
0
0
0
0
-0
5862.58
-1.93325e+07
-6.54025e+06
-742810
-409478
-349919
0
-1.93325e+07
6.37508e+10
2.15671e+10
2.44949e+09
1.3503e+09
1.15389e+09
0
-6.54025e+06
2.15671e+10
7.29625e+09
8.28673e+08
4.5681e+08
3.90366e+08
0
-742810
2.44949e+09
8.28673e+08
9.41167e+07
5.18823e+07
4.43359e+07
0
-409478
1.3503e+09
4.5681e+08
5.18823e+07
2.86004e+07
2.44404e+07
0
-349919
1.15389e+09
3.90366e+08
4.43359e+07
2.44404e+07
2.08855e+07
0
-0
0
0
-0
-0
-0
-0
1.15383e+06
-2.03596e+08
-4.95083e+07
3.32063e+07
1.95679e+07
920822
0
-2.03596e+08
3.59252e+10
8.7359e+09
-5.85935e+09
-3.45282e+09
-1.62482e+08
0
-4.95083e+07
8.7359e+09
2.1243e+09
-1.42481e+09
-8.3962e+08
-3.95106e+07
-0
3.32063e+07
-5.85935e+09
-1.42481e+09
9.55653e+08
5.63151e+08
2.65006e+07
-0
1.95679e+07
-3.45282e+09
-8.3962e+08
5.63151e+08
3.31856e+08
1.56164e+07
-0
920822
-1.62482e+08
-3.95106e+07
2.65006e+07
1.56164e+07
734872
0
-0
0
0
0
0
0
-0
116925
-8.87161e+07
-2.65435e+07
-893897
-376131
-2.42069e+06
0
-8.87161e+07
6.73128e+10
2.01397e+10
6.78238e+08
2.85387e+08
1.83668e+09
0
-2.65435e+07
2.01397e+10
6.02571e+09
2.02926e+08
8.53865e+07
5.49527e+08
0
-893897
6.78238e+08
2.02926e+08
6.83388e+06
2.87554e+06
1.85063e+07
0
-376131
2.85387e+08
8.53865e+07
2.87554e+06
1.20996e+06
7.787e+06
0
-2.42069e+06
1.83668e+09
5.49527e+08
1.85063e+07
7.787e+06
5.01152e+07
0
-0
0
0
-0
-0
0
-0
175774
-1.07678e+08
-3.18012e+07
452691
713351
-2.51252e+06
0
-1.07678e+08
6.59624e+10
1.94811e+10
-2.77314e+08
-4.36992e+08
1.53915e+09
0
-3.18012e+07
1.94811e+10
5.75351e+09
-8.19013e+07
-1.2906e+08
4.54567e+08
-0
452691
-2.77314e+08
-8.19013e+07
1.16587e+06
1.83717e+06
-6.47077e+06
-0
713351
-4.36992e+08
-1.2906e+08
1.83717e+06
2.89502e+06
-1.01967e+07
0
-2.51252e+06
1.53915e+09
4.54567e+08
-6.47077e+06
-1.01967e+07
3.5914e+07
0
-0
0
0
-0
-0
0
-0
180454
-8.28788e+07
-2.24689e+07
3.33716e+06
4.97707e+06
-3.00947e+06
0
-8.28788e+07
3.80645e+10
1.03195e+10
-1.53269e+09
-2.28587e+09
1.38219e+09
0
-2.24689e+07
1.03195e+10
2.79769e+09
-4.15521e+08
-6.19712e+08
3.74719e+08
-0
3.33716e+06
-1.53269e+09
-4.15521e+08
6.17145e+07
9.20416e+07
-5.56545e+07
-0
4.97707e+06
-2.28587e+09
-6.19712e+08
9.20416e+07
1.37272e+08
-8.30036e+07
0
-3.00947e+06
1.38219e+09
3.74719e+08
-5.56545e+07
-8.30036e+07
5.01895e+07
0
0
0
0
0
0
0
0
24886.8
5.06022e+07
2.01099e+07
7.40786e+06
3.05494e+06
1.51649e+06
0
5.06022e+07
1.02889e+11
4.08894e+10
1.50623e+10
6.21158e+09
3.08347e+09
0
2.01099e+07
4.08894e+10
1.625e+10
5.98596e+09
2.46856e+09
1.22541e+09
0
7.40786e+06
1.50623e+10
5.98596e+09
2.20504e+09
9.09338e+08
4.51402e+08
0
3.05494e+06
6.21158e+09
2.46856e+09
9.09338e+08
3.75003e+08
1.86154e+08
0
1.51649e+06
3.08347e+09
1.22541e+09
4.51402e+08
1.86154e+08
9.24083e+07
0
-0
0
-0
-0
-0
0
-0
95538.2
-5.17408e+07
5.84928e+06
1.15761e+07
6.64946e+06
-1.42672e+06
0
-5.17408e+07
2.80213e+10
-3.1678e+09
-6.26927e+09
-3.60116e+09
7.72673e+08
-0
5.84928e+06
-3.1678e+09
3.58119e+08
7.08739e+08
4.0711e+08
-8.73504e+07
-0
1.15761e+07
-6.26927e+09
7.08739e+08
1.40264e+09
8.05695e+08
-1.72872e+08
-0
6.64946e+06
-3.60116e+09
4.0711e+08
8.05695e+08
4.62802e+08
-9.92999e+07
0
-1.42672e+06
7.72673e+08
-8.73504e+07
-1.72872e+08
-9.92999e+07
2.1306e+07
0
-0
0
0
0
-0
0
-0
505.952
-4.34869e+06
-1.52364e+06
-78224.7
61769.7
-151526
0
-4.34869e+06
3.73772e+10
1.30958e+10
6.72345e+08
-5.30914e+08
1.30237e+09
0
-1.52364e+06
1.30958e+10
4.58835e+09
2.35569e+08
-1.86016e+08
4.5631e+08
0
-78224.7
6.72345e+08
2.35569e+08
1.20942e+07
-9.55015e+06
2.34272e+07
-0
61769.7
-5.30914e+08
-1.86016e+08
-9.55015e+06
7.54123e+06
-1.84992e+07
0
-151526
1.30237e+09
4.5631e+08
2.34272e+07
-1.84992e+07
4.53799e+07
0
-0
0
0
-0
-0
0
-0
24075.8
-3.48096e+07
-8.36104e+06
1.69051e+06
1.20647e+06
-1.00526e+06
0
-3.48096e+07
5.03291e+10
1.20887e+10
-2.44421e+09
-1.74437e+09
1.45345e+09
0
-8.36104e+06
1.20887e+10
2.90362e+09
-5.87082e+08
-4.18985e+08
3.49108e+08
-0
1.69051e+06
-2.44421e+09
-5.87082e+08
1.18702e+08
8.47143e+07
-7.05859e+07
-0
1.20647e+06
-1.74437e+09
-4.18985e+08
8.47143e+07
6.04583e+07
-5.03752e+07
0
-1.00526e+06
1.45345e+09
3.49108e+08
-7.05859e+07
-5.03752e+07
4.19738e+07
0
0
0
0
0
0
0
0
66782.5
6.9752e+07
2.8177e+07
7.44922e+06
2.97687e+06
2.90228e+06
0
6.9752e+07
7.28535e+10
2.94299e+10
7.78045e+09
3.10924e+09
3.03133e+09
0
2.8177e+07
2.94299e+10
1.18885e+10
3.14298e+09
1.25601e+09
1.22453e+09
0
7.44922e+06
7.78045e+09
3.14298e+09
8.30918e+08
3.32053e+08
3.23733e+08
0
2.97687e+06
3.10924e+09
1.25601e+09
3.32053e+08
1.32696e+08
1.29371e+08
0
2.90228e+06
3.03133e+09
1.22453e+09
3.23733e+08
1.29371e+08
1.26129e+08
0
-0
0
0
-0
-0
0
-0
149783
-6.38601e+07
-6.12226e+06
1.21723e+07
8.10136e+06
-1.10176e+06
0
-6.38601e+07
2.72269e+10
2.61024e+09
-5.18969e+09
-3.45403e+09
4.69738e+08
0
-6.12226e+06
2.61024e+09
2.50243e+08
-4.97535e+08
-3.31138e+08
4.50338e+07
-0
1.21723e+07
-5.18969e+09
-4.97535e+08
9.89202e+08
6.5837e+08
-8.95364e+07
-0
8.10136e+06
-3.45403e+09
-3.31138e+08
6.5837e+08
4.38182e+08
-5.95915e+07
0
-1.10176e+06
4.69738e+08
4.50338e+07
-8.95364e+07
-5.95915e+07
8.10428e+06
0
-0
0
0
0
0
0
-0
32923.5
-4.94739e+07
-1.84351e+07
-3.50561e+06
-1.30078e+06
-1.53048e+06
0
-4.94739e+07
7.43441e+10
2.77023e+10
5.26786e+09
1.95467e+09
2.29984e+09
0
-1.84351e+07
2.77023e+10
1.03225e+10
1.96292e+09
7.28353e+08
8.56973e+08
0
-3.50561e+06
5.26786e+09
1.96292e+09
3.73269e+08
1.38504e+08
1.62962e+08
0
-1.30078e+06
1.95467e+09
7.28353e+08
1.38504e+08
5.13924e+07
6.04679e+07
0
-1.53048e+06
2.29984e+09
8.56973e+08
1.62962e+08
6.04679e+07
7.1146e+07
0
0
0
0
-0
-0
0
0
100385
5.83418e+07
6.3965e+06
-2.03514e+06
-2.80097e+06
2.57268e+06
0
5.83418e+07
3.39069e+10
3.7175e+09
-1.18278e+09
-1.62786e+09
1.49518e+09
0
6.3965e+06
3.7175e+09
4.07581e+08
-1.29678e+08
-1.78476e+08
1.6393e+08
-0
-2.03514e+06
-1.18278e+09
-1.29678e+08
4.12588e+07
5.67847e+07
-5.21565e+07
-0
-2.80097e+06
-1.62786e+09
-1.78476e+08
5.67847e+07
7.8153e+07
-7.17833e+07
0
2.57268e+06
1.49518e+09
1.6393e+08
-5.21565e+07
-7.17833e+07
6.59327e+07
0
-0
0
0
-0
-0
0
-0
155589
-7.92948e+07
-8.49646e+06
9.05172e+06
4.94289e+06
-1.41761e+06
0
-7.92948e+07
4.0412e+10
4.33016e+09
-4.61315e+09
-2.51911e+09
7.22476e+08
0
-8.49646e+06
4.33016e+09
4.63978e+08
-4.943e+08
-2.69923e+08
7.74135e+07
-0
9.05172e+06
-4.61315e+09
-4.943e+08
5.26603e+08
2.87564e+08
-8.24727e+07
-0
4.94289e+06
-2.51911e+09
-2.69923e+08
2.87564e+08
1.5703e+08
-4.5036e+07
0
-1.41761e+06
7.22476e+08
7.74135e+07
-8.24727e+07
-4.5036e+07
1.29163e+07
0
-0
0
0
0
-0
0
-0
15987.1
-3.07027e+07
-1.01534e+07
-192444
10476.2
-945709
0
-3.07027e+07
5.89634e+10
1.94992e+10
3.69582e+08
-2.01193e+07
1.8162e+09
0
-1.01534e+07
1.94992e+10
6.44842e+09
1.22221e+08
-6.65346e+06
6.00619e+08
0
-192444
3.69582e+08
1.22221e+08
2.31653e+06
-126107
1.13839e+07
-0
10476.2
-2.01193e+07
-6.65346e+06
-126107
6865.02
-619718
0
-945709
1.8162e+09
6.00619e+08
1.13839e+07
-619718
5.5943e+07
0
-0
0
0
-0
-0
0
-0
32126.2
-3.53632e+07
-7.70198e+06
593945
1.3574e+06
-1.34783e+06
0
-3.53632e+07
3.89264e+10
8.47803e+09
-6.5379e+08
-1.49417e+09
1.48364e+09
0
-7.70198e+06
8.47803e+09
1.84648e+09
-1.42393e+08
-3.25425e+08
3.23131e+08
-0
593945
-6.5379e+08
-1.42393e+08
1.09808e+07
2.50954e+07
-2.49185e+07
-0
1.3574e+06
-1.49417e+09
-3.25425e+08
2.50954e+07
5.73528e+07
-5.69486e+07
0
-1.34783e+06
1.48364e+09
3.23131e+08
-2.49185e+07
-5.69486e+07
5.65473e+07
0
-0
0
0
0
-0
0
-0
39530.3
-4.52623e+07
-1.45024e+07
-1.24889e+06
741946
-1.5302e+06
0
-4.52623e+07
5.18255e+10
1.66053e+10
1.42998e+09
-8.4953e+08
1.75208e+09
0
-1.45024e+07
1.66053e+10
5.3205e+09
4.58178e+08
-2.72197e+08
5.61383e+08
0
-1.24889e+06
1.42998e+09
4.58178e+08
3.94563e+07
-2.34404e+07
4.83438e+07
-0
741946
-8.4953e+08
-2.72197e+08
-2.34404e+07
1.39256e+07
-2.87204e+07
0
-1.5302e+06
1.75208e+09
5.61383e+08
4.83438e+07
-2.87204e+07
5.92333e+07
0
-0
0
0
0
0
0
-0
61358.9
-6.4908e+07
-2.15388e+07
-2.19202e+06
-629366
-1.57942e+06
0
-6.4908e+07
6.86624e+10
2.27846e+10
2.31881e+09
6.65769e+08
1.67078e+09
0
-2.15388e+07
2.27846e+10
7.56073e+09
7.69464e+08
2.20926e+08
5.54424e+08
0
-2.19202e+06
2.31881e+09
7.69464e+08
7.83092e+07
2.24838e+07
5.64243e+07
0
-629366
6.65769e+08
2.20926e+08
2.24838e+07
6.45547e+06
1.62003e+07
0
-1.57942e+06
1.67078e+09
5.54424e+08
5.64243e+07
1.62003e+07
4.06555e+07
0
-0
0
0
-0
-0
0
-0
210867
-9.29829e+07
-2.5317e+07
7.95289e+06
6.15459e+06
-2.39702e+06
0
-9.29829e+07
4.10013e+10
1.11636e+10
-3.50687e+09
-2.7139e+09
1.05698e+09
0
-2.5317e+07
1.11636e+10
3.03959e+09
-9.54835e+08
-7.38929e+08
2.87789e+08
-0
7.95289e+06
-3.50687e+09
-9.54835e+08
2.99945e+08
2.32122e+08
-9.04041e+07
-0
6.15459e+06
-2.7139e+09
-7.38929e+08
2.32122e+08
1.79635e+08
-6.9962e+07
0
-2.39702e+06
1.05698e+09
2.87789e+08
-9.04041e+07
-6.9962e+07
2.7248e+07
0
-0
0
0
0
0
0
-0
75829.8
-6.87111e+07
-2.1174e+07
-1.95762e+06
-201383
-2.22601e+06
0
-6.87111e+07
6.22607e+10
1.91862e+10
1.77384e+09
1.82478e+08
2.01704e+09
0
-2.1174e+07
1.91862e+10
5.91242e+09
5.46626e+08
5.62323e+07
6.2157e+08
0
-1.95762e+06
1.77384e+09
5.46626e+08
5.05376e+07
5.19889e+06
5.74665e+07
0
-201383
1.82478e+08
5.62323e+07
5.19889e+06
534819
5.91168e+06
0
-2.22601e+06
2.01704e+09
6.2157e+08
5.74665e+07
5.91168e+06
6.53453e+07
0
-0
0
0
-0
-0
0
-0
329224
-1.25585e+08
-3.60045e+07
8.70456e+06
5.77573e+06
-1.57719e+06
0
-1.25585e+08
4.79055e+10
1.37342e+10
-3.32043e+09
-2.2032e+09
6.01632e+08
0
-3.60045e+07
1.37342e+10
3.93752e+09
-9.51946e+08
-6.31644e+08
1.72484e+08
-0
8.70456e+06
-3.32043e+09
-9.51946e+08
2.30145e+08
1.52708e+08
-4.17003e+07
-0
5.77573e+06
-2.2032e+09
-6.31644e+08
1.52708e+08
1.01326e+08
-2.76694e+07
0
-1.57719e+06
6.01632e+08
1.72484e+08
-4.17003e+07
-2.76694e+07
7.55573e+06
0
-0
0
0
-0
-0
0
-0
987933
-1.52133e+08
-1.61615e+07
4.97502e+07
3.07004e+07
-2.68421e+06
0
-1.52133e+08
2.34272e+10
2.48873e+09
-7.6611e+09
-4.7276e+09
4.13345e+08
0
-1.61615e+07
2.48873e+09
2.64384e+08
-8.13858e+08
-5.02225e+08
4.39107e+07
-0
4.97502e+07
-7.6611e+09
-8.13858e+08
2.50531e+09
1.54601e+09
-1.35171e+08
-0
3.07004e+07
-4.7276e+09
-5.02225e+08
1.54601e+09
9.5403e+08
-8.3413e+07
0
-2.68421e+06
4.13345e+08
4.39107e+07
-1.35171e+08
-8.3413e+07
7.29298e+06
0
0
0
0
0
0
0
0
182084
1.11704e+08
4.14597e+07
1.53376e+07
4.98959e+06
5.58665e+06
0
1.11704e+08
6.85278e+10
2.54346e+10
9.40928e+09
3.061e+09
3.42728e+09
0
4.14597e+07
2.54346e+10
9.44022e+09
3.49232e+09
1.13611e+09
1.27206e+09
0
1.53376e+07
9.40928e+09
3.49232e+09
1.29195e+09
4.20293e+08
4.70586e+08
0
4.98959e+06
3.061e+09
1.13611e+09
4.20293e+08
1.36729e+08
1.5309e+08
0
5.58665e+06
3.42728e+09
1.27206e+09
4.70586e+08
1.5309e+08
1.71408e+08
0
0
0
0
0
0
0
0
437447
2.20242e+08
9.1589e+07
4.26226e+07
1.98772e+07
9.05174e+06
0
2.20242e+08
1.10886e+11
4.61125e+10
2.14593e+10
1.00076e+10
4.5573e+09
0
9.1589e+07
4.61125e+10
1.91761e+10
8.92396e+09
4.16171e+09
1.89518e+09
0
4.26226e+07
2.14593e+10
8.92396e+09
4.15293e+09
1.93673e+09
8.81955e+08
0
1.98772e+07
1.00076e+10
4.16171e+09
1.93673e+09
9.032e+08
4.11302e+08
0
9.05174e+06
4.5573e+09
1.89518e+09
8.81955e+08
4.11302e+08
1.873e+08
0
-0
0
0
-0
-0
0
-0
936110
-2.03571e+08
-4.68004e+07
2.63552e+07
1.71696e+07
-4.67472e+06
0
-2.03571e+08
4.42697e+10
1.01775e+10
-5.73134e+09
-3.73379e+09
1.01659e+09
0
-4.68004e+07
1.01775e+10
2.33977e+09
-1.31762e+09
-8.58387e+08
2.33711e+08
-0
2.63552e+07
-5.73134e+09
-1.31762e+09
7.42003e+08
4.83392e+08
-1.31612e+08
-0
1.71696e+07
-3.73379e+09
-8.58387e+08
4.83392e+08
3.14915e+08
-8.57411e+07
0
-4.67472e+06
1.01659e+09
2.33711e+08
-1.31612e+08
-8.57411e+07
2.33445e+07
0
-0
0
0
-0
-0
0
-0
206159
-1.09083e+08
-3.22276e+07
3.72921e+06
2.68521e+06
-1.79771e+06
0
-1.09083e+08
5.77183e+10
1.70523e+10
-1.97321e+09
-1.4208e+09
9.51209e+08
0
-3.22276e+07
1.70523e+10
5.03794e+09
-5.82965e+08
-4.19762e+08
2.81025e+08
-0
3.72921e+06
-1.97321e+09
-5.82965e+08
6.74577e+07
4.85727e+07
-3.25188e+07
-0
2.68521e+06
-1.4208e+09
-4.19762e+08
4.85727e+07
3.49746e+07
-2.34151e+07
0
-1.79771e+06
9.51209e+08
2.81025e+08
-3.25188e+07
-2.34151e+07
1.56761e+07
0
-0
0
0
-0
-0
0
-0
637128
-1.6439e+08
-4.23085e+07
2.70061e+07
1.60368e+07
-1.78643e+06
0
-1.6439e+08
4.24154e+10
1.09163e+10
-6.96803e+09
-4.13776e+09
4.6093e+08
0
-4.23085e+07
1.09163e+10
2.80949e+09
-1.79334e+09
-1.06492e+09
1.18628e+08
-0
2.70061e+07
-6.96803e+09
-1.79334e+09
1.14471e+09
6.79754e+08
-7.57219e+07
-0
1.60368e+07
-4.13776e+09
-1.06492e+09
6.79754e+08
4.03652e+08
-4.49653e+07
0
-1.78643e+06
4.6093e+08
1.18628e+08
-7.57219e+07
-4.49653e+07
5.00895e+06
0
-0
0
0
0
0
0
-0
58789.4
-5.76527e+07
-2.03518e+07
-2.69451e+06
-412818
-1.80408e+06
0
-5.76527e+07
5.6538e+10
1.99583e+10
2.64241e+09
4.04836e+08
1.7692e+09
0
-2.03518e+07
1.99583e+10
7.04543e+09
9.3279e+08
1.4291e+08
6.2454e+08
0
-2.69451e+06
2.64241e+09
9.3279e+08
1.23498e+08
1.89208e+07
8.26868e+07
0
-412818
4.04836e+08
1.4291e+08
1.89208e+07
2.8988e+06
1.26682e+07
0
-1.80408e+06
1.7692e+09
6.2454e+08
8.26868e+07
1.26682e+07
5.53621e+07
0
-0
0
0
-0
-0
0
-0
312479
-1.17963e+08
-2.81154e+07
1.22168e+07
9.34305e+06
-2.58219e+06
0
-1.17963e+08
4.4532e+10
1.06138e+10
-4.61193e+09
-3.52707e+09
9.74796e+08
0
-2.81154e+07
1.06138e+10
2.52969e+09
-1.09921e+09
-8.40642e+08
2.32333e+08
-0
1.22168e+07
-4.61193e+09
-1.09921e+09
4.77632e+08
3.65279e+08
-1.00954e+08
-0
9.34305e+06
-3.52707e+09
-8.40642e+08
3.65279e+08
2.79355e+08
-7.72068e+07
0
-2.58219e+06
9.74796e+08
2.32333e+08
-1.00954e+08
-7.72068e+07
2.13381e+07
0
-0
0
0
-0
-0
0
-0
798758
-1.51442e+08
-2.95193e+07
2.92136e+07
1.94093e+07
-1.61285e+06
0
-1.51442e+08
2.87129e+10
5.59677e+09
-5.53881e+09
-3.67995e+09
3.05792e+08
0
-2.95193e+07
5.59677e+09
1.09093e+09
-1.07964e+09
-7.17302e+08
5.96055e+07
-0
2.92136e+07
-5.53881e+09
-1.07964e+09
1.06846e+09
7.09874e+08
-5.89882e+07
-0
1.94093e+07
-3.67995e+09
-7.17302e+08
7.09874e+08
4.71635e+08
-3.91913e+07
0
-1.61285e+06
3.05792e+08
5.96055e+07
-5.89882e+07
-3.91913e+07
3.25667e+06
0
-0
0
0
0
0
0
-0
151591
-9.79587e+07
-3.2281e+07
-1.74908e+06
-8393.82
-2.61906e+06
0
-9.79587e+07
6.33013e+10
2.08601e+10
1.13026e+09
5.42412e+06
1.69245e+09
0
-3.2281e+07
2.08601e+10
6.87417e+09
3.72464e+08
1.78745e+06
5.57724e+08
0
-1.74908e+06
1.13026e+09
3.72464e+08
2.01812e+07
96849.4
3.02192e+07
0
-8393.82
5.42412e+06
1.78745e+06
96849.4
464.779
145021
0
-2.61906e+06
1.69245e+09
5.57724e+08
3.02192e+07
145021
4.525e+07
0
-0
0
0
-0
-0
0
-0
319054
-1.33744e+08
-3.96838e+07
4.62145e+06
4.12284e+06
-4.30285e+06
0
-1.33744e+08
5.60638e+10
1.6635e+10
-1.93726e+09
-1.72824e+09
1.8037e+09
0
-3.96838e+07
1.6635e+10
4.93585e+09
-5.74813e+08
-5.12796e+08
5.35186e+08
-0
4.62145e+06
-1.93726e+09
-5.74813e+08
6.69409e+07
5.97186e+07
-6.23261e+07
-0
4.12284e+06
-1.72824e+09
-5.12796e+08
5.97186e+07
5.32755e+07
-5.56017e+07
0
-4.30285e+06
1.8037e+09
5.35186e+08
-6.23261e+07
-5.56017e+07
5.80294e+07
0
-0
0
0
-0
-0
0
-0
279146
-1.09221e+08
-1.58739e+07
1.57348e+07
9.00477e+06
-2.66889e+06
0
-1.09221e+08
4.27349e+10
6.21098e+09
-6.15653e+09
-3.52329e+09
1.04426e+09
0
-1.58739e+07
6.21098e+09
9.02688e+08
-8.94775e+08
-5.12066e+08
1.51769e+08
-0
1.57348e+07
-6.15653e+09
-8.94775e+08
8.86932e+08
5.07577e+08
-1.50439e+08
-0
9.00477e+06
-3.52329e+09
-5.12066e+08
5.07577e+08
2.90478e+08
-8.60939e+07
0
-2.66889e+06
1.04426e+09
1.51769e+08
-1.50439e+08
-8.60939e+07
2.55171e+07
0
-0
0
0
0
-0
0
-0
69340.8
-6.1973e+07
-2.00813e+07
-287659
573397
-1.30958e+06
0
-6.1973e+07
5.53881e+10
1.79475e+10
2.57093e+08
-5.1247e+08
1.17043e+09
0
-2.00813e+07
1.79475e+10
5.81558e+09
8.33065e+07
-1.66057e+08
3.79257e+08
0
-287659
2.57093e+08
8.33065e+07
1.19334e+06
-2.37872e+06
5.43275e+06
-0
573397
-5.1247e+08
-1.66057e+08
-2.37872e+06
4.74156e+06
-1.08292e+07
0
-1.30958e+06
1.17043e+09
3.79257e+08
5.43275e+06
-1.08292e+07
2.47328e+07
0
-0
0
0
-0
-0
0
-0
818529
-1.97885e+08
-5.43975e+07
1.42175e+07
1.16874e+07
-3.95563e+06
0
-1.97885e+08
4.78402e+10
1.3151e+10
-3.43718e+09
-2.82552e+09
9.56302e+08
0
-5.43975e+07
1.3151e+10
3.61512e+09
-9.44859e+08
-7.76717e+08
2.62882e+08
-0
1.42175e+07
-3.43718e+09
-9.44859e+08
2.46951e+08
2.03005e+08
-6.87075e+07
-0
1.16874e+07
-2.82552e+09
-7.76717e+08
2.03005e+08
1.66879e+08
-5.64807e+07
0
-3.95563e+06
9.56302e+08
2.62882e+08
-6.87075e+07
-5.64807e+07
1.9116e+07
0
-0
0
0
0
-0
0
-0
6061.37
-1.79485e+07
-3.73323e+06
-76357.4
117143
-531645
0
-1.79485e+07
5.31476e+10
1.10546e+10
2.26104e+08
-3.46874e+08
1.57427e+09
0
-3.73323e+06
1.10546e+10
2.29932e+09
4.7029e+07
-7.2149e+07
3.27443e+08
0
-76357.4
2.26104e+08
4.7029e+07
961904
-1.47569e+06
6.69734e+06
-0
117143
-3.46874e+08
-7.2149e+07
-1.47569e+06
2.26392e+06
-1.02746e+07
0
-531645
1.57427e+09
3.27443e+08
6.69734e+06
-1.02746e+07
4.66308e+07
0
-0
0
0
0
0
0
-0
25594
-3.94649e+07
-1.35286e+07
-2.33901e+06
-274568
-1.61957e+06
0
-3.94649e+07
6.08533e+10
2.08606e+10
3.60665e+09
4.23373e+08
2.49731e+09
0
-1.35286e+07
2.08606e+10
7.15107e+09
1.23637e+09
1.45133e+08
8.56084e+08
0
-2.33901e+06
3.60665e+09
1.23637e+09
2.13759e+08
2.50925e+07
1.48011e+08
0
-274568
4.23373e+08
1.45133e+08
2.50925e+07
2.94553e+06
1.73745e+07
0
-1.61957e+06
2.49731e+09
8.56084e+08
1.48011e+08
1.73745e+07
1.02485e+08
0
-0
0
0
-0
-0
0
-0
784583
-1.34676e+08
-6.58292e+06
4.86377e+07
2.68728e+07
-1.33196e+06
0
-1.34676e+08
2.31176e+10
1.12998e+09
-8.34882e+09
-4.6128e+09
2.28634e+08
0
-6.58292e+06
1.12998e+09
5.52329e+07
-4.08087e+08
-2.25472e+08
1.11756e+07
-0
4.86377e+07
-8.34882e+09
-4.08087e+08
3.01514e+09
1.6659e+09
-8.25704e+07
-0
2.68728e+07
-4.6128e+09
-2.25472e+08
1.6659e+09
9.20425e+08
-4.5621e+07
0
-1.33196e+06
2.28634e+08
1.11756e+07
-8.25704e+07
-4.5621e+07
2.26121e+06
0
-0
0
0
-0
-0
0
-0
114551
-5.75438e+07
-3.3196e+06
9.71074e+06
6.21398e+06
-1.42703e+06
0
-5.75438e+07
2.89066e+10
1.66757e+09
-4.8781e+09
-3.12154e+09
7.16854e+08
0
-3.3196e+06
1.66757e+09
9.61989e+07
-2.81408e+08
-1.80076e+08
4.1354e+07
-0
9.71074e+06
-4.8781e+09
-2.81408e+08
8.23197e+08
5.26771e+08
-1.20972e+08
-0
6.21398e+06
-3.12154e+09
-1.80076e+08
5.26771e+08
3.37085e+08
-7.74109e+07
0
-1.42703e+06
7.16854e+08
4.1354e+07
-1.20972e+08
-7.74109e+07
1.77772e+07
0
-0
0
0
-0
-0
0
-0
329615
-1.23442e+08
-3.46479e+07
2.44096e+06
5.81874e+06
-4.46694e+06
0
-1.23442e+08
4.62291e+10
1.29757e+10
-9.14144e+08
-2.17913e+09
1.67288e+09
0
-3.46479e+07
1.29757e+10
3.64205e+09
-2.56584e+08
-6.11643e+08
4.69547e+08
-0
2.44096e+06
-9.14144e+08
-2.56584e+08
1.80764e+07
4.30905e+07
-3.30798e+07
-0
5.81874e+06
-2.17913e+09
-6.11643e+08
4.30905e+07
1.02719e+08
-7.88555e+07
0
-4.46694e+06
1.67288e+09
4.69547e+08
-3.30798e+07
-7.88555e+07
6.05359e+07
0
0
0
0
0
0
0
0
86983.7
7.77149e+07
3.02744e+07
1.00217e+07
2.9567e+06
3.8398e+06
0
7.77149e+07
6.94338e+10
2.70484e+10
8.95384e+09
2.64164e+09
3.43064e+09
0
3.02744e+07
2.70484e+10
1.05369e+10
3.48803e+09
1.02907e+09
1.33643e+09
0
1.00217e+07
8.95384e+09
3.48803e+09
1.15464e+09
3.40653e+08
4.42398e+08
0
2.9567e+06
2.64164e+09
1.02907e+09
3.40653e+08
1.00502e+08
1.3052e+08
0
3.8398e+06
3.43064e+09
1.33643e+09
4.42398e+08
1.3052e+08
1.69504e+08
0
-0
0
0
0
-0
0
-0
14297.9
-2.77848e+07
-9.34002e+06
-669218
130814
-693217
0
-2.77848e+07
5.39938e+10
1.81503e+10
1.30048e+09
-2.54208e+08
1.34712e+09
0
-9.34002e+06
1.81503e+10
6.10132e+09
4.37163e+08
-8.54534e+07
4.52841e+08
0
-669218
1.30048e+09
4.37163e+08
3.1323e+07
-6.12278e+06
3.24463e+07
-0
130814
-2.54208e+08
-8.54534e+07
-6.12278e+06
1.19683e+06
-6.34235e+06
0
-693217
1.34712e+09
4.52841e+08
3.24463e+07
-6.34235e+06
3.36099e+07
0
0
0
0
0
0
0
0
371875
2.00836e+08
8.50148e+07
3.66335e+07
1.65566e+07
7.8574e+06
0
2.00836e+08
1.08464e+11
4.59134e+10
1.97844e+10
8.94158e+09
4.24349e+09
0
8.50148e+07
4.59134e+10
1.94354e+10
8.37486e+09
3.78502e+09
1.79629e+09
0
3.66335e+07
1.97844e+10
8.37486e+09
3.60879e+09
1.63099e+09
7.74037e+08
0
1.65566e+07
8.94158e+09
3.78502e+09
1.63099e+09
7.37129e+08
3.49826e+08
0
7.8574e+06
4.24349e+09
1.79629e+09
7.74037e+08
3.49826e+08
1.6602e+08
0
-0
0
0
0
-0
0
-0
44705.8
-5.05639e+07
-1.62167e+07
-1.02434e+06
62963.9
-1.52494e+06
0
-5.05639e+07
5.71896e+10
1.83417e+10
1.15857e+09
-7.12145e+07
1.72476e+09
0
-1.62167e+07
1.83417e+10
5.8825e+09
3.71573e+08
-2.28397e+07
5.5316e+08
0
-1.02434e+06
1.15857e+09
3.71573e+08
2.34706e+07
-1.44269e+06
3.49408e+07
-0
62963.9
-7.12145e+07
-2.28397e+07
-1.44269e+06
88678.9
-2.14773e+06
0
-1.52494e+06
1.72476e+09
5.5316e+08
3.49408e+07
-2.14773e+06
5.20164e+07
0
-0
0
0
-0
-0
0
-0
51811.2
-4.93838e+07
-1.44462e+07
1.79282e+06
1.94974e+06
-1.73465e+06
0
-4.93838e+07
4.70702e+10
1.37694e+10
-1.70883e+09
-1.85839e+09
1.65338e+09
0
-1.44462e+07
1.37694e+10
4.02796e+09
-4.99882e+08
-5.43634e+08
4.83663e+08
-0
1.79282e+06
-1.70883e+09
-4.99882e+08
6.20368e+07
6.74666e+07
-6.00241e+07
-0
1.94974e+06
-1.85839e+09
-5.43634e+08
6.74666e+07
7.33717e+07
-6.52777e+07
0
-1.73465e+06
1.65338e+09
4.83663e+08
-6.00241e+07
-6.52777e+07
5.80766e+07
0
-0
0
0
0
0
0
-0
6293.51
-2.04673e+07
-7.34624e+06
-946185
-157491
-675052
0
-2.04673e+07
6.65624e+10
2.3891e+10
3.07712e+09
5.1218e+08
2.19536e+09
0
-7.34624e+06
2.3891e+10
8.57508e+09
1.10446e+09
1.83835e+08
7.8797e+08
0
-946185
3.07712e+09
1.10446e+09
1.42252e+08
2.36776e+07
1.01489e+08
0
-157491
5.1218e+08
1.83835e+08
2.36776e+07
3.94109e+06
1.68927e+07
0
-675052
2.19536e+09
7.8797e+08
1.01489e+08
1.68927e+07
7.24072e+07
0
-0
0
0
-0
-0
0
-0
188716
-8.41679e+07
-2.08277e+07
3.81877e+06
3.84443e+06
-2.85388e+06
0
-8.41679e+07
3.75391e+10
9.28921e+09
-1.70318e+09
-1.71463e+09
1.27284e+09
0
-2.08277e+07
9.28921e+09
2.29865e+09
-4.2146e+08
-4.24291e+08
3.14969e+08
-0
3.81877e+06
-1.70318e+09
-4.2146e+08
7.72749e+07
7.77941e+07
-5.77498e+07
-0
3.84443e+06
-1.71463e+09
-4.24291e+08
7.77941e+07
7.83168e+07
-5.81378e+07
0
-2.85388e+06
1.27284e+09
3.14969e+08
-5.77498e+07
-5.81378e+07
4.3158e+07
0
-0
0
0
0
0
0
-0
31212.2
-4.3168e+07
-1.46743e+07
-2.99948e+06
-669492
-1.20727e+06
0
-4.3168e+07
5.97034e+10
2.02953e+10
4.14842e+09
9.25939e+08
1.66971e+09
0
-1.46743e+07
2.02953e+10
6.89908e+09
1.41019e+09
3.14759e+08
5.67594e+08
0
-2.99948e+06
4.14842e+09
1.41019e+09
2.88248e+08
6.43378e+07
1.16018e+08
0
-669492
9.25939e+08
3.14759e+08
6.43378e+07
1.43604e+07
2.58955e+07
0
-1.20727e+06
1.66971e+09
5.67594e+08
1.16018e+08
2.58955e+07
4.66965e+07
0
0
0
0
0
0
0
0
122738
9.40191e+07
3.65836e+07
1.08418e+07
3.80791e+06
3.79884e+06
0
9.40191e+07
7.20201e+10
2.80236e+10
8.30496e+09
2.91692e+09
2.90997e+09
0
3.65836e+07
2.80236e+10
1.09042e+10
3.23153e+09
1.135e+09
1.13229e+09
0
1.08418e+07
8.30496e+09
3.23153e+09
9.57682e+08
3.36363e+08
3.35562e+08
0
3.80791e+06
2.91692e+09
1.135e+09
3.36363e+08
1.18139e+08
1.17858e+08
0
3.79884e+06
2.90997e+09
1.13229e+09
3.35562e+08
1.17858e+08
1.17577e+08
0
0
0
0
0
0
0
0
93667
9.3553e+07
3.63701e+07
1.20663e+07
5.61767e+06
3.67159e+06
0
9.3553e+07
9.34392e+10
3.63259e+10
1.20516e+10
5.61084e+09
3.66712e+09
0
3.63701e+07
3.63259e+10
1.41222e+10
4.68526e+09
2.1813e+09
1.42565e+09
0
1.20663e+07
1.20516e+10
4.68526e+09
1.5544e+09
7.23677e+08
4.7298e+08
0
5.61767e+06
5.61084e+09
2.1813e+09
7.23677e+08
3.36919e+08
2.20203e+08
0
3.67159e+06
3.66712e+09
1.42565e+09
4.7298e+08
2.20203e+08
1.4392e+08
0
-0
0
0
-0
-0
0
-0
63482
-5.57605e+07
-1.39415e+07
2.98635e+06
2.45602e+06
-1.56327e+06
0
-5.57605e+07
4.89782e+10
1.22457e+10
-2.62312e+09
-2.15729e+09
1.37313e+09
0
-1.39415e+07
1.22457e+10
3.06173e+09
-6.55842e+08
-5.39373e+08
3.43315e+08
-0
2.98635e+06
-2.62312e+09
-6.55842e+08
1.40486e+08
1.15537e+08
-7.35403e+07
-0
2.45602e+06
-2.15729e+09
-5.39373e+08
1.15537e+08
9.50194e+07
-6.04805e+07
0
-1.56327e+06
1.37313e+09
3.43315e+08
-7.35403e+07
-6.04805e+07
3.84962e+07
0
-0
0
0
-0
-0
0
-0
70872.9
-4.96638e+07
-1.12839e+07
2.13014e+06
2.2877e+06
-2.00597e+06
0
-4.96638e+07
3.48017e+10
7.90713e+09
-1.49269e+09
-1.60309e+09
1.40567e+09
0
-1.12839e+07
7.90713e+09
1.79654e+09
-3.39147e+08
-3.64232e+08
3.19377e+08
-0
2.13014e+06
-1.49269e+09
-3.39147e+08
6.40232e+07
6.87587e+07
-6.02912e+07
-0
2.2877e+06
-1.60309e+09
-3.64232e+08
6.87587e+07
7.38445e+07
-6.47506e+07
0
-2.00597e+06
1.40567e+09
3.19377e+08
-6.02912e+07
-6.47506e+07
5.67766e+07
0
-0
0
0
0
0
0
-0
38732.3
-4.88576e+07
-1.68544e+07
-2.40373e+06
-488581
-1.3007e+06
0
-4.88576e+07
6.16298e+10
2.12604e+10
3.03211e+09
6.16303e+08
1.64073e+09
0
-1.68544e+07
2.12604e+10
7.33419e+09
1.04598e+09
2.12606e+08
5.66001e+08
0
-2.40373e+06
3.03211e+09
1.04598e+09
1.49176e+08
3.03213e+07
8.07217e+07
0
-488581
6.16303e+08
2.12606e+08
3.03213e+07
6.16309e+06
1.64074e+07
0
-1.3007e+06
1.64073e+09
5.66001e+08
8.07217e+07
1.64074e+07
4.368e+07
0
-0
0
0
0
0
0
-0
10664.5
-2.76006e+07
-1.03099e+07
-1.9091e+06
-693454
-912754
0
-2.76006e+07
7.14329e+10
2.66831e+10
4.94093e+09
1.79472e+09
2.36229e+09
0
-1.03099e+07
2.66831e+10
9.96719e+09
1.84563e+09
6.70401e+08
8.82411e+08
0
-1.9091e+06
4.94093e+09
1.84563e+09
3.41758e+08
1.24139e+08
1.63397e+08
0
-693454
1.79472e+09
6.70401e+08
1.24139e+08
4.50917e+07
5.93517e+07
0
-912754
2.36229e+09
8.82411e+08
1.63397e+08
5.93517e+07
7.81212e+07
0
0
0
0
0
0
0
0
84259
9.18776e+07
3.82868e+07
1.12893e+07
5.74885e+06
2.88634e+06
0
9.18776e+07
1.00185e+11
4.17486e+10
1.23101e+10
6.26865e+09
3.14732e+09
0
3.82868e+07
4.17486e+10
1.73973e+10
5.1298e+09
2.61224e+09
1.31153e+09
0
1.12893e+07
1.23101e+10
5.1298e+09
1.51258e+09
7.70251e+08
3.86722e+08
0
5.74885e+06
6.26865e+09
2.61224e+09
7.70251e+08
3.92234e+08
1.9693e+08
0
2.88634e+06
3.14732e+09
1.31153e+09
3.86722e+08
1.9693e+08
9.88732e+07
0
-0
0
0
0
-0
0
-0
66031.1
-6.04508e+07
-1.92545e+07
-1.33397e+06
399501
-2.15289e+06
0
-6.04508e+07
5.53421e+10
1.76273e+10
1.22123e+09
-3.65739e+08
1.97095e+09
0
-1.92545e+07
1.76273e+10
5.61457e+09
3.88981e+08
-1.16493e+08
6.27777e+08
0
-1.33397e+06
1.22123e+09
3.88981e+08
2.69489e+07
-8.07075e+06
4.34929e+07
-0
399501
-3.65739e+08
-1.16493e+08
-8.07075e+06
2.41706e+06
-1.30254e+07
0
-2.15289e+06
1.97095e+09
6.27777e+08
4.34929e+07
-1.30254e+07
7.01931e+07
0
0
0
0
0
0
0
0
356899
1.6719e+08
6.85941e+07
2.40047e+07
1.15343e+07
7.60478e+06
0
1.6719e+08
7.83203e+10
3.2133e+10
1.12451e+10
5.40325e+09
3.56247e+09
0
6.85941e+07
3.2133e+10
1.31834e+10
4.61358e+09
2.21683e+09
1.4616e+09
0
2.40047e+07
1.12451e+10
4.61358e+09
1.61454e+09
7.75786e+08
5.11491e+08
0
1.15343e+07
5.40325e+09
2.21683e+09
7.75786e+08
3.72765e+08
2.45772e+08
0
7.60478e+06
3.56247e+09
1.4616e+09
5.11491e+08
2.45772e+08
1.62042e+08
0
0
0
0
0
0
0
0
125201
1.10296e+08
4.18475e+07
1.48509e+07
7.53893e+06
4.00555e+06
0
1.10296e+08
9.71663e+10
3.68658e+10
1.3083e+10
6.64147e+09
3.52872e+09
0
4.18475e+07
3.68658e+10
1.39873e+10
4.96382e+09
2.51984e+09
1.33883e+09
0
1.48509e+07
1.3083e+10
4.96382e+09
1.76157e+09
8.94244e+08
4.75126e+08
0
7.53893e+06
6.64147e+09
2.51984e+09
8.94244e+08
4.53955e+08
2.41193e+08
0
4.00555e+06
3.52872e+09
1.33883e+09
4.75126e+08
2.41193e+08
1.2815e+08
0
0
0
0
0
0
0
0
4406.92
1.97465e+07
6.31122e+06
1.45119e+06
900105
416539
0
1.97465e+07
8.84801e+10
2.82793e+10
6.5025e+09
4.03319e+09
1.86642e+09
0
6.31122e+06
2.82793e+10
9.03838e+09
2.07827e+09
1.28905e+09
5.96531e+08
0
1.45119e+06
6.5025e+09
2.07827e+09
4.77875e+08
2.96403e+08
1.37166e+08
0
900105
4.03319e+09
1.28905e+09
2.96403e+08
1.83845e+08
8.50772e+07
0
416539
1.86642e+09
5.96531e+08
1.37166e+08
8.50772e+07
3.93709e+07
0
-0
0
0
-0
-0
0
-0
260209
-1.18118e+08
-3.67979e+07
1.87322e+06
3.25927e+06
-4.15543e+06
0
-1.18118e+08
5.36178e+10
1.67039e+10
-8.50319e+08
-1.4795e+09
1.8863e+09
0
-3.67979e+07
1.67039e+10
5.20385e+09
-2.64905e+08
-4.60916e+08
5.87649e+08
-0
1.87322e+06
-8.50319e+08
-2.64905e+08
1.34851e+07
2.34631e+07
-2.99145e+07
-0
3.25927e+06
-1.4795e+09
-4.60916e+08
2.34631e+07
4.08243e+07
-5.20493e+07
0
-4.15543e+06
1.8863e+09
5.87649e+08
-2.99145e+07
-5.20493e+07
6.63607e+07
0
-0
0
0
-0
-0
0
-0
65459.8
-6.39312e+07
-1.50989e+07
933495
438739
-1.33007e+06
0
-6.39312e+07
6.24383e+10
1.47463e+10
-9.11696e+08
-4.28493e+08
1.29901e+09
0
-1.50989e+07
1.47463e+10
3.48271e+09
-2.1532e+08
-1.01199e+08
3.06793e+08
-0
933495
-9.11696e+08
-2.1532e+08
1.33122e+07
6.25668e+06
-1.89676e+07
-0
438739
-4.28493e+08
-1.01199e+08
6.25668e+06
2.94061e+06
-8.91468e+06
0
-1.33007e+06
1.29901e+09
3.06793e+08
-1.89676e+07
-8.91468e+06
2.70255e+07
0
0
0
0
0
0
0
0
395115
1.64926e+08
5.81554e+07
1.75652e+07
6.07471e+06
8.03192e+06
0
1.64926e+08
6.88423e+10
2.42748e+10
7.33194e+09
2.53567e+09
3.35263e+09
0
5.81554e+07
2.42748e+10
8.55967e+09
2.58535e+09
8.94114e+08
1.18219e+09
0
1.75652e+07
7.33194e+09
2.58535e+09
7.80878e+08
2.70057e+08
3.57067e+08
0
6.07471e+06
2.53567e+09
8.94114e+08
2.70057e+08
9.33961e+07
1.23487e+08
0
8.03192e+06
3.35263e+09
1.18219e+09
3.57067e+08
1.23487e+08
1.63273e+08
0
-0
0
0
0
0
0
-0
10440.4
-2.99539e+07
-1.14811e+07
-3.07285e+06
-1.26547e+06
-770883
0
-2.99539e+07
8.59384e+10
3.29396e+10
8.81609e+09
3.63066e+09
2.21168e+09
0
-1.14811e+07
3.29396e+10
1.26255e+10
3.37914e+09
1.39161e+09
8.47722e+08
0
-3.07285e+06
8.81609e+09
3.37914e+09
9.04407e+08
3.72455e+08
2.26888e+08
0
-1.26547e+06
3.63066e+09
1.39161e+09
3.72455e+08
1.53385e+08
9.34374e+07
0
-770883
2.21168e+09
8.47722e+08
2.26888e+08
9.34374e+07
5.69191e+07
0
-0
0
0
0
-0
0
-0
121148
-8.43719e+07
-2.94895e+07
-2.41009e+06
379693
-2.51475e+06
0
-8.43719e+07
5.87599e+10
2.05376e+10
1.67848e+09
-2.64433e+08
1.75137e+09
0
-2.94895e+07
2.05376e+10
7.17827e+09
5.86659e+08
-9.24241e+07
6.12135e+08
0
-2.41009e+06
1.67848e+09
5.86659e+08
4.79459e+07
-7.55355e+06
5.0028e+07
-0
379693
-2.64433e+08
-9.24241e+07
-7.55355e+06
1.19001e+06
-7.88157e+06
0
-2.51475e+06
1.75137e+09
6.12135e+08
5.0028e+07
-7.88157e+06
5.22005e+07
0
-0
0
0
-0
-0
0
-0
220701
-1.0179e+08
-2.6657e+07
9.2759e+06
5.02311e+06
-1.4719e+06
0
-1.0179e+08
4.69473e+10
1.22946e+10
-4.27818e+09
-2.31673e+09
6.7886e+08
0
-2.6657e+07
1.22946e+10
3.21973e+09
-1.12038e+09
-6.0671e+08
1.77781e+08
-0
9.2759e+06
-4.27818e+09
-1.12038e+09
3.8986e+08
2.11118e+08
-6.18628e+07
-0
5.02311e+06
-2.31673e+09
-6.0671e+08
2.11118e+08
1.14325e+08
-3.35001e+07
0
-1.4719e+06
6.7886e+08
1.77781e+08
-6.18628e+07
-3.35001e+07
9.81636e+06
0
-0
0
0
-0
-0
0
-0
201152
-9.64095e+07
-2.80609e+07
3.75416e+06
3.28367e+06
-3.70731e+06
0
-9.64095e+07
4.62079e+10
1.34492e+10
-1.79932e+09
-1.57382e+09
1.77687e+09
0
-2.80609e+07
1.34492e+10
3.91453e+09
-5.2371e+08
-4.58076e+08
5.17175e+08
-0
3.75416e+06
-1.79932e+09
-5.2371e+08
7.00651e+07
6.12843e+07
-6.91908e+07
-0
3.28367e+06
-1.57382e+09
-4.58076e+08
6.12843e+07
5.36039e+07
-6.05195e+07
0
-3.70731e+06
1.77687e+09
5.17175e+08
-6.91908e+07
-6.05195e+07
6.83274e+07
0
-0
0
0
0
-0
0
-0
270973
-1.27852e+08
-4.1276e+07
-542610
1.51545e+06
-2.67273e+06
0
-1.27852e+08
6.0324e+10
1.94751e+10
2.56017e+08
-7.15028e+08
1.26106e+09
0
-4.1276e+07
1.94751e+10
6.28735e+09
8.26529e+07
-2.30841e+08
4.07123e+08
0
-542610
2.56017e+08
8.26529e+07
1.08655e+06
-3.03461e+06
5.35201e+06
-0
1.51545e+06
-7.15028e+08
-2.30841e+08
-3.03461e+06
8.47533e+06
-1.49476e+07
0
-2.67273e+06
1.26106e+09
4.07123e+08
5.35201e+06
-1.49476e+07
2.63624e+07
0
0
0
0
0
0
0
0
37973.4
5.31929e+07
2.12991e+07
6.52842e+06
2.54474e+06
1.89484e+06
0
5.31929e+07
7.45121e+10
2.98355e+10
9.14496e+09
3.56466e+09
2.65428e+09
0
2.12991e+07
2.98355e+10
1.19465e+10
3.66175e+09
1.42733e+09
1.06281e+09
0
6.52842e+06
9.14496e+09
3.66175e+09
1.12237e+09
4.37495e+08
3.25763e+08
0
2.54474e+06
3.56466e+09
1.42733e+09
4.37495e+08
1.70533e+08
1.26981e+08
0
1.89484e+06
2.65428e+09
1.06281e+09
3.25763e+08
1.26981e+08
9.45512e+07
0
-0
0
-0
-0
-0
0
-0
1.79357e+06
-1.51154e+08
1.86591e+07
9.391e+07
5.66052e+07
-482058
0
-1.51154e+08
1.27385e+10
-1.5725e+09
-7.91427e+09
-4.7704e+09
4.06255e+07
-0
1.86591e+07
-1.5725e+09
1.94117e+08
9.76975e+08
5.88881e+08
-5.015e+06
-0
9.391e+07
-7.91427e+09
9.76975e+08
4.91705e+09
2.9638e+09
-2.52402e+07
-0
5.66052e+07
-4.7704e+09
5.88881e+08
2.9638e+09
1.78646e+09
-1.52138e+07
0
-482058
4.06255e+07
-5.015e+06
-2.52402e+07
-1.52138e+07
129563
0
-0
0
0
0
0
0
-0
15089.8
-3.14321e+07
-1.07343e+07
-1.9014e+06
-467434
-1.17378e+06
0
-3.14321e+07
6.54728e+10
2.23594e+10
3.96059e+09
9.73662e+08
2.44497e+09
0
-1.07343e+07
2.23594e+10
7.63591e+09
1.35257e+09
3.32513e+08
8.34977e+08
0
-1.9014e+06
3.96059e+09
1.35257e+09
2.39585e+08
5.8899e+07
1.47902e+08
0
-467434
9.73662e+08
3.32513e+08
5.8899e+07
1.44796e+07
3.63598e+07
0
-1.17378e+06
2.44497e+09
8.34977e+08
1.47902e+08
3.63598e+07
9.13036e+07
0
0
0
0
0
0
0
0
1990.88
1.26976e+07
4.89386e+06
1.11982e+06
482880
360381
0
1.26976e+07
8.09835e+10
3.12124e+10
7.14204e+09
3.07975e+09
2.29846e+09
0
4.89386e+06
3.12124e+10
1.20298e+10
2.75266e+09
1.18699e+09
8.85866e+08
0
1.11982e+06
7.14204e+09
2.75266e+09
6.29866e+08
2.71607e+08
2.02705e+08
0
482880
3.07975e+09
1.18699e+09
2.71607e+08
1.17121e+08
8.7409e+07
0
360381
2.29846e+09
8.85866e+08
2.02705e+08
8.7409e+07
6.52347e+07
0
0
0
0
0
0
0
0
56330.6
6.30827e+07
2.52641e+07
8.1895e+06
2.65268e+06
2.35846e+06
0
6.30827e+07
7.06443e+10
2.82925e+10
9.17115e+09
2.97065e+09
2.64116e+09
0
2.52641e+07
2.82925e+10
1.13309e+10
3.67297e+09
1.18972e+09
1.05776e+09
0
8.1895e+06
9.17115e+09
3.67297e+09
1.19061e+09
3.85654e+08
3.42879e+08
0
2.65268e+06
2.97065e+09
1.18972e+09
3.85654e+08
1.24918e+08
1.11063e+08
0
2.35846e+06
2.64116e+09
1.05776e+09
3.42879e+08
1.11063e+08
9.87444e+07
0
-0
0
0
-0
-0
0
-0
136961
-7.92965e+07
-2.10313e+07
5.47695e+06
3.82119e+06
-2.02554e+06
0
-7.92965e+07
4.59105e+10
1.21765e+10
-3.171e+09
-2.21236e+09
1.17273e+09
0
-2.10313e+07
1.21765e+10
3.2295e+09
-8.41024e+08
-5.8677e+08
3.11036e+08
-0
5.47695e+06
-3.171e+09
-8.41024e+08
2.19019e+08
1.52806e+08
-8.09997e+07
-0
3.82119e+06
-2.21236e+09
-5.8677e+08
1.52806e+08
1.06611e+08
-5.65123e+07
0
-2.02554e+06
1.17273e+09
3.11036e+08
-8.09997e+07
-5.65123e+07
2.99561e+07
0
-0
0
0
0
0
0
-0
41817.5
-4.97717e+07
-1.65235e+07
-1.19595e+06
-238050
-989021
0
-4.97717e+07
5.9239e+10
1.96665e+10
1.42344e+09
2.8333e+08
1.17715e+09
0
-1.65235e+07
1.96665e+10
6.52897e+09
4.72561e+08
9.40615e+07
3.90795e+08
0
-1.19595e+06
1.42344e+09
4.72561e+08
3.42036e+07
6.80809e+06
2.82854e+07
0
-238050
2.8333e+08
9.40615e+07
6.80809e+06
1.35512e+06
5.6301e+06
0
-989021
1.17715e+09
3.90795e+08
2.82854e+07
5.6301e+06
2.33912e+07
0
0
0
0
0
0
0
0
19335.2
4.07213e+07
1.49967e+07
4.67865e+06
1.82237e+06
1.79797e+06
0
4.07213e+07
8.5762e+10
3.15841e+10
9.85358e+09
3.83805e+09
3.78666e+09
0
1.49967e+07
3.15841e+10
1.16317e+10
3.62884e+09
1.41346e+09
1.39453e+09
0
4.67865e+06
9.85358e+09
3.62884e+09
1.13212e+09
4.40971e+08
4.35066e+08
0
1.82237e+06
3.83805e+09
1.41346e+09
4.40971e+08
1.71762e+08
1.69462e+08
0
1.79797e+06
3.78666e+09
1.39453e+09
4.35066e+08
1.69462e+08
1.67192e+08
0
-0
0
0
0
-0
0
-0
52085.5
-5.42732e+07
-1.7936e+07
-711937
538451
-1.72029e+06
0
-5.42732e+07
5.65529e+10
1.86894e+10
7.41841e+08
-5.61068e+08
1.79255e+09
0
-1.7936e+07
1.86894e+10
6.17639e+09
2.45161e+08
-1.85419e+08
5.92394e+08
0
-711937
7.41841e+08
2.45161e+08
9.73121e+06
-7.35989e+06
2.3514e+07
-0
538451
-5.61068e+08
-1.85419e+08
-7.35989e+06
5.56642e+06
-1.77841e+07
0
-1.72029e+06
1.79255e+09
5.92394e+08
2.3514e+07
-1.77841e+07
5.68181e+07
0
-0
0
0
0
0
0
-0
68660.4
-7.09518e+07
-2.57367e+07
-2.74735e+06
-1.02362e+06
-1.87784e+06
0
-7.09518e+07
7.33198e+10
2.65956e+10
2.83904e+09
1.05778e+09
1.94052e+09
0
-2.57367e+07
2.65956e+10
9.64716e+09
1.02982e+09
3.83693e+08
7.03892e+08
0
-2.74735e+06
2.83904e+09
1.02982e+09
1.09931e+08
4.09585e+07
7.51393e+07
0
-1.02362e+06
1.05778e+09
3.83693e+08
4.09585e+07
1.52605e+07
2.79957e+07
0
-1.87784e+06
1.94052e+09
7.03892e+08
7.51393e+07
2.79957e+07
5.13586e+07
0
-0
0
0
-0
-0
0
-0
202828
-9.228e+07
-2.03493e+07
9.29144e+06
5.62213e+06
-1.77222e+06
0
-9.228e+07
4.19843e+10
9.25826e+09
-4.22729e+09
-2.55788e+09
8.06299e+08
0
-2.03493e+07
9.25826e+09
2.0416e+09
-9.3219e+08
-5.64056e+08
1.77803e+08
-0
9.29144e+06
-4.22729e+09
-9.3219e+08
4.25635e+08
2.57547e+08
-8.11842e+07
-0
5.62213e+06
-2.55788e+09
-5.64056e+08
2.57547e+08
1.55838e+08
-4.91236e+07
0
-1.77222e+06
8.06299e+08
1.77803e+08
-8.11842e+07
-4.91236e+07
1.54848e+07
0
0
0
0
0
0
0
0
4143.87
1.69691e+07
6.83124e+06
2.11531e+06
685871
650150
0
1.69691e+07
6.94885e+10
2.79739e+10
8.66217e+09
2.80864e+09
2.66236e+09
0
6.83124e+06
2.79739e+10
1.12614e+10
3.48712e+09
1.13067e+09
1.07178e+09
0
2.11531e+06
8.66217e+09
3.48712e+09
1.07979e+09
3.50114e+08
3.3188e+08
0
685871
2.80864e+09
1.13067e+09
3.50114e+08
1.13522e+08
1.07609e+08
0
650150
2.66236e+09
1.07178e+09
3.3188e+08
1.07609e+08
1.02005e+08
0
-0
0
0
0
0
0
-0
126002
-8.71201e+07
-3.01663e+07
-3.24896e+06
-1.12563e+06
-2.34494e+06
0
-8.71201e+07
6.02364e+10
2.08575e+10
2.24639e+09
7.78277e+08
1.62133e+09
0
-3.01663e+07
2.08575e+10
7.22216e+09
7.77838e+08
2.69487e+08
5.61404e+08
0
-3.24896e+06
2.24639e+09
7.77838e+08
8.37744e+07
2.90242e+07
6.04641e+07
0
-1.12563e+06
7.78277e+08
2.69487e+08
2.90242e+07
1.00556e+07
2.09482e+07
0
-2.34494e+06
1.62133e+09
5.61404e+08
6.04641e+07
2.09482e+07
4.36399e+07
0
-0
0
0
0
0
0
-0
159778
-1.13448e+08
-4.04868e+07
-5.90808e+06
-997404
-3.46159e+06
0
-1.13448e+08
8.05519e+10
2.8747e+10
4.19494e+09
7.08191e+08
2.45785e+09
0
-4.04868e+07
2.8747e+10
1.02591e+10
1.49707e+09
2.52736e+08
8.77145e+08
0
-5.90808e+06
4.19494e+09
1.49707e+09
2.18462e+08
3.68808e+07
1.27998e+08
0
-997404
7.08191e+08
2.52736e+08
3.68808e+07
6.22623e+06
2.16087e+07
0
-3.46159e+06
2.45785e+09
8.77145e+08
1.27998e+08
2.16087e+07
7.49952e+07
0
0
0
0
0
0
0
0
105935
7.52944e+07
2.97247e+07
6.01898e+06
1.33709e+06
3.21816e+06
0
7.52944e+07
5.35163e+10
2.11271e+10
4.27805e+09
9.50349e+08
2.28734e+09
0
2.97247e+07
2.11271e+10
8.34055e+09
1.68889e+09
3.75178e+08
9.02995e+08
0
6.01898e+06
4.27805e+09
1.68889e+09
3.41984e+08
7.59702e+07
1.82848e+08
0
1.33709e+06
9.50349e+08
3.75178e+08
7.59702e+07
1.68764e+07
4.06189e+07
0
3.21816e+06
2.28734e+09
9.02995e+08
1.82848e+08
4.06189e+07
9.77634e+07
0
0
0
0
0
0
0
0
282821
1.46035e+08
5.40509e+07
1.9702e+07
7.63784e+06
6.43445e+06
0
1.46035e+08
7.54057e+10
2.79093e+10
1.01732e+10
3.94382e+09
3.32244e+09
0
5.40509e+07
2.79093e+10
1.03298e+10
3.76531e+09
1.45969e+09
1.22971e+09
0
1.9702e+07
1.01732e+10
3.76531e+09
1.37249e+09
5.3207e+08
4.48239e+08
0
7.63784e+06
3.94382e+09
1.45969e+09
5.3207e+08
2.06267e+08
1.73768e+08
0
6.43445e+06
3.32244e+09
1.22971e+09
4.48239e+08
1.73768e+08
1.4639e+08
0
0
0
0
0
0
0
0
344872
1.7459e+08
7.09606e+07
3.01575e+07
1.15544e+07
8.59411e+06
0
1.7459e+08
8.83854e+10
3.59235e+10
1.52671e+10
5.84939e+09
4.35073e+09
0
7.09606e+07
3.59235e+10
1.46008e+10
6.20517e+09
2.37743e+09
1.76832e+09
0
3.01575e+07
1.52671e+10
6.20517e+09
2.63713e+09
1.01038e+09
7.51514e+08
0
1.15544e+07
5.84939e+09
2.37743e+09
1.01038e+09
3.87115e+08
2.87933e+08
0
8.59411e+06
4.35073e+09
1.76832e+09
7.51514e+08
2.87933e+08
2.14162e+08
0
-0
0
0
0
-0
0
-0
86892.6
-7.01677e+07
-2.35077e+07
-224953
1.76014e+06
-2.63523e+06
0
-7.01677e+07
5.66619e+10
1.89829e+10
1.81654e+08
-1.42135e+09
2.12801e+09
0
-2.35077e+07
1.89829e+10
6.35969e+09
6.0858e+07
-4.76182e+08
7.12927e+08
0
-224953
1.81654e+08
6.0858e+07
582370
-4.55675e+06
6.82224e+06
-0
1.76014e+06
-1.42135e+09
-4.76182e+08
-4.55675e+06
3.56542e+07
-5.33805e+07
0
-2.63523e+06
2.12801e+09
7.12927e+08
6.82224e+06
-5.33805e+07
7.99198e+07
0
-0
0
0
0
-0
0
-0
1138.49
-7.46961e+06
-2.2685e+06
-83231.1
148274
-352766
0
-7.46961e+06
4.90079e+10
1.48835e+10
5.46077e+08
-9.7282e+08
2.31449e+09
0
-2.2685e+06
1.48835e+10
4.52007e+09
1.65842e+08
-2.95442e+08
7.02902e+08
0
-83231.1
5.46077e+08
1.65842e+08
6.08473e+06
-1.08398e+07
2.57895e+07
-0
148274
-9.7282e+08
-2.95442e+08
-1.08398e+07
1.93108e+07
-4.59432e+07
0
-352766
2.31449e+09
7.02902e+08
2.57895e+07
-4.59432e+07
1.09306e+08
0
-0
0
0
-0
-0
0
-0
149583
-8.85063e+07
-2.89913e+07
933107
1.73553e+06
-2.25374e+06
0
-8.85063e+07
5.23682e+10
1.71538e+10
-5.52109e+08
-1.02689e+09
1.33351e+09
0
-2.89913e+07
1.71538e+10
5.61893e+09
-1.8085e+08
-3.36371e+08
4.36807e+08
-0
933107
-5.52109e+08
-1.8085e+08
5.82078e+06
1.08264e+07
-1.4059e+07
-0
1.73553e+06
-1.02689e+09
-3.36371e+08
1.08264e+07
2.01365e+07
-2.6149e+07
0
-2.25374e+06
1.33351e+09
4.36807e+08
-1.4059e+07
-2.6149e+07
3.39567e+07
0
0
0
0
0
0
0
0
40325
6.93057e+07
2.8271e+07
9.64692e+06
5.0364e+06
1.9564e+06
0
6.93057e+07
1.19114e+11
4.85888e+10
1.65799e+10
8.65595e+09
3.36243e+09
0
2.8271e+07
4.85888e+10
1.98202e+10
6.76326e+09
3.53092e+09
1.37159e+09
0
9.64692e+06
1.65799e+10
6.76326e+09
2.30782e+09
1.20485e+09
4.68029e+08
0
5.0364e+06
8.65595e+09
3.53092e+09
1.20485e+09
6.29023e+08
2.44346e+08
0
1.9564e+06
3.36243e+09
1.37159e+09
4.68029e+08
2.44346e+08
9.49167e+07
0
0
0
0
0
0
0
0
94476.8
8.06154e+07
3.07672e+07
1.13927e+07
4.69657e+06
2.85072e+06
0
8.06154e+07
6.87877e+10
2.62531e+10
9.72122e+09
4.0075e+09
2.43247e+09
0
3.07672e+07
2.62531e+10
1.00196e+10
3.71014e+09
1.52948e+09
9.28361e+08
0
1.13927e+07
9.72122e+09
3.71014e+09
1.37382e+09
5.66348e+08
3.43762e+08
0
4.69657e+06
4.0075e+09
1.52948e+09
5.66348e+08
2.33473e+08
1.41713e+08
0
2.85072e+06
2.43247e+09
9.28361e+08
3.43762e+08
1.41713e+08
8.60169e+07
0
-0
0
0
0
0
0
-0
26179.1
-4.71878e+07
-1.59006e+07
-2.76741e+06
-1.17487e+06
-1.30965e+06
0
-4.71878e+07
8.50559e+10
2.86608e+10
4.98826e+09
2.1177e+09
2.36064e+09
0
-1.59006e+07
2.86608e+10
9.65765e+09
1.68086e+09
7.13589e+08
7.95451e+08
0
-2.76741e+06
4.98826e+09
1.68086e+09
2.92546e+08
1.24196e+08
1.38444e+08
0
-1.17487e+06
2.1177e+09
7.13589e+08
1.24196e+08
5.2726e+07
5.87747e+07
0
-1.30965e+06
2.36064e+09
7.95451e+08
1.38444e+08
5.87747e+07
6.55173e+07
0
0
0
0
0
0
0
0
11905.6
2.9372e+07
1.06971e+07
2.59849e+06
802401
1.21479e+06
0
2.9372e+07
7.24628e+10
2.63905e+10
6.41065e+09
1.97958e+09
2.99697e+09
0
1.06971e+07
2.63905e+10
9.61124e+09
2.33472e+09
7.2095e+08
1.09148e+09
0
2.59849e+06
6.41065e+09
2.33472e+09
5.67138e+08
1.7513e+08
2.65137e+08
0
802401
1.97958e+09
7.2095e+08
1.7513e+08
5.40793e+07
8.18731e+07
0
1.21479e+06
2.99697e+09
1.09148e+09
2.65137e+08
8.18731e+07
1.23951e+08
0
-0
0
0
-0
-0
0
-0
259288
-1.08823e+08
-3.18351e+07
9.97969e+06
5.85732e+06
-1.6492e+06
0
-1.08823e+08
4.5673e+10
1.33612e+10
-4.18847e+09
-2.45831e+09
6.92168e+08
0
-3.18351e+07
1.33612e+10
3.90867e+09
-1.22529e+09
-7.19154e+08
2.02487e+08
-0
9.97969e+06
-4.18847e+09
-1.22529e+09
3.84107e+08
2.25441e+08
-6.34758e+07
-0
5.85732e+06
-2.45831e+09
-7.19154e+08
2.25441e+08
1.32317e+08
-3.72554e+07
0
-1.6492e+06
6.92168e+08
2.02487e+08
-6.34758e+07
-3.72554e+07
1.04897e+07
0
-0
0
0
-0
-0
0
-0
630992
-1.8097e+08
-5.03308e+07
1.07278e+07
8.59466e+06
-3.67967e+06
0
-1.8097e+08
5.19029e+10
1.4435e+10
-3.07676e+09
-2.46498e+09
1.05534e+09
0
-5.03308e+07
1.4435e+10
4.01462e+09
-8.55696e+08
-6.8555e+08
2.93507e+08
-0
1.07278e+07
-3.07676e+09
-8.55696e+08
1.82387e+08
1.46121e+08
-6.25596e+07
-0
8.59466e+06
-2.46498e+09
-6.8555e+08
1.46121e+08
1.17067e+08
-5.01203e+07
0
-3.67967e+06
1.05534e+09
2.93507e+08
-6.25596e+07
-5.01203e+07
2.14582e+07
0
-0
0
0
0
0
0
-0
47145.1
-6.36716e+07
-2.23816e+07
-3.304e+06
-1.46333e+06
-1.89063e+06
0
-6.36716e+07
8.59914e+10
3.02274e+10
4.46221e+09
1.9763e+09
2.55338e+09
0
-2.23816e+07
3.02274e+10
1.06255e+10
1.56854e+09
6.94703e+08
8.97556e+08
0
-3.304e+06
4.46221e+09
1.56854e+09
2.3155e+08
1.02553e+08
1.32498e+08
0
-1.46333e+06
1.9763e+09
6.94703e+08
1.02553e+08
4.54204e+07
5.86831e+07
0
-1.89063e+06
2.55338e+09
8.97556e+08
1.32498e+08
5.86831e+07
7.58186e+07
0
-0
0
0
-0
-0
-0
-0
1.68833e+06
-2.05245e+08
-1.73823e+07
7.58961e+07
4.2495e+07
1.34669e+06
0
-2.05245e+08
2.4951e+10
2.11311e+09
-9.22645e+09
-5.16599e+09
-1.63713e+08
0
-1.73823e+07
2.11311e+09
1.78959e+08
-7.8139e+08
-4.37508e+08
-1.38649e+07
-0
7.58961e+07
-9.22645e+09
-7.8139e+08
3.41178e+09
1.91029e+09
6.05382e+07
-0
4.2495e+07
-5.16599e+09
-4.37508e+08
1.91029e+09
1.06959e+09
3.3896e+07
-0
1.34669e+06
-1.63713e+08
-1.38649e+07
6.05382e+07
3.3896e+07
1.07418e+06
0
-0
0
0
0
0
0
-0
34580.3
-4.43962e+07
-1.34064e+07
-1.15834e+06
-64831.4
-1.26293e+06
0
-4.43962e+07
5.69985e+10
1.72119e+10
1.48715e+09
8.32343e+07
1.62143e+09
0
-1.34064e+07
1.72119e+10
5.1975e+09
4.49076e+08
2.51344e+07
4.89625e+08
0
-1.15834e+06
1.48715e+09
4.49076e+08
3.88012e+07
2.17167e+06
4.23047e+07
0
-64831.4
8.32343e+07
2.51344e+07
2.17167e+06
121546
2.36776e+06
0
-1.26293e+06
1.62143e+09
4.89625e+08
4.23047e+07
2.36776e+06
4.61246e+07
0
0
0
0
0
0
0
0
18060.5
3.23733e+07
1.14801e+07
2.7336e+06
658524
1.04781e+06
0
3.23733e+07
5.80291e+10
2.0578e+10
4.89997e+09
1.1804e+09
1.8782e+09
0
1.14801e+07
2.0578e+10
7.29725e+09
1.7376e+09
4.18588e+08
6.66037e+08
0
2.7336e+06
4.89997e+09
1.7376e+09
4.13754e+08
9.96731e+07
1.58595e+08
0
658524
1.1804e+09
4.18588e+08
9.96731e+07
2.40112e+07
3.82055e+07
0
1.04781e+06
1.8782e+09
6.66037e+08
1.58595e+08
3.82055e+07
6.07908e+07
0
-0
0
0
-0
-0
0
-0
166794
-7.48803e+07
-2.02414e+07
7.56483e+06
5.60821e+06
-888340
0
-7.48803e+07
3.36167e+10
9.08717e+09
-3.39615e+09
-2.51775e+09
3.98811e+08
0
-2.02414e+07
9.08717e+09
2.45642e+09
-9.18038e+08
-6.8059e+08
1.07805e+08
-0
7.56483e+06
-3.39615e+09
-9.18038e+08
3.43098e+08
2.54357e+08
-4.02901e+07
-0
5.60821e+06
-2.51775e+09
-6.8059e+08
2.54357e+08
1.88568e+08
-2.98692e+07
0
-888340
3.98811e+08
1.07805e+08
-4.02901e+07
-2.98692e+07
4.73127e+06
0
-0
0
0
-0
-0
0
-0
642650
-1.56142e+08
-3.76342e+07
2.73695e+07
1.58763e+07
-798411
0
-1.56142e+08
3.79373e+10
9.14383e+09
-6.64986e+09
-3.85741e+09
1.93987e+08
0
-3.76342e+07
9.14383e+09
2.20389e+09
-1.60278e+09
-9.29732e+08
4.67557e+07
-0
2.73695e+07
-6.64986e+09
-1.60278e+09
1.16563e+09
6.76149e+08
-3.40031e+07
-0
1.58763e+07
-3.85741e+09
-9.29732e+08
6.76149e+08
3.92216e+08
-1.97243e+07
0
-798411
1.93987e+08
4.67557e+07
-3.40031e+07
-1.97243e+07
991925
0
0
0
0
0
0
0
0
115524
8.95624e+07
3.62147e+07
1.09495e+07
5.06024e+06
2.96418e+06
0
8.95624e+07
6.94352e+10
2.80762e+10
8.48886e+09
3.92306e+09
2.29804e+09
0
3.62147e+07
2.80762e+10
1.13526e+10
3.43248e+09
1.58629e+09
9.29216e+08
0
1.09495e+07
8.48886e+09
3.43248e+09
1.03781e+09
4.79617e+08
2.80949e+08
0
5.06024e+06
3.92306e+09
1.58629e+09
4.79617e+08
2.21651e+08
1.29838e+08
0
2.96418e+06
2.29804e+09
9.29216e+08
2.80949e+08
1.29838e+08
7.60565e+07
0
-0
0
0
0
-0
0
-0
117828
-8.29685e+07
-2.69127e+07
-1.28334e+06
128283
-1.82543e+06
0
-8.29685e+07
5.84221e+10
1.89505e+10
9.03657e+08
-9.03302e+07
1.28537e+09
0
-2.69127e+07
1.89505e+10
6.14701e+09
2.93121e+08
-2.93006e+07
4.16939e+08
0
-1.28334e+06
9.03657e+08
2.93121e+08
1.39775e+07
-1.3972e+06
1.98818e+07
-0
128283
-9.03302e+07
-2.93006e+07
-1.3972e+06
139666
-1.9874e+06
0
-1.82543e+06
1.28537e+09
4.16939e+08
1.98818e+07
-1.9874e+06
2.82801e+07
0
-0
0
0
-0
-0
0
-0
155397
-8.72631e+07
-2.18206e+07
4.17886e+06
3.37221e+06
-2.90056e+06
0
-8.72631e+07
4.90026e+10
1.22534e+10
-2.34664e+09
-1.89366e+09
1.62881e+09
0
-2.18206e+07
1.22534e+10
3.06402e+09
-5.86789e+08
-4.73521e+08
4.07293e+08
-0
4.17886e+06
-2.34664e+09
-5.86789e+08
1.12376e+08
9.06839e+07
-7.80006e+07
-0
3.37221e+06
-1.89366e+09
-4.73521e+08
9.06839e+07
7.31792e+07
-6.29441e+07
0
-2.90056e+06
1.62881e+09
4.07293e+08
-7.80006e+07
-6.29441e+07
5.41405e+07
0
-0
0
0
0
0
0
-0
12094.4
-3.39899e+07
-1.32791e+07
-2.63094e+06
-1.34706e+06
-970466
0
-3.39899e+07
9.55249e+10
3.73195e+10
7.39396e+09
3.78575e+09
2.72739e+09
0
-1.32791e+07
3.73195e+10
1.45799e+10
2.88866e+09
1.47901e+09
1.06553e+09
0
-2.63094e+06
7.39396e+09
2.88866e+09
5.72318e+08
2.9303e+08
2.11109e+08
0
-1.34706e+06
3.78575e+09
1.47901e+09
2.9303e+08
1.50033e+08
1.08089e+08
0
-970466
2.72739e+09
1.06553e+09
2.11109e+08
1.08089e+08
7.78712e+07
0
-0
0
0
-0
-0
0
-0
506021
-1.41006e+08
-4.29564e+07
1.29808e+07
9.96246e+06
-3.35566e+06
0
-1.41006e+08
3.92923e+10
1.19701e+10
-3.61718e+09
-2.77611e+09
9.35077e+08
0
-4.29564e+07
1.19701e+10
3.6466e+09
-1.10195e+09
-8.4572e+08
2.84864e+08
-0
1.29808e+07
-3.61718e+09
-1.10195e+09
3.32991e+08
2.55564e+08
-8.60816e+07
-0
9.96246e+06
-2.77611e+09
-8.4572e+08
2.55564e+08
1.9614e+08
-6.60658e+07
0
-3.35566e+06
9.35077e+08
2.84864e+08
-8.60816e+07
-6.60658e+07
2.2253e+07
0
-0
0
0
-0
-0
0
-0
329348
-1.34796e+08
-3.9901e+07
1.02757e+06
2.37558e+06
-2.2945e+06
0
-1.34796e+08
5.51694e+10
1.63307e+10
-4.20564e+08
-9.72281e+08
9.39097e+08
0
-3.9901e+07
1.63307e+10
4.83407e+09
-1.24491e+08
-2.87805e+08
2.77983e+08
-0
1.02757e+06
-4.20564e+08
-1.24491e+08
3.20602e+06
7.41184e+06
-7.15887e+06
-0
2.37558e+06
-9.72281e+08
-2.87805e+08
7.41184e+06
1.7135e+07
-1.65502e+07
0
-2.2945e+06
9.39097e+08
2.77983e+08
-7.15887e+06
-1.65502e+07
1.59854e+07
0
-0
0
0
0
0
0
-0
87514.7
-7.38208e+07
-2.54885e+07
-4.0548e+06
-1.0462e+06
-1.17438e+06
0
-7.38208e+07
6.22696e+10
2.15001e+10
3.42032e+09
8.82494e+08
9.90614e+08
0
-2.54885e+07
2.15001e+10
7.42346e+09
1.18095e+09
3.04703e+08
3.42034e+08
0
-4.0548e+06
3.42032e+09
1.18095e+09
1.8787e+08
4.84733e+07
5.44121e+07
0
-1.0462e+06
8.82494e+08
3.04703e+08
4.84733e+07
1.25068e+07
1.40391e+07
0
-1.17438e+06
9.90614e+08
3.42034e+08
5.44121e+07
1.40391e+07
1.57592e+07
0
0
0
0
0
0
0
0
739925
2.40815e+08
9.89398e+07
4.27316e+07
1.78154e+07
1.23731e+07
0
2.40815e+08
7.83756e+10
3.22009e+10
1.39074e+10
5.79818e+09
4.02694e+09
0
9.89398e+07
3.22009e+10
1.32298e+10
5.7139e+09
2.3822e+09
1.65448e+09
0
4.27316e+07
1.39074e+10
5.7139e+09
2.46781e+09
1.02886e+09
7.14562e+08
0
1.78154e+07
5.79818e+09
2.3822e+09
1.02886e+09
4.28946e+08
2.9791e+08
0
1.23731e+07
4.02694e+09
1.65448e+09
7.14562e+08
2.9791e+08
2.06904e+08
0
0
0
0
0
0
0
0
460320
1.92795e+08
7.95591e+07
2.68647e+07
1.10534e+07
7.65656e+06
0
1.92795e+08
8.07481e+10
3.33216e+10
1.12517e+10
4.62947e+09
3.20679e+09
0
7.95591e+07
3.33216e+10
1.37506e+10
4.64315e+09
1.9104e+09
1.32332e+09
0
2.68647e+07
1.12517e+10
4.64315e+09
1.56785e+09
6.45085e+08
4.46844e+08
0
1.10534e+07
4.62947e+09
1.9104e+09
6.45085e+08
2.65418e+08
1.83852e+08
0
7.65656e+06
3.20679e+09
1.32332e+09
4.46844e+08
1.83852e+08
1.27353e+08
0
-0
0
0
0
0
0
-0
70218.7
-6.49126e+07
-2.20377e+07
-1.82594e+06
-375593
-1.695e+06
0
-6.49126e+07
6.00074e+10
2.03724e+10
1.68796e+09
3.47211e+08
1.56691e+09
0
-2.20377e+07
2.03724e+10
6.91641e+09
5.73061e+08
1.17878e+08
5.31964e+08
0
-1.82594e+06
1.68796e+09
5.73061e+08
4.74812e+07
9.7668e+06
4.40761e+07
0
-375593
3.47211e+08
1.17878e+08
9.7668e+06
2.00901e+06
9.06637e+06
0
-1.695e+06
1.56691e+09
5.31964e+08
4.40761e+07
9.06637e+06
4.09152e+07
0
0
0
0
0
0
0
0
378978
1.38078e+08
2.5168e+07
1.34102e+07
4.68049e+06
7.4011e+06
0
1.38078e+08
5.0308e+10
9.1698e+09
4.88591e+09
1.70531e+09
2.69655e+09
0
2.5168e+07
9.1698e+09
1.67141e+09
8.90571e+08
3.10832e+08
4.91508e+08
0
1.34102e+07
4.88591e+09
8.90571e+08
4.7452e+08
1.6562e+08
2.61889e+08
0
4.68049e+06
1.70531e+09
3.10832e+08
1.6562e+08
5.78054e+07
9.14058e+07
0
7.4011e+06
2.69655e+09
4.91508e+08
2.61889e+08
9.14058e+07
1.44537e+08
0
0
0
0
0
0
0
0
120875
8.59773e+07
3.32876e+07
8.26536e+06
3.1375e+06
4.06601e+06
0
8.59773e+07
6.1155e+10
2.36772e+10
5.87908e+09
2.23167e+09
2.89212e+09
0
3.32876e+07
2.36772e+10
9.16704e+09
2.27619e+09
8.64032e+08
1.11973e+09
0
8.26536e+06
5.87908e+09
2.27619e+09
5.6518e+08
2.1454e+08
2.78031e+08
0
3.1375e+06
2.23167e+09
8.64032e+08
2.1454e+08
8.14386e+07
1.05539e+08
0
4.06601e+06
2.89212e+09
1.11973e+09
2.78031e+08
1.05539e+08
1.36773e+08
0
-0
0
0
0
0
0
-0
3101.66
-1.5583e+07
-5.69533e+06
-1.18487e+06
-502456
-400941
0
-1.5583e+07
7.82907e+10
2.86139e+10
5.95289e+09
2.52439e+09
2.01436e+09
0
-5.69533e+06
2.86139e+10
1.04579e+10
2.17568e+09
9.22619e+08
7.36215e+08
0
-1.18487e+06
5.95289e+09
2.17568e+09
4.52632e+08
1.91944e+08
1.53164e+08
0
-502456
2.52439e+09
9.22619e+08
1.91944e+08
8.13958e+07
6.49507e+07
0
-400941
2.01436e+09
7.36215e+08
1.53164e+08
6.49507e+07
5.18282e+07
0
-0
0
0
0
0
0
-0
215959
-1.11996e+08
-4.17711e+07
-6.59203e+06
-1.21507e+06
-3.42099e+06
0
-1.11996e+08
5.80807e+10
2.16623e+10
3.41861e+09
6.30131e+08
1.77412e+09
0
-4.17711e+07
2.16623e+10
8.0794e+09
1.27504e+09
2.3502e+08
6.61692e+08
0
-6.59203e+06
3.41861e+09
1.27504e+09
2.01218e+08
3.70893e+07
1.04424e+08
0
-1.21507e+06
6.30131e+08
2.3502e+08
3.70893e+07
6.83644e+06
1.92478e+07
0
-3.42099e+06
1.77412e+09
6.61692e+08
1.04424e+08
1.92478e+07
5.41916e+07
0
-0
0
0
0
-0
0
-0
123833
-8.59609e+07
-2.85021e+07
-500043
1.01455e+06
-2.59756e+06
0
-8.59609e+07
5.96715e+10
1.97853e+10
3.47114e+08
-7.04273e+08
1.80315e+09
0
-2.85021e+07
1.97853e+10
6.56024e+09
1.15093e+08
-2.33517e+08
5.97871e+08
0
-500043
3.47114e+08
1.15093e+08
2.0192e+06
-4.09682e+06
1.04891e+07
-0
1.01455e+06
-7.04273e+08
-2.33517e+08
-4.09682e+06
8.3122e+06
-2.12817e+07
0
-2.59756e+06
1.80315e+09
5.97871e+08
1.04891e+07
-2.12817e+07
5.44874e+07
0
0
0
0
0
0
0
0
126487
1.10474e+08
4.68194e+07
1.89591e+07
8.62389e+06
4.45292e+06
0
1.10474e+08
9.64878e+10
4.0892e+10
1.65589e+10
7.53211e+09
3.88918e+09
0
4.68194e+07
4.0892e+10
1.73303e+10
7.01774e+09
3.19215e+09
1.64826e+09
0
1.89591e+07
1.65589e+10
7.01774e+09
2.84177e+09
1.29263e+09
6.67447e+08
0
8.62389e+06
7.53211e+09
3.19215e+09
1.29263e+09
5.87978e+08
3.03601e+08
0
4.45292e+06
3.88918e+09
1.64826e+09
6.67447e+08
3.03601e+08
1.56763e+08
0
0
0
0
0
0
0
0
33559.7
4.37177e+07
1.17658e+07
1.88151e+06
428561
1.48708e+06
0
4.37177e+07
5.69504e+10
1.53271e+10
2.45102e+09
5.5828e+08
1.9372e+09
0
1.17658e+07
1.53271e+10
4.12498e+09
6.59642e+08
1.5025e+08
5.21358e+08
0
1.88151e+06
2.45102e+09
6.59642e+08
1.05486e+08
2.40271e+07
8.33726e+07
0
428561
5.5828e+08
1.5025e+08
2.40271e+07
5.47276e+06
1.89902e+07
0
1.48708e+06
1.9372e+09
5.21358e+08
8.33726e+07
1.89902e+07
6.58948e+07
0
-0
0
0
-0
-0
0
-0
408800
-1.3705e+08
-3.69613e+07
9.52885e+06
7.8873e+06
-4.41373e+06
0
-1.3705e+08
4.59458e+10
1.23912e+10
-3.19454e+09
-2.64421e+09
1.4797e+09
0
-3.69613e+07
1.23912e+10
3.34182e+09
-8.61543e+08
-7.13123e+08
3.99063e+08
-0
9.52885e+06
-3.19454e+09
-8.61543e+08
2.22111e+08
1.83848e+08
-1.02881e+08
-0
7.8873e+06
-2.64421e+09
-7.13123e+08
1.83848e+08
1.52176e+08
-8.51575e+07
0
-4.41373e+06
1.4797e+09
3.99063e+08
-1.02881e+08
-8.51575e+07
4.76541e+07
0
-0
0
0
0
0
0
-0
38567.9
-5.68031e+07
-2.10923e+07
-4.53622e+06
-1.53826e+06
-1.73161e+06
0
-5.68031e+07
8.366e+10
3.10649e+10
6.68097e+09
2.26556e+09
2.55032e+09
0
-2.10923e+07
3.10649e+10
1.15351e+10
2.4808e+09
8.41254e+08
9.46995e+08
0
-4.53622e+06
6.68097e+09
2.4808e+09
5.33533e+08
1.80924e+08
2.03665e+08
0
-1.53826e+06
2.26556e+09
8.41254e+08
1.80924e+08
6.13524e+07
6.90641e+07
0
-1.73161e+06
2.55032e+09
9.46995e+08
2.03665e+08
6.90641e+07
7.7745e+07
0
-0
0
0
0
0
0
-0
14411.2
-3.61251e+07
-1.39821e+07
-3.73485e+06
-1.60882e+06
-1.15407e+06
0
-3.61251e+07
9.0556e+10
3.50493e+10
9.36227e+09
4.03289e+09
2.89295e+09
0
-1.39821e+07
3.50493e+10
1.35657e+10
3.62363e+09
1.56091e+09
1.1197e+09
0
-3.73485e+06
9.36227e+09
3.62363e+09
9.67932e+08
4.16946e+08
2.99092e+08
0
-1.60882e+06
4.03289e+09
1.56091e+09
4.16946e+08
1.79604e+08
1.28837e+08
0
-1.15407e+06
2.89295e+09
1.1197e+09
2.99092e+08
1.28837e+08
9.24195e+07
0
-0
0
0
-0
-0
0
-0
98936
-5.59093e+07
-3.30769e+06
9.05949e+06
5.39109e+06
-1.29939e+06
0
-5.59093e+07
3.15947e+10
1.86919e+09
-5.11957e+09
-3.04654e+09
7.34295e+08
0
-3.30769e+06
1.86919e+09
1.10584e+08
-3.02882e+08
-1.80238e+08
4.34421e+07
-0
9.05949e+06
-5.11957e+09
-3.02882e+08
8.2957e+08
4.93658e+08
-1.18984e+08
-0
5.39109e+06
-3.04654e+09
-1.80238e+08
4.93658e+08
2.93764e+08
-7.08048e+07
0
-1.29939e+06
7.34295e+08
4.34421e+07
-1.18984e+08
-7.08048e+07
1.70658e+07
0
0
0
0
0
0
0
0
29538.2
4.23942e+07
9.90436e+06
1.29158e+06
352560
1.47881e+06
0
4.23942e+07
6.08455e+10
1.42151e+10
1.85372e+09
5.06005e+08
2.12243e+09
0
9.90436e+06
1.42151e+10
3.321e+09
4.33077e+08
1.18216e+08
4.95854e+08
0
1.29158e+06
1.85372e+09
4.33077e+08
5.64756e+07
1.5416e+07
6.46621e+07
0
352560
5.06005e+08
1.18216e+08
1.5416e+07
4.20806e+06
1.76506e+07
0
1.47881e+06
2.12243e+09
4.95854e+08
6.46621e+07
1.76506e+07
7.40353e+07
0
-0
0
0
-0
-0
0
-0
1.2915e+06
-2.13311e+08
-4.54915e+07
4.45072e+07
2.45457e+07
-2.15303e+06
0
-2.13311e+08
3.52316e+10
7.5136e+09
-7.35103e+09
-4.05409e+09
3.55605e+08
0
-4.54915e+07
7.5136e+09
1.60238e+09
-1.56771e+09
-8.6459e+08
7.58376e+07
-0
4.45072e+07
-7.35103e+09
-1.56771e+09
1.53379e+09
8.45883e+08
-7.41967e+07
-0
2.45457e+07
-4.05409e+09
-8.6459e+08
8.45883e+08
4.66505e+08
-4.09195e+07
0
-2.15303e+06
3.55605e+08
7.58376e+07
-7.41967e+07
-4.09195e+07
3.58926e+06
0
-0
0
0
-0
-0
-0
-0
1.50754e+06
-2.02532e+08
-1.32244e+07
7.27773e+07
3.7666e+07
3.46293e+06
0
-2.02532e+08
2.72093e+10
1.77664e+09
-9.77733e+09
-5.06027e+09
-4.6523e+08
0
-1.32244e+07
1.77664e+09
1.16007e+08
-6.38415e+08
-3.30412e+08
-3.03774e+07
-0
7.27773e+07
-9.77733e+09
-6.38415e+08
3.51336e+09
1.81835e+09
1.67175e+08
-0
3.7666e+07
-5.06027e+09
-3.30412e+08
1.81835e+09
9.41088e+08
8.65215e+07
-0
3.46293e+06
-4.6523e+08
-3.03774e+07
1.67175e+08
8.65215e+07
7.9546e+06
0
0
0
0
0
0
0
0
14575.4
3.18972e+07
1.17393e+07
1.42335e+06
547252
823891
0
3.18972e+07
6.98045e+10
2.56906e+10
3.11489e+09
1.19762e+09
1.80302e+09
0
1.17393e+07
2.56906e+10
9.45505e+09
1.14639e+09
4.40767e+08
6.63577e+08
0
1.42335e+06
3.11489e+09
1.14639e+09
1.38996e+08
5.34414e+07
8.04565e+07
0
547252
1.19762e+09
4.40767e+08
5.34414e+07
2.05472e+07
3.0934e+07
0
823891
1.80302e+09
6.63577e+08
8.04565e+07
3.0934e+07
4.65714e+07
0
-0
0
0
-0
-0
0
-0
742463
-1.52697e+08
-2.71976e+07
3.24258e+07
2.03606e+07
-1.53465e+06
0
-1.52697e+08
3.14039e+10
5.59353e+09
-6.66876e+09
-4.18741e+09
3.1562e+08
0
-2.71976e+07
5.59353e+09
9.96293e+08
-1.18781e+09
-7.45841e+08
5.62168e+07
-0
3.24258e+07
-6.66876e+09
-1.18781e+09
1.41614e+09
8.89213e+08
-6.70232e+07
-0
2.03606e+07
-4.18741e+09
-7.45841e+08
8.89213e+08
5.58349e+08
-4.20848e+07
0
-1.53465e+06
3.1562e+08
5.62168e+07
-6.70232e+07
-4.20848e+07
3.17208e+06
0
-0
0
0
-0
-0
0
-0
555328
-1.24181e+08
-1.95788e+07
2.73168e+07
1.80424e+07
-3.09893e+06
0
-1.24181e+08
2.77691e+10
4.37817e+09
-6.10852e+09
-4.03459e+09
6.92975e+08
0
-1.95788e+07
4.37817e+09
6.90277e+08
-9.6309e+08
-6.36107e+08
1.09257e+08
-0
2.73168e+07
-6.10852e+09
-9.6309e+08
1.34373e+09
8.87511e+08
-1.52438e+08
-0
1.80424e+07
-4.03459e+09
-6.36107e+08
8.87511e+08
5.86188e+08
-1.00683e+08
0
-3.09893e+06
6.92975e+08
1.09257e+08
-1.52438e+08
-1.00683e+08
1.72931e+07
0
0
0
0
0
0
0
0
77339.4
7.47719e+07
3.05452e+07
1.13004e+07
4.20449e+06
4.48619e+06
0
7.47719e+07
7.22896e+10
2.95311e+10
1.09253e+10
4.06491e+09
4.33725e+09
0
3.05452e+07
2.95311e+10
1.20638e+10
4.46309e+09
1.66056e+09
1.77182e+09
0
1.13004e+07
1.09253e+10
4.46309e+09
1.65116e+09
6.14338e+08
6.55498e+08
0
4.20449e+06
4.06491e+09
1.66056e+09
6.14338e+08
2.28573e+08
2.43888e+08
0
4.48619e+06
4.33725e+09
1.77182e+09
6.55498e+08
2.43888e+08
2.60228e+08
0
0
0
0
0
0
0
0
104992
8.86946e+07
2.99327e+07
9.4078e+06
3.74626e+06
3.57369e+06
0
8.86946e+07
7.49269e+10
2.52863e+10
7.94746e+09
3.16475e+09
3.01896e+09
0
2.99327e+07
2.52863e+10
8.53365e+09
2.68211e+09
1.06804e+09
1.01884e+09
0
9.4078e+06
7.94746e+09
2.68211e+09
8.42984e+08
3.35683e+08
3.2022e+08
0
3.74626e+06
3.16475e+09
1.06804e+09
3.35683e+08
1.33672e+08
1.27514e+08
0
3.57369e+06
3.01896e+09
1.01884e+09
3.2022e+08
1.27514e+08
1.2164e+08
0
-0
0
0
0
-0
0
-0
240203
-1.32562e+08
-4.32573e+07
-3.79094e+06
488628
-3.95021e+06
0
-1.32562e+08
7.31581e+10
2.38727e+10
2.09214e+09
-2.69663e+08
2.18003e+09
0
-4.32573e+07
2.38727e+10
7.79009e+09
6.827e+08
-8.79956e+07
7.11381e+08
0
-3.79094e+06
2.09214e+09
6.827e+08
5.98298e+07
-7.71167e+06
6.23433e+07
-0
488628
-2.69663e+08
-8.79956e+07
-7.71167e+06
993984
-8.03565e+06
0
-3.95021e+06
2.18003e+09
7.11381e+08
6.23433e+07
-8.03565e+06
6.49625e+07
0
0
0
0
0
0
0
0
932.449
9.07205e+06
3.6193e+06
1.17538e+06
515618
281709
0
9.07205e+06
8.82644e+10
3.52131e+10
1.14356e+10
5.01659e+09
2.74082e+09
0
3.6193e+06
3.52131e+10
1.40483e+10
4.56224e+09
2.00137e+09
1.09345e+09
0
1.17538e+06
1.14356e+10
4.56224e+09
1.4816e+09
6.49952e+08
3.55102e+08
0
515618
5.01659e+09
2.00137e+09
6.49952e+08
2.85122e+08
1.55777e+08
0
281709
2.74082e+09
1.09345e+09
3.55102e+08
1.55777e+08
8.5109e+07
0
-0
0
0
-0
-0
0
-0
194601
-8.76421e+07
-2.67695e+06
7.62712e+06
4.06245e+06
-1.16473e+06
0
-8.76421e+07
3.94712e+10
1.20561e+09
-3.43501e+09
-1.82959e+09
5.24555e+08
0
-2.67695e+06
1.20561e+09
3.68243e+07
-1.04919e+08
-5.58833e+07
1.60221e+07
-0
7.62712e+06
-3.43501e+09
-1.04919e+08
2.98934e+08
1.59222e+08
-4.56498e+07
-0
4.06245e+06
-1.82959e+09
-5.58833e+07
1.59222e+08
8.48065e+07
-2.43145e+07
0
-1.16473e+06
5.24555e+08
1.60221e+07
-4.56498e+07
-2.43145e+07
6.97111e+06
0
0
0
0
0
0
0
0
156596
1.04784e+08
3.06936e+07
9.68424e+06
4.17476e+06
3.14758e+06
0
1.04784e+08
7.01142e+10
2.05381e+10
6.48005e+09
2.79347e+09
2.10615e+09
0
3.06936e+07
2.05381e+10
6.01609e+09
1.89816e+09
8.18273e+08
6.1694e+08
0
9.68424e+06
6.48005e+09
1.89816e+09
5.98895e+08
2.58176e+08
1.94653e+08
0
4.17476e+06
2.79347e+09
8.18273e+08
2.58176e+08
1.11297e+08
8.39127e+07
0
3.14758e+06
2.10615e+09
6.1694e+08
1.94653e+08
8.39127e+07
6.32663e+07
0
-0
0
0
0
0
0
-0
79175.1
-7.60631e+07
-2.60854e+07
-3.16486e+06
-943465
-2.09929e+06
0
-7.60631e+07
7.30734e+10
2.50602e+10
3.04046e+09
9.06383e+08
2.01677e+09
0
-2.60854e+07
2.50602e+10
8.59425e+09
1.04271e+09
3.10839e+08
6.91642e+08
0
-3.16486e+06
3.04046e+09
1.04271e+09
1.26508e+08
3.7713e+07
8.39145e+07
0
-943465
9.06383e+08
3.10839e+08
3.7713e+07
1.12425e+07
2.50155e+07
0
-2.09929e+06
2.01677e+09
6.91642e+08
8.39145e+07
2.50155e+07
5.56614e+07
0
0
0
0
0
0
0
0
105546
8.86576e+07
3.26752e+07
8.56488e+06
3.79576e+06
3.00122e+06
0
8.86576e+07
7.44718e+10
2.74469e+10
7.19444e+09
3.18842e+09
2.521e+09
0
3.26752e+07
2.74469e+10
1.01157e+10
2.65155e+09
1.17511e+09
9.29127e+08
0
8.56488e+06
7.19444e+09
2.65155e+09
6.95028e+08
3.08021e+08
2.43544e+08
0
3.79576e+06
3.18842e+09
1.17511e+09
3.08021e+08
1.36508e+08
1.07933e+08
0
3.00122e+06
2.521e+09
9.29127e+08
2.43544e+08
1.07933e+08
8.53403e+07
0
-0
0
0
0
0
0
-0
5849.58
-2.18761e+07
-7.94754e+06
-2.35444e+06
-1.00404e+06
-803453
0
-2.18761e+07
8.18118e+10
2.9722e+10
8.80508e+09
3.75487e+09
3.00474e+09
0
-7.94754e+06
2.9722e+10
1.07979e+10
3.19886e+09
1.36414e+09
1.09161e+09
0
-2.35444e+06
8.80508e+09
3.19886e+09
9.47656e+08
4.04122e+08
3.23388e+08
0
-1.00404e+06
3.75487e+09
1.36414e+09
4.04122e+08
1.72335e+08
1.37907e+08
0
-803453
3.00474e+09
1.09161e+09
3.23388e+08
1.37907e+08
1.10356e+08
0
-0
0
0
-0
-0
0
-0
36840.2
-3.98919e+07
-6.514e+06
2.2936e+06
1.51792e+06
-1.09433e+06
0
-3.98919e+07
4.31965e+10
7.05361e+09
-2.4836e+09
-1.64366e+09
1.18498e+09
0
-6.514e+06
7.05361e+09
1.15179e+09
-4.05549e+08
-2.68395e+08
1.93497e+08
-0
2.2936e+06
-2.4836e+09
-4.05549e+08
1.42795e+08
9.45027e+07
-6.81309e+07
-0
1.51792e+06
-1.64366e+09
-2.68395e+08
9.45027e+07
6.25424e+07
-4.50894e+07
0
-1.09433e+06
1.18498e+09
1.93497e+08
-6.81309e+07
-4.50894e+07
3.25068e+07
0
-0
0
0
0
0
0
-0
97379.7
-8.14965e+07
-3.14271e+07
-3.85653e+06
-1.37352e+06
-1.40622e+06
0
-8.14965e+07
6.82039e+10
2.63011e+10
3.22751e+09
1.14949e+09
1.17686e+09
0
-3.14271e+07
2.63011e+10
1.01424e+10
1.24461e+09
4.43272e+08
4.53825e+08
0
-3.85653e+06
3.22751e+09
1.24461e+09
1.5273e+08
5.43956e+07
5.56905e+07
0
-1.37352e+06
1.14949e+09
4.43272e+08
5.43956e+07
1.93732e+07
1.98344e+07
0
-1.40622e+06
1.17686e+09
4.53825e+08
5.56905e+07
1.98344e+07
2.03066e+07
0
0
0
0
0
0
0
0
100531
9.10656e+07
3.26687e+07
9.13268e+06
4.59134e+06
2.89727e+06
0
9.10656e+07
8.24916e+10
2.95929e+10
8.27282e+09
4.15905e+09
2.62449e+09
0
3.26687e+07
2.95929e+10
1.06161e+10
2.96778e+09
1.49201e+09
9.41503e+08
0
9.13268e+06
8.27282e+09
2.96778e+09
8.29654e+08
4.17098e+08
2.63201e+08
0
4.59134e+06
4.15905e+09
1.49201e+09
4.17098e+08
2.09691e+08
1.32321e+08
0
2.89727e+06
2.62449e+09
9.41503e+08
2.63201e+08
1.32321e+08
8.34985e+07
0
0
0
0
0
0
0
0
116816
8.68761e+07
3.33189e+07
9.6402e+06
2.69426e+06
4.40691e+06
0
8.68761e+07
6.46098e+10
2.47793e+10
7.16942e+09
2.00372e+09
3.27742e+09
0
3.33189e+07
2.47793e+10
9.50342e+09
2.74963e+09
7.68471e+08
1.25696e+09
0
9.6402e+06
7.16942e+09
2.74963e+09
7.95554e+08
2.22343e+08
3.63679e+08
0
2.69426e+06
2.00372e+09
7.68471e+08
2.22343e+08
6.21406e+07
1.01641e+08
0
4.40691e+06
3.27742e+09
1.25696e+09
3.63679e+08
1.01641e+08
1.66252e+08
0
0
0
0
0
0
0
0
6034.68
1.95907e+07
7.39826e+06
1.79163e+06
486583
674077
0
1.95907e+07
6.35985e+10
2.40174e+10
5.81628e+09
1.57962e+09
2.18829e+09
0
7.39826e+06
2.40174e+10
9.06996e+09
2.19647e+09
5.9653e+08
8.26389e+08
0
1.79163e+06
5.81628e+09
2.19647e+09
5.31917e+08
1.44461e+08
2.00126e+08
0
486583
1.57962e+09
5.9653e+08
1.44461e+08
3.92337e+07
5.43515e+07
0
674077
2.18829e+09
8.26389e+08
2.00126e+08
5.43515e+07
7.52947e+07
0
-0
0
0
0
0
0
-0
20980.5
-3.83192e+07
-1.273e+07
-2.23494e+06
-345875
-1.3608e+06
0
-3.83192e+07
6.9987e+10
2.32503e+10
4.08194e+09
6.31714e+08
2.48539e+09
0
-1.273e+07
2.32503e+10
7.72397e+09
1.35606e+09
2.09861e+08
8.25668e+08
0
-2.23494e+06
4.08194e+09
1.35606e+09
2.38076e+08
3.68442e+07
1.44958e+08
0
-345875
6.31714e+08
2.09861e+08
3.68442e+07
5.70195e+06
2.24335e+07
0
-1.3608e+06
2.48539e+09
8.25668e+08
1.44958e+08
2.24335e+07
8.82613e+07
0
-0
0
0
-0
-0
0
-0
373751
-1.37669e+08
-4.24315e+07
7.10729e+06
5.45973e+06
-2.5698e+06
0
-1.37669e+08
5.07097e+10
1.56294e+10
-2.61793e+09
-2.01106e+09
9.46571e+08
0
-4.24315e+07
1.56294e+10
4.8172e+09
-8.06882e+08
-6.19836e+08
2.91746e+08
-0
7.10729e+06
-2.61793e+09
-8.06882e+08
1.35153e+08
1.03823e+08
-4.88675e+07
-0
5.45973e+06
-2.01106e+09
-6.19836e+08
1.03823e+08
7.97553e+07
-3.75394e+07
0
-2.5698e+06
9.46571e+08
2.91746e+08
-4.88675e+07
-3.75394e+07
1.76691e+07
0
0
0
0
0
0
0
0
26104.8
4.34096e+07
1.7354e+07
3.32435e+06
1.04891e+06
1.90371e+06
0
4.34096e+07
7.21855e+10
2.88578e+10
5.52803e+09
1.74422e+09
3.16567e+09
0
1.7354e+07
2.88578e+10
1.15366e+10
2.20996e+09
6.97293e+08
1.26555e+09
0
3.32435e+06
5.52803e+09
2.20996e+09
4.23342e+08
1.33574e+08
2.4243e+08
0
1.04891e+06
1.74422e+09
6.97293e+08
1.33574e+08
4.21457e+07
7.64923e+07
0
1.90371e+06
3.16567e+09
1.26555e+09
2.4243e+08
7.64923e+07
1.3883e+08
0
0
0
0
0
0
0
0
7607.73
2.35417e+07
8.54002e+06
1.90577e+06
643603
765119
0
2.35417e+07
7.28487e+10
2.64266e+10
5.89731e+09
1.9916e+09
2.36762e+09
0
8.54002e+06
2.64266e+10
9.58655e+09
2.13931e+09
7.22473e+08
8.5888e+08
0
1.90577e+06
5.89731e+09
2.13931e+09
4.77403e+08
1.61225e+08
1.91666e+08
0
643603
1.9916e+09
7.22473e+08
1.61225e+08
5.44478e+07
6.47279e+07
0
765119
2.36762e+09
8.5888e+08
1.91666e+08
6.47279e+07
7.6949e+07
0
-0
0
0
-0
-0
0
-0
193951
-8.91704e+07
-2.75468e+07
2.62788e+06
3.10819e+06
-3.51856e+06
0
-8.91704e+07
4.09968e+10
1.26648e+10
-1.20819e+09
-1.42901e+09
1.61769e+09
0
-2.75468e+07
1.26648e+10
3.91245e+09
-3.73236e+08
-4.41454e+08
4.9974e+08
-0
2.62788e+06
-1.20819e+09
-3.73236e+08
3.56057e+07
4.21135e+07
-4.76737e+07
-0
3.10819e+06
-1.42901e+09
-4.41454e+08
4.21135e+07
4.98107e+07
-5.63872e+07
0
-3.51856e+06
1.61769e+09
4.9974e+08
-4.76737e+07
-5.63872e+07
6.3832e+07
0
-0
0
-0
-0
-0
0
-0
743583
-1.25027e+08
6.19113e+06
4.19622e+07
2.48281e+07
-2.19835e+06
0
-1.25027e+08
2.10223e+10
-1.04099e+09
-7.05558e+09
-4.17463e+09
3.69634e+08
-0
6.19113e+06
-1.04099e+09
5.15478e+07
3.4938e+08
2.06721e+08
-1.83036e+07
-0
4.19622e+07
-7.05558e+09
3.4938e+08
2.36803e+09
1.40111e+09
-1.24058e+08
-0
2.48281e+07
-4.17463e+09
2.06721e+08
1.40111e+09
8.29005e+08
-7.34025e+07
0
-2.19835e+06
3.69634e+08
-1.83036e+07
-1.24058e+08
-7.34025e+07
6.49927e+06
0
-0
0
0
0
0
0
-0
264.016
-4.69919e+06
-1.80874e+06
-585239
-234032
-144510
0
-4.69919e+06
8.36404e+10
3.21936e+10
1.04166e+10
4.1655e+09
2.57212e+09
0
-1.80874e+06
3.21936e+10
1.23915e+10
4.0094e+09
1.60332e+09
9.9002e+08
0
-585239
1.04166e+10
4.0094e+09
1.29729e+09
5.18773e+08
3.20333e+08
0
-234032
4.1655e+09
1.60332e+09
5.18773e+08
2.07453e+08
1.28098e+08
0
-144510
2.57212e+09
9.9002e+08
3.20333e+08
1.28098e+08
7.9098e+07
0
-0
0
0
-0
-0
0
-0
53649
-5.69562e+07
-1.38279e+07
1.09773e+06
973354
-1.6666e+06
0
-5.69562e+07
6.04672e+10
1.46803e+10
-1.16539e+09
-1.03336e+09
1.76934e+09
0
-1.38279e+07
1.46803e+10
3.56412e+09
-2.82936e+08
-2.5088e+08
4.29564e+08
-0
1.09773e+06
-1.16539e+09
-2.82936e+08
2.24608e+07
1.9916e+07
-3.41008e+07
-0
973354
-1.03336e+09
-2.5088e+08
1.9916e+07
1.76596e+07
-3.02372e+07
0
-1.6666e+06
1.76934e+09
4.29564e+08
-3.41008e+07
-3.02372e+07
5.1773e+07
0
-0
0
0
-0
-0
0
-0
939152
-1.8366e+08
-4.10837e+07
3.23099e+07
2.00449e+07
-2.50269e+06
0
-1.8366e+08
3.59166e+10
8.03432e+09
-6.31852e+09
-3.91998e+09
4.89426e+08
0
-4.10837e+07
8.03432e+09
1.79723e+09
-1.41341e+09
-8.76876e+08
1.09481e+08
-0
3.23099e+07
-6.31852e+09
-1.41341e+09
1.11156e+09
6.8961e+08
-8.61007e+07
-0
2.00449e+07
-3.91998e+09
-8.76876e+08
6.8961e+08
4.27832e+08
-5.34165e+07
0
-2.50269e+06
4.89426e+08
1.09481e+08
-8.61007e+07
-5.34165e+07
6.66927e+06
0
-0
0
0
0
0
0
-0
13678.4
-3.01309e+07
-1.05417e+07
-1.33138e+06
-419658
-838394
0
-3.01309e+07
6.63724e+10
2.32213e+10
2.93277e+09
9.24423e+08
1.84682e+09
0
-1.05417e+07
2.32213e+10
8.12432e+09
1.02607e+09
3.23423e+08
6.46136e+08
0
-1.33138e+06
2.93277e+09
1.02607e+09
1.29589e+08
4.08471e+07
8.16046e+07
0
-419658
9.24423e+08
3.23423e+08
4.08471e+07
1.28752e+07
2.57221e+07
0
-838394
1.84682e+09
6.46136e+08
8.16046e+07
2.57221e+07
5.13878e+07
0
-0
0
0
0
-0
0
-0
32243.4
-4.23479e+07
-1.35589e+07
-98705.9
266805
-1.24173e+06
0
-4.23479e+07
5.5619e+10
1.7808e+10
1.29639e+08
-3.50417e+08
1.63087e+09
0
-1.35589e+07
1.7808e+10
5.70175e+09
4.15075e+07
-1.12196e+08
5.2217e+08
0
-98705.9
1.29639e+08
4.15075e+07
302166
-816764
3.80129e+06
-0
266805
-3.50417e+08
-1.12196e+08
-816764
2.20774e+06
-1.0275e+07
0
-1.24173e+06
1.63087e+09
5.2217e+08
3.80129e+06
-1.0275e+07
4.78207e+07
0
-0
0
0
-0
-0
0
-0
621755
-1.47847e+08
-3.50065e+07
2.10356e+07
1.29737e+07
-2.95554e+06
0
-1.47847e+08
3.51564e+10
8.32417e+09
-5.00204e+09
-3.085e+09
7.02795e+08
0
-3.50065e+07
8.32417e+09
1.97096e+09
-1.18436e+09
-7.30454e+08
1.66405e+08
-0
2.10356e+07
-5.00204e+09
-1.18436e+09
7.11689e+08
4.38934e+08
-9.99935e+07
-0
1.29737e+07
-3.085e+09
-7.30454e+08
4.38934e+08
2.70712e+08
-6.16709e+07
0
-2.95554e+06
7.02795e+08
1.66405e+08
-9.99935e+07
-6.16709e+07
1.40493e+07
0
0
0
0
0
0
0
0
251845
1.38674e+08
5.47049e+07
1.89558e+07
8.28827e+06
4.92936e+06
0
1.38674e+08
7.6358e+10
3.01223e+10
1.04376e+10
4.56378e+09
2.71426e+09
0
5.47049e+07
3.01223e+10
1.18828e+10
4.11751e+09
1.80035e+09
1.07074e+09
0
1.89558e+07
1.04376e+10
4.11751e+09
1.42676e+09
6.23839e+08
3.71022e+08
0
8.28827e+06
4.56378e+09
1.80035e+09
6.23839e+08
2.72769e+08
1.62227e+08
0
4.92936e+06
2.71426e+09
1.07074e+09
3.71022e+08
1.62227e+08
9.64825e+07
0
-0
0
0
-0
-0
0
-0
210314
-9.98475e+07
-2.61663e+07
4.96296e+06
3.79727e+06
-2.3716e+06
0
-9.98475e+07
4.74031e+10
1.24226e+10
-2.35619e+09
-1.80277e+09
1.12593e+09
0
-2.61663e+07
1.24226e+10
3.25549e+09
-6.17468e+08
-4.72439e+08
2.95063e+08
-0
4.96296e+06
-2.35619e+09
-6.17468e+08
1.17115e+08
8.96076e+07
-5.59647e+07
-0
3.79727e+06
-1.80277e+09
-4.72439e+08
8.96076e+07
6.85608e+07
-4.28199e+07
0
-2.3716e+06
1.12593e+09
2.95063e+08
-5.59647e+07
-4.28199e+07
2.67433e+07
0
-0
0
0
-0
-0
0
-0
882759
-2.42509e+08
-7.37229e+07
1.60084e+07
7.28301e+06
-2.38105e+06
0
-2.42509e+08
6.66215e+10
2.0253e+10
-4.39778e+09
-2.00077e+09
6.54115e+08
0
-7.37229e+07
2.0253e+10
6.15692e+09
-1.33693e+09
-6.08235e+08
1.98851e+08
-0
1.60084e+07
-4.39778e+09
-1.33693e+09
2.90304e+08
1.32074e+08
-4.31791e+07
-0
7.28301e+06
-2.00077e+09
-6.08235e+08
1.32074e+08
6.0087e+07
-1.96443e+07
0
-2.38105e+06
6.54115e+08
1.98851e+08
-4.31791e+07
-1.96443e+07
6.42234e+06
0
-0
0
0
-0
-0
0
-0
360011
-1.2423e+08
-3.34974e+07
8.00921e+06
7.49815e+06
-2.68715e+06
0
-1.2423e+08
4.28686e+10
1.15591e+10
-2.76377e+09
-2.58741e+09
9.27265e+08
0
-3.34974e+07
1.15591e+10
3.11678e+09
-7.4522e+08
-6.97668e+08
2.50027e+08
-0
8.00921e+06
-2.76377e+09
-7.4522e+08
1.78182e+08
1.66812e+08
-5.97814e+07
-0
7.49815e+06
-2.58741e+09
-6.97668e+08
1.66812e+08
1.56168e+08
-5.59668e+07
0
-2.68715e+06
9.27265e+08
2.50027e+08
-5.97814e+07
-5.59668e+07
2.00571e+07
0
-0
0
0
-0
-0
0
-0
1.06918e+06
-1.8339e+08
-1.09656e+07
4.74407e+07
2.52561e+07
-1.14826e+06
0
-1.8339e+08
3.14558e+10
1.88087e+09
-8.13721e+09
-4.33203e+09
1.96955e+08
0
-1.09656e+07
1.88087e+09
1.12465e+08
-4.86557e+08
-2.59029e+08
1.17767e+07
-0
4.74407e+07
-8.13721e+09
-4.86557e+08
2.10499e+09
1.12064e+09
-5.09497e+07
-0
2.52561e+07
-4.33203e+09
-2.59029e+08
1.12064e+09
5.96597e+08
-2.71242e+07
0
-1.14826e+06
1.96955e+08
1.17767e+07
-5.09497e+07
-2.71242e+07
1.2332e+06
0
-0
0
0
0
0
0
-0
52993.2
-5.99332e+07
-2.08548e+07
-2.25243e+06
-582906
-1.44175e+06
0
-5.99332e+07
6.7782e+10
2.35859e+10
2.5474e+09
6.59243e+08
1.63057e+09
0
-2.08548e+07
2.35859e+10
8.20711e+09
8.86412e+08
2.29395e+08
5.67383e+08
0
-2.25243e+06
2.5474e+09
8.86412e+08
9.57373e+07
2.47759e+07
6.12804e+07
0
-582906
6.59243e+08
2.29395e+08
2.47759e+07
6.41175e+06
1.58588e+07
0
-1.44175e+06
1.63057e+09
5.67383e+08
6.12804e+07
1.58588e+07
3.92249e+07
0
-0
0
0
-0
-0
0
-0
128900
-8.09719e+07
-2.16397e+07
3.39815e+06
2.71957e+06
-1.782e+06
0
-8.09719e+07
5.08646e+10
1.35935e+10
-2.13464e+09
-1.70836e+09
1.11941e+09
0
-2.16397e+07
1.35935e+10
3.63287e+09
-5.70481e+08
-4.5656e+08
2.99162e+08
-0
3.39815e+06
-2.13464e+09
-5.70481e+08
8.95844e+07
7.1695e+07
-4.69783e+07
-0
2.71957e+06
-1.70836e+09
-4.5656e+08
7.1695e+07
5.7378e+07
-3.75971e+07
0
-1.782e+06
1.11941e+09
2.99162e+08
-4.69783e+07
-3.75971e+07
2.46355e+07
0
0
0
0
0
0
0
0
514994
2.2069e+08
9.18477e+07
4.00945e+07
1.77724e+07
1.1312e+07
0
2.2069e+08
9.45726e+10
3.93595e+10
1.71817e+10
7.61602e+09
4.84754e+09
0
9.18477e+07
3.93595e+10
1.63808e+10
7.15074e+09
3.16966e+09
2.01747e+09
0
4.00945e+07
1.71817e+10
7.15074e+09
3.12153e+09
1.38366e+09
8.80689e+08
0
1.77724e+07
7.61602e+09
3.16966e+09
1.38366e+09
6.13326e+08
3.90377e+08
0
1.1312e+07
4.84754e+09
2.01747e+09
8.80689e+08
3.90377e+08
2.48472e+08
0
0
0
0
0
0
0
0
201499
1.26787e+08
4.91549e+07
1.72494e+07
7.12729e+06
4.69518e+06
0
1.26787e+08
7.97765e+10
3.09292e+10
1.08537e+10
4.48462e+09
2.95429e+09
0
4.91549e+07
3.09292e+10
1.19912e+10
4.20794e+09
1.73868e+09
1.14537e+09
0
1.72494e+07
1.08537e+10
4.20794e+09
1.47665e+09
6.10136e+08
4.01933e+08
0
7.12729e+06
4.48462e+09
1.73868e+09
6.10136e+08
2.52102e+08
1.66075e+08
0
4.69518e+06
2.95429e+09
1.14537e+09
4.01933e+08
1.66075e+08
1.09403e+08
0
-0
0
0
-0
-0
0
-0
144859
-9.0228e+07
-2.46147e+07
1.80223e+06
1.26899e+06
-2.43971e+06
0
-9.0228e+07
5.62003e+10
1.53317e+10
-1.12255e+09
-7.90417e+08
1.51962e+09
0
-2.46147e+07
1.53317e+10
4.18258e+09
-3.06238e+08
-2.1563e+08
4.1456e+08
-0
1.80223e+06
-1.12255e+09
-3.06238e+08
2.2422e+07
1.57879e+07
-3.03531e+07
-0
1.26899e+06
-7.90417e+08
-2.1563e+08
1.57879e+07
1.11166e+07
-2.13723e+07
0
-2.43971e+06
1.51962e+09
4.1456e+08
-3.03531e+07
-2.13723e+07
4.10895e+07
0
-0
0
0
0
0
0
-0
67172.7
-7.11718e+07
-2.50942e+07
-2.40942e+06
-982824
-1.5748e+06
0
-7.11718e+07
7.54091e+10
2.65882e+10
2.55286e+09
1.04134e+09
1.66855e+09
0
-2.50942e+07
2.65882e+10
9.37465e+09
9.00105e+08
3.67162e+08
5.8831e+08
0
-2.40942e+06
2.55286e+09
9.00105e+08
8.64234e+07
3.52529e+07
5.64864e+07
0
-982824
