0
0
0
0
0
0
0
0
620791
2.02422e+08
6.98963e+07
2.36648e+07
1.51309e+07
4.73533e+06
0
2.02422e+08
6.60041e+10
2.27912e+10
7.71643e+09
4.93375e+09
1.54406e+09
0
6.98963e+07
2.27912e+10
7.86977e+09
2.66448e+09
1.70362e+09
5.33161e+08
0
2.36648e+07
7.71643e+09
2.66448e+09
9.02114e+08
5.76796e+08
1.80513e+08
0
1.51309e+07
4.93375e+09
1.70362e+09
5.76796e+08
3.68793e+08
1.15417e+08
0
4.73533e+06
1.54406e+09
5.33161e+08
1.80513e+08
1.15417e+08
3.61206e+07
0
-0
0
0
-0
-0
-0
-0
1.61388e+06
-2.5201e+08
-5.12621e+07
4.39441e+07
2.41312e+07
4.30409e+06
0
-2.5201e+08
3.93519e+10
8.00469e+09
-6.86197e+09
-3.76814e+09
-6.72093e+08
0
-5.12621e+07
8.00469e+09
1.62826e+09
-1.39581e+09
-7.66489e+08
-1.36712e+08
-0
4.39441e+07
-6.86197e+09
-1.39581e+09
1.19655e+09
6.57067e+08
1.17196e+08
-0
2.41312e+07
-3.76814e+09
-7.66489e+08
6.57067e+08
3.60818e+08
6.43562e+07
-0
4.30409e+06
-6.72093e+08
-1.36712e+08
1.17196e+08
6.43562e+07
1.14787e+07
0
0
0
0
0
0
0
0
585344
1.96061e+08
6.74611e+07
2.2431e+07
1.43684e+07
4.51841e+06
0
1.96061e+08
6.5671e+10
2.25962e+10
7.51327e+09
4.81273e+09
1.51345e+09
0
6.74611e+07
2.25962e+10
7.77491e+09
2.58518e+09
1.65597e+09
5.20748e+08
0
2.2431e+07
7.51327e+09
2.58518e+09
8.59577e+08
5.50613e+08
1.7315e+08
0
1.43684e+07
4.81273e+09
1.65597e+09
5.50613e+08
3.52703e+08
1.10913e+08
0
4.51841e+06
1.51345e+09
5.20748e+08
1.7315e+08
1.10913e+08
3.48787e+07
0
-0
0
0
-0
-0
-0
-0
1.46999e+06
-2.42512e+08
-5.05745e+07
3.97332e+07
2.17263e+07
3.78691e+06
0
-2.42512e+08
4.00085e+10
8.34356e+09
-6.55501e+09
-3.58432e+09
-6.24748e+08
0
-5.05745e+07
8.34356e+09
1.74e+09
-1.36701e+09
-7.47489e+08
-1.30288e+08
-0
3.97332e+07
-6.55501e+09
-1.36701e+09
1.07398e+09
5.87256e+08
1.02359e+08
-0
2.17263e+07
-3.58432e+09
-7.47489e+08
5.87256e+08
3.21114e+08
5.59704e+07
-0
3.78691e+06
-6.24748e+08
-1.30288e+08
1.02359e+08
5.59704e+07
9.75568e+06
0
0
0
0
0
0
0
0
142934
9.27231e+07
2.98984e+07
6.49029e+06
4.38478e+06
1.56472e+06
0
9.27231e+07
6.01508e+10
1.93955e+10
4.21034e+09
2.84447e+09
1.01505e+09
0
2.98984e+07
1.93955e+10
6.25404e+09
1.35762e+09
9.17193e+08
3.27302e+08
0
6.49029e+06
4.21034e+09
1.35762e+09
2.94709e+08
1.99103e+08
7.105e+07
0
4.38478e+06
2.84447e+09
9.17193e+08
1.99103e+08
1.34512e+08
4.80008e+07
0
1.56472e+06
1.01505e+09
3.27302e+08
7.105e+07
4.80008e+07
1.71291e+07
0
-0
0
0
-0
-0
-0
-0
1.32497e+06
-2.32248e+08
-4.96745e+07
3.55048e+07
1.9316e+07
3.27278e+06
0
-2.32248e+08
4.07097e+10
8.70722e+09
-6.22349e+09
-3.38583e+09
-5.73672e+08
0
-4.96745e+07
8.70722e+09
1.86235e+09
-1.33112e+09
-7.2418e+08
-1.227e+08
-0
3.55048e+07
-6.22349e+09
-1.33112e+09
9.51416e+08
5.17608e+08
8.77e+07
-0
1.9316e+07
-3.38583e+09
-7.2418e+08
5.17608e+08
2.81599e+08
4.77123e+07
-0
3.27278e+06
-5.73672e+08
-1.227e+08
8.77e+07
4.77123e+07
8.08405e+06
0
0
0
0
0
0
0
0
789393
2.30803e+08
8.09179e+07
2.94913e+07
1.87207e+07
5.74779e+06
0
2.30803e+08
6.74821e+10
2.36588e+10
8.62267e+09
5.47356e+09
1.68054e+09
0
8.09179e+07
2.36588e+10
8.29462e+09
3.02305e+09
1.91899e+09
5.89186e+08
0
2.94913e+07
8.62267e+09
3.02305e+09
1.10178e+09
6.99396e+08
2.14735e+08
0
1.87207e+07
5.47356e+09
1.91899e+09
6.99396e+08
4.43967e+08
1.36311e+08
0
5.74779e+06
1.68054e+09
5.89186e+08
2.14735e+08
1.36311e+08
4.18513e+07
0
-0
0
0
-0
-0
0
-0
181630
-9.47753e+07
-2.56503e+07
3.44557e+06
1.41827e+06
-198847
0
-9.47753e+07
4.94542e+10
1.33845e+10
-1.79792e+09
-7.4006e+08
1.03759e+08
0
-2.56503e+07
1.33845e+10
3.62241e+09
-4.86594e+08
-2.00292e+08
2.80818e+07
-0
3.44557e+06
-1.79792e+09
-4.86594e+08
6.53636e+07
2.6905e+07
-3.77219e+06
-0
1.41827e+06
-7.4006e+08
-2.00292e+08
2.6905e+07
1.10747e+07
-1.55271e+06
0
-198847
1.03759e+08
2.80818e+07
-3.77219e+06
-1.55271e+06
217696
0
0
0
0
0
0
0
0
7097.91
1.99586e+07
6.08103e+06
669087
517716
235660
0
1.99586e+07
5.61217e+10
1.70993e+10
1.88141e+09
1.45577e+09
6.62653e+08
0
6.08103e+06
1.70993e+10
5.20984e+09
5.73231e+08
4.43546e+08
2.01898e+08
0
669087
1.88141e+09
5.73231e+08
6.30718e+07
4.88027e+07
2.22146e+07
0
517716
1.45577e+09
4.43546e+08
4.88027e+07
3.77618e+07
1.71889e+07
0
235660
6.62653e+08
2.01898e+08
2.22146e+07
1.71889e+07
7.82422e+06
0
-0
0
0
-0
0
0
-0
43600.3
-4.7726e+07
-1.36338e+07
263022
-147484
-304670
0
-4.7726e+07
5.22421e+10
1.49239e+10
-2.87911e+08
1.6144e+08
3.33499e+08
0
-1.36338e+07
1.49239e+10
4.26327e+09
-8.22468e+07
4.61181e+07
9.527e+07
-0
263022
-2.87911e+08
-8.22468e+07
1.5867e+06
-889707
-1.83794e+06
0
-147484
1.6144e+08
4.61181e+07
-889707
498883
1.03059e+06
0
-304670
3.33499e+08
9.527e+07
-1.83794e+06
1.03059e+06
2.12897e+06
0
0
0
0
0
0
0
0
242534
1.22386e+08
4.02702e+07
1.02235e+07
6.75742e+06
2.29551e+06
0
1.22386e+08
6.17575e+10
2.03209e+10
5.15893e+09
3.40988e+09
1.15834e+09
0
4.02702e+07
2.03209e+10
6.68644e+09
1.69751e+09
1.122e+09
3.81144e+08
0
1.02235e+07
5.15893e+09
1.69751e+09
4.30953e+08
2.84845e+08
9.67625e+07
0
6.75742e+06
3.40988e+09
1.122e+09
2.84845e+08
1.88273e+08
6.39567e+07
0
2.29551e+06
1.15834e+09
3.81144e+08
9.67625e+07
6.39567e+07
2.17262e+07
0
0
0
0
0
0
0
0
83537.7
7.01543e+07
2.22525e+07
4.15378e+06
2.87454e+06
1.07871e+06
0
7.01543e+07
5.89151e+10
1.86875e+10
3.48831e+09
2.41402e+09
9.05895e+08
0
2.22525e+07
1.86875e+10
5.92755e+09
1.10647e+09
7.65711e+08
2.87344e+08
0
4.15378e+06
3.48831e+09
1.10647e+09
2.0654e+08
1.42932e+08
5.36372e+07
0
2.87454e+06
2.41402e+09
7.65711e+08
1.42932e+08
9.89133e+07
3.71186e+07
0
1.07871e+06
9.05895e+08
2.87344e+08
5.36372e+07
3.71186e+07
1.39293e+07
0
0
0
0
0
0
0
0
1.39216e+06
3.16285e+08
1.15538e+08
4.99607e+07
3.12425e+07
9.20307e+06
0
3.16285e+08
7.18569e+10
2.62491e+10
1.13506e+10
7.09798e+09
2.09085e+09
0
1.15538e+08
2.62491e+10
9.58868e+09
4.14632e+09
2.59287e+09
7.63778e+08
0
4.99607e+07
1.13506e+10
4.14632e+09
1.79294e+09
1.1212e+09
3.30271e+08
0
3.12425e+07
7.09798e+09
2.59287e+09
1.1212e+09
7.01134e+08
2.06532e+08
0
9.20307e+06
2.09085e+09
7.63778e+08
3.30271e+08
2.06532e+08
6.08381e+07
0
-0
0
0
-0
-0
-0
-0
5.78607e+06
-3.99521e+08
-3.29148e+07
1.68932e+08
9.63617e+07
2.06159e+07
0
-3.99521e+08
2.75864e+10
2.27272e+09
-1.16645e+10
-6.65365e+09
-1.4235e+09
0
-3.29148e+07
2.27272e+09
1.87239e+08
-9.60988e+08
-5.48165e+08
-1.17276e+08
-0
1.68932e+08
-1.16645e+10
-9.60988e+08
4.93218e+09
2.8134e+09
6.01907e+08
-0
9.63617e+07
-6.65365e+09
-5.48165e+08
2.8134e+09
1.60482e+09
3.43339e+08
-0
2.06159e+07
-1.4235e+09
-1.17276e+08
6.01907e+08
3.43339e+08
7.34549e+07
0
0
0
0
0
0
0
0
16987.5
3.10475e+07
9.5487e+06
1.22371e+06
912404
392001
0
3.10475e+07
5.67444e+10
1.74518e+10
2.23652e+09
1.66757e+09
7.16446e+08
0
9.5487e+06
1.74518e+10
5.36732e+09
6.87845e+08
5.12862e+08
2.20344e+08
0
1.22371e+06
2.23652e+09
6.87845e+08
8.81501e+07
6.57254e+07
2.8238e+07
0
912404
1.66757e+09
5.12862e+08
6.57254e+07
4.90054e+07
2.10544e+07
0
392001
7.16446e+08
2.20344e+08
2.8238e+07
2.10544e+07
9.04574e+06
0
0
0
0
0
0
0
0
182673
1.05423e+08
3.42955e+07
7.99933e+06
5.34832e+06
1.86519e+06
0
1.05423e+08
6.0841e+10
1.97924e+10
4.61652e+09
3.08659e+09
1.07642e+09
0
3.42955e+07
1.97924e+10
6.43873e+09
1.50182e+09
1.00411e+09
3.50175e+08
0
7.99933e+06
4.61652e+09
1.50182e+09
3.50294e+08
2.34206e+08
8.16774e+07
0
5.34832e+06
3.08659e+09
1.00411e+09
2.34206e+08
1.56589e+08
5.46092e+07
0
1.86519e+06
1.07642e+09
3.50175e+08
8.16774e+07
5.46092e+07
1.90445e+07
0
0
0
0
0
0
0
0
310787
1.39571e+08
4.64372e+07
1.27108e+07
8.32192e+06
2.76397e+06
0
1.39571e+08
6.26798e+10
2.08544e+10
5.7083e+09
3.73728e+09
1.24127e+09
0
4.64372e+07
2.08544e+10
6.93855e+09
1.89923e+09
1.24345e+09
4.12987e+08
0
1.27108e+07
5.7083e+09
1.89923e+09
5.1986e+08
3.40358e+08
1.13043e+08
0
8.32192e+06
3.73728e+09
1.24345e+09
3.40358e+08
2.22836e+08
7.40106e+07
0
2.76397e+06
1.24127e+09
4.12987e+08
1.13043e+08
7.40106e+07
2.45812e+07
0
-0
0
0
-0
-0
-0
-0
1.4114e+06
-2.38455e+08
-5.02377e+07
3.80229e+07
2.07508e+07
3.57828e+06
0
-2.38455e+08
4.02867e+10
8.48762e+09
-6.42394e+09
-3.50584e+09
-6.04548e+08
0
-5.02377e+07
8.48762e+09
1.78817e+09
-1.3534e+09
-7.3861e+08
-1.27366e+08
-0
3.80229e+07
-6.42394e+09
-1.3534e+09
1.02433e+09
5.59025e+08
9.63986e+07
-0
2.07508e+07
-3.50584e+09
-7.3861e+08
5.59025e+08
3.05085e+08
5.2609e+07
-0
3.57828e+06
-6.04548e+08
-1.27366e+08
9.63986e+07
5.2609e+07
9.07193e+06
0
-0
0
0
-0
-0
-0
-0
1.03087e+06
-2.08777e+08
-4.70545e+07
2.69898e+07
1.448e+07
2.25746e+06
0
-2.08777e+08
4.22826e+10
9.5297e+09
-5.46612e+09
-2.93256e+09
-4.57193e+08
0
-4.70545e+07
9.5297e+09
2.14781e+09
-1.23196e+09
-6.60943e+08
-1.03043e+08
-0
2.69898e+07
-5.46612e+09
-1.23196e+09
7.06636e+08
3.79109e+08
5.91039e+07
-0
1.448e+07
-2.93256e+09
-6.60943e+08
3.79109e+08
2.03391e+08
3.17091e+07
-0
2.25746e+06
-4.57193e+08
-1.03043e+08
5.91039e+07
3.17091e+07
4.94352e+06
0
-0
0
0
-0
-0
-0
-0
991204
-2.0528e+08
-4.66017e+07
2.58488e+07
1.38342e+07
2.12393e+06
0
-2.0528e+08
4.25137e+10
9.65127e+09
-5.35332e+09
-2.86508e+09
-4.39869e+08
0
-4.66017e+07
9.65127e+09
2.19099e+09
-1.21529e+09
-6.50417e+08
-9.98571e+07
-0
2.58488e+07
-5.35332e+09
-1.21529e+09
6.74091e+08
3.60771e+08
5.53883e+07
-0
1.38342e+07
-2.86508e+09
-6.50417e+08
3.60771e+08
1.93083e+08
2.96436e+07
-0
2.12393e+06
-4.39869e+08
-9.98571e+07
5.53883e+07
2.96436e+07
4.55111e+06
0
-0
0
0
-0
-0
-0
-0
704849
-1.76832e+08
-4.23757e+07
1.76843e+07
9.23468e+06
1.19289e+06
0
-1.76832e+08
4.43635e+10
1.06312e+10
-4.43661e+09
-2.31679e+09
-2.99271e+08
0
-4.23757e+07
1.06312e+10
2.54764e+09
-1.06318e+09
-5.55192e+08
-7.17169e+07
-0
1.76843e+07
-4.43661e+09
-1.06318e+09
4.43688e+08
2.31693e+08
2.99289e+07
-0
9.23468e+06
-2.31679e+09
-5.55192e+08
2.31693e+08
1.2099e+08
1.56288e+07
-0
1.19289e+06
-2.99271e+08
-7.17169e+07
2.99289e+07
1.56288e+07
2.01885e+06
0
0
0
0
0
0
0
0
649981
2.07546e+08
7.18675e+07
2.46783e+07
1.57565e+07
4.91278e+06
0
2.07546e+08
6.6272e+10
2.29481e+10
7.88007e+09
5.03123e+09
1.56871e+09
0
7.18675e+07
2.29481e+10
7.94629e+09
2.72865e+09
1.74217e+09
5.43199e+08
0
2.46783e+07
7.88007e+09
2.72865e+09
9.36981e+08
5.98239e+08
1.86527e+08
0
1.57565e+07
5.03123e+09
1.74217e+09
5.98239e+08
3.81961e+08
1.19093e+08
0
4.91278e+06
1.56871e+09
5.43199e+08
1.86527e+08
1.19093e+08
3.71325e+07
0
-0
0
0
-0
-0
-0
-0
3.14585e+06
-3.26458e+08
-5.05974e+07
8.93796e+07
5.02569e+07
1.00849e+07
0
-3.26458e+08
3.3878e+10
5.25071e+09
-9.27531e+09
-5.21538e+09
-1.04655e+09
0
-5.05974e+07
5.25071e+09
8.13803e+08
-1.43757e+09
-8.08326e+08
-1.62204e+08
-0
8.93796e+07
-9.27531e+09
-1.43757e+09
2.53945e+09
1.4279e+09
2.86531e+08
-0
5.02569e+07
-5.21538e+09
-8.08326e+08
1.4279e+09
8.02886e+08
1.61112e+08
-0
1.00849e+07
-1.04655e+09
-1.62204e+08
2.86531e+08
1.61112e+08
3.23298e+07
0
-0
0
0
0
0
0
-0
517.028
-5.31751e+06
-1.58407e+06
-104200
-94580.1
-52495.4
0
-5.31751e+06
5.46892e+10
1.62918e+10
1.07167e+09
9.72733e+08
5.39902e+08
0
-1.58407e+06
1.62918e+10
4.85328e+09
3.19247e+08
2.89775e+08
1.60835e+08
0
-104200
1.07167e+09
3.19247e+08
2.09999e+07
1.90613e+07
1.05797e+07
0
-94580.1
9.72733e+08
2.89775e+08
1.90613e+07
1.73016e+07
9.60299e+06
0
-52495.4
5.39902e+08
1.60835e+08
1.05797e+07
9.60299e+06
5.33001e+06
0
-0
0
0
-0
-0
-0
-0
1.51001e+06
-2.45218e+08
-5.0785e+07
4.0903e+07
2.2394e+07
3.93009e+06
0
-2.45218e+08
3.98222e+10
8.24725e+09
-6.64245e+09
-3.63667e+09
-6.38229e+08
0
-5.0785e+07
8.24725e+09
1.70802e+09
-1.37566e+09
-7.5316e+08
-1.32178e+08
-0
4.0903e+07
-6.64245e+09
-1.37566e+09
1.10798e+09
6.06606e+08
1.06458e+08
-0
2.2394e+07
-3.63667e+09
-7.5316e+08
6.06606e+08
3.3211e+08
5.82847e+07
-0
3.93009e+06
-6.38229e+08
-1.32178e+08
1.06458e+08
5.82847e+07
1.02289e+07
0
-0
0
0
0
0
0
-0
1439.52
-8.85639e+06
-2.62963e+06
-155757
-147111
-84960.1
0
-8.85639e+06
5.44872e+10
1.61783e+10
9.58263e+08
9.05075e+08
5.227e+08
0
-2.62963e+06
1.61783e+10
4.80364e+09
2.84526e+08
2.68734e+08
1.552e+08
0
-155757
9.58263e+08
2.84526e+08
1.68529e+07
1.59175e+07
9.1927e+06
0
-147111
9.05075e+08
2.68734e+08
1.59175e+07
1.5034e+07
8.68246e+06
0
-84960.1
5.227e+08
1.552e+08
9.1927e+06
8.68246e+06
5.01431e+06
0
0
0
0
0
0
0
0
1.46772e+06
3.25843e+08
1.19531e+08
5.25002e+07
3.27894e+07
9.62426e+06
0
3.25843e+08
7.23395e+10
2.65367e+10
1.16554e+10
7.27948e+09
2.13665e+09
0
1.19531e+08
2.65367e+10
9.73461e+09
4.27563e+09
2.67037e+09
7.83801e+08
0
5.25002e+07
1.16554e+10
4.27563e+09
1.87794e+09
1.17288e+09
3.4426e+08
0
3.27894e+07
7.27948e+09
2.67037e+09
1.17288e+09
7.3253e+08
2.1501e+08
0
9.62426e+06
2.13665e+09
7.83801e+08
3.4426e+08
2.1501e+08
6.31093e+07
0
-0
0
0
-0
-0
-0
-0
676613
-1.73651e+08
-4.18466e+07
1.68877e+07
8.78849e+06
1.10495e+06
0
-1.73651e+08
4.45672e+10
1.07398e+10
-4.33419e+09
-2.25555e+09
-2.83583e+08
0
-4.18466e+07
1.07398e+10
2.5881e+09
-1.04446e+09
-5.43544e+08
-6.8338e+07
-0
1.68877e+07
-4.33419e+09
-1.04446e+09
4.21502e+08
2.19353e+08
2.75786e+07
-0
8.78849e+06
-2.25555e+09
-5.43544e+08
2.19353e+08
1.14153e+08
1.43521e+07
-0
1.10495e+06
-2.83583e+08
-6.8338e+07
2.75786e+07
1.43521e+07
1.80445e+06
0
0
0
0
0
0
0
0
504620
1.80935e+08
6.17237e+07
1.96066e+07
1.26196e+07
4.01783e+06
0
1.80935e+08
6.48759e+10
2.21315e+10
7.0301e+09
4.52488e+09
1.44063e+09
0
6.17237e+07
2.21315e+10
7.54987e+09
2.39822e+09
1.5436e+09
4.9145e+08
0
1.96066e+07
7.0301e+09
2.39822e+09
7.61798e+08
4.90326e+08
1.5611e+08
0
1.26196e+07
4.52488e+09
1.5436e+09
4.90326e+08
3.15595e+08
1.00479e+08
0
4.01783e+06
1.44063e+09
4.9145e+08
1.5611e+08
1.00479e+08
3.19904e+07
0
0
0
0
0
0
0
0
546143
1.88835e+08
6.47104e+07
2.10621e+07
1.35215e+07
4.27654e+06
0
1.88835e+08
6.52916e+10
2.23743e+10
7.28244e+09
4.67521e+09
1.47866e+09
0
6.47104e+07
2.23743e+10
7.6673e+09
2.49557e+09
1.60211e+09
5.06712e+08
0
2.10621e+07
7.28244e+09
2.49557e+09
8.12262e+08
5.21459e+08
1.64925e+08
0
1.35215e+07
4.67521e+09
1.60211e+09
5.21459e+08
3.34769e+08
1.0588e+08
0
4.27654e+06
1.47866e+09
5.06712e+08
1.64925e+08
1.0588e+08
3.34872e+07
0
0
0
0
0
0
0
0
4.10196e+06
5.91611e+08
2.38554e+08
1.39521e+08
8.54062e+07
2.36155e+07
0
5.91611e+08
8.53261e+10
3.44059e+10
2.01227e+10
1.23178e+10
3.40598e+09
0
2.38554e+08
3.44059e+10
1.38734e+10
8.11402e+09
4.9669e+09
1.37339e+09
0
1.39521e+08
2.01227e+10
8.11402e+09
4.74558e+09
2.90495e+09
8.03241e+08
0
8.54062e+07
1.23178e+10
4.9669e+09
2.90495e+09
1.77823e+09
4.91695e+08
0
2.36155e+07
3.40598e+09
1.37339e+09
8.03241e+08
4.91695e+08
1.35957e+08
0
-0
0
0
-0
-0
-0
-0
778905
-1.8481e+08
-4.36546e+07
1.97817e+07
1.04121e+07
1.42728e+06
0
-1.8481e+08
4.38497e+10
1.03579e+10
-4.69359e+09
-2.47046e+09
-3.3865e+08
0
-4.36546e+07
1.03579e+10
2.44667e+09
-1.10869e+09
-5.83555e+08
-7.99936e+07
-0
1.97817e+07
-4.69359e+09
-1.10869e+09
5.02393e+08
2.64433e+08
3.62484e+07
-0
1.04121e+07
-2.47046e+09
-5.83555e+08
2.64433e+08
1.39184e+08
1.90793e+07
-0
1.42728e+06
-3.3865e+08
-7.99936e+07
3.62484e+07
1.90793e+07
2.61538e+06
0
0
0
0
0
0
0
0
3.79492e+06
5.64758e+08
2.25916e+08
1.29471e+08
7.93539e+07
2.20271e+07
0
5.64758e+08
8.40469e+10
3.36206e+10
1.92679e+10
1.18094e+10
3.27807e+09
0
2.25916e+08
3.36206e+10
1.3449e+10
7.70757e+09
4.72402e+09
1.3113e+09
0
1.29471e+08
1.92679e+10
7.70757e+09
4.41718e+09
2.70732e+09
7.51501e+08
0
7.93539e+07
1.18094e+10
4.72402e+09
2.70732e+09
1.65934e+09
4.606e+08
0
2.20271e+07
3.27807e+09
1.3113e+09
7.51501e+08
4.606e+08
1.27854e+08
0
-0
0
0
-0
-0
-0
-0
757820
-1.82589e+08
-4.33057e+07
1.91834e+07
1.00759e+07
1.36003e+06
0
-1.82589e+08
4.39931e+10
1.04341e+10
-4.62205e+09
-2.42768e+09
-3.27685e+08
0
-4.33057e+07
1.04341e+10
2.4747e+09
-1.09624e+09
-5.75785e+08
-7.77188e+07
-0
1.91834e+07
-4.62205e+09
-1.09624e+09
4.85607e+08
2.55059e+08
3.44276e+07
-0
1.00759e+07
-2.42768e+09
-5.75785e+08
2.55059e+08
1.33967e+08
1.80827e+07
-0
1.36003e+06
-3.27685e+08
-7.77188e+07
3.44276e+07
1.80827e+07
2.44078e+06
0
-0
0
0
0
0
0
-0
2054.25
-1.05702e+07
-3.13345e+06
-175558
-169527
-99964.2
0
-1.05702e+07
5.43892e+10
1.61233e+10
9.0334e+08
8.72307e+08
5.14369e+08
0
-3.13345e+06
1.61233e+10
4.77963e+09
2.67789e+08
2.58589e+08
1.52481e+08
0
-175558
9.0334e+08
2.67789e+08
1.50034e+07
1.4488e+07
8.54305e+06
0
-169527
8.72307e+08
2.58589e+08
1.4488e+07
1.39903e+07
8.24956e+06
0
-99964.2
5.14369e+08
1.52481e+08
8.54305e+06
8.24956e+06
4.86448e+06
0
-0
0
0
-0
-0
-0
-0
1.28974e+06
-2.29637e+08
-4.94207e+07
3.44805e+07
1.87329e+07
3.14911e+06
0
-2.29637e+08
4.08867e+10
8.79931e+09
-6.13921e+09
-3.33538e+09
-5.60696e+08
0
-4.94207e+07
8.79931e+09
1.89372e+09
-1.32123e+09
-7.17814e+08
-1.20669e+08
-0
3.44805e+07
-6.13921e+09
-1.32123e+09
9.21815e+08
5.00813e+08
8.41896e+07
-0
1.87329e+07
-3.33538e+09
-7.17814e+08
5.00813e+08
2.72087e+08
4.57394e+07
-0
3.14911e+06
-5.60696e+08
-1.20669e+08
8.41896e+07
4.57394e+07
7.68907e+06
0
0
0
0
0
0
0
0
84313.2
7.04903e+07
2.23647e+07
4.18521e+06
2.89507e+06
1.08548e+06
0
7.04903e+07
5.89335e+10
1.8698e+10
3.49906e+09
2.42043e+09
9.07521e+08
0
2.23647e+07
1.8698e+10
5.93239e+09
1.11016e+09
7.67937e+08
2.87932e+08
0
4.18521e+06
3.49906e+09
1.11016e+09
2.07749e+08
1.43708e+08
5.38822e+07
0
2.89507e+06
2.42043e+09
7.67937e+08
1.43708e+08
9.94081e+07
3.72723e+07
0
1.08548e+06
9.07521e+08
2.87932e+08
5.38822e+07
3.72723e+07
1.3975e+07
0
-0
0
0
-0
-0
0
-0
85809.4
-6.62533e+07
-1.85477e+07
1.14274e+06
250442
-314898
0
-6.62533e+07
5.11541e+10
1.43206e+10
-8.82307e+08
-1.93366e+08
2.43132e+08
0
-1.85477e+07
1.43206e+10
4.00907e+09
-2.47002e+08
-5.41329e+07
6.8065e+07
-0
1.14274e+06
-8.82307e+08
-2.47002e+08
1.52181e+07
3.33518e+06
-4.19355e+06
-0
250442
-1.93366e+08
-5.41329e+07
3.33518e+06
730936
-919056
0
-314898
2.43132e+08
6.8065e+07
-4.19355e+06
-919056
1.15559e+06
0
0
0
0
0
0
0
0
497395
1.79533e+08
6.11957e+07
1.93527e+07
1.24622e+07
3.97253e+06
0
1.79533e+08
6.4802e+10
2.20884e+10
6.9853e+09
4.49819e+09
1.43387e+09
0
6.11957e+07
2.20884e+10
7.52905e+09
2.38101e+09
1.53325e+09
4.8875e+08
0
1.93527e+07
6.9853e+09
2.38101e+09
7.52978e+08
4.8488e+08
1.54564e+08
0
1.24622e+07
4.49819e+09
1.53325e+09
4.8488e+08
3.12239e+08
9.95315e+07
0
3.97253e+06
1.43387e+09
4.8875e+08
1.54564e+08
9.95315e+07
3.17273e+07
0
0
0
0
0
0
0
0
679290
2.12596e+08
7.38181e+07
2.56938e+07
1.63828e+07
5.08997e+06
0
2.12596e+08
6.65355e+10
2.31026e+10
8.04132e+09
5.12728e+09
1.593e+09
0
7.38181e+07
2.31026e+10
8.02177e+09
2.79213e+09
1.78031e+09
5.53125e+08
0
2.56938e+07
8.04132e+09
2.79213e+09
9.71854e+08
6.19671e+08
1.92526e+08
0
1.63828e+07
5.12728e+09
1.78031e+09
6.19671e+08
3.95113e+08
1.22758e+08
0
5.08997e+06
1.593e+09
5.53125e+08
1.92526e+08
1.22758e+08
3.81396e+07
0
-0
0
0
-0
-0
-0
-0
1.21762e+06
-2.24135e+08
-4.88541e+07
3.23865e+07
1.7542e+07
2.89751e+06
0
-2.24135e+08
4.1258e+10
8.9929e+09
-5.9616e+09
-3.22906e+09
-5.33363e+08
0
-4.88541e+07
8.9929e+09
1.96016e+09
-1.29943e+09
-7.0383e+08
-1.16256e+08
-0
3.23865e+07
-5.9616e+09
-1.29943e+09
8.61424e+08
4.66585e+08
7.70686e+07
-0
1.7542e+07
-3.22906e+09
-7.0383e+08
4.66585e+08
2.52723e+08
4.17437e+07
-0
2.89751e+06
-5.33363e+08
-1.16256e+08
7.70686e+07
4.17437e+07
6.89505e+06
0
0
0
0
0
0
0
0
3.17339e+06
5.08e+08
1.99614e+08
1.09074e+08
6.70556e+07
1.87872e+07
0
5.08e+08
8.13212e+10
3.19544e+10
1.74607e+10
1.07343e+10
3.00748e+09
0
1.99614e+08
3.19544e+10
1.25562e+10
6.861e+09
4.21795e+09
1.18176e+09
0
1.09074e+08
1.74607e+10
6.861e+09
3.74902e+09
2.30479e+09
6.45742e+08
0
6.70556e+07
1.07343e+10
4.21795e+09
2.30479e+09
1.41692e+09
3.96985e+08
0
1.87872e+07
3.00748e+09
1.18176e+09
6.45742e+08
3.96985e+08
1.11225e+08
0
0
0
0
0
0
0
0
418532
1.63614e+08
5.52486e+07
1.65677e+07
1.07314e+07
3.47175e+06
0
1.63614e+08
6.39602e+10
2.15979e+10
6.47667e+09
4.19514e+09
1.35718e+09
0
5.52486e+07
2.15979e+10
7.29312e+09
2.18702e+09
1.4166e+09
4.5829e+08
0
1.65677e+07
6.47667e+09
2.18702e+09
6.55833e+08
4.24804e+08
1.3743e+08
0
1.07314e+07
4.19514e+09
1.4166e+09
4.24804e+08
2.75158e+08
8.90174e+07
0
3.47175e+06
1.35718e+09
4.5829e+08
1.3743e+08
8.90174e+07
2.87983e+07
0
0
0
0
0
0
0
0
4.07645e+06
5.89406e+08
2.37512e+08
1.38687e+08
8.49038e+07
2.34838e+07
0
5.89406e+08
8.52213e+10
3.43415e+10
2.00525e+10
1.22761e+10
3.39548e+09
0
2.37512e+08
3.43415e+10
1.38385e+10
8.08051e+09
4.94688e+09
1.36827e+09
0
1.38687e+08
2.00525e+10
8.08051e+09
4.71832e+09
2.88855e+09
7.98953e+08
0
8.49038e+07
1.22761e+10
4.94688e+09
2.88855e+09
1.76837e+09
4.89118e+08
0
2.34838e+07
3.39548e+09
1.36827e+09
7.98953e+08
4.89118e+08
1.35287e+08
0
-0
0
0
-0
-0
0
-0
157614
-8.8617e+07
-2.41666e+07
2.84605e+06
1.10623e+06
-238119
0
-8.8617e+07
4.98239e+10
1.35874e+10
-1.60016e+09
-6.21968e+08
1.3388e+08
0
-2.41666e+07
1.35874e+10
3.70539e+09
-4.36377e+08
-1.69616e+08
3.65101e+07
-0
2.84605e+06
-1.60016e+09
-4.36377e+08
5.13913e+07
1.99753e+07
-4.29972e+06
-0
1.10623e+06
-6.21968e+08
-1.69616e+08
1.99753e+07
7.76422e+06
-1.67126e+06
0
-238119
1.3388e+08
3.65101e+07
-4.29972e+06
-1.67126e+06
359742
0
0
0
0
0
0
0
0
256396
1.26035e+08
4.15701e+07
1.07323e+07
7.07826e+06
2.39228e+06
0
1.26035e+08
6.19538e+10
2.04343e+10
5.27558e+09
3.4794e+09
1.17595e+09
0
4.15701e+07
2.04343e+10
6.73987e+09
1.74005e+09
1.14762e+09
3.87866e+08
0
1.07323e+07
5.27558e+09
1.74005e+09
4.49234e+08
2.96283e+08
1.00137e+08
0
7.07826e+06
3.4794e+09
1.14762e+09
2.96283e+08
1.95408e+08
6.6043e+07
0
2.39228e+06
1.17595e+09
3.87866e+08
1.00137e+08
6.6043e+07
2.23209e+07
0
-0
0
0
-0
-0
-0
-0
977607
-2.04059e+08
-4.64401e+07
2.54582e+07
1.36132e+07
2.07838e+06
0
-2.04059e+08
4.25941e+10
9.69362e+09
-5.31398e+09
-2.84154e+09
-4.33827e+08
0
-4.64401e+07
9.69362e+09
2.20609e+09
-1.20936e+09
-6.46681e+08
-9.8731e+07
-0
2.54582e+07
-5.31398e+09
-1.20936e+09
6.62965e+08
3.54507e+08
5.41237e+07
-0
1.36132e+07
-2.84154e+09
-6.46681e+08
3.54507e+08
1.89565e+08
2.89415e+07
-0
2.07838e+06
-4.33827e+08
-9.8731e+07
5.41237e+07
2.89415e+07
4.4186e+06
0
-0
0
0
-0
0
0
-0
34307.2
-4.24596e+07
-1.21965e+07
96152.6
-211898
-290203
0
-4.24596e+07
5.25492e+10
1.50947e+10
-1.19001e+08
2.62251e+08
3.59164e+08
0
-1.21965e+07
1.50947e+10
4.33594e+09
-3.4183e+07
7.53315e+07
1.0317e+08
-0
96152.6
-1.19001e+08
-3.4183e+07
269486
-593886
-813351
0
-211898
2.62251e+08
7.53315e+07
-593886
1.30879e+06
1.79244e+06
0
-290203
3.59164e+08
1.0317e+08
-813351
1.79244e+06
2.45482e+06
0
-0
0
0
-0
-0
-0
-0
2.17996e+06
-2.84237e+08
-5.24289e+07
6.06265e+07
3.36928e+07
6.39161e+06
0
-2.84237e+08
3.70608e+10
6.83604e+09
-7.90489e+09
-4.39309e+09
-8.33382e+08
0
-5.24289e+07
6.83604e+09
1.26094e+09
-1.45809e+09
-8.10326e+08
-1.53721e+08
-0
6.06265e+07
-7.90489e+09
-1.45809e+09
1.68608e+09
9.37025e+08
1.77756e+08
-0
3.36928e+07
-4.39309e+09
-8.10326e+08
9.37025e+08
5.20746e+08
9.87869e+07
-0
6.39161e+06
-8.33382e+08
-1.53721e+08
1.77756e+08
9.87869e+07
1.87402e+07
0
0
0
0
0
0
0
0
2.57949e+06
4.49995e+08
1.73352e+08
8.94978e+07
5.52303e+07
1.56525e+07
0
4.49995e+08
7.85022e+10
3.02415e+10
1.5613e+10
9.63499e+09
2.7306e+09
0
1.73352e+08
3.02415e+10
1.165e+10
6.01462e+09
3.7117e+09
1.05191e+09
0
8.94978e+07
1.5613e+10
6.01462e+09
3.10521e+09
1.91627e+09
5.43079e+08
0
5.52303e+07
9.63499e+09
3.7117e+09
1.91627e+09
1.18255e+09
3.35141e+08
0
1.56525e+07
2.7306e+09
1.05191e+09
5.43079e+08
3.35141e+08
9.49806e+07
0
-0
0
0
-0
-0
-0
-0
1.25242e+06
-2.26817e+08
-4.91357e+07
3.33963e+07
1.81161e+07
3.01864e+06
0
-2.26817e+08
4.10773e+10
8.89861e+09
-6.04817e+09
-3.28088e+09
-5.46684e+08
0
-4.91357e+07
8.89861e+09
1.92772e+09
-1.31022e+09
-7.10741e+08
-1.18429e+08
-0
3.33963e+07
-6.04817e+09
-1.31022e+09
8.90527e+08
4.83074e+08
8.04932e+07
-0
1.81161e+07
-3.28088e+09
-7.10741e+08
4.83074e+08
2.62047e+08
4.36642e+07
-0
3.01864e+06
-5.46684e+08
-1.18429e+08
8.04932e+07
4.36642e+07
7.27565e+06
0
0
0
0
0
0
0
0
3708.4
1.4386e+07
4.36206e+06
438976
347821
163846
0
1.4386e+07
5.58074e+10
1.69217e+10
1.70292e+09
1.3493e+09
6.35606e+08
0
4.36206e+06
1.69217e+10
5.13093e+09
5.16352e+08
4.0913e+08
1.92726e+08
0
438976
1.70292e+09
5.16352e+08
5.19632e+07
4.11729e+07
1.9395e+07
0
347821
1.3493e+09
4.0913e+08
4.11729e+07
3.26232e+07
1.53676e+07
0
163846
6.35606e+08
1.92726e+08
1.9395e+07
1.53676e+07
7.23908e+06
0
-0
0
0
-0
-0
-0
-0
2.68724e+06
-3.0799e+08
-5.19396e+07
7.56918e+07
4.23613e+07
8.31505e+06
0
-3.0799e+08
3.52994e+10
5.95291e+09
-8.67521e+09
-4.85512e+09
-9.53006e+08
0
-5.19396e+07
5.95291e+09
1.0039e+09
-1.46299e+09
-8.1877e+08
-1.60715e+08
-0
7.56918e+07
-8.67521e+09
-1.46299e+09
2.13202e+09
1.1932e+09
2.34211e+08
-0
4.23613e+07
-4.85512e+09
-8.1877e+08
1.1932e+09
6.6778e+08
1.31078e+08
-0
8.31505e+06
-9.53006e+08
-1.60715e+08
2.34211e+08
1.31078e+08
2.57291e+07
0
-0
0
0
-0
-0
-0
-0
371822
-1.32419e+08
-3.40698e+07
8.44487e+06
4.10687e+06
226649
0
-1.32419e+08
4.71591e+10
1.21335e+10
-3.00752e+09
-1.4626e+09
-8.07176e+07
0
-3.40698e+07
1.21335e+10
3.12179e+09
-7.73797e+08
-3.7631e+08
-2.07676e+07
-0
8.44487e+06
-3.00752e+09
-7.73797e+08
1.91801e+08
9.32758e+07
5.14767e+06
-0
4.10687e+06
-1.4626e+09
-3.7631e+08
9.32758e+07
4.53615e+07
2.50339e+06
-0
226649
-8.07176e+07
-2.07676e+07
5.14767e+06
2.50339e+06
138156
0
-0
0
0
0
0
0
-0
21153
-3.35049e+07
-9.71291e+06
-106162
-273765
-254292
0
-3.35049e+07
5.30692e+10
1.53845e+10
1.68153e+08
4.33623e+08
4.0278e+08
0
-9.71291e+06
1.53845e+10
4.45991e+09
4.87468e+07
1.25705e+08
1.16764e+08
0
-106162
1.68153e+08
4.87468e+07
532802
1.37396e+06
1.27623e+06
0
-273765
4.33623e+08
1.25705e+08
1.37396e+06
3.54309e+06
3.29108e+06
0
-254292
4.0278e+08
1.16764e+08
1.27623e+06
3.29108e+06
3.05699e+06
0
-0
0
0
-0
-0
-0
-0
464486
-1.46612e+08
-3.69301e+07
1.09743e+07
5.49783e+06
476628
0
-1.46612e+08
4.62769e+10
1.16567e+10
-3.46395e+09
-1.73535e+09
-1.50444e+08
0
-3.69301e+07
1.16567e+10
2.93622e+09
-8.72537e+08
-4.37119e+08
-3.78955e+07
-0
1.09743e+07
-3.46395e+09
-8.72537e+08
2.59286e+08
1.29896e+08
1.12612e+07
-0
5.49783e+06
-1.73535e+09
-4.37119e+08
1.29896e+08
6.50744e+07
5.64155e+06
-0
476628
-1.50444e+08
-3.78955e+07
1.12612e+07
5.64155e+06
489088
0
0
0
0
0
0
0
0
999708
2.62902e+08
9.36779e+07
3.66847e+07
2.31341e+07
6.97678e+06
0
2.62902e+08
6.91379e+10
2.46353e+10
9.64732e+09
6.0838e+09
1.83475e+09
0
9.36779e+07
2.46353e+10
8.77812e+09
3.43755e+09
2.16779e+09
6.53761e+08
0
3.66847e+07
9.64732e+09
3.43755e+09
1.34616e+09
8.48918e+08
2.56016e+08
0
2.31341e+07
6.0838e+09
2.16779e+09
8.48918e+08
5.35345e+08
1.61449e+08
0
6.97678e+06
1.83475e+09
6.53761e+08
2.56016e+08
1.61449e+08
4.86897e+07
0
-0
0
0
-0
-0
-0
-0
880800
-1.95033e+08
-4.51885e+07
2.26847e+07
1.20467e+07
1.75754e+06
0
-1.95033e+08
4.31858e+10
1.0006e+10
-5.02302e+09
-2.66748e+09
-3.89169e+08
0
-4.51885e+07
1.0006e+10
2.31834e+09
-1.16381e+09
-6.18045e+08
-9.01688e+07
-0
2.26847e+07
-5.02302e+09
-1.16381e+09
5.84236e+08
3.1026e+08
4.52649e+07
-0
1.20467e+07
-2.66748e+09
-6.18045e+08
3.1026e+08
1.64764e+08
2.4038e+07
-0
1.75754e+06
-3.89169e+08
-9.01688e+07
4.52649e+07
2.4038e+07
3.50699e+06
0
-0
0
0
-0
-0
-0
-0
733112
-1.79936e+08
-4.28817e+07
1.84834e+07
9.68285e+06
1.28173e+06
0
-1.79936e+08
4.4164e+10
1.0525e+10
-4.5366e+09
-2.37658e+09
-3.1459e+08
0
-4.28817e+07
1.0525e+10
2.50827e+09
-1.08114e+09
-5.66376e+08
-7.49718e+07
-0
1.84834e+07
-4.5366e+09
-1.08114e+09
4.66008e+08
2.44126e+08
3.23152e+07
-0
9.68285e+06
-2.37658e+09
-5.66376e+08
2.44126e+08
1.2789e+08
1.69289e+07
-0
1.28173e+06
-3.1459e+08
-7.49718e+07
3.23152e+07
1.69289e+07
2.2409e+06
0
-0
0
0
-0
-0
-0
-0
781894
-1.85122e+08
-4.37031e+07
1.98666e+07
1.04598e+07
1.43685e+06
0
-1.85122e+08
4.38296e+10
1.03472e+10
-4.70363e+09
-2.47646e+09
-3.40189e+08
0
-4.37031e+07
1.03472e+10
2.44274e+09
-1.11042e+09
-5.84638e+08
-8.03111e+07
-0
1.98666e+07
-4.70363e+09
-1.11042e+09
5.04777e+08
2.65765e+08
3.65079e+07
-0
1.04598e+07
-2.47646e+09
-5.84638e+08
2.65765e+08
1.39925e+08
1.92214e+07
-0
1.43685e+06
-3.40189e+08
-8.03111e+07
3.65079e+07
1.92214e+07
2.64043e+06
0
0
0
0
0
0
0
0
656250
2.08634e+08
7.2287e+07
2.48957e+07
1.58906e+07
4.95076e+06
0
2.08634e+08
6.63288e+10
2.29814e+10
7.91481e+09
5.05193e+09
1.57394e+09
0
7.2287e+07
2.29814e+10
7.96254e+09
2.7423e+09
1.75038e+09
5.45335e+08
0
2.48957e+07
7.91481e+09
2.7423e+09
9.44451e+08
6.02831e+08
1.87814e+08
0
1.58906e+07
5.05193e+09
1.75038e+09
6.02831e+08
3.84779e+08
1.19879e+08
0
4.95076e+06
1.57394e+09
5.45335e+08
1.87814e+08
1.19879e+08
3.73486e+07
0
-0
0
0
-0
0
0
-0
53046.6
-5.25019e+07
-1.4922e+07
445682
-70728
-313435
0
-5.25019e+07
5.19628e+10
1.47687e+10
-4.41106e+08
7.00018e+07
3.10217e+08
0
-1.4922e+07
1.47687e+10
4.19753e+09
-1.2537e+08
1.98957e+07
8.8169e+07
-0
445682
-4.41106e+08
-1.2537e+08
3.74449e+06
-594236
-2.63339e+06
0
-70728
7.00018e+07
1.98957e+07
-594236
94303
417909
0
-313435
3.10217e+08
8.8169e+07
-2.63339e+06
417909
1.85199e+06
0
-0
0
0
-0
-0
-0
-0
1.66472e+06
-2.5522e+08
-5.14614e+07
4.54354e+07
2.49839e+07
4.48834e+06
0
-2.5522e+08
3.91281e+10
7.88962e+09
-6.96576e+09
-3.83031e+09
-6.88113e+08
0
-5.14614e+07
7.88962e+09
1.59083e+09
-1.40454e+09
-7.72325e+08
-1.38748e+08
-0
4.54354e+07
-6.96576e+09
-1.40454e+09
1.24007e+09
6.81887e+08
1.22501e+08
-0
2.49839e+07
-3.83031e+09
-7.72325e+08
6.81887e+08
3.74954e+08
6.73604e+07
-0
4.48834e+06
-6.88113e+08
-1.38748e+08
1.22501e+08
6.73604e+07
1.21013e+07
0
-0
0
0
-0
-0
0
-0
75691.5
-6.23642e+07
-1.7535e+07
919395
144271
-318125
0
-6.23642e+07
5.13835e+10
1.44476e+10
-7.57513e+08
-1.18868e+08
2.62112e+08
0
-1.7535e+07
1.44476e+10
4.06224e+09
-2.12991e+08
-3.34223e+07
7.36983e+07
-0
919395
-7.57513e+08
-2.12991e+08
1.11675e+07
1.7524e+06
-3.86414e+06
-0
144271
-1.18868e+08
-3.34223e+07
1.7524e+06
274984
-606357
0
-318125
2.62112e+08
7.36983e+07
-3.86414e+06
-606357
1.33705e+06
0
0
0
0
0
0
0
0
423876
1.64731e+08
5.56631e+07
1.67572e+07
1.08494e+07
3.50608e+06
0
1.64731e+08
6.40195e+10
2.16324e+10
6.51238e+09
4.21641e+09
1.36257e+09
0
5.56631e+07
2.16324e+10
7.30965e+09
2.20055e+09
1.42474e+09
4.60416e+08
0
1.67572e+07
6.51238e+09
2.20055e+09
6.62471e+08
4.28914e+08
1.38607e+08
0
1.08494e+07
4.21641e+09
1.42474e+09
4.28914e+08
2.77699e+08
8.97407e+07
0
3.50608e+06
1.36257e+09
4.60416e+08
1.38607e+08
8.97407e+07
2.90004e+07
0
0
0
0
0
0
0
0
3.31116e+06
5.2089e+08
2.05536e+08
1.13602e+08
6.97877e+07
1.95086e+07
0
5.2089e+08
8.1943e+10
3.23336e+10
1.78711e+10
1.09785e+10
3.06896e+09
0
2.05536e+08
3.23336e+10
1.27584e+10
7.05172e+09
4.33199e+09
1.21097e+09
0
1.13602e+08
1.78711e+10
7.05172e+09
3.89756e+09
2.39434e+09
6.69317e+08
0
6.97877e+07
1.09785e+10
4.33199e+09
2.39434e+09
1.47088e+09
4.11173e+08
0
1.95086e+07
3.06896e+09
1.21097e+09
6.69317e+08
4.11173e+08
1.1494e+08
0
0
0
0
0
0
0
0
47240.8
5.23129e+07
1.63678e+07
2.63447e+06
1.87252e+06
740056
0
5.23129e+07
5.79296e+10
1.81252e+10
2.91732e+09
2.07356e+09
8.19513e+08
0
1.63678e+07
1.81252e+10
5.67106e+09
9.1278e+08
6.48783e+08
2.56412e+08
0
2.63447e+06
2.91732e+09
9.1278e+08
1.46916e+08
1.04424e+08
4.12705e+07
0
1.87252e+06
2.07356e+09
6.48783e+08
1.04424e+08
7.42223e+07
2.93341e+07
0
740056
8.19513e+08
2.56412e+08
4.12705e+07
2.93341e+07
1.15934e+07
0
0
0
0
0
0
0
0
182188
1.05276e+08
3.42443e+07
7.9811e+06
5.33672e+06
1.8616e+06
0
1.05276e+08
6.08331e+10
1.97878e+10
4.61182e+09
3.08379e+09
1.07571e+09
0
3.42443e+07
1.97878e+10
6.43659e+09
1.50014e+09
1.0031e+09
3.49909e+08
0
7.9811e+06
4.61182e+09
1.50014e+09
3.49628e+08
2.33786e+08
8.15512e+07
0
5.33672e+06
3.08379e+09
1.0031e+09
2.33786e+08
1.56326e+08
5.45309e+07
0
1.8616e+06
1.07571e+09
3.49909e+08
8.15512e+07
5.45309e+07
1.90219e+07
0
0
0
0
0
0
0
0
650201
2.07585e+08
7.18823e+07
2.4686e+07
1.57612e+07
4.91412e+06
0
2.07585e+08
6.6274e+10
2.29493e+10
7.8813e+09
5.03196e+09
1.56889e+09
0
7.18823e+07
2.29493e+10
7.94686e+09
2.72913e+09
1.74246e+09
5.43275e+08
0
2.4686e+07
7.8813e+09
2.72913e+09
9.37244e+08
5.98401e+08
1.86573e+08
0
1.57612e+07
5.03196e+09
1.74246e+09
5.98401e+08
3.8206e+08
1.19121e+08
0
4.91412e+06
1.56889e+09
5.43275e+08
1.86573e+08
1.19121e+08
3.71401e+07
0
0
0
0
0
0
0
0
495082
1.79082e+08
6.10261e+07
1.92714e+07
1.24117e+07
3.95801e+06
0
1.79082e+08
6.47782e+10
2.20745e+10
6.9709e+09
4.48961e+09
1.4317e+09
0
6.10261e+07
2.20745e+10
7.52235e+09
2.37548e+09
1.52993e+09
4.87883e+08
0
1.92714e+07
6.9709e+09
2.37548e+09
7.50152e+08
4.83135e+08
1.54068e+08
0
1.24117e+07
4.48961e+09
1.52993e+09
4.83135e+08
3.11163e+08
9.92276e+07
0
3.95801e+06
1.4317e+09
4.87883e+08
1.54068e+08
9.92276e+07
3.1643e+07
0
0
0
0
0
0
0
0
136005
9.03505e+07
2.90843e+07
6.22359e+06
4.21369e+06
1.5107e+06
0
9.03505e+07
6.00214e+10
1.93212e+10
4.13444e+09
2.79923e+09
1.00358e+09
0
2.90843e+07
1.93212e+10
6.21961e+09
1.3309e+09
9.01087e+08
3.23059e+08
0
6.22359e+06
4.13444e+09
1.3309e+09
2.84792e+08
1.92819e+08
6.91296e+07
0
4.21369e+06
2.79923e+09
9.01087e+08
1.92819e+08
1.30548e+08
4.68042e+07
0
1.5107e+06
1.00358e+09
3.23059e+08
6.91296e+07
4.68042e+07
1.67803e+07
0
0
0
0
0
0
0
0
6.6039e+06
7.90451e+08
3.3556e+08
2.20961e+08
1.34334e+08
3.63528e+07
0
7.90451e+08
9.46126e+10
4.01647e+10
2.64479e+10
1.6079e+10
4.35123e+09
0
3.3556e+08
4.01647e+10
1.70506e+10
1.12276e+10
6.82582e+09
1.84718e+09
0
2.20961e+08
2.64479e+10
1.12276e+10
7.39319e+09
4.4947e+09
1.21634e+09
0
1.34334e+08
1.6079e+10
6.82582e+09
4.4947e+09
2.73255e+09
7.39473e+08
0
3.63528e+07
4.35123e+09
1.84718e+09
1.21634e+09
7.39473e+08
2.00113e+08
0
0
0
0
0
0
0
0
419188
1.63751e+08
5.52995e+07
1.65909e+07
1.07459e+07
3.47596e+06
0
1.63751e+08
6.39675e+10
2.16022e+10
6.48106e+09
4.19776e+09
1.35785e+09
0
5.52995e+07
2.16022e+10
7.29516e+09
2.18869e+09
1.4176e+09
4.58552e+08
0
1.65909e+07
6.48106e+09
2.18869e+09
6.56648e+08
4.25308e+08
1.37574e+08
0
1.07459e+07
4.19776e+09
1.4176e+09
4.25308e+08
2.7547e+08
8.91063e+07
0
3.47596e+06
1.35785e+09
4.58552e+08
1.37574e+08
8.91063e+07
2.88232e+07
0
0
0
0
0
0
0
0
67252
6.27266e+07
1.9785e+07
3.48513e+06
2.43623e+06
932704
0
6.27266e+07
5.85057e+10
1.84537e+10
3.25062e+09
2.2723e+09
8.69942e+08
0
1.9785e+07
1.84537e+10
5.82059e+09
1.0253e+09
7.1672e+08
2.74394e+08
0
3.48513e+06
3.25062e+09
1.0253e+09
1.80606e+08
1.2625e+08
4.83346e+07
0
2.43623e+06
2.2723e+09
7.1672e+08
1.2625e+08
8.82537e+07
3.37876e+07
0
932704
8.69942e+08
2.74394e+08
4.83346e+07
3.37876e+07
1.29355e+07
0
0
0
0
0
0
0
0
761401
2.26279e+08
7.91444e+07
2.85282e+07
1.81284e+07
5.58164e+06
0
2.26279e+08
6.72474e+10
2.35208e+10
8.47824e+09
5.38754e+09
1.65879e+09
0
7.91444e+07
2.35208e+10
8.22673e+09
2.96539e+09
1.88437e+09
5.80188e+08
0
2.85282e+07
8.47824e+09
2.96539e+09
1.0689e+09
6.79236e+08
2.09133e+08
0
1.81284e+07
5.38754e+09
1.88437e+09
6.79236e+08
4.31623e+08
1.32895e+08
0
5.58164e+06
1.65879e+09
5.80188e+08
2.09133e+08
1.32895e+08
4.09176e+07
0
0
0
0
0
0
0
0
30821.9
4.20465e+07
1.30486e+07
1.89762e+06
1.37635e+06
564275
0
4.20465e+07
5.73589e+10
1.78005e+10
2.58868e+09
1.87759e+09
7.6977e+08
0
1.30486e+07
1.78005e+10
5.52415e+09
8.03362e+08
5.82683e+08
2.38888e+08
0
1.89762e+06
2.58868e+09
8.03362e+08
1.16831e+08
8.4738e+07
3.47408e+07
0
1.37635e+06
1.87759e+09
5.82683e+08
8.4738e+07
6.14611e+07
2.51977e+07
0
564275
7.6977e+08
2.38888e+08
3.47408e+07
2.51977e+07
1.03305e+07
0
0
0
0
0
0
0
0
543706
1.88378e+08
6.45373e+07
2.09768e+07
1.34687e+07
4.26143e+06
0
1.88378e+08
6.52676e+10
2.23603e+10
7.26786e+09
4.66653e+09
1.47646e+09
0
6.45373e+07
2.23603e+10
7.66051e+09
2.48993e+09
1.59872e+09
5.05828e+08
0
2.09768e+07
7.26786e+09
2.48993e+09
8.09311e+08
5.1964e+08
1.64411e+08
0
1.34687e+07
4.66653e+09
1.59872e+09
5.1964e+08
3.33649e+08
1.05565e+08
0
4.26143e+06
1.47646e+09
5.05828e+08
1.64411e+08
1.05565e+08
3.34001e+07
0
-0
0
0
-0
-0
-0
-0
2.4991e+06
-2.9964e+08
-5.22585e+07
7.0094e+07
3.91374e+07
7.59696e+06
0
-2.9964e+08
3.59266e+10
6.26575e+09
-8.40422e+09
-4.69254e+09
-9.1087e+08
0
-5.22585e+07
6.26575e+09
1.09277e+09
-1.46573e+09
-8.18399e+08
-1.5886e+08
-0
7.0094e+07
-8.40422e+09
-1.46573e+09
1.96598e+09
1.09772e+09
2.13078e+08
-0
3.91374e+07
-4.69254e+09
-8.18399e+08
1.09772e+09
6.12915e+08
1.18973e+08
-0
7.59696e+06
-9.1087e+08
-1.5886e+08
2.13078e+08
1.18973e+08
2.30939e+07
0
0
0
0
0
0
0
0
140077
9.17514e+07
2.95647e+07
6.38047e+06
4.31436e+06
1.54251e+06
0
9.17514e+07
6.00978e+10
1.93651e+10
4.17926e+09
2.82594e+09
1.01035e+09
0
2.95647e+07
1.93651e+10
6.23994e+09
1.34667e+09
9.10592e+08
3.25563e+08
0
6.38047e+06
4.17926e+09
1.34667e+09
2.90629e+08
1.96518e+08
7.0261e+07
0
4.31436e+06
2.82594e+09
9.10592e+08
1.96518e+08
1.32882e+08
4.75092e+07
0
1.54251e+06
1.01035e+09
3.25563e+08
7.0261e+07
4.75092e+07
1.69859e+07
0
-0
0
0
0
0
0
-0
22171.4
-3.42872e+07
-9.93186e+06
-92512.4
-270716
-257989
0
-3.42872e+07
5.30239e+10
1.53592e+10
1.43067e+08
4.18652e+08
3.98971e+08
0
-9.93186e+06
1.53592e+10
4.44906e+09
4.14417e+07
1.2127e+08
1.15569e+08
0
-92512.4
1.43067e+08
4.14417e+07
386018
1.12959e+06
1.07649e+06
0
-270716
4.18652e+08
1.2127e+08
1.12959e+06
3.30549e+06
3.15009e+06
0
-257989
3.98971e+08
1.15569e+08
1.07649e+06
3.15009e+06
3.002e+06
0
0
0
0
0
0
0
0
222749
1.17012e+08
3.83652e+07
9.49366e+06
6.29624e+06
2.15567e+06
0
1.17012e+08
6.14678e+10
2.01537e+10
4.98712e+09
3.30748e+09
1.1324e+09
0
3.83652e+07
2.01537e+10
6.60784e+09
1.63514e+09
1.08443e+09
3.71283e+08
0
9.49366e+06
4.98712e+09
1.63514e+09
4.04624e+08
2.68349e+08
9.18758e+07
0
6.29624e+06
3.30748e+09
1.08443e+09
2.68349e+08
1.7797e+08
6.09325e+07
0
2.15567e+06
1.1324e+09
3.71283e+08
9.18758e+07
6.09325e+07
2.08618e+07
0
0
0
0
0
0
0
0
70415.7
6.42305e+07
2.02826e+07
3.6164e+06
2.52257e+06
961696
0
6.42305e+07
5.85887e+10
1.8501e+10
3.29875e+09
2.301e+09
8.77223e+08
0
2.02826e+07
1.8501e+10
5.84222e+09
1.04167e+09
7.26604e+08
2.77008e+08
0
3.6164e+06
3.29875e+09
1.04167e+09
1.85731e+08
1.29554e+08
4.93907e+07
0
2.52257e+06
2.301e+09
7.26604e+08
1.29554e+08
9.03687e+07
3.44518e+07
0
961696
8.77223e+08
2.77008e+08
4.93907e+07
3.44518e+07
1.31343e+07
0
0
0
0
0
0
0
0
10612.9
2.44602e+07
7.48127e+06
878868
668945
296992
0
2.44602e+07
5.63749e+10
1.72425e+10
2.02558e+09
1.54176e+09
6.84495e+08
0
7.48127e+06
1.72425e+10
5.27369e+09
6.19532e+08
4.71553e+08
2.09356e+08
0
878868
2.02558e+09
6.19532e+08
7.278e+07
5.53961e+07
2.45942e+07
0
668945
1.54176e+09
4.71553e+08
5.53961e+07
4.21644e+07
1.87198e+07
0
296992
6.84495e+08
2.09356e+08
2.45942e+07
1.87198e+07
8.31102e+06
0
0
0
0
0
0
0
0
268106
1.29049e+08
4.26479e+07
1.11605e+07
7.34796e+06
2.47333e+06
0
1.29049e+08
6.21158e+10
2.0528e+10
5.37195e+09
3.53683e+09
1.1905e+09
0
4.26479e+07
2.0528e+10
6.78405e+09
1.77531e+09
1.16885e+09
3.93435e+08
0
1.11605e+07
5.37195e+09
1.77531e+09
4.64581e+08
3.05875e+08
1.02958e+08
0
7.34796e+06
3.53683e+09
1.16885e+09
3.05875e+08
2.01385e+08
6.77864e+07
0
2.47333e+06
1.1905e+09
3.93435e+08
1.02958e+08
6.77864e+07
2.2817e+07
0
0
0
0
0
0
0
0
6.32853e+06
7.69921e+08
3.25289e+08
2.12028e+08
1.28975e+08
3.49649e+07
0
7.69921e+08
9.36676e+10
3.95743e+10
2.57951e+10
1.56909e+10
4.25378e+09
0
3.25289e+08
3.95743e+10
1.672e+10
1.08984e+10
6.62937e+09
1.79721e+09
0
2.12028e+08
2.57951e+10
1.08984e+10
7.10371e+09
4.32112e+09
1.17145e+09
0
1.28975e+08
1.56909e+10
6.62937e+09
4.32112e+09
2.6285e+09
7.12581e+08
0
3.49649e+07
4.25378e+09
1.79721e+09
1.17145e+09
7.12581e+08
1.93179e+08
0
0
0
0
0
0
0
0
3.41242e+06
5.30245e+08
2.09854e+08
1.16928e+08
7.17935e+07
2.00375e+07
0
5.30245e+08
8.23932e+10
3.26086e+10
1.81691e+10
1.11558e+10
3.11357e+09
0
2.09854e+08
3.26086e+10
1.29054e+10
7.19072e+09
4.41509e+09
1.23225e+09
0
1.16928e+08
1.81691e+10
7.19072e+09
4.00657e+09
2.46003e+09
6.86593e+08
0
7.17935e+07
1.11558e+10
4.41509e+09
2.46003e+09
1.51045e+09
4.21567e+08
0
2.00375e+07
3.11357e+09
1.23225e+09
6.86593e+08
4.21567e+08
1.17659e+08
0
-0
0
0
-0
-0
-0
-0
888898
-1.95812e+08
-4.53004e+07
2.29161e+07
1.21773e+07
1.78413e+06
0
-1.95812e+08
4.31349e+10
9.97908e+09
-5.04812e+09
-2.6825e+09
-3.93021e+08
0
-4.53004e+07
9.97908e+09
2.30862e+09
-1.16786e+09
-6.20585e+08
-9.09237e+07
-0
2.29161e+07
-5.04812e+09
-1.16786e+09
5.90787e+08
3.13936e+08
4.59956e+07
-0
1.21773e+07
-2.6825e+09
-6.20585e+08
3.13936e+08
1.66821e+08
2.44414e+07
-0
1.78413e+06
-3.93021e+08
-9.09237e+07
4.59956e+07
2.44414e+07
3.58098e+06
0
0
0
0
0
0
0
0
5821.05
1.80572e+07
5.49271e+06
586871
457581
210642
0
1.80572e+07
5.60145e+10
1.70387e+10
1.82051e+09
1.41944e+09
6.53425e+08
0
5.49271e+06
1.70387e+10
5.1829e+09
5.53769e+08
4.31771e+08
1.98761e+08
0
586871
1.82051e+09
5.53769e+08
5.91677e+07
4.61328e+07
2.12367e+07
0
457581
1.41944e+09
4.31771e+08
4.61328e+07
3.59695e+07
1.65582e+07
0
210642
6.53425e+08
1.98761e+08
2.12367e+07
1.65582e+07
7.62238e+06
0
-0
0
0
-0
-0
-0
-0
966017
-2.03011e+08
-4.62998e+07
2.51254e+07
1.34251e+07
2.03964e+06
0
-2.03011e+08
4.26631e+10
9.73e+09
-5.28016e+09
-2.82131e+09
-4.28635e+08
0
-4.62998e+07
9.73e+09
2.21908e+09
-1.20422e+09
-6.43444e+08
-9.7757e+07
-0
2.51254e+07
-5.28016e+09
-1.20422e+09
6.53495e+08
3.49177e+08
5.30497e+07
-0
1.34251e+07
-2.82131e+09
-6.43444e+08
3.49177e+08
1.86573e+08
2.83456e+07
-0
2.03964e+06
-4.28635e+08
-9.7757e+07
5.30497e+07
2.83456e+07
4.30649e+06
0
0
0
0
0
0
0
0
20269.3
3.39629e+07
1.04706e+07
1.39048e+06
1.02844e+06
436017
0
3.39629e+07
5.69076e+10
1.75443e+10
2.32987e+09
1.72324e+09
7.30583e+08
0
1.04706e+07
1.75443e+10
5.40883e+09
7.18288e+08
5.31267e+08
2.25235e+08
0
1.39048e+06
2.32987e+09
7.18288e+08
9.53879e+07
7.05517e+07
2.9911e+07
0
1.02844e+06
1.72324e+09
5.31267e+08
7.05517e+07
5.21821e+07
2.21231e+07
0
436017
7.30583e+08
2.25235e+08
2.9911e+07
2.21231e+07
9.37927e+06
0
0
0
0
0
0
0
0
1.51361e+06
3.31556e+08
1.21928e+08
5.40407e+07
3.37272e+07
9.87914e+06
0
3.31556e+08
7.26273e+10
2.67084e+10
1.18376e+10
7.38794e+09
2.16403e+09
0
1.21928e+08
2.67084e+10
9.82194e+09
4.35324e+09
2.71689e+09
7.95813e+08
0
5.40407e+07
1.18376e+10
4.35324e+09
1.92943e+09
1.20417e+09
3.52717e+08
0
3.37272e+07
7.38794e+09
2.71689e+09
1.20417e+09
7.51532e+08
2.20134e+08
0
9.87914e+06
2.16403e+09
7.95813e+08
3.52717e+08
2.20134e+08
6.448e+07
0
-0
0
0
-0
-0
-0
-0
2.33995e+06
-2.92168e+08
-5.2406e+07
6.53682e+07
3.64183e+07
6.99375e+06
0
-2.92168e+08
3.64803e+10
6.54345e+09
-8.16192e+09
-4.54721e+09
-8.73245e+08
0
-5.2406e+07
6.54345e+09
1.17369e+09
-1.464e+09
-8.1563e+08
-1.56633e+08
-0
6.53682e+07
-8.16192e+09
-1.464e+09
1.82611e+09
1.01737e+09
1.95375e+08
-0
3.64183e+07
-4.54721e+09
-8.1563e+08
1.01737e+09
5.66802e+08
1.08849e+08
-0
6.99375e+06
-8.73245e+08
-1.56633e+08
1.95375e+08
1.08849e+08
2.09032e+07
0
0
0
0
0
0
0
0
306649
1.3858e+08
4.60785e+07
1.25612e+07
8.22806e+06
2.73609e+06
0
1.3858e+08
6.26268e+10
2.08237e+10
5.67663e+09
3.71841e+09
1.23649e+09
0
4.60785e+07
2.08237e+10
6.92398e+09
1.88751e+09
1.23639e+09
4.11138e+08
0
1.25612e+07
5.67663e+09
1.88751e+09
5.14542e+08
3.37045e+08
1.12078e+08
0
8.22806e+06
3.71841e+09
1.23639e+09
3.37045e+08
2.20777e+08
7.34153e+07
0
2.73609e+06
1.23649e+09
4.11138e+08
1.12078e+08
7.34153e+07
2.44129e+07
0
-0
0
0
-0
-0
-0
-0
715815
-1.78046e+08
-4.25748e+07
1.79941e+07
9.4084e+06
1.22727e+06
0
-1.78046e+08
4.42855e+10
1.05897e+10
-4.4757e+09
-2.34016e+09
-3.0526e+08
0
-4.25748e+07
1.05897e+10
2.53224e+09
-1.07024e+09
-5.59587e+08
-7.29946e+07
-0
1.79941e+07
-4.4757e+09
-1.07024e+09
4.52336e+08
2.36508e+08
3.0851e+07
-0
9.4084e+06
-2.34016e+09
-5.59587e+08
2.36508e+08
1.2366e+08
1.61307e+07
-0
1.22727e+06
-3.0526e+08
-7.29946e+07
3.0851e+07
1.61307e+07
2.10415e+06
0
-0
0
0
-0
-0
-0
-0
3.27785e+06
-3.31341e+08
-5.00814e+07
9.33293e+07
5.2538e+07
1.05987e+07
0
-3.31341e+08
3.34935e+10
5.06246e+09
-9.43416e+09
-5.31079e+09
-1.07137e+09
0
-5.00814e+07
5.06246e+09
7.6518e+08
-1.42595e+09
-8.02714e+08
-1.61935e+08
-0
9.33293e+07
-9.43416e+09
-1.42595e+09
2.65734e+09
1.4959e+09
3.01775e+08
-0
5.2538e+07
-5.31079e+09
-8.02714e+08
1.4959e+09
8.42089e+08
1.69879e+08
-0
1.05987e+07
-1.07137e+09
-1.61935e+08
3.01775e+08
1.69879e+08
3.42705e+07
0
0
0
0
0
0
0
0
1.1799e+06
2.88283e+08
1.03975e+08
4.27999e+07
2.6874e+07
8.00792e+06
0
2.88283e+08
7.04358e+10
2.54041e+10
1.04572e+10
6.56609e+09
1.95656e+09
0
1.03975e+08
2.54041e+10
9.16252e+09
3.77162e+09
2.3682e+09
7.05675e+08
0
4.27999e+07
1.04572e+10
3.77162e+09
1.55253e+09
9.74834e+08
2.90481e+08
0
2.6874e+07
6.56609e+09
2.3682e+09
9.74834e+08
6.12097e+08
1.82393e+08
0
8.00792e+06
1.95656e+09
7.05675e+08
2.90481e+08
1.82393e+08
5.43493e+07
0
-0
0
0
-0
-0
-0
-0
748178
-1.81561e+08
-4.31422e+07
1.89101e+07
9.92235e+06
1.3294e+06
0
-1.81561e+08
4.40594e+10
1.04693e+10
-4.58892e+09
-2.40786e+09
-3.22607e+08
0
-4.31422e+07
1.04693e+10
2.48771e+09
-1.09041e+09
-5.72153e+08
-7.66574e+07
-0
1.89101e+07
-4.58892e+09
-1.09041e+09
4.77949e+08
2.50786e+08
3.36004e+07
-0
9.92235e+06
-2.40786e+09
-5.72153e+08
2.50786e+08
1.31591e+08
1.76306e+07
-0
1.3294e+06
-3.22607e+08
-7.66574e+07
3.36004e+07
1.76306e+07
2.36215e+06
0
-0
0
0
-0
-0
-0
-0
952186
-2.01748e+08
-4.6129e+07
2.47286e+07
1.32007e+07
1.99352e+06
0
-2.01748e+08
4.27461e+10
9.77376e+09
-5.23946e+09
-2.79695e+09
-4.22385e+08
0
-4.6129e+07
9.77376e+09
2.23474e+09
-1.19798e+09
-6.39515e+08
-9.65771e+07
-0
2.47286e+07
-5.23946e+09
-1.19798e+09
6.42208e+08
3.42827e+08
5.17724e+07
-0
1.32007e+07
-2.79695e+09
-6.39515e+08
3.42827e+08
1.8301e+08
2.76374e+07
-0
1.99352e+06
-4.22385e+08
-9.65771e+07
5.17724e+07
2.76374e+07
4.1737e+06
0
0
0
0
0
0
0
0
538052
1.87316e+08
6.41347e+07
2.0779e+07
1.33462e+07
4.22635e+06
0
1.87316e+08
6.52118e+10
2.23277e+10
7.23393e+09
4.64631e+09
1.47135e+09
0
6.41347e+07
2.23277e+10
7.64471e+09
2.47681e+09
1.59084e+09
5.03771e+08
0
2.0779e+07
7.23393e+09
2.47681e+09
8.02459e+08
5.15415e+08
1.63217e+08
0
1.33462e+07
4.64631e+09
1.59084e+09
5.15415e+08
3.31048e+08
1.04833e+08
0
4.22635e+06
1.47135e+09
5.03771e+08
1.63217e+08
1.04833e+08
3.31975e+07
0
-0
0
0
-0
-0
0
-0
62814
-5.69866e+07
-1.61181e+07
644796
17498.2
-317833
0
-5.69866e+07
5.16998e+10
1.46228e+10
-5.84976e+08
-1.58748e+07
2.88346e+08
0
-1.61181e+07
1.46228e+10
4.13593e+09
-1.65455e+08
-4.49005e+06
8.15561e+07
-0
644796
-5.84976e+08
-1.65455e+08
6.61893e+06
179622
-3.2626e+06
-0
17498.2
-1.58748e+07
-4.49005e+06
179622
4874.49
-88539
0
-317833
2.88346e+08
8.15561e+07
-3.2626e+06
-88539
1.6082e+06
0
-0
0
0
-0
-0
-0
-0
806577
-1.87667e+08
-4.40954e+07
2.05683e+07
1.08544e+07
1.51614e+06
0
-1.87667e+08
4.36648e+10
1.02597e+10
-4.78565e+09
-2.52551e+09
-3.52763e+08
0
-4.40954e+07
1.02597e+10
2.41068e+09
-1.12446e+09
-5.93408e+08
-8.2887e+07
-0
2.05683e+07
-4.78565e+09
-1.12446e+09
5.24505e+08
2.76795e+08
3.86626e+07
-0
1.08544e+07
-2.52551e+09
-5.93408e+08
2.76795e+08
1.46072e+08
2.04033e+07
-0
1.51614e+06
-3.52763e+08
-8.2887e+07
3.86626e+07
2.04033e+07
2.84992e+06
0
-0
0
0
-0
-0
-0
-0
1.07132e+06
-2.12253e+08
-4.7489e+07
2.81554e+07
1.51403e+07
2.39456e+06
0
-2.12253e+08
4.20522e+10
9.40865e+09
-5.57822e+09
-2.99964e+09
-4.74417e+08
0
-4.7489e+07
9.40865e+09
2.10507e+09
-1.24806e+09
-6.71131e+08
-1.06145e+08
-0
2.81554e+07
-5.57822e+09
-1.24806e+09
7.39951e+08
3.97902e+08
6.29314e+07
-0
1.51403e+07
-2.99964e+09
-6.71131e+08
3.97902e+08
2.13968e+08
3.38407e+07
-0
2.39456e+06
-4.74417e+08
-1.06145e+08
6.29314e+07
3.38407e+07
5.35219e+06
0
-0
0
0
-0
-0
-0
-0
786708
-1.85622e+08
-4.37808e+07
2.00034e+07
1.05367e+07
1.45227e+06
0
-1.85622e+08
4.37972e+10
1.033e+10
-4.71976e+09
-2.48611e+09
-3.42661e+08
0
-4.37808e+07
1.033e+10
2.43643e+09
-1.1132e+09
-5.86372e+08
-8.08199e+07
-0
2.00034e+07
-4.71976e+09
-1.1132e+09
5.08619e+08
2.67912e+08
3.69264e+07
-0
1.05367e+07
-2.48611e+09
-5.86372e+08
2.67912e+08
1.41121e+08
1.94508e+07
-0
1.45227e+06
-3.42661e+08
-8.08199e+07
3.69264e+07
1.94508e+07
2.68091e+06
0
0
0
0
0
0
0
0
13126.6
2.72408e+07
8.35129e+06
1.01898e+06
768523
336339
0
2.72408e+07
5.6531e+10
1.73309e+10
2.11462e+09
1.59487e+09
6.97983e+08
0
8.35129e+06
1.73309e+10
5.31319e+09
6.48286e+08
4.88943e+08
2.13983e+08
0
1.01898e+06
2.11462e+09
6.48286e+08
7.91004e+07
5.96582e+07
2.6109e+07
0
768523
1.59487e+09
4.88943e+08
5.96582e+07
4.49947e+07
1.96916e+07
0
336339
6.97983e+08
2.13983e+08
2.6109e+07
1.96916e+07
8.61793e+06
0
-0
0
0
-0
-0
-0
-0
417473
-1.39645e+08
-3.55489e+07
9.6857e+06
4.78756e+06
347397
0
-1.39645e+08
4.67112e+10
1.18911e+10
-3.23987e+09
-1.60144e+09
-1.16204e+08
0
-3.55489e+07
1.18911e+10
3.02708e+09
-8.24763e+08
-4.07673e+08
-2.95817e+07
-0
9.6857e+06
-3.23987e+09
-8.24763e+08
2.24716e+08
1.11075e+08
8.05988e+06
-0
4.78756e+06
-1.60144e+09
-4.07673e+08
1.11075e+08
5.49036e+07
3.98393e+06
-0
347397
-1.16204e+08
-2.95817e+07
8.05988e+06
3.98393e+06
289083
0
-0
0
0
-0
-0
-0
-0
431349
-1.41748e+08
-3.59705e+07
1.0065e+07
4.99629e+06
385060
0
-1.41748e+08
4.65803e+10
1.18204e+10
-3.3075e+09
-1.64185e+09
-1.26536e+08
0
-3.59705e+07
1.18204e+10
2.99961e+09
-8.39325e+08
-4.16644e+08
-3.21104e+07
-0
1.0065e+07
-3.3075e+09
-8.39325e+08
2.34853e+08
1.16582e+08
8.98487e+06
-0
4.99629e+06
-1.64185e+09
-4.16644e+08
1.16582e+08
5.78717e+07
4.46012e+06
-0
385060
-1.26536e+08
-3.21104e+07
8.98487e+06
4.46012e+06
343738
0
0
0
0
0
0
0
0
729907
2.21107e+08
7.71243e+07
2.74428e+07
1.74603e+07
5.39384e+06
0
2.21107e+08
6.69787e+10
2.33628e+10
8.3131e+09
5.28917e+09
1.63393e+09
0
7.71243e+07
2.33628e+10
8.14919e+09
2.89969e+09
1.84491e+09
5.6993e+08
0
2.74428e+07
8.3131e+09
2.89969e+09
1.03178e+09
6.56468e+08
2.02796e+08
0
1.74603e+07
5.28917e+09
1.84491e+09
6.56468e+08
4.17675e+08
1.29028e+08
0
5.39384e+06
1.63393e+09
5.6993e+08
2.02796e+08
1.29028e+08
3.98592e+07
0
-0
0
0
-0
0
0
-0
31026
-4.04236e+07
-1.16362e+07
41222.2
-231192
-283280
0
-4.04236e+07
5.26677e+10
1.51607e+10
-5.37081e+07
3.01219e+08
3.69083e+08
0
-1.16362e+07
1.51607e+10
4.36409e+09
-1.54602e+07
8.67076e+07
1.06243e+08
-0
41222.2
-5.37081e+07
-1.54602e+07
54769.1
-307170
-376374
0
-231192
3.01219e+08
8.67076e+07
-307170
1.72275e+06
2.11088e+06
0
-283280
3.69083e+08
1.06243e+08
-376374
2.11088e+06
2.58645e+06
0
-0
0
0
-0
-0
-0
-0
1.08479e+06
-2.13392e+08
-4.76279e+07
2.85441e+07
1.53606e+07
2.44043e+06
0
-2.13392e+08
4.19765e+10
9.36895e+09
-5.61494e+09
-3.02161e+09
-4.8006e+08
0
-4.76279e+07
9.36895e+09
2.0911e+09
-1.25323e+09
-6.74408e+08
-1.07147e+08
-0
2.85441e+07
-5.61494e+09
-1.25323e+09
7.51076e+08
4.04182e+08
6.42146e+07
-0
1.53606e+07
-3.02161e+09
-6.74408e+08
4.04182e+08
2.17505e+08
3.45563e+07
-0
2.44043e+06
-4.8006e+08
-1.07147e+08
6.42146e+07
3.45563e+07
5.49015e+06
0
0
0
0
0
0
0
0
414467
1.62759e+08
5.4932e+07
1.64233e+07
1.06415e+07
3.44559e+06
0
1.62759e+08
6.39149e+10
2.15716e+10
6.44938e+09
4.17888e+09
1.35307e+09
0
5.4932e+07
2.15716e+10
7.28049e+09
2.17669e+09
1.41039e+09
4.56666e+08
0
1.64233e+07
6.44938e+09
2.17669e+09
6.50779e+08
4.21672e+08
1.36532e+08
0
1.06415e+07
4.17888e+09
1.41039e+09
4.21672e+08
2.73223e+08
8.84661e+07
0
3.44559e+06
1.35307e+09
4.56666e+08
1.36532e+08
8.84661e+07
2.86442e+07
0
-0
0
0
-0
-0
-0
-0
1.1025e+06
-2.14873e+08
-4.78062e+07
2.90552e+07
1.56505e+07
2.50086e+06
0
-2.14873e+08
4.18779e+10
9.31723e+09
-5.66275e+09
-3.05021e+09
-4.87407e+08
0
-4.78062e+07
9.31723e+09
2.07295e+09
-1.25988e+09
-6.78628e+08
-1.08441e+08
-0
2.90552e+07
-5.66275e+09
-1.25988e+09
7.65718e+08
4.12451e+08
6.59073e+07
-0
1.56505e+07
-3.05021e+09
-6.78628e+08
4.12451e+08
2.22165e+08
3.55007e+07
-0
2.50086e+06
-4.87407e+08
-1.08441e+08
6.59073e+07
3.55007e+07
5.67281e+06
0
0
0
0
0
0
0
0
96577.7
7.56234e+07
2.40851e+07
4.67835e+06
3.21615e+06
1.1907e+06
0
7.56234e+07
5.92156e+10
1.88594e+10
3.6633e+09
2.51835e+09
9.32358e+08
0
2.40851e+07
1.88594e+10
6.00646e+09
1.16671e+09
8.02061e+08
2.96944e+08
0
4.67835e+06
3.6633e+09
1.16671e+09
2.26626e+08
1.55795e+08
5.76792e+07
0
3.21615e+06
2.51835e+09
8.02061e+08
1.55795e+08
1.07102e+08
3.96518e+07
0
1.1907e+06
9.32358e+08
2.96944e+08
5.76792e+07
3.96518e+07
1.46801e+07
0
0
0
0
0
0
0
0
19.5034
1.03619e+06
310479
24003.1
20595.1
10743.3
0
1.03619e+06
5.50511e+10
1.64953e+10
1.27525e+09
1.09419e+09
5.70776e+08
0
310479
1.64953e+10
4.94258e+09
3.82112e+08
3.27858e+08
1.71025e+08
0
24003.1
1.27525e+09
3.82112e+08
2.95411e+07
2.53467e+07
1.3222e+07
0
20595.1
1.09419e+09
3.27858e+08
2.53467e+07
2.17479e+07
1.13447e+07
0
10743.3
5.70776e+08
1.71025e+08
1.3222e+07
1.13447e+07
5.91787e+06
0
0
0
0
0
0
0
0
933656
2.53146e+08
8.97676e+07
3.44329e+07
2.17544e+07
6.59414e+06
0
2.53146e+08
6.86363e+10
2.4339e+10
9.33591e+09
5.89835e+09
1.78789e+09
0
8.97676e+07
2.4339e+10
8.63083e+09
3.3106e+09
2.09161e+09
6.34003e+08
0
3.44329e+07
9.33591e+09
3.3106e+09
1.26987e+09
8.02294e+08
2.43189e+08
0
2.17544e+07
5.89835e+09
2.09161e+09
8.02294e+08
5.06882e+08
1.53645e+08
0
6.59414e+06
1.78789e+09
6.34003e+08
2.43189e+08
1.53645e+08
4.65725e+07
0
0
0
0
0
0
0
0
1.03221e+06
2.67607e+08
9.55732e+07
3.77905e+07
2.38111e+07
7.16406e+06
0
2.67607e+08
6.93792e+10
2.47781e+10
9.79747e+09
6.17322e+09
1.85734e+09
0
9.55732e+07
2.47781e+10
8.84924e+09
3.49907e+09
2.2047e+09
6.63329e+08
0
3.77905e+07
9.79747e+09
3.49907e+09
1.38356e+09
8.71759e+08
2.62286e+08
0
2.38111e+07
6.17322e+09
2.2047e+09
8.71759e+08
5.4928e+08
1.65262e+08
0
7.16406e+06
1.85734e+09
6.63329e+08
2.62286e+08
1.65262e+08
4.97224e+07
0
0
0
0
0
0
0
0
24.9298
1.17158e+06
351091
27228.1
23338
12159.4
0
1.17158e+06
5.50587e+10
1.64996e+10
1.27959e+09
1.09678e+09
5.71434e+08
0
351091
1.64996e+10
4.94449e+09
3.83458e+08
3.28674e+08
1.71243e+08
0
27228.1
1.27959e+09
3.83458e+08
2.97382e+07
2.54896e+07
1.32804e+07
0
23338
1.09678e+09
3.28674e+08
2.54896e+07
2.18479e+07
1.1383e+07
0
12159.4
5.71434e+08
1.71243e+08
1.32804e+07
1.1383e+07
5.93069e+06
0
0
0
0
0
0
0
0
1.365e+06
3.12801e+08
1.14088e+08
4.90466e+07
3.06854e+07
9.05115e+06
0
3.12801e+08
7.16807e+10
2.61441e+10
1.12394e+10
7.0318e+09
2.07414e+09
0
1.14088e+08
2.61441e+10
9.53553e+09
4.09935e+09
2.56471e+09
7.56501e+08
0
4.90466e+07
1.12394e+10
4.09935e+09
1.76232e+09
1.10257e+09
3.25222e+08
0
3.06854e+07
7.0318e+09
2.56471e+09
1.10257e+09
6.89813e+08
2.03471e+08
0
9.05115e+06
2.07414e+09
7.56501e+08
3.25222e+08
2.03471e+08
6.0017e+07
0
-0
0
0
-0
-0
-0
-0
756397
-1.82438e+08
-4.32817e+07
1.91431e+07
1.00532e+07
1.3555e+06
0
-1.82438e+08
4.40029e+10
1.04393e+10
-4.61718e+09
-2.42476e+09
-3.26938e+08
0
-4.32817e+07
1.04393e+10
2.47662e+09
-1.09538e+09
-5.75252e+08
-7.75629e+07
-0
1.91431e+07
-4.61718e+09
-1.09538e+09
4.84476e+08
2.54428e+08
3.43053e+07
-0
1.00532e+07
-2.42476e+09
-5.75252e+08
2.54428e+08
1.33616e+08
1.80158e+07
-0
1.3555e+06
-3.26938e+08
-7.75629e+07
3.43053e+07
1.80158e+07
2.42912e+06
0
-0
0
0
-0
-0
0
-0
122813
-7.86883e+07
-2.17158e+07
1.99996e+06
673680
-284694
0
-7.86883e+07
5.04168e+10
1.39136e+10
-1.28141e+09
-4.31638e+08
1.82408e+08
0
-2.17158e+07
1.39136e+10
3.83977e+09
-3.53632e+08
-1.1912e+08
5.03395e+07
-0
1.99996e+06
-1.28141e+09
-3.53632e+08
3.25685e+07
1.09706e+07
-4.63613e+06
-0
673680
-4.31638e+08
-1.1912e+08
1.09706e+07
3.69541e+06
-1.56167e+06
0
-284694
1.82408e+08
5.03395e+07
-4.63613e+06
-1.56167e+06
659953
0
0
0
0
0
0
0
0
2.32834e+06
4.24047e+08
1.61822e+08
8.11875e+07
5.02019e+07
1.43123e+07
0
4.24047e+08
7.72294e+10
2.94717e+10
1.47862e+10
9.14299e+09
2.60662e+09
0
1.61822e+08
2.94717e+10
1.12468e+10
5.64262e+09
3.48909e+09
9.94722e+08
0
8.11875e+07
1.47862e+10
5.64262e+09
2.83095e+09
1.7505e+09
4.9906e+08
0
5.02019e+07
9.14299e+09
3.48909e+09
1.7505e+09
1.08242e+09
3.08592e+08
0
1.43123e+07
2.60662e+09
9.94722e+08
4.9906e+08
3.08592e+08
8.7978e+07
0
0
0
0
0
0
0
0
35104.6
4.49356e+07
1.39776e+07
2.09458e+06
1.5099e+06
612298
0
4.49356e+07
5.75198e+10
1.7892e+10
2.68117e+09
1.93274e+09
7.83771e+08
0
1.39776e+07
1.7892e+10
5.56544e+09
8.33999e+08
6.01195e+08
2.43798e+08
0
2.09458e+06
2.68117e+09
8.33999e+08
1.24978e+08
9.0091e+07
3.6534e+07
0
1.5099e+06
1.93274e+09
6.01195e+08
9.0091e+07
6.49428e+07
2.63358e+07
0
612298
7.83771e+08
2.43798e+08
3.6534e+07
2.63358e+07
1.06798e+07
0
-0
0
0
-0
-0
-0
-0
1.39256e+06
-2.37125e+08
-5.01218e+07
3.74736e+07
2.04377e+07
3.51146e+06
0
-2.37125e+08
4.03776e+10
8.53474e+09
-6.381e+09
-3.48012e+09
-5.97931e+08
0
-5.01218e+07
8.53474e+09
1.80401e+09
-1.34877e+09
-7.35604e+08
-1.26387e+08
-0
3.74736e+07
-6.381e+09
-1.34877e+09
1.00841e+09
5.49974e+08
9.44929e+07
-0
2.04377e+07
-3.48012e+09
-7.35604e+08
5.49974e+08
2.9995e+08
5.15353e+07
-0
3.51146e+06
-5.97931e+08
-1.26387e+08
9.44929e+07
5.15353e+07
8.85445e+06
0
0
0
0
0
0
0
0
103660
7.84498e+07
2.50372e+07
4.96002e+06
3.39888e+06
1.25004e+06
0
7.84498e+07
5.93706e+10
1.89481e+10
3.75373e+09
2.57226e+09
9.46031e+08
0
2.50372e+07
1.89481e+10
6.04729e+09
1.198e+09
8.20937e+08
3.01926e+08
0
4.96002e+06
3.75373e+09
1.198e+09
2.37331e+08
1.62632e+08
5.98132e+07
0
3.39888e+06
2.57226e+09
8.20937e+08
1.62632e+08
1.11445e+08
4.09873e+07
0
1.25004e+06
9.46031e+08
3.01926e+08
5.98132e+07
4.09873e+07
1.50744e+07
0
-0
0
0
-0
-0
-0
-0
434149
-1.42167e+08
-3.60541e+07
1.01416e+07
5.03851e+06
392711
0
-1.42167e+08
4.65542e+10
1.18063e+10
-3.32099e+09
-1.64992e+09
-1.28598e+08
0
-3.60541e+07
1.18063e+10
2.99413e+09
-8.42216e+08
-4.18425e+08
-3.26129e+07
-0
1.01416e+07
-3.32099e+09
-8.42216e+08
2.36906e+08
1.17698e+08
9.17363e+06
-0
5.03851e+06
-1.64992e+09
-4.18425e+08
1.17698e+08
5.84742e+07
4.5576e+06
-0
392711
-1.28598e+08
-3.26129e+07
9.17363e+06
4.5576e+06
355228
0
0
0
0
0
0
0
0
2.08706e+06
3.98138e+08
1.50451e+08
7.31815e+07
4.53519e+07
1.30147e+07
0
3.98138e+08
7.59508e+10
2.87008e+10
1.39605e+10
8.65156e+09
2.48275e+09
0
1.50451e+08
2.87008e+10
1.08457e+10
5.27549e+09
3.26932e+09
9.38199e+08
0
7.31815e+07
1.39605e+10
5.27549e+09
2.56607e+09
1.59024e+09
4.56353e+08
0
4.53519e+07
8.65156e+09
3.26932e+09
1.59024e+09
9.855e+08
2.8281e+08
0
1.30147e+07
2.48275e+09
9.38199e+08
4.56353e+08
2.8281e+08
8.11584e+07
0
-0
0
0
-0
-0
0
-0
72387.1
-6.10342e+07
-1.71864e+07
847804
110765
-318564
0
-6.10342e+07
5.14618e+10
1.44909e+10
-7.14838e+08
-9.33933e+07
2.68601e+08
0
-1.71864e+07
1.44909e+10
4.08044e+09
-2.01288e+08
-2.62982e+07
7.56344e+07
-0
847804
-7.14838e+08
-2.01288e+08
9.92956e+06
1.29729e+06
-3.73104e+06
-0
110765
-9.33933e+07
-2.62982e+07
1.29729e+06
169491
-487459
0
-318564
2.68601e+08
7.56344e+07
-3.73104e+06
-487459
1.40194e+06
0
-0
0
0
0
0
0
-0
4815.71
-1.61365e+07
-4.75839e+06
-216348
-228562
-145428
0
-1.61365e+07
5.40704e+10
1.59444e+10
7.24942e+08
7.65866e+08
4.87301e+08
0
-4.75839e+06
1.59444e+10
4.70174e+09
2.13773e+08
2.25841e+08
1.43697e+08
0
-216348
7.24942e+08
2.13773e+08
9.71957e+06
1.02683e+07
6.53343e+06
0
-228562
7.65866e+08
2.25841e+08
1.02683e+07
1.08479e+07
6.90226e+06
0
-145428
4.87301e+08
1.43697e+08
6.53343e+06
6.90226e+06
4.39173e+06
0
-0
0
0
-0
-0
0
-0
89482.6
-6.76037e+07
-1.88969e+07
1.22521e+06
290188
-313093
0
-6.76037e+07
5.10743e+10
1.42765e+10
-9.25641e+08
-2.19236e+08
2.36541e+08
0
-1.88969e+07
1.42765e+10
3.99063e+09
-2.58739e+08
-6.12817e+07
6.61188e+07
-0
1.22521e+06
-9.25641e+08
-2.58739e+08
1.67758e+07
3.9733e+06
-4.28692e+06
-0
290188
-2.19236e+08
-6.12817e+07
3.9733e+06
941066
-1.01535e+06
0
-313093
2.36541e+08
6.61188e+07
-4.28692e+06
-1.01535e+06
1.09549e+06
0
-0
0
0
-0
-0
-0
-0
324233
-1.24308e+08
-3.23548e+07
7.1644e+06
3.40857e+06
106720
0
-1.24308e+08
4.7659e+10
1.24046e+10
-2.74678e+09
-1.30682e+09
-4.09157e+07
0
-3.23548e+07
1.24046e+10
3.22865e+09
-7.14927e+08
-3.40137e+08
-1.06495e+07
-0
7.1644e+06
-2.74678e+09
-7.14927e+08
1.58308e+08
7.53174e+07
2.35814e+06
-0
3.40857e+06
-1.30682e+09
-3.40137e+08
7.53174e+07
3.58334e+07
1.12192e+06
-0
106720
-4.09157e+07
-1.06495e+07
2.35814e+06
1.12192e+06
35126.6
0
-0
0
0
-0
-0
0
-0
233773
-1.06734e+08
-2.84491e+07
4.77919e+06
2.12337e+06
-99047.4
0
-1.06734e+08
4.87318e+10
1.2989e+10
-2.18204e+09
-9.69472e+08
4.52222e+07
0
-2.84491e+07
1.2989e+10
3.46211e+09
-5.81604e+08
-2.58404e+08
1.20536e+07
-0
4.77919e+06
-2.18204e+09
-5.81604e+08
9.77042e+07
4.34096e+07
-2.02489e+06
-0
2.12337e+06
-9.69472e+08
-2.58404e+08
4.34096e+07
1.92867e+07
-899652
0
-99047.4
4.52222e+07
1.20536e+07
-2.02489e+06
-899652
41965.4
0
-0
0
0
-0
-0
-0
-0
1.75759e+06
-2.60904e+08
-5.17716e+07
4.81632e+07
2.65447e+07
4.82672e+06
0
-2.60904e+08
3.87297e+10
7.68521e+09
-7.14956e+09
-3.94041e+09
-7.165e+08
0
-5.17716e+07
7.68521e+09
1.52499e+09
-1.4187e+09
-7.81902e+08
-1.42176e+08
-0
4.81632e+07
-7.14956e+09
-1.4187e+09
1.31982e+09
7.27404e+08
1.32267e+08
-0
2.65447e+07
-3.94041e+09
-7.81902e+08
7.27404e+08
4.00902e+08
7.28975e+07
-0
4.82672e+06
-7.165e+08
-1.42176e+08
1.32267e+08
7.28975e+07
1.32552e+07
0
-0
0
0
-0
-0
0
-0
243835
-1.08862e+08
-2.89354e+07
5.04058e+06
2.26294e+06
-77943.5
0
-1.08862e+08
4.86026e+10
1.29185e+10
-2.25041e+09
-1.01031e+09
3.47986e+07
0
-2.89354e+07
1.29185e+10
3.43371e+09
-5.98155e+08
-2.68538e+08
9.2494e+06
-0
5.04058e+06
-2.25041e+09
-5.98155e+08
1.04199e+08
4.67797e+07
-1.61125e+06
-0
2.26294e+06
-1.01031e+09
-2.68538e+08
4.67797e+07
2.10015e+07
-723363
0
-77943.5
3.47986e+07
9.2494e+06
-1.61125e+06
-723363
24915.2
0
0
0
0
0
0
0
0
1.12259e+06
2.8039e+08
1.00754e+08
4.0859e+07
2.5688e+07
7.6818e+06
0
2.8039e+08
7.00332e+10
2.51653e+10
1.02054e+10
6.41612e+09
1.91869e+09
0
1.00754e+08
2.51653e+10
9.04278e+09
3.66715e+09
2.30553e+09
6.89452e+08
0
4.0859e+07
1.02054e+10
3.66715e+09
1.48715e+09
9.34971e+08
2.79595e+08
0
2.5688e+07
6.41612e+09
2.30553e+09
9.34971e+08
5.87816e+08
1.75782e+08
0
7.6818e+06
1.91869e+09
6.89452e+08
2.79595e+08
1.75782e+08
5.25661e+07
0
-0
0
0
-0
-0
-0
-0
1.15557e+06
-2.1922e+08
-4.83125e+07
3.05891e+07
1.65209e+07
2.68291e+06
0
-2.1922e+08
4.15877e+10
9.16524e+09
-5.80299e+09
-3.13414e+09
-5.08968e+08
0
-4.83125e+07
9.16524e+09
2.01986e+09
-1.27888e+09
-6.90712e+08
-1.12168e+08
-0
3.05891e+07
-5.80299e+09
-1.27888e+09
8.09727e+08
4.37326e+08
7.10194e+07
-0
1.65209e+07
-3.13414e+09
-6.90712e+08
4.37326e+08
2.36195e+08
3.83569e+07
-0
2.68291e+06
-5.08968e+08
-1.12168e+08
7.10194e+07
3.83569e+07
6.22896e+06
0
-0
0
0
0
0
0
-0
4937.86
-1.63381e+07
-4.81691e+06
-217145
-230302
-146980
0
-1.63381e+07
5.40588e+10
1.5938e+10
7.1848e+08
7.6201e+08
4.86321e+08
0
-4.81691e+06
1.5938e+10
4.69893e+09
2.11827e+08
2.24661e+08
1.4338e+08
0
-217145
7.1848e+08
2.11827e+08
9.54911e+06
1.01277e+07
6.46355e+06
0
-230302
7.6201e+08
2.24661e+08
1.01277e+07
1.07413e+07
6.85516e+06
0
-146980
4.86321e+08
1.4338e+08
6.46355e+06
6.85516e+06
4.37501e+06
0
-0
0
0
-0
-0
0
-0
108407
-7.41277e+07
-2.05664e+07
1.65989e+06
503424
-299340
0
-7.41277e+07
5.06879e+10
1.40631e+10
-1.13502e+09
-3.44237e+08
2.04686e+08
0
-2.05664e+07
1.40631e+10
3.90173e+09
-3.14905e+08
-9.55068e+07
5.67891e+07
-0
1.65989e+06
-1.13502e+09
-3.14905e+08
2.54157e+07
7.70826e+06
-4.58339e+06
-0
503424
-3.44237e+08
-9.55068e+07
7.70826e+06
2.33782e+06
-1.39008e+06
0
-299340
2.04686e+08
5.67891e+07
-4.58339e+06
-1.39008e+06
826555
0
0
0
0
0
0
0
0
33780.8
4.40616e+07
1.36961e+07
2.03413e+06
1.46899e+06
597649
0
4.40616e+07
5.74711e+10
1.78643e+10
2.65319e+09
1.91606e+09
7.79536e+08
0
1.36961e+07
1.78643e+10
5.55294e+09
8.24718e+08
5.95587e+08
2.42311e+08
0
2.03413e+06
2.65319e+09
8.24718e+08
1.22486e+08
8.8456e+07
3.59878e+07
0
1.46899e+06
1.91606e+09
5.95587e+08
8.8456e+07
6.38804e+07
2.59893e+07
0
597649
7.79536e+08
2.42311e+08
3.59878e+07
2.59893e+07
1.05736e+07
0
0
0
0
0
0
0
0
371585
1.53517e+08
5.15227e+07
1.48957e+07
9.68893e+06
3.16725e+06
0
1.53517e+08
6.34239e+10
2.12861e+10
6.15402e+09
4.00289e+09
1.30852e+09
0
5.15227e+07
2.12861e+10
7.14396e+09
2.06539e+09
1.34343e+09
4.3916e+08
0
1.48957e+07
6.15402e+09
2.06539e+09
5.97124e+08
3.884e+08
1.26966e+08
0
9.68893e+06
4.00289e+09
1.34343e+09
3.884e+08
2.52635e+08
8.25848e+07
0
3.16725e+06
1.30852e+09
4.3916e+08
1.26966e+08
8.25848e+07
2.69965e+07
0
-0
0
0
-0
-0
-0
-0
1.19458e+06
-2.2233e+08
-4.86591e+07
3.17187e+07
1.71624e+07
2.81761e+06
0
-2.2233e+08
4.13793e+10
9.05624e+09
-5.90336e+09
-3.19421e+09
-5.24403e+08
0
-4.86591e+07
9.05624e+09
1.98204e+09
-1.292e+09
-6.99082e+08
-1.14771e+08
-0
3.17187e+07
-5.90336e+09
-1.292e+09
8.42199e+08
4.557e+08
7.48138e+07
-0
1.71624e+07
-3.19421e+09
-6.99082e+08
4.557e+08
2.46571e+08
4.04805e+07
-0
2.81761e+06
-5.24403e+08
-1.14771e+08
7.48138e+07
4.04805e+07
6.64581e+06
0
0
0
0
0
0
0
0
1.34685e+06
3.10456e+08
1.13114e+08
4.84353e+07
3.03128e+07
8.94945e+06
0
3.10456e+08
7.1562e+10
2.60734e+10
1.11646e+10
6.98728e+09
2.0629e+09
0
1.13114e+08
2.60734e+10
9.4998e+09
4.06781e+09
2.5458e+09
7.51613e+08
0
4.84353e+07
1.11646e+10
4.06781e+09
1.74183e+09
1.09011e+09
3.2184e+08
0
3.03128e+07
6.98728e+09
2.5458e+09
1.09011e+09
6.82234e+08
2.01421e+08
0
8.94945e+06
2.0629e+09
7.51613e+08
3.2184e+08
2.01421e+08
5.94668e+07
0
-0
0
0
-0
-0
-0
-0
2.52921e+06
-3.0101e+08
-5.22175e+07
7.09893e+07
3.96528e+07
7.71157e+06
0
-3.0101e+08
3.58243e+10
6.21459e+09
-8.44868e+09
-4.71921e+09
-9.1778e+08
0
-5.22175e+07
6.21459e+09
1.07807e+09
-1.46563e+09
-8.18662e+08
-1.59211e+08
-0
7.09893e+07
-8.44868e+09
-1.46563e+09
1.99251e+09
1.11296e+09
2.16446e+08
-0
3.96528e+07
-4.71921e+09
-8.18662e+08
1.11296e+09
6.21673e+08
1.20901e+08
-0
7.71157e+06
-9.1778e+08
-1.59211e+08
2.16446e+08
1.20901e+08
2.35126e+07
0
-0
0
0
-0
-0
-0
-0
467612
-1.4706e+08
-3.70174e+07
1.10603e+07
5.54535e+06
485377
0
-1.4706e+08
4.62489e+10
1.16416e+10
-3.47836e+09
-1.74396e+09
-1.52647e+08
0
-3.70174e+07
1.16416e+10
2.9304e+09
-8.75562e+08
-4.38985e+08
-3.84237e+07
-0
1.10603e+07
-3.47836e+09
-8.75562e+08
2.61606e+08
1.31163e+08
1.14805e+07
-0
5.54535e+06
-1.74396e+09
-4.38985e+08
1.31163e+08
6.57616e+07
5.75602e+06
-0
485377
-1.52647e+08
-3.84237e+07
1.14805e+07
5.75602e+06
503817
0
0
0
0
0
0
0
0
6569.95
1.91946e+07
5.84442e+06
635594
493285
225544
0
1.91946e+07
5.60786e+10
1.70749e+10
1.85694e+09
1.44117e+09
6.58945e+08
0
5.84442e+06
1.70749e+10
5.19901e+09
5.65404e+08
4.38811e+08
2.00637e+08
0
635594
1.85694e+09
5.65404e+08
6.1489e+07
4.77217e+07
2.18197e+07
0
493285
1.44117e+09
4.38811e+08
4.77217e+07
3.70368e+07
1.69343e+07
0
225544
6.58945e+08
2.00637e+08
2.18197e+07
1.69343e+07
7.74285e+06
0
-0
0
0
-0
-0
-0
-0
1.07968e+06
-2.1296e+08
-4.75755e+07
2.83964e+07
1.52769e+07
2.42299e+06
0
-2.1296e+08
4.20052e+10
9.384e+09
-5.60103e+09
-3.01328e+09
-4.77921e+08
0
-4.75755e+07
9.384e+09
2.09639e+09
-1.25127e+09
-6.7317e+08
-1.06768e+08
-0
2.83964e+07
-5.60103e+09
-1.25127e+09
7.46848e+08
4.01795e+08
6.37267e+07
-0
1.52769e+07
-3.01328e+09
-6.7317e+08
4.01795e+08
2.16161e+08
3.42841e+07
-0
2.42299e+06
-4.77921e+08
-1.06768e+08
6.37267e+07
3.42841e+07
5.43763e+06
0
-0
0
0
0
0
0
-0
6916.47
-1.93059e+07
-5.67568e+06
-223321
-252662
-169056
0
-1.93059e+07
5.38884e+10
1.58425e+10
6.23355e+08
7.05252e+08
4.71885e+08
0
-5.67568e+06
1.58425e+10
4.65748e+09
1.83258e+08
2.07335e+08
1.38728e+08
0
-223321
6.23355e+08
1.83258e+08
7.21068e+06
8.15803e+06
5.45855e+06
0
-252662
7.05252e+08
2.07335e+08
8.15803e+06
9.22984e+06
6.1757e+06
0
-169056
4.71885e+08
1.38728e+08
5.45855e+06
6.1757e+06
4.13217e+06
0
0
0
0
0
0
0
0
516290
1.83183e+08
6.25712e+07
2.00163e+07
1.28737e+07
4.09082e+06
0
1.83183e+08
6.49943e+10
2.22006e+10
7.10189e+09
4.56765e+09
1.45145e+09
0
6.25712e+07
2.22006e+10
7.58325e+09
2.42585e+09
1.56021e+09
4.95783e+08
0
2.00163e+07
7.10189e+09
2.42585e+09
7.7602e+08
4.99104e+08
1.58599e+08
0
1.28737e+07
4.56765e+09
1.56021e+09
4.99104e+08
3.21004e+08
1.02004e+08
0
4.09082e+06
1.45145e+09
4.95783e+08
1.58599e+08
1.02004e+08
3.24136e+07
0
0
0
0
0
0
0
0
1.13443e+06
2.82033e+08
1.01423e+08
4.12602e+07
2.59332e+07
7.74929e+06
0
2.82033e+08
7.01171e+10
2.52151e+10
1.02578e+10
6.44734e+09
1.92657e+09
0
1.01423e+08
2.52151e+10
9.06769e+09
3.68885e+09
2.31855e+09
6.92823e+08
0
4.12602e+07
1.02578e+10
3.68885e+09
1.50067e+09
9.43217e+08
2.81849e+08
0
2.59332e+07
6.44734e+09
2.31855e+09
9.43217e+08
5.9284e+08
1.77151e+08
0
7.74929e+06
1.92657e+09
6.92823e+08
2.81849e+08
1.77151e+08
5.29356e+07
0
0
0
0
0
0
0
0
26318
3.87916e+07
1.20067e+07
1.68558e+06
1.23168e+06
511543
0
3.87916e+07
5.71774e+10
1.76974e+10
2.48448e+09
1.81544e+09
7.53994e+08
0
1.20067e+07
1.76974e+10
5.47768e+09
7.6899e+08
5.61913e+08
2.33375e+08
0
1.68558e+06
2.48448e+09
7.6899e+08
1.07956e+08
7.88848e+07
3.27626e+07
0
1.23168e+06
1.81544e+09
5.61913e+08
7.88848e+07
5.76423e+07
2.39401e+07
0
511543
7.53994e+08
2.33375e+08
3.27626e+07
2.39401e+07
9.94286e+06
0
0
0
0
0
0
0
0
1.14214e+06
2.831e+08
1.01858e+08
4.15214e+07
2.60929e+07
7.79321e+06
0
2.831e+08
7.01715e+10
2.52473e+10
1.02918e+10
6.46761e+09
1.93169e+09
0
1.01858e+08
2.52473e+10
9.08387e+09
3.70295e+09
2.32701e+09
6.95013e+08
0
4.15214e+07
1.02918e+10
3.70295e+09
1.50947e+09
9.48584e+08
2.83315e+08
0
2.60929e+07
6.46761e+09
2.32701e+09
9.48584e+08
5.9611e+08
1.78041e+08
0
7.79321e+06
1.93169e+09
6.95013e+08
2.83315e+08
1.78041e+08
5.31759e+07
0
0
0
0
0
0
0
0
10975.1
2.48793e+07
7.61215e+06
899473
683654
302851
0
2.48793e+07
5.63984e+10
1.72558e+10
2.039e+09
1.54976e+09
6.86528e+08
0
7.61215e+06
1.72558e+10
5.27964e+09
6.23858e+08
4.74169e+08
2.10052e+08
0
899473
2.039e+09
6.23858e+08
7.37168e+07
5.60292e+07
2.48203e+07
0
683654
1.54976e+09
4.74169e+08
5.60292e+07
4.25856e+07
1.8865e+07
0
302851
6.86528e+08
2.10052e+08
2.48203e+07
1.8865e+07
8.35697e+06
0
-0
0
0
-0
-0
-0
-0
4.74608e+06
-3.75896e+08
-4.14231e+07
1.3748e+08
7.81002e+07
1.64147e+07
0
-3.75896e+08
2.97714e+10
3.28076e+09
-1.08886e+10
-6.18564e+09
-1.30006e+09
0
-4.14231e+07
3.28076e+09
3.61534e+08
-1.1999e+09
-6.81647e+08
-1.43265e+08
-0
1.3748e+08
-1.08886e+10
-1.1999e+09
3.98236e+09
2.26233e+09
4.75483e+08
-0
7.81002e+07
-6.18564e+09
-6.81647e+08
2.26233e+09
1.2852e+09
2.70115e+08
-0
1.64147e+07
-1.30006e+09
-1.43265e+08
4.75483e+08
2.70115e+08
5.67713e+07
0
0
0
0
0
0
0
0
19270.8
3.31017e+07
1.01978e+07
1.34032e+06
993642
422891
0
3.31017e+07
5.68594e+10
1.7517e+10
2.3023e+09
1.7068e+09
7.26408e+08
0
1.01978e+07
1.7517e+10
5.39657e+09
7.09282e+08
5.25823e+08
2.23789e+08
0
1.34032e+06
2.3023e+09
7.09282e+08
9.32224e+07
6.911e+07
2.9413e+07
0
993642
1.7068e+09
5.25823e+08
6.911e+07
5.12343e+07
2.18052e+07
0
422891
7.26408e+08
2.23789e+08
2.9413e+07
2.18052e+07
9.28022e+06
0
-0
0
0
-0
-0
0
-0
216621
-1.02983e+08
-2.75832e+07
4.33636e+06
1.88785e+06
-133758
0
-1.02983e+08
4.8959e+10
1.31133e+10
-2.06154e+09
-8.97501e+08
6.35897e+07
0
-2.75832e+07
1.31133e+10
3.51227e+09
-5.52166e+08
-2.40388e+08
1.70319e+07
-0
4.33636e+06
-2.06154e+09
-5.52166e+08
8.68062e+07
3.77915e+07
-2.6776e+06
-0
1.88785e+06
-8.97501e+08
-2.40388e+08
3.77915e+07
1.64527e+07
-1.16571e+06
0
-133758
6.35897e+07
1.70319e+07
-2.6776e+06
-1.16571e+06
82592.5
0
0
0
0
0
0
0
0
886150
2.45955e+08
8.69033e+07
3.28094e+07
2.07587e+07
6.31715e+06
0
2.45955e+08
6.82657e+10
2.41204e+10
9.10638e+09
5.76165e+09
1.75335e+09
0
8.69033e+07
2.41204e+10
8.52246e+09
3.21756e+09
2.03577e+09
6.19512e+08
0
3.28094e+07
9.10638e+09
3.21756e+09
1.21476e+09
7.68581e+08
2.3389e+08
0
2.07587e+07
5.76165e+09
2.03577e+09
7.68581e+08
4.86285e+08
1.47983e+08
0
6.31715e+06
1.75335e+09
6.19512e+08
2.3389e+08
1.47983e+08
4.50334e+07
0
-0
0
0
-0
-0
-0
-0
902906
-1.97149e+08
-4.54907e+07
2.33168e+07
1.24034e+07
1.83024e+06
0
-1.97149e+08
4.30476e+10
9.93289e+09
-5.09122e+09
-2.70828e+09
-3.99633e+08
0
-4.54907e+07
9.93289e+09
2.29194e+09
-1.17476e+09
-6.24914e+08
-9.22123e+07
-0
2.33168e+07
-5.09122e+09
-1.17476e+09
6.02136e+08
3.20307e+08
4.72644e+07
-0
1.24034e+07
-2.70828e+09
-6.24914e+08
3.20307e+08
1.70388e+08
2.51424e+07
-0
1.83024e+06
-3.99633e+08
-9.22123e+07
4.72644e+07
2.51424e+07
3.71001e+06
0
-0
0
0
-0
-0
-0
-0
624370
-1.67541e+08
-4.08e+07
1.54189e+07
7.96735e+06
944562
0
-1.67541e+08
4.49571e+10
1.09481e+10
-4.13744e+09
-2.13792e+09
-2.53459e+08
0
-4.08e+07
1.09481e+10
2.66611e+09
-1.00756e+09
-5.20633e+08
-6.17232e+07
-0
1.54189e+07
-4.13744e+09
-1.00756e+09
3.80773e+08
1.96755e+08
2.33261e+07
-0
7.96735e+06
-2.13792e+09
-5.20633e+08
1.96755e+08
1.01668e+08
1.20532e+07
-0
944562
-2.53459e+08
-6.17232e+07
2.33261e+07
1.20532e+07
1.42895e+06
0
-0
0
0
-0
-0
-0
-0
1.20639e+06
-2.23258e+08
-4.87599e+07
3.20608e+07
1.73569e+07
2.85852e+06
0
-2.23258e+08
4.1317e+10
9.02369e+09
-5.9333e+09
-3.21212e+09
-5.29009e+08
0
-4.87599e+07
9.02369e+09
1.97079e+09
-1.29584e+09
-7.01533e+08
-1.15536e+08
-0
3.20608e+07
-5.9333e+09
-1.29584e+09
8.52047e+08
4.61275e+08
7.5968e+07
-0
1.73569e+07
-3.21212e+09
-7.01533e+08
4.61275e+08
2.49722e+08
4.1127e+07
-0
2.85852e+06
-5.29009e+08
-1.15536e+08
7.5968e+07
4.1127e+07
6.77326e+06
0
0
0
0
0
0
0
0
64921.3
6.15972e+07
1.9412e+07
3.38794e+06
2.37221e+06
911126
0
6.15972e+07
5.84434e+10
1.84181e+10
3.21447e+09
2.25075e+09
8.64475e+08
0
1.9412e+07
1.84181e+10
5.80435e+09
1.01302e+09
7.0931e+08
2.72434e+08
0
3.38794e+06
3.21447e+09
1.01302e+09
1.76801e+08
1.23795e+08
4.75474e+07
0
2.37221e+06
2.25075e+09
7.0931e+08
1.23795e+08
8.668e+07
3.32923e+07
0
911126
8.64475e+08
2.72434e+08
4.75474e+07
3.32923e+07
1.2787e+07
0
-0
0
0
-0
-0
0
-0
261508
-1.12483e+08
-2.97544e+07
5.50235e+06
2.51037e+06
-39666.8
0
-1.12483e+08
4.83824e+10
1.27983e+10
-2.36673e+09
-1.07979e+09
1.7062e+07
0
-2.97544e+07
1.27983e+10
3.38547e+09
-6.26058e+08
-2.85631e+08
4.5133e+06
-0
5.50235e+06
-2.36673e+09
-6.26058e+08
1.15774e+08
5.28203e+07
-834624
-0
2.51037e+06
-1.07979e+09
-2.85631e+08
5.28203e+07
2.40986e+07
-380786
0
-39666.8
1.7062e+07
4.5133e+06
-834624
-380786
6016.87
0
-0
0
0
0
0
0
-0
18485.5
-3.13577e+07
-9.11012e+06
-139710
-279841
-243603
0
-3.13577e+07
5.31935e+10
1.54539e+10
2.36997e+08
4.74706e+08
4.13235e+08
0
-9.11012e+06
1.54539e+10
4.48971e+09
6.8853e+07
1.37913e+08
1.20054e+08
0
-139710
2.36997e+08
6.8853e+07
1.05591e+06
2.115e+06
1.84112e+06
0
-279841
4.74706e+08
1.37913e+08
2.115e+06
4.23635e+06
3.68777e+06
0
-243603
4.13235e+08
1.20054e+08
1.84112e+06
3.68777e+06
3.21022e+06
0
-0
0
0
-0
-0
0
-0
87998.9
-6.70619e+07
-1.87569e+07
1.19181e+06
274061
-313860
0
-6.70619e+07
5.11063e+10
1.42942e+10
-9.08254e+08
-2.08856e+08
2.39185e+08
0
-1.87569e+07
1.42942e+10
3.99803e+09
-2.54035e+08
-5.84161e+07
6.68991e+07
-0
1.19181e+06
-9.08254e+08
-2.54035e+08
1.61414e+07
3.71176e+06
-4.25077e+06
-0
274061
-2.08856e+08
-5.84161e+07
3.71176e+06
853530
-977477
0
-313860
2.39185e+08
6.68991e+07
-4.25077e+06
-977477
1.11942e+06
0
-0
0
0
-0
-0
0
-0
75393.7
-6.22456e+07
-1.7504e+07
912913
141225
-318178
0
-6.22456e+07
5.13905e+10
1.44514e+10
-7.53708e+08
-1.16597e+08
2.6269e+08
0
-1.7504e+07
1.44514e+10
4.06386e+09
-2.11949e+08
-3.2788e+07
7.38707e+07
-0
912913
-7.53708e+08
-2.11949e+08
1.10541e+07
1.71004e+06
-3.8527e+06
-0
141225
-1.16597e+08
-3.2788e+07
1.71004e+06
264540
-596002
0
-318178
2.6269e+08
7.38707e+07
-3.8527e+06
-596002
1.34278e+06
0
-0
0
0
-0
-0
-0
-0
1.26915e+06
-2.28088e+08
-4.92655e+07
3.3882e+07
1.83924e+07
3.07704e+06
0
-2.28088e+08
4.09915e+10
8.85388e+09
-6.0892e+09
-3.30544e+09
-5.52998e+08
0
-4.92655e+07
8.85388e+09
1.91238e+09
-1.31523e+09
-7.13953e+08
-1.19444e+08
-0
3.3882e+07
-6.0892e+09
-1.31523e+09
9.04538e+08
4.91016e+08
8.21468e+07
-0
1.83924e+07
-3.30544e+09
-7.13953e+08
4.91016e+08
2.66542e+08
4.45923e+07
-0
3.07704e+06
-5.52998e+08
-1.19444e+08
8.21468e+07
4.45923e+07
7.46026e+06
0
0
0
0
0
0
0
0
229.568
3.55962e+06
1.06902e+06
87458
73677.2
37601.2
0
3.55962e+06
5.51944e+10
1.6576e+10
1.3561e+09
1.14242e+09
5.83034e+08
0
1.06902e+06
1.6576e+10
4.97811e+09
4.07264e+08
3.43091e+08
1.75097e+08
0
87458
1.3561e+09
4.07264e+08
3.33187e+07
2.80687e+07
1.43249e+07
0
73677.2
1.14242e+09
3.43091e+08
2.80687e+07
2.36459e+07
1.20677e+07
0
37601.2
5.83034e+08
1.75097e+08
1.43249e+07
1.20677e+07
6.15876e+06
0
0
0
0
0
0
0
0
1.69362e+06
3.5335e+08
1.3115e+08
6.00695e+07
3.73939e+07
1.08726e+07
0
3.5335e+08
7.37214e+10
2.73625e+10
1.25326e+10
7.80169e+09
2.26842e+09
0
1.3115e+08
2.73625e+10
1.01559e+10
4.65162e+09
2.89568e+09
8.41948e+08
0
6.00695e+07
1.25326e+10
4.65162e+09
2.13055e+09
1.32629e+09
3.85631e+08
0
3.73939e+07
7.80169e+09
2.89568e+09
1.32629e+09
8.25626e+08
2.40059e+08
0
1.08726e+07
2.26842e+09
8.41948e+08
3.85631e+08
2.40059e+08
6.97996e+07
0
-0
0
0
-0
-0
-0
-0
3.71378e+06
-3.46293e+08
-4.80268e+07
1.06399e+08
6.00939e+07
1.23078e+07
0
-3.46293e+08
3.22903e+10
4.47828e+09
-9.92121e+09
-5.60349e+09
-1.14765e+09
0
-4.80268e+07
4.47828e+09
6.21085e+08
-1.37595e+09
-7.77138e+08
-1.59165e+08
-0
1.06399e+08
-9.92121e+09
-1.37595e+09
3.0483e+09
1.72168e+09
3.52615e+08
-0
6.00939e+07
-5.60349e+09
-7.77138e+08
1.72168e+09
9.724e+08
1.99157e+08
-0
1.23078e+07
-1.14765e+09
-1.59165e+08
3.52615e+08
1.99157e+08
4.07891e+07
0
-0
0
0
-0
-0
-0
-0
351584
-1.29049e+08
-3.3364e+07
7.89856e+06
3.80837e+06
174838
0
-1.29049e+08
4.73672e+10
1.22462e+10
-2.89916e+09
-1.39786e+09
-6.4174e+07
0
-3.3364e+07
1.22462e+10
3.16612e+09
-7.49544e+08
-3.614e+08
-1.65914e+07
-0
7.89856e+06
-2.89916e+09
-7.49544e+08
1.77446e+08
8.55575e+07
3.92784e+06
-0
3.80837e+06
-1.39786e+09
-3.614e+08
8.55575e+07
4.12524e+07
1.89385e+06
-0
174838
-6.4174e+07
-1.65914e+07
3.92784e+06
1.89385e+06
86944.3
0
-0
0
0
-0
-0
0
-0
128933
-8.05368e+07
-2.21774e+07
2.14642e+06
747736
-277560
0
-8.05368e+07
5.03067e+10
1.3853e+10
-1.34075e+09
-4.67068e+08
1.73376e+08
0
-2.21774e+07
1.3853e+10
3.8147e+09
-3.69201e+08
-1.28617e+08
4.77426e+07
-0
2.14642e+06
-1.34075e+09
-3.69201e+08
3.57328e+07
1.2448e+07
-4.62072e+06
-0
747736
-4.67068e+08
-1.28617e+08
1.2448e+07
4.33644e+06
-1.60969e+06
0
-277560
1.73376e+08
4.77426e+07
-4.62072e+06
-1.60969e+06
597520
0
-0
0
0
-0
-0
0
-0
137444
-8.30296e+07
-2.27961e+07
2.35188e+06
852260
-266834
0
-8.30296e+07
5.01581e+10
1.37711e+10
-1.42077e+09
-5.14849e+08
1.61194e+08
0
-2.27961e+07
1.37711e+10
3.78093e+09
-3.90079e+08
-1.41354e+08
4.42566e+07
-0
2.35188e+06
-1.42077e+09
-3.90079e+08
4.02445e+07
1.45835e+07
-4.56596e+06
-0
852260
-5.14849e+08
-1.41354e+08
1.45835e+07
5.28469e+06
-1.65458e+06
0
-266834
1.61194e+08
4.42566e+07
-4.56596e+06
-1.65458e+06
518034
0
-0
0
0
0
0
0
-0
23127.2
-3.50048e+07
-1.01323e+07
-79321.4
-267527
-261287
0
-3.50048e+07
5.29823e+10
1.5336e+10
1.20059e+08
4.04922e+08
3.95477e+08
0
-1.01323e+07
1.5336e+10
4.43911e+09
3.47517e+07
1.17207e+08
1.14473e+08
0
-79321.4
1.20059e+08
3.47517e+07
272055
917560
896157
0
-267527
4.04922e+08
1.17207e+08
917560
3.09465e+06
3.02247e+06
0
-261287
3.95477e+08
1.14473e+08
896157
3.02247e+06
2.95196e+06
0
0
0
0
0
0
0
0
192222
1.08281e+08
3.5294e+07
8.35756e+06
5.57607e+06
1.93539e+06
0
1.08281e+08
6.09959e+10
1.98816e+10
4.70791e+09
3.14106e+09
1.09023e+09
0
3.5294e+07
1.98816e+10
6.48038e+09
1.53454e+09
1.02383e+09
3.5536e+08
0
8.35756e+06
4.70791e+09
1.53454e+09
3.63376e+08
2.4244e+08
8.41485e+07
0
5.57607e+06
3.14106e+09
1.02383e+09
2.4244e+08
1.61753e+08
5.61429e+07
0
1.93539e+06
1.09023e+09
3.5536e+08
8.41485e+07
5.61429e+07
1.94866e+07
0
-0
0
0
-0
-0
-0
-0
2.77664e+06
-3.1179e+08
-5.17376e+07
7.83556e+07
4.38966e+07
8.65801e+06
0
-3.1179e+08
3.5011e+10
5.80964e+09
-8.79858e+09
-4.92916e+09
-9.72211e+08
0
-5.17376e+07
5.80964e+09
9.64037e+08
-1.46002e+09
-8.17934e+08
-1.61326e+08
-0
7.83556e+07
-8.79858e+09
-1.46002e+09
2.21116e+09
1.23874e+09
2.44326e+08
-0
4.38966e+07
-4.92916e+09
-8.17934e+08
1.23874e+09
6.93973e+08
1.36877e+08
-0
8.65801e+06
-9.72211e+08
-1.61326e+08
2.44326e+08
1.36877e+08
2.69971e+07
0
0
0
0
0
0
0
0
37847
4.66976e+07
1.45461e+07
2.21873e+06
1.59369e+06
642144
0
4.66976e+07
5.76178e+10
1.79477e+10
2.73758e+09
1.96638e+09
7.92309e+08
0
1.45461e+07
1.79477e+10
5.59064e+09
8.52744e+08
6.12519e+08
2.46801e+08
0
2.21873e+06
2.73758e+09
8.52744e+08
1.3007e+08
9.3428e+07
3.76448e+07
0
1.59369e+06
1.96638e+09
6.12519e+08
9.3428e+07
6.71086e+07
2.70399e+07
0
642144
7.92309e+08
2.46801e+08
3.76448e+07
2.70399e+07
1.08951e+07
0
-0
0
0
-0
-0
-0
-0
853313
-1.92354e+08
-4.47981e+07
2.18998e+07
1.16042e+07
1.66765e+06
0
-1.92354e+08
4.33604e+10
1.00984e+10
-4.93666e+09
-2.61583e+09
-3.75921e+08
0
-4.47981e+07
1.00984e+10
2.35186e+09
-1.14972e+09
-6.09212e+08
-8.75499e+07
-0
2.18998e+07
-4.93666e+09
-1.14972e+09
5.62047e+08
2.97817e+08
4.27993e+07
-0
1.16042e+07
-2.61583e+09
-6.09212e+08
2.97817e+08
1.57807e+08
2.26784e+07
-0
1.66765e+06
-3.75921e+08
-8.75499e+07
4.27993e+07
2.26784e+07
3.25912e+06
0
0
0
0
0
0
0
0
618062
2.01938e+08
6.97104e+07
2.357e+07
1.50723e+07
4.71868e+06
0
2.01938e+08
6.59788e+10
2.27763e+10
7.70096e+09
4.92454e+09
1.54173e+09
0
6.97104e+07
2.27763e+10
7.86255e+09
2.65843e+09
1.69998e+09
5.32214e+08
0
2.357e+07
7.70096e+09
2.65843e+09
8.98847e+08
5.74786e+08
1.79948e+08
0
1.50723e+07
4.92454e+09
1.69998e+09
5.74786e+08
3.67558e+08
1.15072e+08
0
4.71868e+06
1.54173e+09
5.32214e+08
1.79948e+08
1.15072e+08
3.60255e+07
0
0
0
0
0
0
0
0
125029
8.64754e+07
2.77599e+07
5.79851e+06
3.94039e+06
1.42393e+06
0
8.64754e+07
5.98099e+10
1.91999e+10
4.01049e+09
2.72533e+09
9.84846e+08
0
2.77599e+07
1.91999e+10
6.16344e+09
1.28743e+09
8.74871e+08
3.1615e+08
0
5.79851e+06
4.01049e+09
1.28743e+09
2.68919e+08
1.82744e+08
6.60378e+07
0
3.94039e+06
2.72533e+09
8.74871e+08
1.82744e+08
1.24184e+08
4.48761e+07
0
1.42393e+06
9.84846e+08
3.1615e+08
6.60378e+07
4.48761e+07
1.62168e+07
0
-0
0
0
-0
-0
0
-0
104476
-7.28266e+07
-2.02357e+07
1.56837e+06
458068
-302754
0
-7.28266e+07
5.07651e+10
1.41057e+10
-1.09326e+09
-3.19305e+08
2.1104e+08
0
-2.02357e+07
1.41057e+10
3.91944e+09
-3.03775e+08
-8.87226e+07
5.86401e+07
-0
1.56837e+06
-1.09326e+09
-3.03775e+08
2.3544e+07
6.87643e+06
-4.54489e+06
-0
458068
-3.19305e+08
-8.87226e+07
6.87643e+06
2.00838e+06
-1.32741e+06
0
-302754
2.1104e+08
5.86401e+07
-4.54489e+06
-1.32741e+06
877335
0
0
0
0
0
0
0
0
883295
2.45517e+08
8.67297e+07
3.27117e+07
2.06987e+07
6.30045e+06
0
2.45517e+08
6.82431e+10
2.41071e+10
9.09243e+09
5.75334e+09
1.75125e+09
0
8.67297e+07
2.41071e+10
8.51588e+09
3.21192e+09
2.03238e+09
6.18634e+08
0
3.27117e+07
9.09243e+09
3.21192e+09
1.21144e+09
7.6655e+08
2.33329e+08
0
2.06987e+07
5.75334e+09
2.03238e+09
7.6655e+08
4.85044e+08
1.47642e+08
0
6.30045e+06
1.75125e+09
6.18634e+08
2.33329e+08
1.47642e+08
4.49405e+07
0
0
0
0
0
0
0
0
5.55371e+06
7.10592e+08
2.95921e+08
1.86858e+08
1.13867e+08
3.10434e+07
0
7.10592e+08
9.09196e+10
3.78628e+10
2.39083e+10
1.45691e+10
3.97197e+09
0
2.95921e+08
3.78628e+10
1.57677e+10
9.95645e+09
6.06721e+09
1.6541e+09
0
1.86858e+08
2.39083e+10
9.95645e+09
6.28696e+09
3.83112e+09
1.04448e+09
0
1.13867e+08
1.45691e+10
6.06721e+09
3.83112e+09
2.33459e+09
6.36477e+08
0
3.10434e+07
3.97197e+09
1.6541e+09
1.04448e+09
6.36477e+08
1.73522e+08
0
-0
0
0
-0
-0
0
-0
90398.3
-6.79357e+07
-1.89825e+07
1.24587e+06
300187
-312595
0
-6.79357e+07
5.10547e+10
1.42657e+10
-9.36294e+08
-2.25595e+08
2.3492e+08
0
-1.89825e+07
1.42657e+10
3.9861e+09
-2.61619e+08
-6.30357e+07
6.56412e+07
-0
1.24587e+06
-9.36294e+08
-2.61619e+08
1.71707e+07
4.1372e+06
-4.30821e+06
-0
300187
-2.25595e+08
-6.30357e+07
4.1372e+06
996838
-1.03804e+06
0
-312595
2.3492e+08
6.56412e+07
-4.30821e+06
-1.03804e+06
1.08095e+06
0
-0
0
0
-0
-0
0
-0
82326
-6.49436e+07
-1.82078e+07
1.06518e+06
213317
-316310
0
-6.49436e+07
5.12314e+10
1.43634e+10
-8.4028e+08
-1.68277e+08
2.49524e+08
0
-1.82078e+07
1.43634e+10
4.02696e+09
-2.35583e+08
-4.71786e+07
6.99574e+07
-0
1.06518e+06
-8.4028e+08
-2.35583e+08
1.3782e+07
2.76002e+06
-4.09261e+06
-0
213317
-1.68277e+08
-4.71786e+07
2.76002e+06
552730
-819599
0
-316310
2.49524e+08
6.99574e+07
-4.09261e+06
-819599
1.21532e+06
0
0
0
0
0
0
0
0
1.76389e+06
3.61615e+08
1.34676e+08
6.24171e+07
3.88203e+07
1.12579e+07
0
3.61615e+08
7.41347e+10
2.761e+10
1.27961e+10
7.95855e+09
2.30799e+09
0
1.34676e+08
2.761e+10
1.02828e+10
4.76567e+09
2.964e+09
8.59564e+08
0
6.24171e+07
1.27961e+10
4.76567e+09
2.2087e+09
1.3737e+09
3.98374e+08
0
3.88203e+07
7.95855e+09
2.964e+09
1.3737e+09
8.5437e+08
2.47768e+08
0
1.12579e+07
2.30799e+09
8.59564e+08
3.98374e+08
2.47768e+08
7.18531e+07
0
0
0
0
0
0
0
0
465759
1.73287e+08
5.8852e+07
1.82387e+07
1.17706e+07
3.77309e+06
0
1.73287e+08
6.44723e+10
2.18961e+10
6.78577e+09
4.37931e+09
1.40379e+09
0
5.8852e+07
2.18961e+10
7.43638e+09
2.30459e+09
1.4873e+09
4.76757e+08
0
1.82387e+07
6.78577e+09
2.30459e+09
7.14208e+08
4.60926e+08
1.4775e+08
0
1.17706e+07
4.37931e+09
1.4873e+09
4.60926e+08
2.97466e+08
9.53531e+07
0
3.77309e+06
1.40379e+09
4.76757e+08
1.4775e+08
9.53531e+07
3.05656e+07
0
-0
0
0
-0
-0
-0
-0
3.411e+06
-3.36091e+08
-4.95087e+07
9.73171e+07
5.48423e+07
1.11189e+07
0
-3.36091e+08
3.31155e+10
4.87816e+09
-9.5888e+09
-5.4037e+09
-1.09556e+09
0
-4.95087e+07
4.87816e+09
7.18589e+08
-1.4125e+09
-7.96004e+08
-1.61384e+08
-0
9.73171e+07
-9.5888e+09
-1.4125e+09
2.77649e+09
1.56467e+09
3.17226e+08
-0
5.48423e+07
-5.4037e+09
-7.96004e+08
1.56467e+09
8.81759e+08
1.7877e+08
-0
1.11189e+07
-1.09556e+09
-1.61384e+08
3.17226e+08
1.7877e+08
3.62443e+07
0
-0
0
0
-0
-0
0
-0
67012.4
-5.87996e+07
-1.6598e+07
732972
57661.8
-318543
0
-5.87996e+07
5.15933e+10
1.45638e+10
-6.43141e+08
-5.05949e+07
2.79503e+08
0
-1.6598e+07
1.45638e+10
4.11106e+09
-1.81546e+08
-1.42819e+07
7.88982e+07
-0
732972
-6.43141e+08
-1.81546e+08
8.01715e+06
630696
-3.48417e+06
-0
57661.8
-5.05949e+07
-1.42819e+07
630696
49615.9
-274094
0
-318543
2.79503e+08
7.88982e+07
-3.48417e+06
-274094
1.51419e+06
0
0
0
0
0
0
0
0
666387
2.10384e+08
7.29627e+07
2.5247e+07
1.61073e+07
5.01208e+06
0
2.10384e+08
6.64201e+10
2.3035e+10
7.9707e+09
5.08521e+09
1.58236e+09
0
7.29627e+07
2.3035e+10
7.9887e+09
2.7643e+09
1.76359e+09
5.48774e+08
0
2.5247e+07
7.9707e+09
2.7643e+09
9.56517e+08
6.10247e+08
1.8989e+08
0
1.61073e+07
5.08521e+09
1.76359e+09
6.10247e+08
3.89331e+08
1.21147e+08
0
5.01208e+06
1.58236e+09
5.48774e+08
1.8989e+08
1.21147e+08
3.76973e+07
0
-0
0
0
-0
-0
-0
-0
505711
-1.52381e+08
-3.80396e+07
1.21119e+07
6.1273e+06
593447
0
-1.52381e+08
4.59154e+10
1.14621e+10
-3.64955e+09
-1.84628e+09
-1.78817e+08
0
-3.80396e+07
1.14621e+10
2.86133e+09
-9.11055e+08
-4.60895e+08
-4.4639e+07
-0
1.21119e+07
-3.64955e+09
-9.11055e+08
2.90082e+08
1.4675e+08
1.42132e+07
-0
6.1273e+06
-1.84628e+09
-4.60895e+08
1.4675e+08
7.42395e+07
7.19032e+06
-0
593447
-1.78817e+08
-4.4639e+07
1.42132e+07
7.19032e+06
696403
0
0
0
0
0
0
0
0
597595
1.98278e+08
6.8308e+07
2.28578e+07
1.46323e+07
4.59356e+06
0
1.98278e+08
6.57871e+10
2.26641e+10
7.58406e+09
4.85489e+09
1.52411e+09
0
6.8308e+07
2.26641e+10
7.80795e+09
2.61276e+09
1.67254e+09
5.25067e+08
0
2.28578e+07
7.58406e+09
2.61276e+09
8.74303e+08
5.59681e+08
1.75702e+08
0
1.46323e+07
4.85489e+09
1.67254e+09
5.59681e+08
3.58277e+08
1.12475e+08
0
4.59356e+06
1.52411e+09
5.25067e+08
1.75702e+08
1.12475e+08
3.53096e+07
0
-0
0
0
0
0
0
-0
17696.3
-3.06922e+07
-8.92272e+06
-148949
-281045
-240129
0
-3.06922e+07
5.3232e+10
1.54754e+10
2.58335e+08
4.8744e+08
4.16475e+08
0
-8.92272e+06
1.54754e+10
4.49895e+09
7.51022e+07
1.41707e+08
1.21076e+08
0
-148949
2.58335e+08
7.51022e+07
1.2537e+06
2.36555e+06
2.02115e+06
0
-281045
4.8744e+08
1.41707e+08
2.36555e+06
4.46344e+06
3.81362e+06
0
-240129
4.16475e+08
1.21076e+08
2.02115e+06
3.81362e+06
3.2584e+06
0
0
0
0
0
0
0
0
346163
1.47817e+08
4.94357e+07
1.39851e+07
9.11991e+06
2.99998e+06
0
1.47817e+08
6.31202e+10
2.11098e+10
5.97187e+09
3.89435e+09
1.28104e+09
0
4.94357e+07
2.11098e+10
7.05992e+09
1.99722e+09
1.30242e+09
4.28428e+08
0
1.39851e+07
5.97187e+09
1.99722e+09
5.65004e+08
3.68448e+08
1.212e+08
0
9.11991e+06
3.89435e+09
1.30242e+09
3.68448e+08
2.4027e+08
7.90366e+07
0
2.99998e+06
1.28104e+09
4.28428e+08
1.212e+08
7.90366e+07
2.59989e+07
0
-0
0
0
-0
-0
-0
-0
357872
-1.30108e+08
-3.35869e+07
8.06803e+06
3.90089e+06
190813
0
-1.30108e+08
4.73019e+10
1.22108e+10
-2.93321e+09
-1.4182e+09
-6.9372e+07
0
-3.35869e+07
1.22108e+10
3.15218e+09
-7.57197e+08
-3.66104e+08
-1.79081e+07
-0
8.06803e+06
-2.93321e+09
-7.57197e+08
1.81889e+08
8.79433e+07
4.30178e+06
-0
3.90089e+06
-1.4182e+09
-3.66104e+08
8.79433e+07
4.25205e+07
2.07991e+06
-0
190813
-6.9372e+07
-1.79081e+07
4.30178e+06
2.07991e+06
101740
0
0
0
0
0
0
0
0
2.76812e+06
4.68888e+08
1.81834e+08
9.5726e+07
5.89953e+07
1.6653e+07
0
4.68888e+08
7.94242e+10
3.08006e+10
1.62149e+10
9.99314e+09
2.82082e+09
0
1.81834e+08
3.08006e+10
1.19444e+10
6.2881e+09
3.87532e+09
1.09391e+09
0
9.5726e+07
1.62149e+10
6.2881e+09
3.31036e+09
2.04015e+09
5.75886e+08
0
5.89953e+07
9.99314e+09
3.87532e+09
2.04015e+09
1.25733e+09
3.54915e+08
0
1.6653e+07
2.82082e+09
1.09391e+09
5.75886e+08
3.54915e+08
1.00184e+08
0
-0
0
0
-0
-0
-0
-0
669820
-1.72874e+08
-4.17156e+07
1.66963e+07
8.68138e+06
1.08392e+06
0
-1.72874e+08
4.46169e+10
1.07664e+10
-4.30915e+09
-2.24058e+09
-2.79748e+08
0
-4.17156e+07
1.07664e+10
2.598e+09
-1.03983e+09
-5.40667e+08
-6.75052e+07
-0
1.66963e+07
-4.30915e+09
-1.03983e+09
4.16182e+08
2.16397e+08
2.70184e+07
-0
8.68138e+06
-2.24058e+09
-5.40667e+08
2.16397e+08
1.12517e+08
1.40484e+07
-0
1.08392e+06
-2.79748e+08
-6.75052e+07
2.70184e+07
1.40484e+07
1.75402e+06
0
-0
0
0
-0
-0
-0
-0
1.28811e+06
-2.29515e+08
-4.94086e+07
3.44329e+07
1.87059e+07
3.14338e+06
0
-2.29515e+08
4.0895e+10
8.80362e+09
-6.13526e+09
-3.33301e+09
-5.60088e+08
0
-4.94086e+07
8.80362e+09
1.89519e+09
-1.32076e+09
-7.17511e+08
-1.20572e+08
-0
3.44329e+07
-6.13526e+09
-1.32076e+09
9.20442e+08
5.00035e+08
8.40271e+07
-0
1.87059e+07
-3.33301e+09
-7.17511e+08
5.00035e+08
2.71646e+08
4.56482e+07
-0
3.14338e+06
-5.60088e+08
-1.20572e+08
8.40271e+07
4.56482e+07
7.67084e+06
0
0
0
0
0
0
0
0
92856.8
7.40999e+07
2.35732e+07
4.52951e+06
3.1194e+06
1.15913e+06
0
7.40999e+07
5.9132e+10
1.88115e+10
3.61456e+09
2.48929e+09
9.24987e+08
0
2.35732e+07
1.88115e+10
5.98446e+09
1.14989e+09
7.91912e+08
2.94264e+08
0
4.52951e+06
3.61456e+09
1.14989e+09
2.20947e+08
1.52163e+08
5.65417e+07
0
3.1194e+06
2.48929e+09
7.91912e+08
1.52163e+08
1.04792e+08
3.89394e+07
0
1.15913e+06
9.24987e+08
2.94264e+08
5.65417e+07
3.89394e+07
1.44694e+07
0
-0
0
0
-0
-0
-0
-0
2.27322e+06
-2.88914e+08
-5.24316e+07
6.33894e+07
3.52805e+07
6.74207e+06
0
-2.88914e+08
3.67194e+10
6.66376e+09
-8.05644e+09
-4.48396e+09
-8.5688e+08
0
-5.24316e+07
6.66376e+09
1.20933e+09
-1.46207e+09
-8.1374e+08
-1.55505e+08
-0
6.33894e+07
-8.05644e+09
-1.46207e+09
1.76763e+09
9.83805e+08
1.88004e+08
-0
3.52805e+07
-4.48396e+09
-8.1374e+08
9.83805e+08
5.47555e+08
1.04637e+08
-0
6.74207e+06
-8.5688e+08
-1.55505e+08
1.88004e+08
1.04637e+08
1.99961e+07
0
0
0
0
0
0
0
0
878416
2.44769e+08
8.64325e+07
3.25447e+07
2.05962e+07
6.2719e+06
0
2.44769e+08
6.82045e+10
2.40843e+10
9.06854e+09
5.73911e+09
1.74766e+09
0
8.64325e+07
2.40843e+10
8.50461e+09
3.20227e+09
2.02659e+09
6.1713e+08
0
3.25447e+07
9.06854e+09
3.20227e+09
1.20576e+09
7.63077e+08
2.3237e+08
0
2.05962e+07
5.73911e+09
2.02659e+09
7.63077e+08
4.82921e+08
1.47058e+08
0
6.2719e+06
1.74766e+09
6.1713e+08
2.3237e+08
1.47058e+08
4.47815e+07
0
0
0
0
0
0
0
0
423272
1.64605e+08
5.56164e+07
1.67358e+07
1.08361e+07
3.5022e+06
0
1.64605e+08
6.40128e+10
2.16285e+10
6.50835e+09
4.21402e+09
1.36196e+09
0
5.56164e+07
2.16285e+10
7.30779e+09
2.19903e+09
1.42382e+09
4.60177e+08
0
1.67358e+07
6.50835e+09
2.19903e+09
6.61722e+08
4.28451e+08
1.38474e+08
0
1.08361e+07
4.21402e+09
1.42382e+09
4.28451e+08
2.77413e+08
8.96592e+07
0
3.5022e+06
1.36196e+09
4.60177e+08
1.38474e+08
8.96592e+07
2.89777e+07
0
-0
0
0
-0
-0
-0
-0
986844
-2.0489e+08
-4.65502e+07
2.57235e+07
1.37633e+07
2.10931e+06
0
-2.0489e+08
4.25394e+10
9.66481e+09
-5.34075e+09
-2.85755e+09
-4.37937e+08
0
-4.65502e+07
9.66481e+09
2.19581e+09
-1.2134e+09
-6.49226e+08
-9.94979e+07
-0
2.57235e+07
-5.34075e+09
-1.2134e+09
6.70521e+08
3.58761e+08
5.49823e+07
-0
1.37633e+07
-2.85755e+09
-6.49226e+08
3.58761e+08
1.91954e+08
2.94181e+07
-0
2.10931e+06
-4.37937e+08
-9.94979e+07
5.49823e+07
2.94181e+07
4.50851e+06
0
-0
0
0
0
0
0
-0
1232.81
-8.19871e+06
-2.43585e+06
-147260
-137984
-79077.4
0
-8.19871e+06
5.45248e+10
1.61994e+10
9.79339e+08
9.17649e+08
5.25897e+08
0
-2.43585e+06
1.61994e+10
4.81286e+09
2.90963e+08
2.72635e+08
1.56245e+08
0
-147260
9.79339e+08
2.90963e+08
1.75903e+07
1.64822e+07
9.44583e+06
0
-137984
9.17649e+08
2.72635e+08
1.64822e+07
1.5444e+07
8.85083e+06
0
-79077.4
5.25897e+08
1.56245e+08
9.44583e+06
8.85083e+06
5.07234e+06
0
-0
0
0
-0
-0
0
-0
218773
-1.03463e+08
-2.76945e+07
4.39171e+06
1.91723e+06
-129496
0
-1.03463e+08
4.893e+10
1.30974e+10
-2.07695e+09
-9.06703e+08
6.12416e+07
0
-2.76945e+07
1.30974e+10
3.50585e+09
-5.55948e+08
-2.42702e+08
1.63929e+07
-0
4.39171e+06
-2.07695e+09
-5.55948e+08
8.81607e+07
3.84871e+07
-2.59954e+06
-0
1.91723e+06
-9.06703e+08
-2.42702e+08
3.84871e+07
1.68017e+07
-1.13484e+06
0
-129496
6.12416e+07
1.63929e+07
-2.59954e+06
-1.13484e+06
76651.1
0
0
0
0
0
0
0
0
24216
3.71811e+07
1.14931e+07
1.58456e+06
1.16237e+06
485991
0
3.71811e+07
5.70875e+10
1.76464e+10
2.43291e+09
1.78469e+09
7.46186e+08
0
1.14931e+07
1.76464e+10
5.4547e+09
7.52041e+08
5.51669e+08
2.30655e+08
0
1.58456e+06
2.43291e+09
7.52041e+08
1.03684e+08
7.60587e+07
3.18004e+07
0
1.16237e+06
1.78469e+09
5.51669e+08
7.60587e+07
5.57938e+07
2.33276e+07
0
485991
7.46186e+08
2.30655e+08
3.18004e+07
2.33276e+07
9.75335e+06
0
-0
0
0
-0
-0
-0
-0
4.12048e+06
-3.58829e+08
-4.56863e+07
1.18624e+08
6.7171e+07
1.39168e+07
0
-3.58829e+08
3.12483e+10
3.97855e+09
-1.03303e+10
-5.84953e+09
-1.21194e+09
0
-4.56863e+07
3.97855e+09
5.06551e+08
-1.31526e+09
-7.44765e+08
-1.54304e+08
-0
1.18624e+08
-1.03303e+10
-1.31526e+09
3.41506e+09
1.93378e+09
4.00651e+08
-0
6.7171e+07
-5.84953e+09
-7.44765e+08
1.93378e+09
1.095e+09
2.26868e+08
-0
1.39168e+07
-1.21194e+09
-1.54304e+08
4.00651e+08
2.26868e+08
4.70038e+07
0
0
0
0
0
0
0
0
1.36667e+06
3.13015e+08
1.14177e+08
4.91027e+07
3.07196e+07
9.06047e+06
0
3.13015e+08
7.16915e+10
2.61506e+10
1.12463e+10
7.03587e+09
2.07517e+09
0
1.14177e+08
2.61506e+10
9.5388e+09
4.10224e+09
2.56644e+09
7.56949e+08
0
4.91027e+07
1.12463e+10
4.10224e+09
1.7642e+09
1.10372e+09
3.25532e+08
0
3.07196e+07
7.03587e+09
2.56644e+09
1.10372e+09
6.90507e+08
2.03659e+08
0
9.06047e+06
2.07517e+09
7.56949e+08
3.25532e+08
2.03659e+08
6.00674e+07
0
0
0
0
0
0
0
0
203538
1.11586e+08
3.64529e+07
8.78025e+06
5.84437e+06
2.01775e+06
0
1.11586e+08
6.11747e+10
1.99846e+10
4.8136e+09
3.20406e+09
1.10619e+09
0
3.64529e+07
1.99846e+10
6.52859e+09
1.57251e+09
1.0467e+09
3.61372e+08
0
8.78025e+06
4.8136e+09
1.57251e+09
3.78764e+08
2.52115e+08
8.70421e+07
0
5.84437e+06
3.20406e+09
1.0467e+09
2.52115e+08
1.67814e+08
5.79375e+07
0
2.01775e+06
1.10619e+09
3.61372e+08
8.70421e+07
5.79375e+07
2.00028e+07
0
-0
0
0
-0
-0
0
-0
62373.9
-5.67929e+07
-1.60667e+07
635635
13359.7
-317720
0
-5.67929e+07
5.17112e+10
1.46291e+10
-5.7876e+08
-1.21643e+07
2.89291e+08
0
-1.60667e+07
1.46291e+10
4.13859e+09
-1.63732e+08
-3.44129e+06
8.18407e+07
-0
635635
-5.7876e+08
-1.63732e+08
6.47758e+06
136145
-3.2378e+06
-0
13359.7
-1.21643e+07
-3.44129e+06
136145
2861.48
-68051.6
0
-317720
2.89291e+08
8.18407e+07
-3.2378e+06
-68051.6
1.6184e+06
0
0
0
0
0
0
0
0
2.94808e+06
4.86489e+08
1.89799e+08
1.01658e+08
6.25791e+07
1.76031e+07
0
4.86489e+08
8.02799e+10
3.13204e+10
1.67756e+10
1.03267e+10
2.90484e+09
0
1.89799e+08
3.13204e+10
1.22193e+10
6.54482e+09
4.02887e+09
1.13329e+09
0
1.01658e+08
1.67756e+10
6.54482e+09
3.50548e+09
2.15791e+09
6.07006e+08
0
6.25791e+07
1.03267e+10
4.02887e+09
2.15791e+09
1.32837e+09
3.73662e+08
0
1.76031e+07
2.90484e+09
1.13329e+09
6.07006e+08
3.73662e+08
1.05109e+08
0
-0
0
0
-0
-0
-0
-0
347184
-1.28301e+08
-3.32061e+07
7.78011e+06
3.74376e+06
163726
0
-1.28301e+08
4.74133e+10
1.22712e+10
-2.87512e+09
-1.3835e+09
-6.05046e+07
0
-3.32061e+07
1.22712e+10
3.17597e+09
-7.44122e+08
-3.58069e+08
-1.56595e+07
-0
7.78011e+06
-2.87512e+09
-7.44122e+08
1.74346e+08
8.38947e+07
3.66897e+06
-0
3.74376e+06
-1.3835e+09
-3.58069e+08
8.38947e+07
4.03699e+07
1.7655e+06
-0
163726
-6.05046e+07
-1.56595e+07
3.66897e+06
1.7655e+06
77210.6
0
-0
0
0
0
0
0
-0
12751.8
-2.61185e+07
-7.62763e+06
-197719
-280704
-214205
0
-2.61185e+07
5.34961e+10
1.5623e+10
4.0497e+08
5.74942e+08
4.38738e+08
0
-7.62763e+06
1.5623e+10
4.56254e+09
1.18267e+08
1.67906e+08
1.28129e+08
0
-197719
4.0497e+08
1.18267e+08
3.06566e+06
4.35236e+06
3.32128e+06
0
-280704
5.74942e+08
1.67906e+08
4.35236e+06
6.17911e+06
4.71527e+06
0
-214205
4.38738e+08
1.28129e+08
3.32128e+06
4.71527e+06
3.59821e+06
0
-0
0
0
-0
-0
-0
-0
1.01234e+06
-2.07154e+08
-4.68463e+07
2.64564e+07
1.4178e+07
2.19495e+06
0
-2.07154e+08
4.23899e+10
9.58615e+09
-5.41377e+09
-2.90124e+09
-4.49152e+08
0
-4.68463e+07
9.58615e+09
2.16783e+09
-1.22428e+09
-6.56093e+08
-1.01572e+08
-0
2.64564e+07
-5.41377e+09
-1.22428e+09
6.91412e+08
3.70528e+08
5.73629e+07
-0
1.4178e+07
-2.90124e+09
-6.56093e+08
3.70528e+08
1.98566e+08
3.07408e+07
-0
2.19495e+06
-4.49152e+08
-1.01572e+08
5.73629e+07
3.07408e+07
4.7591e+06
0
0
0
0
0
0
0
0
24076.9
3.70721e+07
1.14584e+07
1.57782e+06
1.15774e+06
484276
0
3.70721e+07
5.70814e+10
1.76429e+10
2.42942e+09
1.78261e+09
7.45658e+08
0
1.14584e+07
1.76429e+10
5.45315e+09
7.50896e+08
5.50977e+08
2.30471e+08
0
1.57782e+06
2.42942e+09
7.50896e+08
1.03398e+08
7.58692e+07
3.17357e+07
0
1.15774e+06
1.78261e+09
5.50977e+08
7.58692e+07
5.56698e+07
2.32864e+07
0
484276
7.45658e+08
2.30471e+08
3.17357e+07
2.32864e+07
9.74059e+06
0
0
0
0
0
0
0
0
2.9553e+06
4.87187e+08
1.90116e+08
1.01896e+08
6.27227e+07
1.76411e+07
0
4.87187e+08
8.03137e+10
3.1341e+10
1.67978e+10
1.034e+10
2.90817e+09
0
1.90116e+08
3.1341e+10
1.22303e+10
6.55504e+09
4.03498e+09
1.13486e+09
0
1.01896e+08
1.67978e+10
6.55504e+09
3.5133e+09
2.16263e+09
6.08251e+08
0
6.27227e+07
1.034e+10
4.03498e+09
2.16263e+09
1.33121e+09
3.74412e+08
0
1.76411e+07
2.90817e+09
1.13486e+09
6.08251e+08
3.74412e+08
1.05305e+08
0
0
0
0
0
0
0
0
503291
1.80678e+08
6.16268e+07
1.95599e+07
1.25907e+07
4.00951e+06
0
1.80678e+08
6.48623e+10
2.21236e+10
7.02188e+09
4.51998e+09
1.43939e+09
0
6.16268e+07
2.21236e+10
7.54605e+09
2.39506e+09
1.5417e+09
4.90955e+08
0
1.95599e+07
7.02188e+09
2.39506e+09
7.60177e+08
4.89325e+08
1.55826e+08
0
1.25907e+07
4.51998e+09
1.5417e+09
4.89325e+08
3.14978e+08
1.00305e+08
0
4.00951e+06
1.43939e+09
4.90955e+08
1.55826e+08
1.00305e+08
3.19421e+07
0
0
0
0
0
0
0
0
238261
1.21242e+08
3.98639e+07
1.00663e+07
6.65814e+06
2.26548e+06
0
1.21242e+08
6.16959e+10
2.02853e+10
5.12237e+09
3.38809e+09
1.15282e+09
0
3.98639e+07
2.02853e+10
6.6697e+09
1.68421e+09
1.11399e+09
3.79042e+08
0
1.00663e+07
5.12237e+09
1.68421e+09
4.2529e+08
2.813e+08
9.57142e+07
0
6.65814e+06
3.38809e+09
1.11399e+09
2.813e+08
1.8606e+08
6.33083e+07
0
2.26548e+06
1.15282e+09
3.79042e+08
9.57142e+07
6.33083e+07
2.15411e+07
0
0
0
0
0
0
0
0
8.00764e+06
8.91339e+08
3.86792e+08
2.66413e+08
1.61576e+08
4.33894e+07
0
8.91339e+08
9.92159e+10
4.30542e+10
2.96547e+10
1.79852e+10
4.82972e+09
0
3.86792e+08
4.30542e+10
1.86831e+10
1.28685e+10
7.80459e+09
2.09583e+09
0
2.66413e+08
2.96547e+10
1.28685e+10
8.86353e+09
5.37563e+09
1.44356e+09
0
1.61576e+08
1.79852e+10
7.80459e+09
5.37563e+09
3.26025e+09
8.75502e+08
0
4.33894e+07
4.82972e+09
2.09583e+09
1.44356e+09
8.75502e+08
2.35106e+08
0
0
0
0
0
0
0
0
1.19458e+06
2.9028e+08
1.04793e+08
4.32964e+07
2.71773e+07
8.09118e+06
0
2.9028e+08
7.05375e+10
2.54645e+10
1.0521e+10
6.60403e+09
1.96614e+09
0
1.04793e+08
2.54645e+10
9.19284e+09
3.79813e+09
2.3841e+09
7.0979e+08
0
4.32964e+07
1.0521e+10
3.79813e+09
1.56924e+09
9.85017e+08
2.93258e+08
0
2.71773e+07
6.60403e+09
2.3841e+09
9.85017e+08
6.18297e+08
1.84079e+08
0
8.09118e+06
1.96614e+09
7.0979e+08
2.93258e+08
1.84079e+08
5.48036e+07
0
0
0
0
0
0
0
0
370227
1.53217e+08
5.14125e+07
1.48472e+07
9.65862e+06
3.15836e+06
0
1.53217e+08
6.34079e+10
2.12768e+10
6.14443e+09
3.99717e+09
1.30707e+09
0
5.14125e+07
2.12768e+10
7.13953e+09
2.06179e+09
1.34127e+09
4.38594e+08
0
1.48472e+07
6.14443e+09
2.06179e+09
5.95415e+08
3.87339e+08
1.26659e+08
0
9.65862e+06
3.99717e+09
1.34127e+09
3.87339e+08
2.51978e+08
8.23965e+07
0
3.15836e+06
1.30707e+09
4.38594e+08
1.26659e+08
8.23965e+07
2.69436e+07
0
0
0
0
0
0
0
0
13115.8
2.72295e+07
8.34774e+06
1.01839e+06
768108
336177
0
2.72295e+07
5.65304e+10
1.73305e+10
2.11426e+09
1.59465e+09
6.97928e+08
0
8.34774e+06
1.73305e+10
5.31303e+09
6.48169e+08
4.88872e+08
2.13964e+08
0
1.01839e+06
2.11426e+09
6.48169e+08
7.90742e+07
5.96405e+07
2.61028e+07
0
768108
1.59465e+09
4.88872e+08
5.96405e+07
4.4983e+07
1.96877e+07
0
336177
6.97928e+08
2.13964e+08
2.61028e+07
1.96877e+07
8.61667e+06
0
-0
0
0
-0
-0
-0
-0
575369
-1.61514e+08
-3.97302e+07
1.4048e+07
7.2029e+06
797154
0
-1.61514e+08
4.53395e+10
1.11528e+10
-3.94347e+09
-2.02196e+09
-2.23773e+08
0
-3.97302e+07
1.11528e+10
2.74344e+09
-9.70035e+08
-4.97373e+08
-5.50449e+07
-0
1.4048e+07
-3.94347e+09
-9.70035e+08
3.42989e+08
1.75863e+08
1.9463e+07
-0
7.2029e+06
-2.02196e+09
-4.97373e+08
1.75863e+08
9.01713e+07
9.97938e+06
-0
797154
-2.23773e+08
-5.50449e+07
1.9463e+07
9.97938e+06
1.10443e+06
0
0
0
0
0
0
0
0
1.01718e+06
2.6544e+08
9.46993e+07
3.72795e+07
2.34983e+07
7.07756e+06
0
2.6544e+08
6.9268e+10
2.47123e+10
9.7283e+09
6.13202e+09
1.84693e+09
0
9.46993e+07
2.47123e+10
8.81646e+09
3.4707e+09
2.18768e+09
6.58918e+08
0
3.72795e+07
9.7283e+09
3.4707e+09
1.36628e+09
8.61208e+08
2.59391e+08
0
2.34983e+07
6.13202e+09
2.18768e+09
8.61208e+08
5.42844e+08
1.63501e+08
0
7.07756e+06
1.84693e+09
6.58918e+08
2.59391e+08
1.63501e+08
4.92457e+07
0
-0
0
0
0
0
0
-0
13511.5
-2.68742e+07
-7.84249e+06
-191424
-281793
-218734
0
-2.68742e+07
5.34525e+10
1.55986e+10
3.80741e+08
5.60484e+08
4.35059e+08
0
-7.84249e+06
1.55986e+10
4.55202e+09
1.11108e+08
1.63561e+08
1.2696e+08
0
-191424
3.80741e+08
1.11108e+08
2.712e+06
3.99231e+06
3.09891e+06
0
-281793
5.60484e+08
1.63561e+08
3.99231e+06
