0
-0
0
-0
-0
-0
-0
-0
7976.03
-6.47478e+06
994123
807716
2.1008e+06
647630
0
-6.47478e+06
5.2561e+09
-8.07009e+08
-6.55688e+08
-1.70539e+09
-5.25733e+08
-0
994123
-8.07009e+08
1.23906e+08
1.00673e+08
2.61841e+08
8.07198e+07
-0
807716
-6.55688e+08
1.00673e+08
8.17958e+07
2.12744e+08
6.55842e+07
-0
2.1008e+06
-1.70539e+09
2.61841e+08
2.12744e+08
5.53328e+08
1.70579e+08
-0
647630
-5.25733e+08
8.07198e+07
6.55842e+07
1.70579e+08
5.25857e+07
0
-0
0
-0
-0
-0
0
-0
1.05605e+06
-6.21208e+07
2.12918e+07
4.34616e+07
4.48574e+07
-1.05818e+07
0
-6.21208e+07
3.65417e+09
-1.25246e+09
-2.55656e+09
-2.63867e+09
6.22461e+08
-0
2.12918e+07
-1.25246e+09
4.29277e+08
8.76256e+08
9.04398e+08
-2.13347e+08
-0
4.34616e+07
-2.55656e+09
8.76256e+08
1.78865e+09
1.84609e+09
-4.35492e+08
-0
4.48574e+07
-2.63867e+09
9.04398e+08
1.84609e+09
1.90538e+09
-4.49478e+08
0
-1.05818e+07
6.22461e+08
-2.13347e+08
-4.35492e+08
-4.49478e+08
1.06032e+08
0
-0
0
-0
-0
-0
-0
-0
70611.5
-3.46013e+06
8.46862e+06
1.31872e+07
1.80207e+07
24877.7
0
-3.46013e+06
1.69555e+08
-4.14983e+08
-6.46205e+08
-8.8306e+08
-1.21907e+06
-0
8.46862e+06
-4.14983e+08
1.01566e+09
1.58158e+09
2.16128e+09
2.98365e+06
-0
1.31872e+07
-6.46205e+08
1.58158e+09
2.46281e+09
3.36551e+09
4.6461e+06
-0
1.80207e+07
-8.8306e+08
2.16128e+09
3.36551e+09
4.59907e+09
6.34904e+06
-0
24877.7
-1.21907e+06
2.98365e+06
4.6461e+06
6.34904e+06
8764.88
0
-0
0
-0
-0
0
-0
-0
7495.49
-5.58352e+06
8.01834e+06
1.64775e+06
-702571
395627
0
-5.58352e+06
4.15926e+09
-5.97301e+09
-1.22744e+09
5.23357e+08
-2.9471e+08
-0
8.01834e+06
-5.97301e+09
8.57767e+09
1.76269e+09
-7.51579e+08
4.23225e+08
-0
1.64775e+06
-1.22744e+09
1.76269e+09
3.62229e+08
-1.54448e+08
8.69717e+07
0
-702571
5.23357e+08
-7.51579e+08
-1.54448e+08
6.58537e+07
-3.70831e+07
-0
395627
-2.9471e+08
4.23225e+08
8.69717e+07
-3.70831e+07
2.0882e+07
0
0
0
0
-0
-0
0
0
138489
1.20701e+07
5.68503e+06
-1.04816e+07
-1.92313e+06
2.6964e+06
0
1.20701e+07
1.05197e+09
4.9548e+08
-9.13522e+08
-1.6761e+08
2.35005e+08
0
5.68503e+06
4.9548e+08
2.33372e+08
-4.30271e+08
-7.89448e+07
1.10688e+08
-0
-1.04816e+07
-9.13522e+08
-4.30271e+08
7.93296e+08
1.45552e+08
-2.04077e+08
-0
-1.92313e+06
-1.6761e+08
-7.89448e+07
1.45552e+08
2.67054e+07
-3.74434e+07
0
2.6964e+06
2.35005e+08
1.10688e+08
-2.04077e+08
-3.74434e+07
5.24991e+07
0
-0
-0
-0
0
-0
-0
-0
6181.14
503489
2.06899e+06
-469507
991248
266391
-0
503489
4.1012e+07
1.68531e+08
-3.8244e+07
8.07428e+07
2.1699e+07
-0
2.06899e+06
1.68531e+08
6.92546e+08
-1.57156e+08
3.31797e+08
8.9168e+07
0
-469507
-3.8244e+07
-1.57156e+08
3.56629e+07
-7.52933e+07
-2.02345e+07
-0
991248
8.07428e+07
3.31797e+08
-7.52933e+07
1.58963e+08
4.27202e+07
-0
266391
2.1699e+07
8.9168e+07
-2.02345e+07
4.27202e+07
1.14807e+07
0
-0
0
0
-0
-0
0
-0
1256.08
-804694
-1.0982e+06
740284
127129
-10458.7
0
-804694
5.15517e+08
7.03549e+08
-4.74254e+08
-8.14436e+07
6.70026e+06
0
-1.0982e+06
7.03549e+08
9.60165e+08
-6.47235e+08
-1.1115e+08
9.14414e+06
-0
740284
-4.74254e+08
-6.47235e+08
4.36293e+08
7.49247e+07
-6.16395e+06
-0
127129
-8.14436e+07
-1.1115e+08
7.49247e+07
1.28668e+07
-1.05854e+06
0
-10458.7
6.70026e+06
9.14414e+06
-6.16395e+06
-1.05854e+06
87084.4
0
-0
0
0
-0
-0
0
-0
1.67839e+06
-6.35355e+06
-1.34055e+07
2.11937e+07
7.95714e+06
-1.87773e+06
0
-6.35355e+06
2.40514e+07
5.07466e+07
-8.02289e+07
-3.01218e+07
7.10816e+06
0
-1.34055e+07
5.07466e+07
1.07071e+08
-1.69277e+08
-6.35546e+07
1.49977e+07
-0
2.11937e+07
-8.02289e+07
-1.69277e+08
2.67622e+08
1.00478e+08
-2.37109e+07
-0
7.95714e+06
-3.01218e+07
-6.35546e+07
1.00478e+08
3.77243e+07
-8.90221e+06
0
-1.87773e+06
7.10816e+06
1.49977e+07
-2.37109e+07
-8.90221e+06
2.10075e+06
0
-0
0
0
0
0
0
-0
238337
-1.3922e+07
-1.87874e+07
-6.25326e+06
-8.97434e+06
-1.26339e+06
0
-1.3922e+07
8.1323e+08
1.09743e+09
3.65273e+08
5.24219e+08
7.37984e+07
0
-1.87874e+07
1.09743e+09
1.48096e+09
4.92927e+08
7.07422e+08
9.95892e+07
0
-6.25326e+06
3.65273e+08
4.92927e+08
1.64067e+08
2.3546e+08
3.31475e+07
0
-8.97434e+06
5.24219e+08
7.07422e+08
2.3546e+08
3.37919e+08
4.75715e+07
0
-1.26339e+06
7.37984e+07
9.95892e+07
3.31475e+07
4.75715e+07
6.697e+06
0
0
0
0
-0
-0
0
0
496631
2.62694e+07
2.79577e+07
-2.26706e+07
-1.93883e+07
401665
0
2.62694e+07
1.38952e+09
1.47883e+09
-1.19916e+09
-1.02554e+09
2.12461e+07
0
2.79577e+07
1.47883e+09
1.57387e+09
-1.27624e+09
-1.09146e+09
2.26117e+07
-0
-2.26706e+07
-1.19916e+09
-1.27624e+09
1.03489e+09
8.8505e+08
-1.83355e+07
-0
-1.93883e+07
-1.02554e+09
-1.09146e+09
8.8505e+08
7.56909e+08
-1.56808e+07
0
401665
2.12461e+07
2.26117e+07
-1.83355e+07
-1.56808e+07
324859
0
-0
-0
-0
-0
-0
-0
-0
6250
410898
353952
1.41116e+06
1.13821e+06
192237
-0
410898
2.70139e+07
2.32701e+07
9.2775e+07
7.48304e+07
1.26384e+07
-0
353952
2.32701e+07
2.00451e+07
7.99175e+07
6.44598e+07
1.08869e+07
-0
1.41116e+06
9.2775e+07
7.99175e+07
3.18621e+08
2.56993e+08
4.34045e+07
-0
1.13821e+06
7.48304e+07
6.44598e+07
2.56993e+08
2.07285e+08
3.50092e+07
-0
192237
1.26384e+07
1.08869e+07
4.34045e+07
3.50092e+07
5.91283e+06
0
-0
0
0
-0
-0
0
-0
95144.3
-1.38946e+07
-7.38311e+06
8.76702e+06
5.33437e+06
-829873
0
-1.38946e+07
2.02912e+09
1.07821e+09
-1.28031e+09
-7.79013e+08
1.21192e+08
0
-7.38311e+06
1.07821e+09
5.72923e+08
-6.80312e+08
-4.13942e+08
6.43974e+07
-0
8.76702e+06
-1.28031e+09
-6.80312e+08
8.07831e+08
4.91532e+08
-7.64681e+07
-0
5.33437e+06
-7.79013e+08
-4.13942e+08
4.91532e+08
2.99077e+08
-4.65277e+07
0
-829873
1.21192e+08
6.43974e+07
-7.64681e+07
-4.65277e+07
7.23836e+06
0
0
0
-0
-0
-0
-0
0
311319
5.50299e+07
-1.21267e+07
-2.14267e+07
-1.39489e+07
-4.98797e+06
0
5.50299e+07
9.7273e+09
-2.14356e+09
-3.78747e+09
-2.46566e+09
-8.81693e+08
-0
-1.21267e+07
-2.14356e+09
4.72364e+08
8.34625e+08
5.43345e+08
1.94294e+08
-0
-2.14267e+07
-3.78747e+09
8.34625e+08
1.47471e+09
9.6004e+08
3.433e+08
-0
-1.39489e+07
-2.46566e+09
5.43345e+08
9.6004e+08
6.24991e+08
2.2349e+08
-0
-4.98797e+06
-8.81693e+08
1.94294e+08
3.433e+08
2.2349e+08
7.99176e+07
0
0
0
-0
-0
0
-0
0
139269
1.74475e+06
-1.99259e+07
-194843
620921
-515672
0
1.74475e+06
2.18583e+07
-2.49632e+08
-2.44099e+06
7.77889e+06
-6.46033e+06
-0
-1.99259e+07
-2.49632e+08
2.85091e+09
2.78772e+07
-8.88387e+07
7.37801e+07
-0
-194843
-2.44099e+06
2.78772e+07
272593
-868696
721447
0
620921
7.77889e+06
-8.88387e+07
-868696
2.76834e+06
-2.2991e+06
-0
-515672
-6.46033e+06
7.37801e+07
721447
-2.2991e+06
1.90939e+06
0
-0
-0
0
-0
-0
-0
-0
433238
9.29673e+06
-6.23557e+06
1.34606e+07
2.62795e+06
152555
-0
9.29673e+06
1.99496e+08
-1.33807e+08
2.88848e+08
5.63923e+07
3.27364e+06
0
-6.23557e+06
-1.33807e+08
8.97481e+07
-1.93738e+08
-3.78238e+07
-2.19571e+06
-0
1.34606e+07
2.88848e+08
-1.93738e+08
4.18219e+08
8.16498e+07
4.73986e+06
-0
2.62795e+06
5.63923e+07
-3.78238e+07
8.16498e+07
1.59406e+07
925372
-0
152555
3.27364e+06
-2.19571e+06
4.73986e+06
925372
53718.8
0
-0
-0
0
-0
-0
-0
-0
2.17043e+06
3.85795e+07
-3.65296e+07
6.95345e+07
2.00521e+07
3.06571e+06
-0
3.85795e+07
6.85753e+08
-6.49316e+08
1.23598e+09
3.56427e+08
5.44931e+07
0
-3.65296e+07
-6.49316e+08
6.14815e+08
-1.17031e+09
-3.37488e+08
-5.15977e+07
-0
6.95345e+07
1.23598e+09
-1.17031e+09
2.22769e+09
6.42412e+08
9.82167e+07
-0
2.00521e+07
3.56427e+08
-3.37488e+08
6.42412e+08
1.85256e+08
2.83233e+07
-0
3.06571e+06
5.44931e+07
-5.15977e+07
9.82167e+07
2.83233e+07
4.33028e+06
0
-0
0
0
0
0
-0
-0
0.225426
-29484.3
-12984.7
-19020.5
-12856.5
7377.19
0
-29484.3
3.85634e+09
1.69832e+09
2.48775e+09
1.68154e+09
-9.64887e+08
0
-12984.7
1.69832e+09
7.4793e+08
1.09559e+09
7.40543e+08
-4.24932e+08
0
-19020.5
2.48775e+09
1.09559e+09
1.60487e+09
1.08477e+09
-6.22455e+08
0
-12856.5
1.68154e+09
7.40543e+08
1.08477e+09
7.33229e+08
-4.20735e+08
-0
7377.19
-9.64887e+08
-4.24932e+08
-6.22455e+08
-4.20735e+08
2.41422e+08
0
0
0
-0
-0
-0
-0
0
16070.1
9.69174e+06
-25108.2
-2.90906e+06
-6.05766e+06
-731818
0
9.69174e+06
5.84501e+09
-1.51426e+07
-1.75443e+09
-3.65333e+09
-4.41353e+08
-0
-25108.2
-1.51426e+07
39229.5
4.54517e+06
9.4646e+06
1.14341e+06
-0
-2.90906e+06
-1.75443e+09
4.54517e+06
5.26607e+08
1.09658e+09
1.32476e+08
-0
-6.05766e+06
-3.65333e+09
9.4646e+06
1.09658e+09
2.28345e+09
2.7586e+08
-0
-731818
-4.41353e+08
1.14341e+06
1.32476e+08
2.7586e+08
3.33263e+07
0
0
0
-0
-0
-0
-0
0
364810
3.25406e+07
-5.14998e+06
-3.1178e+07
-1.53478e+07
-7.57748e+06
0
3.25406e+07
2.90259e+09
-4.59372e+08
-2.78105e+09
-1.36901e+09
-6.75902e+08
-0
-5.14998e+06
-4.59372e+08
7.27017e+07
4.40137e+08
2.16663e+08
1.0697e+08
-0
-3.1178e+07
-2.78105e+09
4.40137e+08
2.66459e+09
1.31168e+09
6.476e+08
-0
-1.53478e+07
-1.36901e+09
2.16663e+08
1.31168e+09
6.45693e+08
3.1879e+08
-0
-7.57748e+06
-6.75902e+08
1.0697e+08
6.476e+08
3.1879e+08
1.57392e+08
0
-0
-0
0
-0
0
0
-0
105860
1.60421e+07
-4.65598e+06
1.11914e+07
-1.40459e+06
-816795
-0
1.60421e+07
2.43103e+09
-7.05569e+08
1.69596e+09
-2.12852e+08
-1.23777e+08
0
-4.65598e+06
-7.05569e+08
2.04781e+08
-4.92226e+08
6.1777e+07
3.59245e+07
-0
1.11914e+07
1.69596e+09
-4.92226e+08
1.18315e+09
-1.48492e+08
-8.63507e+07
0
-1.40459e+06
-2.12852e+08
6.1777e+07
-1.48492e+08
1.86365e+07
1.08375e+07
0
-816795
-1.23777e+08
3.59245e+07
-8.63507e+07
1.08375e+07
6.30221e+06
0
-0
0
-0
-0
0
0
-0
333708
-4.10023e+07
2.22821e+06
108386
-1.09132e+07
-715329
0
-4.10023e+07
5.03791e+09
-2.73777e+08
-1.33173e+07
1.3409e+09
8.78917e+07
-0
2.22821e+06
-2.73777e+08
1.4878e+07
723705
-7.28688e+07
-4.77634e+06
-0
108386
-1.33173e+07
723705
35203
-3.54453e+06
-232334
0
-1.09132e+07
1.3409e+09
-7.28688e+07
-3.54453e+06
3.56894e+08
2.33933e+07
0
-715329
8.78917e+07
-4.77634e+06
-232334
2.33933e+07
1.53337e+06
0
0
0
0
0
0
-0
0
93349.9
3.41719e+06
4.04054e+06
5.52247e+06
2.33544e+06
-1.08988e+06
0
3.41719e+06
1.2509e+08
1.47909e+08
2.02156e+08
8.54916e+07
-3.98964e+07
0
4.04054e+06
1.47909e+08
1.7489e+08
2.39034e+08
1.01087e+08
-4.71743e+07
0
5.52247e+06
2.02156e+08
2.39034e+08
3.26702e+08
1.38162e+08
-6.44761e+07
0
2.33544e+06
8.54916e+07
1.01087e+08
1.38162e+08
5.84284e+07
-2.72668e+07
-0
-1.08988e+06
-3.98964e+07
-4.71743e+07
-6.44761e+07
-2.72668e+07
1.27246e+07
0
0
0
-0
-0
-0
-0
0
851.101
1.95421e+06
-179706
-1.35348e+06
-686909
-91149.4
0
1.95421e+06
4.48706e+09
-4.12622e+08
-3.10773e+09
-1.57721e+09
-2.09288e+08
-0
-179706
-4.12622e+08
3.7944e+07
2.85782e+08
1.45037e+08
1.92457e+07
-0
-1.35348e+06
-3.10773e+09
2.85782e+08
2.15241e+09
1.09237e+09
1.44953e+08
-0
-686909
-1.57721e+09
1.45037e+08
1.09237e+09
5.54392e+08
7.35651e+07
-0
-91149.4
-2.09288e+08
1.92457e+07
1.44953e+08
7.35651e+07
9.76172e+06
0
-0
-0
-0
-0
-0
0
-0
3.36901e+06
5.72936e+07
2.5129e+07
1.52156e+07
3.48721e+07
-2.65868e+06
-0
5.72936e+07
9.74342e+08
4.27347e+08
2.58759e+08
5.93039e+08
-4.52138e+07
-0
2.5129e+07
4.27347e+08
1.87435e+08
1.13492e+08
2.60107e+08
-1.98308e+07
-0
1.52156e+07
2.58759e+08
1.13492e+08
6.87192e+07
1.57495e+08
-1.20076e+07
-0
3.48721e+07
5.93039e+08
2.60107e+08
1.57495e+08
3.60957e+08
-2.75196e+07
0
-2.65868e+06
-4.52138e+07
-1.98308e+07
-1.20076e+07
-2.75196e+07
2.09812e+06
0
0
-0
0
-0
-0
0
0
263485
-4.17959e+07
1.35089e+07
-462418
-139105
4.44101e+06
-0
-4.17959e+07
6.62996e+09
-2.14289e+09
7.33521e+07
2.20658e+07
-7.04465e+08
0
1.35089e+07
-2.14289e+09
6.92608e+08
-2.37083e+07
-7.13195e+06
2.27692e+08
-0
-462418
7.33521e+07
-2.37083e+07
811547
244130
-7.794e+06
-0
-139105
2.20658e+07
-7.13195e+06
244130
73439.3
-2.3446e+06
0
4.44101e+06
-7.04465e+08
2.27692e+08
-7.794e+06
-2.3446e+06
7.48527e+07
0
-0
-0
-0
0
-0
-0
-0
47019.8
4.0126e+06
4.9911e+06
-953008
399080
78744.4
-0
4.0126e+06
3.42429e+08
4.25933e+08
-8.13283e+07
3.40569e+07
6.71993e+06
-0
4.9911e+06
4.25933e+08
5.298e+08
-1.01161e+08
4.23619e+07
8.35863e+06
0
-953008
-8.13283e+07
-1.01161e+08
1.93158e+07
-8.08864e+06
-1.59601e+06
-0
399080
3.40569e+07
4.23619e+07
-8.08864e+06
3.38719e+06
668342
-0
78744.4
6.71993e+06
8.35863e+06
-1.59601e+06
668342
131874
0
-0
0
-0
-0
-0
0
-0
46770.2
-1.83536e+07
7.67072e+06
2.35705e+06
3.56694e+06
-1735.64
0
-1.83536e+07
7.20233e+09
-3.01015e+09
-9.24954e+08
-1.39974e+09
681102
-0
7.67072e+06
-3.01015e+09
1.25807e+09
3.86577e+08
5.8501e+08
-284661
-0
2.35705e+06
-9.24954e+08
3.86577e+08
1.18787e+08
1.79761e+08
-87470.1
-0
3.56694e+06
-1.39974e+09
5.8501e+08
1.79761e+08
2.72034e+08
-132369
0
-1735.64
681102
-284661
-87470.1
-132369
64.4098
0
-0
0
0
0
0
-0
-0
851986
-7.34351e+07
-6.36901e+06
-2.32157e+07
-1.92256e+07
3.29776e+06
0
-7.34351e+07
6.32959e+09
5.48964e+08
2.00103e+09
1.65711e+09
-2.84244e+08
0
-6.36901e+06
5.48964e+08
4.76115e+07
1.73549e+08
1.43721e+08
-2.46524e+07
0
-2.32157e+07
2.00103e+09
1.73549e+08
6.32603e+08
5.23878e+08
-8.98605e+07
0
-1.92256e+07
1.65711e+09
1.43721e+08
5.23878e+08
4.3384e+08
-7.44163e+07
-0
3.29776e+06
-2.84244e+08
-2.46524e+07
-8.98605e+07
-7.44163e+07
1.27646e+07
0
-0
0
-0
-0
-0
0
-0
3.77805e+06
-9.4668e+07
1.01639e+08
2.90153e+07
2.32006e+07
-1.17481e+06
0
-9.4668e+07
2.37213e+09
-2.54682e+09
-7.27046e+08
-5.81346e+08
2.94377e+07
-0
1.01639e+08
-2.54682e+09
2.73436e+09
7.80586e+08
6.24156e+08
-3.16055e+07
-0
2.90153e+07
-7.27046e+08
7.80586e+08
2.22836e+08
1.7818e+08
-9.02249e+06
-0
2.32006e+07
-5.81346e+08
6.24156e+08
1.7818e+08
1.42472e+08
-7.21438e+06
0
-1.17481e+06
2.94377e+07
-3.16055e+07
-9.02249e+06
-7.21438e+06
365315
0
-0
-0
-0
0
-0
0
-0
2.48011e+06
5.33803e+07
9.05155e+07
-2.69811e+07
2.14819e+06
-356984
-0
5.33803e+07
1.14893e+09
1.9482e+09
-5.80726e+08
4.62364e+07
-7.6835e+06
-0
9.05155e+07
1.9482e+09
3.30351e+09
-9.8472e+08
7.84018e+07
-1.30287e+07
0
-2.69811e+07
-5.80726e+08
-9.8472e+08
2.93528e+08
-2.33702e+07
3.88363e+06
-0
2.14819e+06
4.62364e+07
7.84018e+07
-2.33702e+07
1.8607e+06
-309209
0
-356984
-7.6835e+06
-1.30287e+07
3.88363e+06
-309209
51383.8
0
0
0
-0
0
0
-0
0
4845.75
3.7784e+06
-1.83042e+06
943485
306765
-170177
0
3.7784e+06
2.94615e+09
-1.42724e+09
7.35667e+08
2.39195e+08
-1.32693e+08
-0
-1.83042e+06
-1.42724e+09
6.9142e+08
-3.5639e+08
-1.15877e+08
6.42824e+07
0
943485
7.35667e+08
-3.5639e+08
1.837e+08
5.97283e+07
-3.31341e+07
0
306765
2.39195e+08
-1.15877e+08
5.97283e+07
1.94201e+07
-1.07733e+07
-0
-170177
-1.32693e+08
6.42824e+07
-3.31341e+07
-1.07733e+07
5.97644e+06
0
0
-0
0
-0
-0
0
0
98827.5
-1.14848e+07
1.88555e+06
-7.09442e+06
-6.12657e+06
213820
-0
-1.14848e+07
1.33465e+09
-2.1912e+08
8.24444e+08
7.1197e+08
-2.48481e+07
0
1.88555e+06
-2.1912e+08
3.59747e+07
-1.35356e+08
-1.1689e+08
4.07952e+06
-0
-7.09442e+06
8.24444e+08
-1.35356e+08
5.09279e+08
4.39801e+08
-1.53493e+07
-0
-6.12657e+06
7.1197e+08
-1.1689e+08
4.39801e+08
3.79802e+08
-1.32553e+07
0
213820
-2.48481e+07
4.07952e+06
-1.53493e+07
-1.32553e+07
462615
0
-0
-0
0
-0
0
-0
-0
317700
6.09324e+06
-7.46302e+06
1.11311e+07
-1.79472e+06
946645
-0
6.09324e+06
1.16864e+08
-1.43135e+08
2.13486e+08
-3.44215e+07
1.81559e+07
0
-7.46302e+06
-1.43135e+08
1.75313e+08
-2.61478e+08
4.21595e+07
-2.22375e+07
-0
1.11311e+07
2.13486e+08
-2.61478e+08
3.89995e+08
-6.28809e+07
3.31672e+07
0
-1.79472e+06
-3.44215e+07
4.21595e+07
-6.28809e+07
1.01386e+07
-5.34771e+06
-0
946645
1.81559e+07
-2.22375e+07
3.31672e+07
-5.34771e+06
2.8207e+06
0
-0
0
-0
-0
-0
-0
-0
309284
-3.42023e+07
6.85774e+07
1.84953e+07
1.56239e+07
1.61688e+06
0
-3.42023e+07
3.78228e+09
-7.58367e+09
-2.04531e+09
-1.72778e+09
-1.78803e+08
-0
6.85774e+07
-7.58367e+09
1.52056e+10
4.10094e+09
3.46429e+09
3.58509e+08
-0
1.84953e+07
-2.04531e+09
4.10094e+09
1.10602e+09
9.34316e+08
9.66897e+07
-0
1.56239e+07
-1.72778e+09
3.46429e+09
9.34316e+08
7.89267e+08
8.1679e+07
-0
1.61688e+06
-1.78803e+08
3.58509e+08
9.66897e+07
8.1679e+07
8.45273e+06
0
0
-0
0
-0
-0
0
0
555402
-1.86591e+07
2.72881e+07
-6.20057e+06
-2.87057e+06
7.28926e+06
-0
-1.86591e+07
6.26866e+08
-9.16763e+08
2.08313e+08
9.64387e+07
-2.44888e+08
0
2.72881e+07
-9.16763e+08
1.34072e+09
-3.04648e+08
-1.41037e+08
3.58137e+08
-0
-6.20057e+06
2.08313e+08
-3.04648e+08
6.92239e+07
3.20473e+07
-8.13781e+07
-0
-2.87057e+06
9.64387e+07
-1.41037e+08
3.20473e+07
1.48364e+07
-3.76742e+07
0
7.28926e+06
-2.44888e+08
3.58137e+08
-8.13781e+07
-3.76742e+07
9.56664e+07
0
-0
-0
-0
0
0
-0
-0
3.69791e+06
5.37514e+07
7.44355e+07
-1.75856e+07
-2.314e+07
1.13736e+07
-0
5.37514e+07
7.81309e+08
1.08197e+09
-2.55617e+08
-3.36354e+08
1.65322e+08
-0
7.44355e+07
1.08197e+09
1.49832e+09
-3.53981e+08
-4.65787e+08
2.2894e+08
0
-1.75856e+07
-2.55617e+08
-3.53981e+08
8.36288e+07
1.10043e+08
-5.40876e+07
0
-2.314e+07
-3.36354e+08
-4.65787e+08
1.10043e+08
1.44801e+08
-7.11714e+07
-0
1.13736e+07
1.65322e+08
2.2894e+08
-5.40876e+07
-7.11714e+07
3.49816e+07
0
0
-0
0
-0
-0
0
0
64509.9
-6.81839e+06
1.29591e+06
-3.41138e+06
-6.59606e+06
2.73358e+06
-0
-6.81839e+06
7.20672e+08
-1.36971e+08
3.60566e+08
6.97173e+08
-2.88927e+08
0
1.29591e+06
-1.36971e+08
2.60329e+07
-6.85295e+07
-1.32505e+08
5.49137e+07
-0
-3.41138e+06
3.60566e+08
-6.85295e+07
1.80398e+08
3.48809e+08
-1.44556e+08
-0
-6.59606e+06
6.97173e+08
-1.32505e+08
3.48809e+08
6.74439e+08
-2.79506e+08
0
2.73358e+06
-2.88927e+08
5.49137e+07
-1.44556e+08
-2.79506e+08
1.15835e+08
0
-0
-0
-0
-0
-0
0
-0
3.69301e+06
1.05584e+08
1.71973e+08
5.1126e+07
4.01592e+07
-2.84874e+06
-0
1.05584e+08
3.0187e+09
4.91677e+09
1.46171e+09
1.14817e+09
-8.14465e+07
-0
1.71973e+08
4.91677e+09
8.00829e+09
2.38079e+09
1.8701e+09
-1.32658e+08
-0
5.1126e+07
1.46171e+09
2.38079e+09
7.07789e+08
5.55964e+08
-3.9438e+07
-0
4.01592e+07
1.14817e+09
1.8701e+09
5.55964e+08
4.36706e+08
-3.09783e+07
0
-2.84874e+06
-8.14465e+07
-1.32658e+08
-3.9438e+07
-3.09783e+07
2.19748e+06
0
-0
0
0
-0
-0
0
-0
473411
-2.67292e+07
-6.93148e+06
1.69255e+06
6.01113e+06
-1.92582e+06
0
-2.67292e+07
1.50916e+09
3.91358e+08
-9.55631e+07
-3.39394e+08
1.08733e+08
0
-6.93148e+06
3.91358e+08
1.01488e+08
-2.47816e+07
-8.80124e+07
2.8197e+07
-0
1.69255e+06
-9.55631e+07
-2.47816e+07
6.05126e+06
2.14912e+07
-6.88523e+06
-0
6.01113e+06
-3.39394e+08
-8.80124e+07
2.14912e+07
7.63263e+07
-2.4453e+07
0
-1.92582e+06
1.08733e+08
2.8197e+07
-6.88523e+06
-2.4453e+07
7.83414e+06
0
0
-0
0
-0
-0
0
0
386883
-8.58949e+06
1.79948e+07
-2.7377e+07
-1.91079e+07
4.79725e+06
-0
-8.58949e+06
1.90702e+08
-3.99516e+08
6.07817e+08
4.24229e+08
-1.06507e+08
0
1.79948e+07
-3.99516e+08
8.36975e+08
-1.27336e+09
-8.88749e+08
2.2313e+08
-0
-2.7377e+07
6.07817e+08
-1.27336e+09
1.93727e+09
1.35213e+09
-3.39467e+08
-0
-1.91079e+07
4.24229e+08
-8.88749e+08
1.35213e+09
9.43725e+08
-2.36933e+08
0
4.79725e+06
-1.06507e+08
2.2313e+08
-3.39467e+08
-2.36933e+08
5.94845e+07
0
-0
0
0
0
0
-0
-0
1.34994e+06
-1.11144e+08
-2.70143e+07
-6.72789e+06
-1.01095e+07
1.05814e+07
0
-1.11144e+08
9.15079e+09
2.22416e+09
5.53924e+08
8.32339e+08
-8.71195e+08
0
-2.70143e+07
2.22416e+09
5.40596e+08
1.34635e+08
2.02305e+08
-2.11749e+08
0
-6.72789e+06
5.53924e+08
1.34635e+08
3.35306e+07
5.03839e+07
-5.2736e+07
0
-1.01095e+07
8.32339e+08
2.02305e+08
5.03839e+07
7.5708e+07
-7.92423e+07
-0
1.05814e+07
-8.71195e+08
-2.11749e+08
-5.2736e+07
-7.92423e+07
8.29415e+07
0
0
0
0
-0
0
0
0
94442.3
3.72085e+06
229425
-6.00842e+06
103663
775579
0
3.72085e+06
1.46594e+08
9.03889e+06
-2.3672e+08
4.08414e+06
3.05563e+07
0
229425
9.03889e+06
557331
-1.4596e+07
251825
1.88408e+06
-0
-6.00842e+06
-2.3672e+08
-1.4596e+07
3.82256e+08
-6.59507e+06
-4.93423e+07
0
103663
4.08414e+06
251825
-6.59507e+06
113785
851305
0
775579
3.05563e+07
1.88408e+06
-4.93423e+07
851305
6.36921e+06
0
-0
0
-0
-0
-0
0
-0
202215
-9.21596e+06
3.79509e+06
1.67649e+07
1.53994e+06
-1.3428e+06
0
-9.21596e+06
4.20018e+08
-1.72961e+08
-7.64061e+08
-7.01828e+07
6.11983e+07
-0
3.79509e+06
-1.72961e+08
7.12247e+07
3.14637e+08
2.8901e+07
-2.52012e+07
-0
1.67649e+07
-7.64061e+08
3.14637e+08
1.38992e+09
1.27671e+08
-1.11327e+08
-0
1.53994e+06
-7.01828e+07
2.8901e+07
1.27671e+08
1.17272e+07
-1.02259e+07
0
-1.3428e+06
6.11983e+07
-2.52012e+07
-1.11327e+08
-1.02259e+07
8.91685e+06
0
-0
-0
-0
-0
-0
0
-0
53908.5
7.02929e+06
4.33474e+06
5.30732e+06
3.51096e+06
-191863
-0
7.02929e+06
9.16571e+08
5.65221e+08
6.92037e+08
4.57805e+08
-2.50176e+07
-0
4.33474e+06
5.65221e+08
3.48554e+08
4.26758e+08
2.82314e+08
-1.54276e+07
-0
5.30732e+06
6.92037e+08
4.26758e+08
5.22508e+08
3.45656e+08
-1.8889e+07
-0
3.51096e+06
4.57805e+08
2.82314e+08
3.45656e+08
2.28663e+08
-1.24957e+07
0
-191863
-2.50176e+07
-1.54276e+07
-1.8889e+07
-1.24957e+07
682848
0
0
-0
-0
0
0
0
0
284282
-2.27824e+07
-5.81224e+07
1.08395e+07
6.31098e+06
787232
-0
-2.27824e+07
1.82579e+09
4.65794e+09
-8.68683e+08
-5.05763e+08
-6.30889e+07
-0
-5.81224e+07
4.65794e+09
1.18833e+10
-2.21618e+09
-1.2903e+09
-1.60952e+08
0
1.08395e+07
-8.68683e+08
-2.21618e+09
4.13307e+08
2.40635e+08
3.00168e+07
0
6.31098e+06
-5.05763e+08
-1.2903e+09
2.40635e+08
1.40102e+08
1.74763e+07
0
787232
-6.30889e+07
-1.60952e+08
3.00168e+07
1.74763e+07
2.18e+06
0
-0
0
0
-0
-0
-0
-0
41550.6
-3.20686e+06
-730934
1.30295e+06
936950
442926
0
-3.20686e+06
2.47505e+08
5.64133e+07
-1.00562e+08
-7.23135e+07
-3.41849e+07
0
-730934
5.64133e+07
1.28582e+07
-2.29208e+07
-1.64823e+07
-7.7917e+06
-0
1.30295e+06
-1.00562e+08
-2.29208e+07
4.08583e+07
2.93811e+07
1.38894e+07
-0
936950
-7.23135e+07
-1.64823e+07
2.93811e+07
2.11279e+07
9.98781e+06
-0
442926
-3.41849e+07
-7.7917e+06
1.38894e+07
9.98781e+06
4.72155e+06
0
-0
0
-0
0
-0
0
-0
4.2213e+06
-5.88101e+07
1.97356e+08
-2.07684e+07
1.82595e+07
-1.38063e+07
0
-5.88101e+07
8.19328e+08
-2.74952e+09
2.8934e+08
-2.54387e+08
1.92346e+08
-0
1.97356e+08
-2.74952e+09
9.22688e+09
-9.70974e+08
8.53677e+08
-6.45478e+08
0
-2.07684e+07
2.8934e+08
-9.70974e+08
1.02179e+08
-8.98351e+07
6.79257e+07
-0
1.82595e+07
-2.54387e+08
8.53677e+08
-8.98351e+07
7.89827e+07
-5.972e+07
0
-1.38063e+07
1.92346e+08
-6.45478e+08
6.79257e+07
-5.972e+07
4.51552e+07
0
0
0
-0
-0
-0
0
0
125012
1.79972e+07
-8.08765e+06
-1.67105e+06
-2.44895e+06
150867
0
1.79972e+07
2.59095e+09
-1.16433e+09
-2.40571e+08
-3.5256e+08
2.17194e+07
-0
-8.08765e+06
-1.16433e+09
5.23229e+08
1.08108e+08
1.58434e+08
-9.7603e+06
-0
-1.67105e+06
-2.40571e+08
1.08108e+08
2.23371e+07
3.27353e+07
-2.01665e+06
-0
-2.44895e+06
-3.5256e+08
1.58434e+08
3.27353e+07
4.7974e+07
-2.95543e+06
0
150867
2.17194e+07
-9.7603e+06
-2.01665e+06
-2.95543e+06
182068
0
-0
0
0
-0
0
-0
-0
267590
-9.6958e+06
-6.35314e+06
1.42724e+07
-1.52774e+06
2.64656e+06
0
-9.6958e+06
3.51315e+08
2.30198e+08
-5.17143e+08
5.53556e+07
-9.58947e+07
0
-6.35314e+06
2.30198e+08
1.50837e+08
-3.38856e+08
3.62716e+07
-6.28347e+07
-0
1.42724e+07
-5.17143e+08
-3.38856e+08
7.61244e+08
-8.14845e+07
1.41159e+08
0
-1.52774e+06
5.53556e+07
3.62716e+07
-8.14845e+07
8.7222e+06
-1.51098e+07
-0
2.64656e+06
-9.58947e+07
-6.28347e+07
1.41159e+08
-1.51098e+07
2.61753e+07
0
-0
-0
0
0
0
0
-0
1.64448e+06
3.42262e+07
-3.45509e+07
-4.1272e+07
-1.54733e+07
-2.29922e+06
-0
3.42262e+07
7.12341e+08
-7.19099e+08
-8.58984e+08
-3.22041e+08
-4.7853e+07
0
-3.45509e+07
-7.19099e+08
7.25921e+08
8.67134e+08
3.25096e+08
4.8307e+07
0
-4.1272e+07
-8.58984e+08
8.67134e+08
1.03582e+09
3.88337e+08
5.77041e+07
0
-1.54733e+07
-3.22041e+08
3.25096e+08
3.88337e+08
1.45591e+08
2.16338e+07
0
-2.29922e+06
-4.7853e+07
4.8307e+07
5.77041e+07
2.16338e+07
3.21463e+06
0
0
0
-0
-0
-0
-0
0
111907
2.99776e+06
-7.39837e+06
-1.52745e+07
-1.75747e+07
-519024
0
2.99776e+06
8.03038e+07
-1.98187e+08
-4.09173e+08
-4.70791e+08
-1.39036e+07
-0
-7.39837e+06
-1.98187e+08
4.89119e+08
1.00983e+09
1.1619e+09
3.43136e+07
-0
-1.52745e+07
-4.09173e+08
1.00983e+09
2.08486e+09
2.39883e+09
7.08432e+07
-0
-1.75747e+07
-4.70791e+08
1.1619e+09
2.39883e+09
2.76007e+09
8.15116e+07
-0
-519024
-1.39036e+07
3.43136e+07
7.08432e+07
8.15116e+07
2.40723e+06
0
0
0
0
-0
-0
0
0
272978
4.74528e+07
1.52124e+07
-1.22183e+07
-1.04109e+07
150663
0
4.74528e+07
8.24892e+09
2.64444e+09
-2.12396e+09
-1.80977e+09
2.61904e+07
0
1.52124e+07
2.64444e+09
8.47754e+08
-6.80899e+08
-5.80176e+08
8.39613e+06
-0
-1.22183e+07
-2.12396e+09
-6.80899e+08
5.46884e+08
4.65986e+08
-6.7436e+06
-0
-1.04109e+07
-1.80977e+09
-5.80176e+08
4.65986e+08
3.97054e+08
-5.74604e+06
0
150663
2.61904e+07
8.39613e+06
-6.7436e+06
-5.74604e+06
83154.9
0
-0
0
-0
-0
0
0
-0
4009.92
-3.06719e+06
5.76579e+06
989315
-205125
-236631
0
-3.06719e+06
2.3461e+09
-4.41026e+09
-7.56728e+08
1.569e+08
1.80999e+08
-0
5.76579e+06
-4.41026e+09
8.29052e+09
1.42252e+09
-2.94945e+08
-3.40247e+08
-0
989315
-7.56728e+08
1.42252e+09
2.44081e+08
-5.06078e+07
-5.83808e+07
0
-205125
1.569e+08
-2.94945e+08
-5.06078e+07
1.0493e+07
1.21047e+07
0
-236631
1.80999e+08
-3.40247e+08
-5.83808e+07
1.21047e+07
1.39639e+07
0
0
-0
-0
-0
0
-0
0
5237.09
-46820.9
-926636
-134592
201173
-578799
-0
-46820.9
418590
8.28435e+06
1.20329e+06
-1.79853e+06
5.1746e+06
-0
-926636
8.28435e+06
1.63956e+08
2.38143e+07
-3.55949e+07
1.02411e+08
-0
-134592
1.20329e+06
2.38143e+07
3.45899e+06
-5.17009e+06
1.4875e+07
0
201173
-1.79853e+06
-3.55949e+07
-5.17009e+06
7.72765e+06
-2.22334e+07
-0
-578799
5.1746e+06
1.02411e+08
1.4875e+07
-2.22334e+07
6.39684e+07
0
-0
-0
-0
-0
0
0
-0
99567.9
5.07485e+07
733357
6.74975e+06
-244045
-3.28637e+06
-0
5.07485e+07
2.58659e+10
3.73783e+08
3.44026e+09
-1.24387e+08
-1.67502e+09
-0
733357
3.73783e+08
5.40146e+06
4.97145e+07
-1.79749e+06
-2.42054e+07
-0
6.74975e+06
3.44026e+09
4.97145e+07
4.57568e+08
-1.65439e+07
-2.22784e+08
0
-244045
-1.24387e+08
-1.79749e+06
-1.65439e+07
598166
8.05503e+06
0
-3.28637e+06
-1.67502e+09
-2.42054e+07
-2.22784e+08
8.05503e+06
1.08471e+08
0
-0
0
-0
0
-0
-0
-0
3.96094e+06
-1.05558e+08
1.5881e+08
-5.79733e+06
7.609e+06
9.67775e+06
0
-1.05558e+08
2.81308e+09
-4.23223e+09
1.54497e+08
-2.02777e+08
-2.57909e+08
-0
1.5881e+08
-4.23223e+09
6.36731e+09
-2.32438e+08
3.05075e+08
3.88019e+08
0
-5.79733e+06
1.54497e+08
-2.32438e+08
8.48511e+06
-1.11367e+07
-1.41646e+07
-0
7.609e+06
-2.02777e+08
3.05075e+08
-1.11367e+07
1.46169e+07
1.8591e+07
-0
9.67775e+06
-2.57909e+08
3.88019e+08
-1.41646e+07
1.8591e+07
2.36456e+07
0
-0
-0
-0
0
0
-0
-0
2.36623e+06
6.94176e+07
5.19252e+07
-1.88754e+07
-2.04026e+07
3.98395e+06
-0
6.94176e+07
2.03649e+09
1.52332e+09
-5.53744e+08
-5.98547e+08
1.16876e+08
-0
5.19252e+07
1.52332e+09
1.13946e+09
-4.14207e+08
-4.47721e+08
8.74247e+07
0
-1.88754e+07
-5.53744e+08
-4.14207e+08
1.50569e+08
1.62752e+08
-3.17799e+07
0
-2.04026e+07
-5.98547e+08
-4.47721e+08
1.62752e+08
1.7592e+08
-3.43512e+07
-0
3.98395e+06
1.16876e+08
8.74247e+07
-3.17799e+07
-3.43512e+07
6.70764e+06
0
0
0
0
-0
-0
0
0
19579.5
1.11656e+06
2.53809e+06
-5.51542e+06
-949417
512215
0
1.11656e+06
6.36742e+07
1.4474e+08
-3.14528e+08
-5.41424e+07
2.92101e+07
0
2.53809e+06
1.4474e+08
3.29012e+08
-7.14962e+08
-1.23073e+08
6.63982e+07
-0
-5.51542e+06
-3.14528e+08
-7.14962e+08
1.55366e+09
2.67444e+08
-1.44287e+08
-0
-949417
-5.41424e+07
-1.23073e+08
2.67444e+08
4.60375e+07
-2.48374e+07
0
512215
2.92101e+07
6.63982e+07
-1.44287e+08
-2.48374e+07
1.33999e+07
0
-0
0
0
-0
0
0
-0
441814
-2.6996e+07
-3.76843e+07
1.76434e+07
-1.01771e+07
-7.47994e+06
0
-2.6996e+07
1.64952e+09
2.30261e+09
-1.07806e+09
6.21849e+08
4.57044e+08
0
-3.76843e+07
2.30261e+09
3.21427e+09
-1.50489e+09
8.68055e+08
6.37998e+08
-0
1.76434e+07
-1.07806e+09
-1.50489e+09
7.04571e+08
-4.06414e+08
-2.98704e+08
0
-1.01771e+07
6.21849e+08
8.68055e+08
-4.06414e+08
2.34429e+08
1.723e+08
0
-7.47994e+06
4.57044e+08
6.37998e+08
-2.98704e+08
1.723e+08
1.26636e+08
0
0
0
0
-0
-0
0
0
2013.01
5.13026e+06
877696
-2.34201e+06
-1.37153e+06
30994.6
0
5.13026e+06
1.30747e+10
2.23685e+09
-5.96873e+09
-3.49541e+09
7.89913e+07
0
877696
2.23685e+09
3.82685e+08
-1.02114e+09
-5.98003e+08
1.3514e+07
-0
-2.34201e+06
-5.96873e+09
-1.02114e+09
2.72478e+09
1.59569e+09
-3.60603e+07
-0
-1.37153e+06
-3.49541e+09
-5.98003e+08
1.59569e+09
9.34469e+08
-2.11177e+07
0
30994.6
7.89913e+07
1.3514e+07
-3.60603e+07
-2.11177e+07
477229
0
-0
0
0
0
0
0
-0
674139
-1.49025e+06
-3.8764e+07
-3.01646e+06
-1.06845e+07
-3.36427e+06
0
-1.49025e+06
3.29434e+06
8.56916e+07
6.66816e+06
2.3619e+07
7.43705e+06
0
-3.8764e+07
8.56916e+07
2.22899e+09
1.73451e+08
6.14373e+08
1.93451e+08
0
-3.01646e+06
6.66816e+06
1.73451e+08
1.34972e+07
4.78079e+07
1.50535e+07
0
-1.06845e+07
2.3619e+07
6.14373e+08
4.78079e+07
1.69339e+08
5.33205e+07
0
-3.36427e+06
7.43705e+06
1.93451e+08
1.50535e+07
5.33205e+07
1.67893e+07
0
-0
0
-0
-0
0
-0
-0
5.05268e+06
-1.2088e+07
4.01032e+07
6.19786e+07
-3.86578e+07
6.77137e+06
0
-1.2088e+07
2.89193e+07
-9.59427e+07
-1.48277e+08
9.24847e+07
-1.61998e+07
-0
4.01032e+07
-9.59427e+07
3.183e+08
4.91926e+08
-3.06828e+08
5.37445e+07
-0
6.19786e+07
-1.48277e+08
4.91926e+08
7.6026e+08
-4.74196e+08
8.30609e+07
0
-3.86578e+07
9.24847e+07
-3.06828e+08
-4.74196e+08
2.95769e+08
-5.18074e+07
-0
6.77137e+06
-1.61998e+07
5.37445e+07
8.30609e+07
-5.18074e+07
9.07467e+06
0
-0
0
-0
-0
-0
-0
-0
13500.5
-1.3025e+07
1.72405e+06
6.99657e+06
2.92962e+06
1.00719e+06
0
-1.3025e+07
1.25661e+10
-1.66332e+09
-6.7501e+09
-2.82642e+09
-9.7171e+08
-0
1.72405e+06
-1.66332e+09
2.20166e+08
8.9348e+08
3.74121e+08
1.28621e+08
-0
6.99657e+06
-6.7501e+09
8.9348e+08
3.62593e+09
1.51826e+09
5.21969e+08
-0
2.92962e+06
-2.82642e+09
3.74121e+08
1.51826e+09
6.3573e+08
2.18561e+08
-0
1.00719e+06
-9.7171e+08
1.28621e+08
5.21969e+08
2.18561e+08
7.514e+07
0
-0
0
-0
0
0
-0
-0
243194
-3.99789e+07
1.10983e+07
-2.56588e+06
-744335
3.22679e+06
0
-3.99789e+07
6.57219e+09
-1.82447e+09
4.21808e+08
1.22362e+08
-5.30455e+08
-0
1.10983e+07
-1.82447e+09
5.06482e+08
-1.17096e+08
-3.39683e+07
1.47257e+08
0
-2.56588e+06
4.21808e+08
-1.17096e+08
2.7072e+07
7.85329e+06
-3.4045e+07
0
-744335
1.22362e+08
-3.39683e+07
7.85329e+06
2.27816e+06
-9.87611e+06
-0
3.22679e+06
-5.30455e+08
1.47257e+08
-3.4045e+07
-9.87611e+06
4.28142e+07
0
0
0
-0
-0
-0
-0
0
650035
210091
-1.57825e+07
-8.94293e+06
-5.52962e+06
-176059
0
210091
67901
-5.10088e+06
-2.89034e+06
-1.78717e+06
-56902
-0
-1.57825e+07
-5.10088e+06
3.8319e+08
2.17129e+08
1.34256e+08
4.27461e+06
-0
-8.94293e+06
-2.89034e+06
2.17129e+08
1.23033e+08
7.60743e+07
2.42215e+06
-0
-5.52962e+06
-1.78717e+06
1.34256e+08
7.60743e+07
4.70385e+07
1.49767e+06
-0
-176059
-56902
4.27461e+06
2.42215e+06
1.49767e+06
47684.7
0
0
0
0
-0
0
0
0
85097.7
503598
1.32865e+07
-7.49487e+06
899266
2.66402e+06
0
503598
2.98023e+06
7.86278e+07
-4.43537e+07
5.32175e+06
1.57654e+07
0
1.32865e+07
7.86278e+07
2.07445e+09
-1.17019e+09
1.40404e+08
4.15939e+08
-0
-7.49487e+06
-4.43537e+07
-1.17019e+09
6.601e+08
-7.92016e+07
-2.3463e+08
0
899266
5.32175e+06
1.40404e+08
-7.92016e+07
9.50295e+06
2.81519e+07
0
2.66402e+06
1.57654e+07
4.15939e+08
-2.3463e+08
2.81519e+07
8.33984e+07
0
-0
0
-0
-0
-0
-0
-0
5.4879e+06
-1.45121e+08
1.13379e+08
9.10721e+07
9.17554e+06
2.27571e+07
0
-1.45121e+08
3.83754e+09
-2.99817e+09
-2.40829e+09
-2.42636e+08
-6.01784e+08
-0
1.13379e+08
-2.99817e+09
2.3424e+09
1.88153e+09
1.89565e+08
4.70159e+08
-0
9.10721e+07
-2.40829e+09
1.88153e+09
1.51135e+09
1.52269e+08
3.77656e+08
-0
9.17554e+06
-2.42636e+08
1.89565e+08
1.52269e+08
1.53411e+07
3.80489e+07
-0
2.27571e+07
-6.01784e+08
4.70159e+08
3.77656e+08
3.80489e+07
9.43688e+07
0
0
0
0
0
-0
-0
0
461254
2.80515e+07
2.90321e+06
1.75446e+06
-3.95163e+06
-4736.74
0
2.80515e+07
1.70597e+09
1.76561e+08
1.06698e+08
-2.40321e+08
-288068
0
2.90321e+06
1.76561e+08
1.82734e+07
1.10429e+07
-2.48723e+07
-29813.9
0
1.75446e+06
1.06698e+08
1.10429e+07
6.67336e+06
-1.50307e+07
-18017
-0
-3.95163e+06
-2.40321e+08
-2.48723e+07
-1.50307e+07
3.38542e+07
40580.3
-0
-4736.74
-288068
-29813.9
-18017
40580.3
48.6429
0
0
0
0
-0
-0
-0
0
92641.4
1.20177e+07
1.53383e+06
-8.91425e+06
-9.96032e+06
-127593
0
1.20177e+07
1.55897e+09
1.98973e+08
-1.15638e+09
-1.29208e+09
-1.65517e+07
0
1.53383e+06
1.98973e+08
2.5395e+07
-1.4759e+08
-1.64909e+08
-2.11251e+06
-0
-8.91425e+06
-1.15638e+09
-1.4759e+08
8.57758e+08
9.58413e+08
1.22774e+07
-0
-9.96032e+06
-1.29208e+09
-1.64909e+08
9.58413e+08
1.07088e+09
1.37181e+07
-0
-127593
-1.65517e+07
-2.11251e+06
1.22774e+07
1.37181e+07
175731
0
-0
0
-0
-0
0
0
-0
4.33497e+06
-1.58091e+08
1.3021e+08
2.67369e+07
-6.31628e+06
-1.0148e+07
0
-1.58091e+08
5.7654e+09
-4.74862e+09
-9.75064e+08
2.30347e+08
3.70085e+08
-0
1.3021e+08
-4.74862e+09
3.91116e+09
8.03102e+08
-1.89723e+08
-3.04817e+08
-0
2.67369e+07
-9.75064e+08
8.03102e+08
1.64906e+08
-3.89571e+07
-6.259e+07
0
-6.31628e+06
2.30347e+08
-1.89723e+08
-3.89571e+07
9.20315e+06
1.47862e+07
0
-1.0148e+07
3.70085e+08
-3.04817e+08
-6.259e+07
1.47862e+07
2.3756e+07
0
0
0
0
0
0
0
0
583895
1.94516e+07
4.52875e+06
1.15839e+07
7.87166e+06
1.37234e+06
0
1.94516e+07
6.48002e+08
1.50869e+08
3.859e+08
2.62233e+08
4.57175e+07
0
4.52875e+06
1.50869e+08
3.51254e+07
8.98457e+07
6.10533e+07
1.0644e+07
0
1.15839e+07
3.859e+08
8.98457e+07
2.29812e+08
1.56166e+08
2.72258e+07
0
7.87166e+06
2.62233e+08
6.10533e+07
1.56166e+08
1.0612e+08
1.85009e+07
0
1.37234e+06
4.57175e+07
1.0644e+07
2.72258e+07
1.85009e+07
3.22544e+06
0
-0
-0
0
-0
-0
0
-0
490689
3.5231e+07
-5.28301e+06
2.2217e+07
9.02329e+06
-3.06868e+06
-0
3.5231e+07
2.52955e+09
-3.79315e+08
1.59516e+09
6.47864e+08
-2.20328e+08
0
-5.28301e+06
-3.79315e+08
5.68795e+07
-2.392e+08
-9.71493e+07
3.30389e+07
-0
2.2217e+07
1.59516e+09
-2.392e+08
1.00592e+09
4.08549e+08
-1.38941e+08
-0
9.02329e+06
6.47864e+08
-9.71493e+07
4.08549e+08
1.65929e+08
-5.643e+07
0
-3.06868e+06
-2.20328e+08
3.30389e+07
-1.38941e+08
-5.643e+07
1.91909e+07
0
-0
0
-0
-0
0
0
-0
75168.5
-1.96099e+07
1.11086e+06
3.34113e+06
-1.33279e+06
-619008
0
-1.96099e+07
5.1158e+09
-2.898e+08
-8.71628e+08
3.47697e+08
1.61486e+08
-0
1.11086e+06
-2.898e+08
1.64166e+07
4.93761e+07
-1.96964e+07
-9.14787e+06
-0
3.34113e+06
-8.71628e+08
4.93761e+07
1.48508e+08
-5.92405e+07
-2.7514e+07
0
-1.33279e+06
3.47697e+08
-1.96964e+07
-5.92405e+07
2.36314e+07
1.09755e+07
0
-619008
1.61486e+08
-9.14787e+06
-2.7514e+07
1.09755e+07
5.09749e+06
0
0
0
0
-0
-0
0
0
45558.9
6.91168e+06
7.82225e+06
-9.26098e+06
-4.9088e+06
1.19048e+06
0
6.91168e+06
1.04856e+09
1.1867e+09
-1.40497e+09
-7.44706e+08
1.80606e+08
0
7.82225e+06
1.1867e+09
1.34304e+09
-1.59007e+09
-8.42817e+08
2.04399e+08
-0
-9.26098e+06
-1.40497e+09
-1.59007e+09
1.88252e+09
9.97834e+08
-2.41994e+08
-0
-4.9088e+06
-7.44706e+08
-8.42817e+08
9.97834e+08
5.28903e+08
-1.28269e+08
0
1.19048e+06
1.80606e+08
2.04399e+08
-2.41994e+08
-1.28269e+08
3.11078e+07
0
-0
0
-0
-0
-0
-0
-0
109630
-1.83478e+07
4.66856e+06
1.11284e+07
1.10174e+07
1.25268e+06
0
-1.83478e+07
3.0707e+09
-7.81333e+08
-1.86246e+09
-1.84389e+09
-2.09649e+08
-0
4.66856e+06
-7.81333e+08
1.98809e+08
4.739e+08
4.69174e+08
5.33449e+07
-0
1.11284e+07
-1.86246e+09
4.739e+08
1.12963e+09
1.11837e+09
1.27158e+08
-0
1.10174e+07
-1.84389e+09
4.69174e+08
1.11837e+09
1.10721e+09
1.2589e+08
-0
1.25268e+06
-2.09649e+08
5.33449e+07
1.27158e+08
1.2589e+08
1.43136e+07
0
-0
0
0
-0
-0
0
-0
233588
-2.21936e+07
-1.00436e+07
1.11242e+07
6.35106e+06
-309275
0
-2.21936e+07
2.10865e+09
9.54256e+08
-1.05693e+09
-6.03426e+08
2.93847e+07
0
-1.00436e+07
9.54256e+08
4.31842e+08
-4.78307e+08
-2.73076e+08
1.32979e+07
-0
1.11242e+07
-1.05693e+09
-4.78307e+08
5.29771e+08
3.02459e+08
-1.47287e+07
-0
6.35106e+06
-6.03426e+08
-2.73076e+08
3.02459e+08
1.72681e+08
-8.40894e+06
0
-309275
2.93847e+07
1.32979e+07
-1.47287e+07
-8.40894e+06
409486
0
-0
-0
-0
0
-0
0
-0
4.54004e+06
9.65394e+07
4.41257e+07
-456782
8.93555e+06
-1.40036e+07
-0
9.65394e+07
2.05281e+09
9.38288e+08
-9.71302e+06
1.90005e+08
-2.97772e+08
-0
4.41257e+07
9.38288e+08
4.28867e+08
-4.43957e+06
8.68466e+07
-1.36104e+08
0
-456782
-9.71302e+06
-4.43957e+06
45957.8
-899023
1.40893e+06
-0
8.93555e+06
1.90005e+08
8.68466e+07
-899023
1.75866e+07
-2.75613e+07
0
-1.40036e+07
-2.97772e+08
-1.36104e+08
1.40893e+06
-2.75613e+07
4.31934e+07
0
-0
0
0
-0
0
0
-0
500722
-1.24132e+07
-1.8503e+07
8.26562e+06
-3.92691e+06
-5.31337e+06
0
-1.24132e+07
3.07729e+08
4.58698e+08
-2.04909e+08
9.73503e+07
1.31721e+08
0
-1.8503e+07
4.58698e+08
6.83732e+08
-3.05436e+08
1.4511e+08
1.96343e+08
-0
8.26562e+06
-2.04909e+08
-3.05436e+08
1.36444e+08
-6.48231e+07
-8.77099e+07
0
-3.92691e+06
9.73503e+07
1.4511e+08
-6.48231e+07
3.07968e+07
4.16701e+07
0
-5.31337e+06
1.31721e+08
1.96343e+08
-8.77099e+07
4.16701e+07
5.63824e+07
0
-0
-0
0
-0
-0
0
-0
1641.65
2.32575e+06
-1.17672e+06
1.03639e+06
94043.6
-133235
-0
2.32575e+06
3.29493e+09
-1.66709e+09
1.46827e+09
1.33233e+08
-1.88756e+08
0
-1.17672e+06
-1.66709e+09
8.43471e+08
-7.4288e+08
-6.741e+07
9.55023e+07
-0
1.03639e+06
1.46827e+09
-7.4288e+08
6.54285e+08
5.93708e+07
-8.41128e+07
-0
94043.6
1.33233e+08
-6.741e+07
5.93708e+07
5.38739e+06
-7.63252e+06
0
-133235
-1.88756e+08
9.55023e+07
-8.41128e+07
-7.63252e+06
1.08133e+07
0
0
-0
-0
-0
0
0
0
131595
-1.92106e+07
-1.12799e+06
-3.93301e+06
129269
177258
-0
-1.92106e+07
2.80441e+09
1.64667e+08
5.74152e+08
-1.8871e+07
-2.58766e+07
-0
-1.12799e+06
1.64667e+08
9.66872e+06
3.37125e+07
-1.10805e+06
-1.51939e+06
-0
-3.93301e+06
5.74152e+08
3.37125e+07
1.17547e+08
-3.8635e+06
-5.29775e+06
0
129269
-1.8871e+07
-1.10805e+06
-3.8635e+06
126984
174124
0
177258
-2.58766e+07
-1.51939e+06
-5.29775e+06
174124
238765
0
0
0
-0
0
0
0
0
357028
175526
-1.77153e+07
1.13521e+07
3.68265e+06
5.93163e+06
0
175526
86293.9
-8.70937e+06
5.58104e+06
1.8105e+06
2.91617e+06
-0
-1.77153e+07
-8.70937e+06
8.79009e+08
-5.63276e+08
-1.82728e+08
-2.9432e+08
0
1.13521e+07
5.58104e+06
-5.63276e+08
3.60952e+08
1.17094e+08
1.88603e+08
0
3.68265e+06
1.8105e+06
-1.82728e+08
1.17094e+08
3.79855e+07
6.11831e+07
0
5.93163e+06
2.91617e+06
-2.9432e+08
1.88603e+08
6.11831e+07
9.85475e+07
0
0
-0
0
-0
-0
0
0
22915.4
-690299
3.49541e+06
-2.2399e+06
-3.8858e+06
458049
-0
-690299
2.07945e+07
-1.05295e+08
6.74745e+07
1.17055e+08
-1.37982e+07
0
3.49541e+06
-1.05295e+08
5.33175e+08
-3.41665e+08
-5.92724e+08
6.98688e+07
-0
-2.2399e+06
6.74745e+07
-3.41665e+08
2.18943e+08
3.79825e+08
-4.47728e+07
-0
-3.8858e+06
1.17055e+08
-5.92724e+08
3.79825e+08
6.58923e+08
-7.76722e+07
0
458049
-1.37982e+07
6.98688e+07
-4.47728e+07
-7.76722e+07
9.15581e+06
0
0
-0
-0
-0
-0
-0
0
47919.5
-1.05487e+07
-3.01361e+06
-1.25542e+06
-2.93957e+06
-98217.9
-0
-1.05487e+07
2.32212e+09
6.63396e+08
2.76361e+08
6.47099e+08
2.16211e+07
-0
-3.01361e+06
6.63396e+08
1.89523e+08
7.89523e+07
1.84867e+08
6.17682e+06
-0
-1.25542e+06
2.76361e+08
7.89523e+07
3.28903e+07
7.70127e+07
2.57317e+06
-0
-2.93957e+06
6.47099e+08
1.84867e+08
7.70127e+07
1.80325e+08
6.02509e+06
-0
-98217.9
2.16211e+07
6.17682e+06
2.57317e+06
6.02509e+06
201312
0
-0
0
0
-0
0
0
-0
180515
-9.66061e+06
-2.14828e+07
2.64301e+06
-4.07201e+06
-1.10555e+06
0
-9.66061e+06
5.17006e+08
1.1497e+09
-1.41446e+08
2.17921e+08
5.91659e+07
0
-2.14828e+07
1.1497e+09
2.55664e+09
-3.14541e+08
4.84604e+08
1.3157e+08
-0
2.64301e+06
-1.41446e+08
-3.14541e+08
3.86977e+07
-5.96203e+07
-1.6187e+07
0
-4.07201e+06
2.17921e+08
4.84604e+08
-5.96203e+07
9.18552e+07
2.49388e+07
0
-1.10555e+06
5.91659e+07
1.3157e+08
-1.6187e+07
2.49388e+07
6.77091e+06
0
-0
0
0
-0
-0
0
-0
2.47342e+06
-9.16284e+07
-2.2341e+07
8.70031e+07
3.40463e+07
-6.1684e+06
0
-9.16284e+07
3.3944e+09
8.27629e+08
-3.22306e+09
-1.26126e+09
2.2851e+08
0
-2.2341e+07
8.27629e+08
2.01794e+08
-7.85851e+08
-3.07521e+08
5.57157e+07
-0
8.70031e+07
-3.22306e+09
-7.85851e+08
3.06036e+09
1.19759e+09
-2.16975e+08
-0
3.40463e+07
-1.26126e+09
-3.07521e+08
1.19759e+09
4.68643e+08
-8.49073e+07
0
-6.1684e+06
2.2851e+08
5.57157e+07
-2.16975e+08
-8.49073e+07
1.53832e+07
0
0
-0
-0
-0
-0
0
0
15094.6
-2.23392e+06
-2.16729e+06
-1.69729e+06
-896324
597954
-0
-2.23392e+06
3.30607e+08
3.20747e+08
2.51189e+08
1.32651e+08
-8.84939e+07
-0
-2.16729e+06
3.20747e+08
3.11181e+08
2.43697e+08
1.28695e+08
-8.58547e+07
-0
-1.69729e+06
2.51189e+08
2.43697e+08
1.90848e+08
1.00786e+08
-6.72359e+07
-0
-896324
1.32651e+08
1.28695e+08
1.00786e+08
5.32241e+07
-3.55068e+07
0
597954
-8.84939e+07
-8.58547e+07
-6.72359e+07
-3.55068e+07
2.36872e+07
0
-0
0
-0
-0
-0
0
-0
1173.48
-3.24948e+06
94125.3
1.00638e+06
625217
-452538
0
-3.24948e+06
8.99818e+09
-2.60644e+08
-2.78677e+09
-1.7313e+09
1.25313e+09
-0
94125.3
-2.60644e+08
7.54987e+06
8.07223e+07
5.01491e+07
-3.62984e+07
-0
1.00638e+06
-2.78677e+09
8.07223e+07
8.63073e+08
5.36189e+08
-3.88098e+08
-0
625217
-1.7313e+09
5.01491e+07
5.36189e+08
3.3311e+08
-2.41108e+08
0
-452538
1.25313e+09
-3.62984e+07
-3.88098e+08
-2.41108e+08
1.74516e+08
0
0
-0
0
-0
-0
-0
0
170012
-6.56889e+06
4.95981e+06
-9.069e+06
-6.70362e+06
-659308
-0
-6.56889e+06
2.53807e+08
-1.91636e+08
3.50405e+08
2.59012e+08
2.54742e+07
0
4.95981e+06
-1.91636e+08
1.44694e+08
-2.64572e+08
-1.95566e+08
-1.92342e+07
-0
-9.069e+06
3.50405e+08
-2.64572e+08
4.83769e+08
3.57592e+08
3.51696e+07
-0
-6.70362e+06
2.59012e+08
-1.95566e+08
3.57592e+08
2.64325e+08
2.59966e+07
-0
-659308
2.54742e+07
-1.92342e+07
3.51696e+07
2.59966e+07
2.5568e+06
0
-0
-0
-0
0
-0
-0
-0
13480.5
1.04608e+06
1.59398e+06
-372062
811599
44875.7
-0
1.04608e+06
8.11747e+07
1.23692e+08
-2.88717e+07
6.29794e+07
3.48232e+06
-0
1.59398e+06
1.23692e+08
1.88477e+08
-4.39938e+07
9.5966e+07
5.30625e+06
0
-372062
-2.88717e+07
-4.39938e+07
1.02689e+07
-2.24001e+07
-1.23857e+06
-0
811599
6.29794e+07
9.5966e+07
-2.24001e+07
4.88625e+07
2.70175e+06
-0
44875.7
3.48232e+06
5.30625e+06
-1.23857e+06
2.70175e+06
149388
0
0
0
0
-0
-0
-0
0
239629
1.11901e+06
3.05079e+06
-2.23962e+07
-2.48511e+07
-1.23965e+06
0
1.11901e+06
5.22555e+06
1.42465e+07
-1.04585e+08
-1.16049e+08
-5.78888e+06
0
3.05079e+06
1.42465e+07
3.88406e+07
-2.85133e+08
-3.16387e+08
-1.57823e+07
-0
-2.23962e+07
-1.04585e+08
-2.85133e+08
2.09319e+09
2.32263e+09
1.1586e+08
-0
-2.48511e+07
-1.16049e+08
-3.16387e+08
2.32263e+09
2.57723e+09
1.2856e+08
-0
-1.23965e+06
-5.78888e+06
-1.57823e+07
1.1586e+08
1.2856e+08
6.41295e+06
0
-0
-0
-0
-0
-0
0
-0
2.61877e+06
2.51743e+07
1.48177e+07
3.38682e+06
1.29919e+07
-3.43534e+06
-0
2.51743e+07
2.42002e+08
1.42443e+08
3.25577e+07
1.24892e+08
-3.30241e+07
-0
1.48177e+07
1.42443e+08
8.38421e+07
1.91635e+07
7.35115e+07
-1.9438e+07
-0
3.38682e+06
3.25577e+07
1.91635e+07
4.38014e+06
1.68023e+07
-4.44289e+06
-0
1.29919e+07
1.24892e+08
7.35115e+07
1.68023e+07
6.44538e+07
-1.7043e+07
0
-3.43534e+06
-3.30241e+07
-1.9438e+07
-4.44289e+06
-1.7043e+07
4.50654e+06
0
-0
0
-0
0
-0
-0
-0
9310.18
-9.41237e+06
263580
-250787
70847.8
329112
0
-9.41237e+06
9.51568e+09
-2.66473e+08
2.53539e+08
-7.16254e+07
-3.32724e+08
-0
263580
-2.66473e+08
7.46219e+06
-7.10001e+06
2.00577e+06
9.31746e+06
0
-250787
2.53539e+08
-7.10001e+06
6.7554e+06
-1.90842e+06
-8.86523e+06
-0
70847.8
-7.16254e+07
2.00577e+06
-1.90842e+06
539132
2.50445e+06
-0
329112
-3.32724e+08
9.31746e+06
-8.86523e+06
2.50445e+06
1.1634e+07
0
0
0
0
-0
0
0
0
28814.8
1.12489e+06
5.72643e+06
-70149.8
191783
1.12244e+06
0
1.12489e+06
4.39138e+07
2.23551e+08
-2.73854e+06
7.48692e+06
4.38185e+07
0
5.72643e+06
2.23551e+08
1.13803e+09
-1.3941e+07
3.81135e+07
2.23066e+08
-0
-70149.8
-2.73854e+06
-1.3941e+07
170780
-466897
-2.7326e+06
0
191783
7.48692e+06
3.81135e+07
-466897
1.27645e+06
7.47068e+06
0
1.12244e+06
4.38185e+07
2.23066e+08
-2.7326e+06
7.47068e+06
4.37235e+07
0
-0
0
-0
0
0
0
-0
1480.85
-319156
1.59099e+06
-297793
-158321
-35847.6
0
-319156
6.87854e+07
-3.42896e+08
6.41812e+07
3.41217e+07
7.72598e+06
-0
1.59099e+06
-3.42896e+08
1.70934e+09
-3.19943e+08
-1.70097e+08
-3.8514e+07
0
-297793
6.41812e+07
-3.19943e+08
5.98851e+07
3.18377e+07
7.20883e+06
0
-158321
3.41217e+07
-1.70097e+08
3.18377e+07
1.69264e+07
3.83255e+06
0
-35847.6
7.72598e+06
-3.8514e+07
7.20883e+06
3.83255e+06
867782
0
0
-0
0
0
0
0
0
310743
-4.3583e+07
2.64709e+07
1.5749e+07
9.15184e+06
4.37757e+06
-0
-4.3583e+07
6.11269e+09
-3.71264e+09
-2.20886e+09
-1.28358e+09
-6.13972e+08
0
2.64709e+07
-3.71264e+09
2.25494e+09
1.34159e+09
7.79605e+08
3.72906e+08
0
1.5749e+07
-2.20886e+09
1.34159e+09
7.98187e+08
4.63831e+08
2.21863e+08
0
9.15184e+06
-1.28358e+09
7.79605e+08
4.63831e+08
2.69535e+08
1.28926e+08
0
4.37757e+06
-6.13972e+08
3.72906e+08
2.21863e+08
1.28926e+08
6.16687e+07
0
-0
0
-0
-0
-0
-0
-0
333.606
-347648
89424.2
80422.1
615261
97044.2
0
-347648
3.6228e+08
-9.3188e+07
-8.3807e+07
-6.41157e+08
-1.01129e+08
-0
89424.2
-9.3188e+07
2.39704e+07
2.15574e+07
1.64923e+08
2.6013e+07
-0
80422.1
-8.3807e+07
2.15574e+07
1.93873e+07
1.4832e+08
2.33943e+07
-0
615261
-6.41157e+08
1.64923e+08
1.4832e+08
1.13471e+09
1.78976e+08
-0
97044.2
-1.01129e+08
2.6013e+07
2.33943e+07
1.78976e+08
2.82296e+07
0
-0
-0
-0
0
0
-0
-0
3.73454e+06
1.233e+08
1.26313e+07
-3.0111e+07
-1.54478e+07
1.43115e+06
-0
1.233e+08
4.07089e+09
4.17038e+08
-9.94148e+08
-5.10025e+08
4.72509e+07
-0
1.26313e+07
4.17038e+08
4.2723e+07
-1.01844e+08
-5.22489e+07
4.84057e+06
0
-3.0111e+07
-9.94148e+08
-1.01844e+08
2.4278e+08
1.24553e+08
-1.15391e+07
0
-1.54478e+07
-5.10025e+08
-5.22489e+07
1.24553e+08
6.38989e+07
-5.91987e+06
-0
1.43115e+06
4.72509e+07
4.84057e+06
-1.15391e+07
-5.91987e+06
548443
0
0
0
-0
-0
-0
0
0
16361.5
6.21399e+06
-1.59904e+06
-3.19206e+06
-2.25299e+06
1.11145e+06
0
6.21399e+06
2.36003e+09
-6.07303e+08
-1.21232e+09
-8.5567e+08
4.22119e+08
-0
-1.59904e+06
-6.07303e+08
1.56276e+08
3.11965e+08
2.20188e+08
-1.08623e+08
-0
-3.19206e+06
-1.21232e+09
3.11965e+08
6.22758e+08
4.39549e+08
-2.16838e+08
-0
-2.25299e+06
-8.5567e+08
2.20188e+08
4.39549e+08
3.10238e+08
-1.53047e+08
0
1.11145e+06
4.22119e+08
-1.08623e+08
-2.16838e+08
-1.53047e+08
7.5501e+07
0
-0
0
-0
-0
0
0
-0
412446
-1.36457e+07
9.05426e+06
2.07143e+06
-1.81428e+06
-4.24216e+06
0
-1.36457e+07
4.51465e+08
-2.99558e+08
-6.85328e+07
6.00251e+07
1.40351e+08
-0
9.05426e+06
-2.99558e+08
1.98764e+08
4.54732e+07
-3.98281e+07
-9.31263e+07
-0
2.07143e+06
-6.85328e+07
4.54732e+07
1.04033e+07
-9.11186e+06
-2.13054e+07
0
-1.81428e+06
6.00251e+07
-3.98281e+07
-9.11186e+06
7.98072e+06
1.86605e+07
0
-4.24216e+06
1.40351e+08
-9.31263e+07
-2.13054e+07
1.86605e+07
4.36322e+07
0
-0
0
-0
-0
-0
0
-0
4042.87
-275119
1.3682e+06
1.67612e+06
1.6097e+06
-120375
0
-275119
1.8722e+07
-9.31064e+07
-1.14061e+08
-1.09541e+08
8.19159e+06
-0
1.3682e+06
-9.31064e+07
4.63028e+08
5.67236e+08
5.44758e+08
-4.07376e+07
-0
1.67612e+06
-1.14061e+08
5.67236e+08
6.94897e+08
6.6736e+08
-4.99059e+07
-0
1.6097e+06
-1.09541e+08
5.44758e+08
6.6736e+08
6.40915e+08
-4.79283e+07
0
-120375
8.19159e+06
-4.07376e+07
-4.99059e+07
-4.79283e+07
3.58413e+06
