{"learner":{"attributes":{"scikit_learn":"{\"_estimator_type\": \"classifier\"}"},"feature_names":[],"feature_types":[],"gradient_booster":{"model":{"gbtree_model_param":{"num_parallel_tree":"1","num_trees":"400"},"iteration_indptr":[0,4,8,12,16,20,24,28,32,36,40,44,48,52,56,60,64,68,72,76,80,84,88,92,96,100,104,108,112,116,120,124,128,132,136,140,144,148,152,156,160,164,168,172,176,180,184,188,192,196,200,204,208,212,216,220,224,228,232,236,240,244,248,252,256,260,264,268,272,276,280,284,288,292,296,300,304,308,312,316,320,324,328,332,336,340,344,348,352,356,360,364,368,372,376,380,384,388,392,396,400],"tree_info":[0,1,2,3,0,1,2,3,0,1,2,3,0,1,2,3,0,1,2,3,0,1,2,3,0,1,2,3,0,1,2,3,0,1,2,3,0,1,2,3,0,1,2,3,0,1,2,3,0,1,2,3,0,1,2,3,0,1,2,3,0,1,2,3,0,1,2,3,0,1,2,3,0,1,2,3,0,1,2,3,0,1,2,3,0,1,2,3,0,1,2,3,0,1,2,3,0,1,2,3,0,1,2,3,0,1,2,3,0,1,2,3,0,1,2,3,0,1,2,3,0,1,2,3,0,1,2,3,0,1,2,3,0,1,2,3,0,1,2,3,0,1,2,3,0,1,2,3,0,1,2,3,0,1,2,3,0,1,2,3,0,1,2,3,0,1,2,3,0,1,2,3,0,1,2,3,0,1,2,3,0,1,2,3,0,1,2,3,0,1,2,3,0,1,2,3,0,1,2,3,0,1,2,3,0,1,2,3,0,1,2,3,0,1,2,3,0,1,2,3,0,1,2,3,0,1,2,3,0,1,2,3,0,1,2,3,0,1,2,3,0,1,2,3,0,1,2,3,0,1,2,3,0,1,2,3,0,1,2,3,0,1,2,3,0,1,2,3,0,1,2,3,0,1,2,3,0,1,2,3,0,1,2,3,0,1,2,3,0,1,2,3,0,1,2,3,0,1,2,3,0,1,2,3,0,1,2,3,0,1,2,3,0,1,2,3,0,1,2,3,0,1,2,3,0,1,2,3,0,1,2,3,0,1,2,3,0,1,2,3,0,1,2,3,0,1,2,3,0,1,2,3,0,1,2,3,0,1,2,3,0,1,2,3,0,1,2,3,0,1,2,3,0,1,2,3,0,1,2,3,0,1,2,3,0,1,2,3,0,1,2,3,0,1,2,3,0,1,2,3],"trees":[{"base_weights":[-1.5978728E-1,1.3694876E0,-4.2488763E-1,6.822343E-1,1.7106686E0,-4.8246813E-1,6.702331E-1,4.904266E-2,1.0946538E0,1.2530259E0,1.7692595E0,-6.943382E-2,-5.449313E-1,1.3797909E0,2.8631926E-1,-2.0994475E-1,4.4918874E-1,1.5806929E0,8.081264E-1,8.7884265E-1,1.4232715E0,1.832299E0,1.5658818E0,-2.581709E-1,4.238674E-1,-4.8372763E-1,-6.1868507E-1,1.4229035E0,1.4634146E-1,4.6341845E-1,-2.4647225E-1,-3.7976855E-1,9.7297296E-2,6.256517E-3,7.5197697E-1,7.3239434E-1,1.6543051E0,2.0126927E-1,9.502573E-1,3.6827195E-1,1.1064389E0,1.556044E0,9.714286E-1,1.5279503E0,1.8414444E0,1.2375096E0,1.646875E0,-4.458555E-1,-7.580175E-2,-8.147916E-3,6.582581E-1,-5.137587E-1,-2.2564685E-1,-5.9622204E-1,-6.476288E-2,1.6372501E0,1.2344338E0,8.9999996E-2,-5.2173913E-2,1.7159337E-1,6.86204E-1,-4.891962E-1,4.298874E-2,-4.0433213E-2,8E-3,-1.7889088E-3,7.891892E-2,-1.2264151E-2,9.243698E-2,1.5675676E-1,6.227348E-2,4.7398847E-2,1.0588236E-1,1.6815661E-1,-5.454546E-2,4.593438E-2,-2.4390245E-2,8.2864605E-2,1.2869993E-1,7.725322E-3,8.75E-2,1.3461539E-1,7.988669E-2,9.1612905E-2,1.60789E-1,6.7368425E-2,1.5319149E-1,1.5921053E-1,3.636364E-2,1.8665288E-1,1.7493711E-1,1.971831E-2,1.2891762E-1,1.721506E-1,1.4048001E-1,-4.8586592E-2,-2.9230136E-2,6.590325E-3,-4.266281E-2,-2.359921E-2,1.9738406E-2,7.5500295E-2,-3.2967036E-3,-5.3569812E-2,-4.1850153E-2,2.9291948E-2,-2.7277553E-2,-5.977357E-2,6.478874E-2,9.8507464E-2,1.6758442E-1,1.520548E-1,1.1370391E-1,7.848101E-2,6.954336E-3,1.0199203E-1,5.562762E-2,-3.2347824E-2,-6.440678E-2,1.71108E-2,-2.9411767E-2],"categories":[],"categories_nodes":[],"categories_segments":[],"categories_sizes":[],"default_left":[0,0,0,0,0,0,0,0,0,0,0,0,0,0,0,0,0,0,0,0,0,0,0,0,0,0,0,0,0,0,0,0,0,0,0,0,0,0,0,0,0,0,0,0,0,0,0,0,0,0,0,0,0,0,0,0,0,0,0,0,0,0,0,0,0,0,0,0,0,0,0,0,0,0,0,0,0,0,0,0,0,0,0,0,0,0,0,0,0,0,0,0,0,0,0,0,0,0,0,0,0,0,0,0,0,0,0,0,0,0,0,0,0,0,0,0,0,0,0,0,0],"id":0,"left_children":[1,3,5,7,9,11,13,15,17,19,21,23,25,27,29,31,33,35,37,39,41,43,45,47,49,51,53,55,57,59,61,63,65,67,69,71,73,75,77,79,81,83,85,87,89,91,93,95,97,99,101,103,105,107,-1,109,111,-1,-1,113,115,117,119,-1,-1,-1,-1,-1,-1,-1,-1,-1,-1,-1,-1,-1,-1,-1,-1,-1,-1,-1,-1,-1,-1,-1,-1,-1,-1,-1,-1,-1,-1,-1,-1,-1,-1,-1,-1,-1,-1,-1,-1,-1,-1,-1,-1,-1,-1,-1,-1,-1,-1,-1,-1,-1,-1,-1,-1,-1,-1],"loss_changes":[1.5571975E4,1.3294355E3,2.064522E3,4.920005E2,9.9447266E1,8.023374E2,4.4516406E2,7.722302E1,1.5762231E2,2.6380432E1,4.019336E1,3.8059152E2,1.21646484E2,3.031543E1,1.0038027E2,2.3647045E1,3.9257366E1,2.514795E1,6.1900238E1,1.565773E1,1.6276184E1,4.3066406E0,1.9281982E1,1.0115666E2,1.1455615E2,1.1434375E2,7.5771484E0,2.0379517E1,1.0791411E1,5.1755646E1,1.869239E1,3.3258324E0,1.2914993E1,1.4299732E1,1.7351768E1,2.4925995E0,2.416211E1,1.5952147E1,2.2808289E1,6.4394E0,5.938141E0,6.074768E0,1.0649689E1,5.434143E0,2.459961E0,8.486862E0,9.144043E0,8.807892E0,7.462995E1,1.8725603E1,4.9067474E1,2.7420898E1,3.7743988E1,1.3397217E1,0E0,4.802124E0,6.6065063E0,0E0,0E0,2.1644611E1,1.9036346E1,3.50346E0,5.3248825E0,0E0,0E0,0E0,0E0,0E0,0E0,0E0,0E0,0E0,0E0,0E0,0E0,0E0,0E0,0E0,0E0,0E0,0E0,0E0,0E0,0E0,0E0,0E0,0E0,0E0,0E0,0E0,0E0,0E0,0E0,0E0,0E0,0E0,0E0,0E0,0E0,0E0,0E0,0E0,0E0,0E0,0E0,0E0,0E0,0E0,0E0,0E0,0E0,0E0,0E0,0E0,0E0,0E0,0E0,0E0,0E0,0E0,0E0],"parents":[2147483647,0,0,1,1,2,2,3,3,4,4,5,5,6,6,7,7,8,8,9,9,10,10,11,11,12,12,13,13,14,14,15,15,16,16,17,17,18,18,19,19,20,20,21,21,22,22,23,23,24,24,25,25,26,26,27,27,28,28,29,29,30,30,31,31,32,32,33,33,34,34,35,35,36,36,37,37,38,38,39,39,40,40,41,41,42,42,43,43,44,44,45,45,46,46,47,47,48,48,49,49,50,50,51,51,52,52,53,53,55,55,56,56,59,59,60,60,61,61,62,62],"right_children":[2,4,6,8,10,12,14,16,18,20,22,24,26,28,30,32,34,36,38,40,42,44,46,48,50,52,54,56,58,60,62,64,66,68,70,72,74,76,78,80,82,84,86,88,90,92,94,96,98,100,102,104,106,108,-1,110,112,-1,-1,114,116,118,120,-1,-1,-1,-1,-1,-1,-1,-1,-1,-1,-1,-1,-1,-1,-1,-1,-1,-1,-1,-1,-1,-1,-1,-1,-1,-1,-1,-1,-1,-1,-1,-1,-1,-1,-1,-1,-1,-1,-1,-1,-1,-1,-1,-1,-1,-1,-1,-1,-1,-1,-1,-1,-1,-1,-1,-1,-1,-1],"split_conditions":[3.9495555E-1,5.092214E0,1.376956E1,2.3268726E-1,9.185527E1,7.9301167E-1,2.0218231E-1,4.91257E-2,5.6109104E-2,1.5889855E1,1.1558835E-1,2.7108083E0,8.191016E-1,2.01E2,9.527763E-1,4.16479E1,1.6136439E0,1.49E2,1.1699121E2,2.7815266E-2,2.1533793E-1,1.4695129E-1,8.833642E0,7.167817E-2,4.91257E-2,2.8552775E0,9.6343845E-1,6.6E1,-4.7863834E-3,3.841832E1,5.2740986E1,3.8316373E-2,2.01E2,1.32E2,2.5154281E-2,2.0920964E2,9.73423E-1,2.5554562E-1,3.0199883E0,3.873189E1,1.1558835E-1,1.4943528E-3,6.0976395E1,3.1843082E2,6.3525303E1,6.599018E-2,2.1100947E-1,1.7882999E0,1.9794217E-1,-6.6059455E-2,2.2720839E-1,1.2481672E2,1.6E1,1.319E3,-6.476288E-2,2.6E1,1E0,8.9999996E-2,-5.2173913E-2,6.960703E-1,2.64E2,9.695963E-1,9.727213E-1,-4.0433213E-2,8E-3,-1.7889088E-3,7.891892E-2,-1.2264151E-2,9.243698E-2,1.5675676E-1,6.227348E-2,4.7398847E-2,1.0588236E-1,1.6815661E-1,-5.454546E-2,4.593438E-2,-2.4390245E-2,8.2864605E-2,1.2869993E-1,7.725322E-3,8.75E-2,1.3461539E-1,7.988669E-2,9.1612905E-2,1.60789E-1,6.7368425E-2,1.5319149E-1,1.5921053E-1,3.636364E-2,1.8665288E-1,1.7493711E-1,1.971831E-2,1.2891762E-1,1.721506E-1,1.4048001E-1,-4.8586592E-2,-2.9230136E-2,6.590325E-3,-4.266281E-2,-2.359921E-2,1.9738406E-2,7.5500295E-2,-3.2967036E-3,-5.3569812E-2,-4.1850153E-2,2.9291948E-2,-2.7277553E-2,-5.977357E-2,6.478874E-2,9.8507464E-2,1.6758442E-1,1.520548E-1,1.1370391E-1,7.848101E-2,6.954336E-3,1.0199203E-1,5.562762E-2,-3.2347824E-2,-6.440678E-2,1.71108E-2,-2.9411767E-2],"split_indices":[2,1,1,3,4,2,5,3,2,1,2,1,3,0,3,4,1,0,4,3,5,3,1,3,3,1,3,0,8,1,1,3,0,0,5,4,3,2,1,4,2,2,4,4,1,3,5,1,5,3,5,4,0,0,0,0,6,0,0,2,0,3,3,0,0,0,0,0,0,0,0,0,0,0,0,0,0,0,0,0,0,0,0,0,0,0,0,0,0,0,0,0,0,0,0,0,0,0,0,0,0,0,0,0,0,0,0,0,0,0,0,0,0,0,0,0,0,0,0,0,0],"split_type":[0,0,0,0,0,0,0,0,0,0,0,0,0,0,0,0,0,0,0,0,0,0,0,0,0,0,0,0,0,0,0,0,0,0,0,0,0,0,0,0,0,0,0,0,0,0,0,0,0,0,0,0,0,0,0,0,0,0,0,0,0,0,0,0,0,0,0,0,0,0,0,0,0,0,0,0,0,0,0,0,0,0,0,0,0,0,0,0,0,0,0,0,0,0,0,0,0,0,0,0,0,0,0,0,0,0,0,0,0,0,0,0,0,0,0,0,0,0,0,0,0],"sum_hessian":[3.8407875E4,5.67375E3,3.2734125E4,1.88325E3,3.7905E3,3.10995E4,1.634625E3,7.4325E2,1.14E3,4.3275E2,3.35775E3,4.085625E3,2.7013875E4,5.73E2,1.061625E3,4.515E2,2.9175E2,4.21125E2,7.18875E2,1.3725E2,2.955E2,2.557125E3,8.00625E2,2.955375E3,1.13025E3,1.4767125E4,1.224675E4,5.535E2,1.95E1,7.96875E2,2.6475E2,2.90625E2,1.60875E2,1.18875E2,1.72875E2,3.45E1,3.86625E2,1.36875E2,5.82E2,4.3125E1,9.4125E1,2.265E2,6.9E1,7.95E1,2.477625E3,1.61625E2,6.39E2,1.45575E3,1.499625E3,3.97875E2,7.32375E2,1.3227E4,1.540125E3,6.9075E3,5.33925E3,2.55375E2,2.98125E2,9E0,1.05E1,3.4575E2,4.51125E2,1.43625E2,1.21125E2,2.76E2,1.4625E1,1.3875E2,2.2125E1,1.05E2,1.3875E1,2.2125E1,1.5075E2,2.0625E1,1.3875E1,3.82125E2,4.5E0,8.6625E1,5.025E1,4.30125E2,1.51875E2,2.8125E1,1.5E1,5.1E1,4.3125E1,1.8375E1,2.08125E2,4.65E1,2.25E1,7.5E1,4.5E0,1.932E3,5.45625E2,7.875E0,1.5375E2,4.8375E2,1.5525E2,1.153125E3,3.02625E2,1.06875E3,4.30875E2,1.88625E2,2.0925E2,6.42375E2,9E1,1.0747125E4,2.479875E3,1.27875E2,1.41225E3,6.899625E3,7.875E0,1.575E1,2.39625E2,7.2E1,2.26125E2,4.8375E1,2.97375E2,1.245E2,3.26625E2,7.0875E1,7.275E1,8.8125E1,3.3E1],"tree_param":{"num_deleted":"0","num_feature":"9","num_nodes":"121","size_leaf_vector":"1"}},{"base_weights":[2.5334933E-1,-3.443762E-1,1.5005106E0,-5.796777E-1,-6.3696146E-2,-3.983975E-1,1.5898231E0,-6.2638974E-1,-4.0605253E-1,-4.625959E-1,2.5865972E-1,-4.697111E-1,1.0813397E0,1.1979388E0,1.824033E0,-6.42183E-1,-5.173296E-1,-3.2567897E-1,-4.5037133E-1,-2.3712382E-1,-5.30993E-1,-2.5223944E-1,4.4520032E-1,-5.438083E-1,4.770642E-2,6.2857145E-1,1.7922078E-1,1.3342191E0,3.305207E-1,5.301543E-1,1.839425E0,-5.7764214E-1,-6.521302E-2,-6.22665E-2,-4.752305E-1,-4.5619833E-1,-2.7403924E-1,-5.459654E-1,-3.8256657E-1,-4.3196154E-1,-1.3827686E-1,-5.6093293E-1,-3.708301E-1,1.4808787E-1,-4.6691418E-1,1.0550459E-1,1.0329671E0,-3.8674033E-1,-5.920224E-1,3.8485804E-1,-4.0677965E-1,1.1864407E-1,2.0224719E-1,1.6651249E-2,1.4330906E0,7.8522986E-1,-2.1599638E-1,2.8947368E-1,1.7876107E-1,1.680044E0,1.9324604E0,-6.095299E-2,-5.2949507E-2,-4.1995015E-2,-5.2794583E-2,-5.2363634E-2,-3.9759036E-2,-2.8083429E-2,2.3255816E-2,-7.874016E-3,-5.6451876E-2,-8.906882E-3,-3.9906975E-2,-3.4732826E-2,-5.7211924E-2,-2.1299295E-2,1.5522388E-2,-5.8469635E-2,-4.4324793E-2,-4.249392E-2,1.5600624E-3,5.355522E-2,5.5524707E-4,-5.4733604E-2,-1.796526E-2,3.7655137E-2,-1.6379822E-3,1.1588427E-1,3.1698115E-2,-5.6628477E-2,-1.3245033E-3,-6.0647983E-2,-2.184874E-2,6.779661E-3,1.1910112E-1,-5.081081E-2,-3.3898305E-3,-8E-3,4.680851E-2,2.9881423E-2,-3.7790056E-2,1.5015446E-1,5.8845263E-2,5.067241E-2,1.4221668E-1,-4.2095054E-2,-3.6974791E-3,1.3469388E-1,8.494209E-3,1.7501883E-1,9.344609E-2,1.9387706E-1,1.235955E-1],"categories":[],"categories_nodes":[],"categories_segments":[],"categories_sizes":[],"default_left":[0,0,0,0,0,0,0,0,0,0,0,0,0,0,0,0,0,0,0,0,0,0,0,0,0,0,0,0,0,0,0,0,0,0,0,0,0,0,0,0,0,0,0,0,0,0,0,0,0,0,0,0,0,0,0,0,0,0,0,0,0,0,0,0,0,0,0,0,0,0,0,0,0,0,0,0,0,0,0,0,0,0,0,0,0,0,0,0,0,0,0,0,0,0,0,0,0,0,0,0,0,0,0,0,0,0,0,0,0,0,0,0,0],"id":1,"left_children":[1,3,5,7,9,11,13,15,17,19,21,23,25,27,29,31,33,35,37,39,41,43,45,47,49,51,-1,53,55,57,59,61,-1,-1,63,65,67,69,71,73,75,77,79,81,83,85,87,89,91,93,95,-1,97,99,101,103,105,107,-1,109,111,-1,-1,-1,-1,-1,-1,-1,-1,-1,-1,-1,-1,-1,-1,-1,-1,-1,-1,-1,-1,-1,-1,-1,-1,-1,-1,-1,-1,-1,-1,-1,-1,-1,-1,-1,-1,-1,-1,-1,-1,-1,-1,-1,-1,-1,-1,-1,-1,-1,-1,-1,-1],"loss_changes":[2.8725893E4,1.7204204E3,2.117998E3,1.1467285E2,1.5278217E3,5.9773598E1,1.092248E3,1.889746E1,1.0564453E1,8.176672E1,6.2638696E2,2.0594917E1,7.2820244E0,5.271992E2,1.4762695E2,5.8813477E0,5.9894714E0,7.1027756E0,1.2337311E1,2.3778236E1,1.9325562E1,1.5117343E2,9.610881E2,3.3255768E0,1.0595395E1,3.9221268E0,0E0,5.0244385E2,1.5110614E2,2.64558E1,1.0608984E2,1.68927E0,0E0,0E0,2.7415924E0,9.874077E-1,2.718937E0,6.8980255E0,5.465622E0,4.7373657E0,1.8072594E1,9.33313E0,1.348275E1,3.3934254E1,2.6347794E1,1.0083319E2,1.5853455E2,7.5785503E0,1.7967606E0,1.0047407E1,1.0973892E0,0E0,8.721777E-1,3.019929E1,2.065625E2,5.8128693E1,1.0134145E1,1.632325E1,0E0,1.4089697E2,1.8035156E1,0E0,0E0,0E0,0E0,0E0,0E0,0E0,0E0,0E0,0E0,0E0,0E0,0E0,0E0,0E0,0E0,0E0,0E0,0E0,0E0,0E0,0E0,0E0,0E0,0E0,0E0,0E0,0E0,0E0,0E0,0E0,0E0,0E0,0E0,0E0,0E0,0E0,0E0,0E0,0E0,0E0,0E0,0E0,0E0,0E0,0E0,0E0,0E0,0E0,0E0,0E0,0E0],"parents":[2147483647,0,0,1,1,2,2,3,3,4,4,5,5,6,6,7,7,8,8,9,9,10,10,11,11,12,12,13,13,14,14,15,15,16,16,17,17,18,18,19,19,20,20,21,21,22,22,23,23,24,24,25,25,27,27,28,28,29,29,30,30,31,31,34,34,35,35,36,36,37,37,38,38,39,39,40,40,41,41,42,42,43,43,44,44,45,45,46,46,47,47,48,48,49,49,50,50,52,52,53,53,54,54,55,55,56,56,57,57,59,59,60,60],"right_children":[2,4,6,8,10,12,14,16,18,20,22,24,26,28,30,32,34,36,38,40,42,44,46,48,50,52,-1,54,56,58,60,62,-1,-1,64,66,68,70,72,74,76,78,80,82,84,86,88,90,92,94,96,-1,98,100,102,104,106,108,-1,110,112,-1,-1,-1,-1,-1,-1,-1,-1,-1,-1,-1,-1,-1,-1,-1,-1,-1,-1,-1,-1,-1,-1,-1,-1,-1,-1,-1,-1,-1,-1,-1,-1,-1,-1,-1,-1,-1,-1,-1,-1,-1,-1,-1,-1,-1,-1,-1,-1,-1,-1,-1,-1],"split_conditions":[8.7376815E-1,8.402002E-2,4.6277356E-1,-2.8336316E-2,6.243463E-1,-8.1678145E-2,9.4906104E-1,5.4402866E1,2.2036678E-1,2.7108083E0,8.377663E1,1.4333655E-1,9.464325E-1,1E0,6.9844795E1,8.1394094E-1,-3.3371028E-1,7.346268E-3,6.707643E1,1.7691036E-1,3.2203296E-1,2.2036678E-1,2.2720839E-1,6.07E2,6.77E2,1.6136439E0,1.7922078E-1,7.982615E1,3.3289292E-1,9.789736E-1,9.687914E-1,-1.5956013E-1,-6.521302E-2,-6.22665E-2,1.1111094E2,3.7513383E-2,1.0935122E1,2.5154281E-2,3.264198E-1,3.4E2,2.065713E-1,7.789742E1,2.3940805E-1,8.565257E-1,6.9844795E1,5.7122624E-1,1E0,3.5719976E-1,7.789742E1,9.198748E-1,3.4516668E-1,1.1864407E-1,2.860145E1,6.18E2,1.7154982E1,4.3551698E-1,1.6024986E2,2.2036678E-1,1.7876107E-1,1E0,5.771308E1,-6.095299E-2,-5.2949507E-2,-4.1995015E-2,-5.2794583E-2,-5.2363634E-2,-3.9759036E-2,-2.8083429E-2,2.3255816E-2,-7.874016E-3,-5.6451876E-2,-8.906882E-3,-3.9906975E-2,-3.4732826E-2,-5.7211924E-2,-2.1299295E-2,1.5522388E-2,-5.8469635E-2,-4.4324793E-2,-4.249392E-2,1.5600624E-3,5.355522E-2,5.5524707E-4,-5.4733604E-2,-1.796526E-2,3.7655137E-2,-1.6379822E-3,1.1588427E-1,3.1698115E-2,-5.6628477E-2,-1.3245033E-3,-6.0647983E-2,-2.184874E-2,6.779661E-3,1.1910112E-1,-5.081081E-2,-3.3898305E-3,-8E-3,4.680851E-2,2.9881423E-2,-3.7790056E-2,1.5015446E-1,5.8845263E-2,5.067241E-2,1.4221668E-1,-4.2095054E-2,-3.6974791E-3,1.3469388E-1,8.494209E-3,1.7501883E-1,9.344609E-2,1.9387706E-1,1.235955E-1],"split_indices":[3,3,2,3,2,8,3,4,4,1,4,2,3,7,4,2,3,3,4,2,2,4,5,0,0,1,0,4,8,3,3,3,0,0,4,5,1,5,1,0,5,1,5,1,4,1,7,5,1,3,2,0,1,0,1,5,4,4,0,7,1,0,0,0,0,0,0,0,0,0,0,0,0,0,0,0,0,0,0,0,0,0,0,0,0,0,0,0,0,0,0,0,0,0,0,0,0,0,0,0,0,0,0,0,0,0,0,0,0,0,0,0,0],"split_type":[0,0,0,0,0,0,0,0,0,0,0,0,0,0,0,0,0,0,0,0,0,0,0,0,0,0,0,0,0,0,0,0,0,0,0,0,0,0,0,0,0,0,0,0,0,0,0,0,0,0,0,0,0,0,0,0,0,0,0,0,0,0,0,0,0,0,0,0,0,0,0,0,0,0,0,0,0,0,0,0,0,0,0,0,0,0,0,0,0,0,0,0,0,0,0,0,0,0,0,0,0,0,0,0,0,0,0,0,0,0,0,0,0],"sum_hessian":[3.853275E4,2.6049E4,1.248375E4,1.4169375E4,1.1879625E4,5.60625E2,1.1923125E4,1.1163375E4,3.006E3,5.30925E3,6.570375E3,5.355E2,2.5125E1,4.4625E3,7.460625E3,9.747E3,1.416375E3,1.071375E3,1.934625E3,1.23675E3,4.0725E3,1.75725E3,4.813125E3,4.68375E2,6.7125E1,1.65E1,8.625E0,3.856125E3,6.06375E2,8.8125E1,7.3725E3,1.3095E3,8.4375E3,4.005E2,1.015875E3,3.015E2,7.69875E2,7.99875E2,1.13475E3,4.15125E2,8.21625E2,3.429E3,6.435E2,6.135E2,1.14375E3,3.051E3,1.762125E3,1.12125E2,3.5625E2,3.8625E1,2.85E1,6.375E0,1.0125E1,2.6925E2,3.586875E3,3.3075E2,2.75625E2,7.5E1,1.3125E1,2.724375E3,4.648125E3,7.8075E2,5.2875E2,5.0025E2,5.15625E2,1.365E2,1.65E2,7.60125E2,9.75E0,3.075E1,7.69125E2,6.075E1,1.074E3,2.61E2,1.54125E2,6.55125E2,1.665E2,2.849625E3,5.79375E2,5.64375E2,7.9125E1,1.6425E2,4.4925E2,8.92875E2,2.50875E2,9.4575E2,2.10525E3,1.498125E3,2.64E2,7.5375E1,3.675E1,3.42375E2,1.3875E1,2.85E1,1.0125E1,2.2125E1,6.375E0,5.25E0,4.875E0,1.57125E2,1.12125E2,3.31725E3,2.69625E2,2.31375E2,9.9375E1,1.27875E2,1.4775E2,1.125E1,6.375E1,2.488875E3,2.355E2,4.604625E3,4.35E1],"tree_param":{"num_deleted":"0","num_feature":"9","num_nodes":"113","size_leaf_vector":"1"}},{"base_weights":[-4.0682015E-1,-4.523656E-1,1.9537796E-1,-6.157691E-1,-3.9804754E-1,4.9046722E-1,-1.8403618E-1,-6.32648E-1,-4.6013927E-1,-2.9244226E-1,-5.800548E-1,2.4085586E-1,8.14759E-1,7.4445703E-3,-5.380467E-1,-5.0156873E-1,-6.430398E-1,-5.51549E-1,-3.4309623E-1,-2.2527072E-1,-5.5140984E-1,-5.2595013E-1,-6.4684266E-1,-1.2244898E-1,3.889341E-1,2.1761657E-1,9.4557977E-1,-2.945406E-1,4.7368422E-1,-3.4680575E-1,-5.932532E-2,-2.7586207E-1,-5.248555E-1,-6.519338E-2,-6.079843E-1,-4.688562E-1,-6.165138E-2,-4.577504E-1,-1.8674698E-1,-4.3950507E-1,-7.3854685E-2,-5.958438E-1,-3.7864077E-1,-5.8092487E-1,-4.3108487E-1,-6.099356E-1,-6.5867364E-2,-4.7314948E-1,6.0240965E-2,5.9314454E-1,1.4285715E-1,-2.8196722E-2,4.4311377E-1,5E-1,1.0663937E0,-9.193054E-2,-5.130194E-1,1.2512413E-1,7.1598047E-1,-4.7463176E-1,1.4634146E-1,-3.650386E-2,1.686747E-2,-5.5198826E-2,-4.2217486E-2,-8E-3,-6.0975213E-2,-3.7190083E-2,-5.8064517E-2,-3.1197099E-2,-5.7851236E-2,-9.934396E-3,-5.2788105E-2,-4.8067052E-2,-3.0244654E-2,4.5873546E-3,-3.0061547E-2,-5.0566968E-2,-6.110208E-2,-1.4652711E-2,-5.106151E-2,-4.6065535E-2,-6.021185E-2,-5.0785627E-2,-3.3066362E-2,-6.330406E-2,-5.0789792E-2,-5.1612902E-2,-7.792208E-3,1.6443595E-2,-3.1724136E-2,-7.7220076E-4,7.341307E-2,3.33534E-2,-3.9863717E-2,-5.235602E-3,6.309279E-2,7.039106E-2,-1.3559322E-2,6.582507E-2,1.257981E-1,1.570248E-2,-3.3266533E-2,-5.7386737E-2,-1.7931035E-2,-2.1276597E-2,2.857143E-2,2.576687E-2,8.44843E-2,1.818182E-2,-5.182609E-2,-4.1860465E-2,6.976744E-2],"categories":[],"categories_nodes":[],"categories_segments":[],"categories_sizes":[],"default_left":[0,0,0,0,0,0,0,0,0,0,0,0,0,0,0,0,0,0,0,0,0,0,0,0,0,0,0,0,0,0,0,0,0,0,0,0,0,0,0,0,0,0,0,0,0,0,0,0,0,0,0,0,0,0,0,0,0,0,0,0,0,0,0,0,0,0,0,0,0,0,0,0,0,0,0,0,0,0,0,0,0,0,0,0,0,0,0,0,0,0,0,0,0,0,0,0,0,0,0,0,0,0,0,0,0,0,0,0,0,0,0,0,0],"id":2,"left_children":[1,3,5,7,9,11,13,15,17,19,21,23,25,27,29,31,33,35,37,39,41,43,45,47,49,51,53,55,57,59,-1,61,63,-1,65,67,-1,69,71,73,75,77,79,81,83,85,-1,87,89,91,93,-1,95,97,99,101,103,105,107,109,111,-1,-1,-1,-1,-1,-1,-1,-1,-1,-1,-1,-1,-1,-1,-1,-1,-1,-1,-1,-1,-1,-1,-1,-1,-1,-1,-1,-1,-1,-1,-1,-1,-1,-1,-1,-1,-1,-1,-1,-1,-1,-1,-1,-1,-1,-1,-1,-1,-1,-1,-1,-1],"loss_changes":[1.0589536E3,3.1832275E2,3.0409247E2,2.3226074E1,5.17647E2,1.2346033E2,8.057639E1,1.0675537E1,9.221771E0,2.964713E2,3.540088E1,4.6562317E1,5.1664978E1,1.0888796E2,4.1994705E0,2.9963226E0,1.9350586E0,2.355362E0,6.876564E0,4.391972E2,2.6727783E1,2.8274658E1,1.5291748E0,1.6117945E1,3.0794807E1,1.37139225E1,2.8771698E1,2.0730186E1,2.5584679E1,6.1131334E0,0E0,2.3608222E0,1.2731476E0,0E0,1.3774414E0,2.1766624E0,0E0,3.7519493E0,4.897039E0,3.1489014E1,2.1543283E2,3.5107422E0,2.201162E1,8.541992E0,1.5332977E1,2.2411804E0,0E0,1.42276E0,6.5812387E0,2.8427155E1,2.904308E1,0E0,7.8032246E0,1.5388744E1,3.2590515E1,1.4720644E1,4.478531E0,6.890998E0,1.0361298E1,2.2816334E0,6.6772547E0,0E0,0E0,0E0,0E0,0E0,0E0,0E0,0E0,0E0,0E0,0E0,0E0,0E0,0E0,0E0,0E0,0E0,0E0,0E0,0E0,0E0,0E0,0E0,0E0,0E0,0E0,0E0,0E0,0E0,0E0,0E0,0E0,0E0,0E0,0E0,0E0,0E0,0E0,0E0,0E0,0E0,0E0,0E0,0E0,0E0,0E0,0E0,0E0,0E0,0E0,0E0,0E0],"parents":[2147483647,0,0,1,1,2,2,3,3,4,4,5,5,6,6,7,7,8,8,9,9,10,10,11,11,12,12,13,13,14,14,15,15,16,16,17,17,18,18,19,19,20,20,21,21,22,22,23,23,24,24,25,25,26,26,27,27,28,28,29,29,31,31,32,32,34,34,35,35,37,37,38,38,39,39,40,40,41,41,42,42,43,43,44,44,45,45,47,47,48,48,49,49,50,50,52,52,53,53,54,54,55,55,56,56,57,57,58,58,59,59,60,60],"right_children":[2,4,6,8,10,12,14,16,18,20,22,24,26,28,30,32,34,36,38,40,42,44,46,48,50,52,54,56,58,60,-1,62,64,-1,66,68,-1,70,72,74,76,78,80,82,84,86,-1,88,90,92,94,-1,96,98,100,102,104,106,108,110,112,-1,-1,-1,-1,-1,-1,-1,-1,-1,-1,-1,-1,-1,-1,-1,-1,-1,-1,-1,-1,-1,-1,-1,-1,-1,-1,-1,-1,-1,-1,-1,-1,-1,-1,-1,-1,-1,-1,-1,-1,-1,-1,-1,-1,-1,-1,-1,-1,-1,-1,-1,-1],"split_conditions":[1E0,-1.5956013E-1,9.714424E-1,4.4897552E1,3.8886082E-1,1.590545E2,5.9588706E-1,7.972347E-1,-3.3371028E-1,1.1787096E1,9.67953E-1,5.7756725E1,4.028563E-1,1.540164E2,6.870525E-1,-3.220772E-1,1.5381733E0,8.869852E-1,5.2E1,4E1,4.8454976E-1,1E0,6.972611E-1,-2.544301E-1,7.4937165E-1,8.047291E-1,6.89838E-2,3.9071178E-1,5.1344883E-1,1.9777466E2,-5.932532E-2,3.0193287E-1,2.0435932E1,-6.519338E-2,-4.1811383E-1,1.0995181E2,-6.165138E-2,9.043754E1,1.012159E1,9.849997E-2,2.7770436E-1,1.1943874E2,3.0754356E1,-8.435387E-2,1.4458127E2,1E0,-6.5867364E-2,4.8043835E1,9.2162144E-1,8.3035344E-1,1.6660295E0,-2.8196722E-2,5.545292E-1,3.4991908E-1,3.9898843E-1,4.4452903E-1,1.26267944E2,9.0693325E-2,1.7200697E2,-1.2671481E-1,6.220205E-1,-3.650386E-2,1.686747E-2,-5.5198826E-2,-4.2217486E-2,-8E-3,-6.0975213E-2,-3.7190083E-2,-5.8064517E-2,-3.1197099E-2,-5.7851236E-2,-9.934396E-3,-5.2788105E-2,-4.8067052E-2,-3.0244654E-2,4.5873546E-3,-3.0061547E-2,-5.0566968E-2,-6.110208E-2,-1.4652711E-2,-5.106151E-2,-4.6065535E-2,-6.021185E-2,-5.0785627E-2,-3.3066362E-2,-6.330406E-2,-5.0789792E-2,-5.1612902E-2,-7.792208E-3,1.6443595E-2,-3.1724136E-2,-7.7220076E-4,7.341307E-2,3.33534E-2,-3.9863717E-2,-5.235602E-3,6.309279E-2,7.039106E-2,-1.3559322E-2,6.582507E-2,1.257981E-1,1.570248E-2,-3.3266533E-2,-5.7386737E-2,-1.7931035E-2,-2.1276597E-2,2.857143E-2,2.576687E-2,8.44843E-2,1.818182E-2,-5.182609E-2,-4.1860465E-2,6.976744E-2],"split_indices":[7,3,2,4,5,4,5,2,3,1,3,4,3,4,5,8,1,2,0,0,2,6,5,3,3,2,8,8,1,4,0,5,4,0,8,4,0,4,1,3,5,4,1,8,4,6,0,4,2,2,8,0,1,5,1,5,4,8,4,8,1,0,0,0,0,0,0,0,0,0,0,0,0,0,0,0,0,0,0,0,0,0,0,0,0,0,0,0,0,0,0,0,0,0,0,0,0,0,0,0,0,0,0,0,0,0,0,0,0,0,0,0,0],"split_type":[0,0,0,0,0,0,0,0,0,0,0,0,0,0,0,0,0,0,0,0,0,0,0,0,0,0,0,0,0,0,0,0,0,0,0,0,0,0,0,0,0,0,0,0,0,0,0,0,0,0,0,0,0,0,0,0,0,0,0,0,0,0,0,0,0,0,0,0,0,0,0,0,0,0,0,0,0,0,0,0,0,0,0,0,0,0,0,0,0,0,0,0,0,0,0,0,0,0,0,0,0,0,0,0,0,0,0,0,0,0,0,0,0],"sum_hessian":[3.8605125E4,3.5890875E4,2.71425E3,8.951625E3,2.693925E4,1.526625E3,1.187625E3,8.073E3,8.78625E2,1.7049375E4,9.889875E3,8.63625E2,6.63E2,7.71375E2,4.1625E2,5.96625E2,7.476375E3,4.9125E2,3.87375E2,1.3539375E4,3.51E3,5.468625E3,4.42125E3,2.50125E2,6.135E2,1.19625E2,5.43375E2,4.68375E2,3.03E2,9.4875E1,3.21375E2,5.7E1,5.39625E2,5.949375E3,1.527E3,2.1975E2,2.715E2,2.22375E2,1.65E2,5.605875E3,7.9335E3,2.79E3,7.2E2,3.459E3,2.009625E3,1.086E3,3.33525E3,8.5125E1,1.65E2,3.345E2,2.79E2,3.7125E1,8.25E1,1.17E2,4.26375E2,2.4375E2,2.24625E2,1.24875E2,1.78125E2,7.5375E1,1.95E1,4.7625E1,9.375E0,4.23375E2,1.1625E2,5.25E0,1.52175E3,1.2E2,9.975E1,1.02375E2,1.2E2,1.32375E2,3.2625E1,4.309125E3,1.29675E3,5.192625E3,2.740875E3,4.06875E2,2.383125E3,2.6175E2,4.5825E2,5.21625E2,2.937375E3,1.136625E3,8.73E2,8.8125E2,2.0475E2,7.65E1,8.625E0,1.2975E2,3.525E1,6.375E1,2.7075E2,2.06625E2,7.2375E1,2.2875E1,5.9625E1,8.85E1,2.85E1,1.37625E2,2.8875E2,1.2E2,1.2375E2,1.89375E2,3.525E1,4.0125E1,8.475E1,3.975E1,1.38375E2,4.5E0,7.0875E1,9.75E0,9.75E0],"tree_param":{"num_deleted":"0","num_feature":"9","num_nodes":"113","size_leaf_vector":"1"}},{"base_weights":[3.081788E-1,1.5186523E0,-3.807871E-1,1.5891057E0,3.3123028E-2,5.3845805E-1,-4.9688187E-1,1.7500193E0,1.1625556E0,4.4937736E-1,-2.0476338E-1,-1.4661391E-1,9.7583824E-1,-5.676718E-1,-5.8593266E-2,1.8119729E0,1.2901409E0,1.3350232E0,7.305532E-1,6.14841E-1,-9.090909E-2,-3.643858E-1,2.7239263E-1,2.737446E-1,-4.326754E-1,1.364495E0,3.5723898E-1,-5.090093E-1,-6.30932E-1,6.8044126E-1,-2.8589895E-1,1.8303027E0,1.4754833E0,1.5958493E0,1.087518E0,1.4133636E0,9.069696E-1,5.026503E-1,1.1576049E0,1.7917676E-1,7.8811884E-1,-4.329897E-2,1.7322835E-1,-4.4247788E-1,-1.341853E-1,-8.695652E-2,4.0809444E-1,4.1971505E-1,-1.5178572E-1,-5.179816E-1,-2.3146944E-1,1.03311256E-1,1.489815E0,-1.1241218E-1,1.2504183E0,-3.621829E-1,-5.653331E-1,-6.3890976E-1,-5.380076E-1,1.24779694E-1,1.2255378E0,2.640737E-1,-4.3229237E-1,1.6410862E-1,1.8521714E-1,1.1765981E-1,1.5749812E-1,7.6510064E-2,1.6273786E-1,1.2795031E-1,7.5024486E-2,1.5221755E-1,1.15813255E-1,1.3529412E-1,5.257208E-2,7.5279E-2,2.0777162E-2,1.4156432E-1,8.5881494E-2,3.554007E-2,-2.0895524E-2,9.5548965E-2,4.418605E-2,4.7272727E-2,-5.263158E-3,3.636364E-2,-4.6049662E-2,-4.8447203E-2,-1.268499E-3,2.5210086E-2,-4.2016808E-2,7.188612E-2,1.25E-2,7.050998E-2,2.6658837E-2,-2.6415095E-2,2.139535E-2,-4.04908E-2,-5.805325E-2,-5.043478E-2,-1.8237082E-2,4.158416E-2,-2.506964E-2,1.545354E-1,4.878049E-3,-2.5030574E-2,2.3686921E-2,5.3471196E-2,1.672598E-1,-4.5234885E-2,3.749471E-2,-2.693488E-2,-5.815003E-2,-4.1474655E-2,-6.403052E-2,-5.8204222E-2,4.3583536E-3,3.9053258E-2,-3.7728194E-2,9.381018E-2,1.5097493E-1,6.528611E-2,-7.976934E-3,-6.1495066E-2,-3.1681847E-2],"categories":[],"categories_nodes":[],"categories_segments":[],"categories_sizes":[],"default_left":[0,0,0,0,0,0,0,0,0,0,0,0,0,0,0,0,0,0,0,0,0,0,0,0,0,0,0,0,0,0,0,0,0,0,0,0,0,0,0,0,0,0,0,0,0,0,0,0,0,0,0,0,0,0,0,0,0,0,0,0,0,0,0,0,0,0,0,0,0,0,0,0,0,0,0,0,0,0,0,0,0,0,0,0,0,0,0,0,0,0,0,0,0,0,0,0,0,0,0,0,0,0,0,0,0,0,0,0,0,0,0,0,0,0,0,0,0,0,0,0,0,0,0,0,0],"id":3,"left_children":[1,3,5,7,9,11,13,15,17,19,21,23,25,27,29,31,33,35,37,39,41,43,45,47,49,51,53,55,57,59,61,63,65,67,69,71,73,75,77,79,81,-1,83,85,87,89,91,93,95,97,99,101,103,105,107,109,111,113,115,117,119,121,123,-1,-1,-1,-1,-1,-1,-1,-1,-1,-1,-1,-1,-1,-1,-1,-1,-1,-1,-1,-1,-1,-1,-1,-1,-1,-1,-1,-1,-1,-1,-1,-1,-1,-1,-1,-1,-1,-1,-1,-1,-1,-1,-1,-1,-1,-1,-1,-1,-1,-1,-1,-1,-1,-1,-1,-1,-1,-1,-1,-1,-1,-1],"loss_changes":[3.2142078E4,1.4630547E3,2.6214734E3,9.1403906E2,6.2871494E1,8.2553033E2,6.765908E2,2.7370703E2,2.716255E2,2.0695595E1,3.0879358E1,1.2929527E2,4.0375342E2,6.935498E1,5.098033E2,4.9945312E1,6.973193E1,8.636328E1,1.0123364E2,1.321125E1,5.0446024E0,5.3921013E0,5.0033526E0,2.7122486E1,1.0858711E1,1.6299475E2,2.7285678E2,8.040039E1,6.350342E0,2.1607208E2,1.8696327E2,3.0439453E1,1.141394E1,1.0744629E1,4.4171753E1,5.9543945E1,6.851065E1,5.0286804E1,2.6790527E1,3.605317E0,6.8944397E0,0E0,2.172603E0,3.450142E0,3.324171E0,3.3540375E0,6.431389E0,1.3998142E1,4.6593094E0,2.9362335E0,2.483778E0,1.0545722E1,7.506641E1,2.0625174E1,6.682648E1,1.7996307E2,3.354419E1,2.3337402E0,1.8471054E1,4.7462936E1,2.8013428E1,6.535565E1,3.8472595E1,0E0,0E0,0E0,0E0,0E0,0E0,0E0,0E0,0E0,0E0,0E0,0E0,0E0,0E0,0E0,0E0,0E0,0E0,0E0,0E0,0E0,0E0,0E0,0E0,0E0,0E0,0E0,0E0,0E0,0E0,0E0,0E0,0E0,0E0,0E0,0E0,0E0,0E0,0E0,0E0,0E0,0E0,0E0,0E0,0E0,0E0,0E0,0E0,0E0,0E0,0E0,0E0,0E0,0E0,0E0,0E0,0E0,0E0,0E0,0E0,0E0,0E0],"parents":[2147483647,0,0,1,1,2,2,3,3,4,4,5,5,6,6,7,7,8,8,9,9,10,10,11,11,12,12,13,13,14,14,15,15,16,16,17,17,18,18,19,19,20,20,21,21,22,22,23,23,24,24,25,25,26,26,27,27,28,28,29,29,30,30,31,31,32,32,33,33,34,34,35,35,36,36,37,37,38,38,39,39,40,40,42,42,43,43,44,44,45,45,46,46,47,47,48,48,49,49,50,50,51,51,52,52,53,53,54,54,55,55,56,56,57,57,58,58,59,59,60,60,61,61,62,62],"right_children":[2,4,6,8,10,12,14,16,18,20,22,24,26,28,30,32,34,36,38,40,42,44,46,48,50,52,54,56,58,60,62,64,66,68,70,72,74,76,78,80,82,-1,84,86,88,90,92,94,96,98,100,102,104,106,108,110,112,114,116,118,120,122,124,-1,-1,-1,-1,-1,-1,-1,-1,-1,-1,-1,-1,-1,-1,-1,-1,-1,-1,-1,-1,-1,-1,-1,-1,-1,-1,-1,-1,-1,-1,-1,-1,-1,-1,-1,-1,-1,-1,-1,-1,-1,-1,-1,-1,-1,-1,-1,-1,-1,-1,-1,-1,-1,-1,-1,-1,-1,-1,-1,-1,-1,-1],"split_conditions":[7.739859E-2,9.426183E0,7.982615E1,-7.463722E-2,2.4802217E1,2.2036678E-1,2.286056E0,4.4897552E1,2.0863678E0,5.7756725E1,1.68E2,1.8585667E-1,5.7756725E1,4.2652717E-1,1.590545E2,3.8602054E0,-3.1731248E-1,3.4E1,8.170738E-1,7.7E1,1.950358E-1,9.9E1,2.1383631E-1,3.4988575E0,1.9772855E0,5.431214E-1,6.299252E-1,1.4184656E2,1E0,9.167149E-1,1.7232002E-1,8.201648E-1,8.3388025E-1,3.4516668E-1,4.7E1,3.3334743E-2,4.8043835E1,2.7815266E-2,7.346268E-3,6.4E1,1.7154982E1,-4.329897E-2,-2.1094172E-1,1.9E1,1.950358E-1,5.1085194E1,4.4815132E1,9.849997E-2,7.742781E-1,4.447919E-1,5.0576055E-1,3.7318656E0,2.1357157E1,9.0693325E-2,9.250496E-1,8.684861E-1,3.1332088E-1,7.63921E-1,8.684861E-1,2.9385366E0,9.6055806E-1,1.6954949E0,1E0,1.6410862E-1,1.8521714E-1,1.1765981E-1,1.5749812E-1,7.6510064E-2,1.6273786E-1,1.2795031E-1,7.5024486E-2,1.5221755E-1,1.15813255E-1,1.3529412E-1,5.257208E-2,7.5279E-2,2.0777162E-2,1.4156432E-1,8.5881494E-2,3.554007E-2,-2.0895524E-2,9.5548965E-2,4.418605E-2,4.7272727E-2,-5.263158E-3,3.636364E-2,-4.6049662E-2,-4.8447203E-2,-1.268499E-3,2.5210086E-2,-4.2016808E-2,7.188612E-2,1.25E-2,7.050998E-2,2.6658837E-2,-2.6415095E-2,2.139535E-2,-4.04908E-2,-5.805325E-2,-5.043478E-2,-1.8237082E-2,4.158416E-2,-2.506964E-2,1.545354E-1,4.878049E-3,-2.5030574E-2,2.3686921E-2,5.3471196E-2,1.672598E-1,-4.5234885E-2,3.749471E-2,-2.693488E-2,-5.815003E-2,-4.1474655E-2,-6.403052E-2,-5.8204222E-2,4.3583536E-3,3.9053258E-2,-3.7728194E-2,9.381018E-2,1.5097493E-1,6.528611E-2,-7.976934E-3,-6.1495066E-2,-3.1681847E-2],"split_indices":[3,1,4,3,1,4,8,4,1,4,0,3,4,5,4,1,3,0,2,0,2,0,2,1,8,2,8,4,7,2,3,2,2,2,0,3,4,3,3,0,1,0,3,0,2,4,1,3,2,3,1,1,1,8,2,8,3,3,8,1,2,1,6,0,0,0,0,0,0,0,0,0,0,0,0,0,0,0,0,0,0,0,0,0,0,0,0,0,0,0,0,0,0,0,0,0,0,0,0,0,0,0,0,0,0,0,0,0,0,0,0,0,0,0,0,0,0,0,0,0,0,0,0,0,0],"split_type":[0,0,0,0,0,0,0,0,0,0,0,0,0,0,0,0,0,0,0,0,0,0,0,0,0,0,0,0,0,0,0,0,0,0,0,0,0,0,0,0,0,0,0,0,0,0,0,0,0,0,0,0,0,0,0,0,0,0,0,0,0,0,0,0,0,0,0,0,0,0,0,0,0,0,0,0,0,0,0,0,0,0,0,0,0,0,0,0,0,0,0,0,0,0,0,0,0,0,0,0,0,0,0,0,0,0,0,0,0,0,0,0,0,0,0,0,0,0,0,0,0,0,0,0,0],"sum_hessian":[3.8539125E4,1.39785E4,2.4560625E4,1.33455E4,6.33E2,2.753625E3,2.1807E4,9.68775E3,3.65775E3,2.29875E2,4.03125E2,1.07325E3,1.680375E3,1.8774375E4,3.032625E3,8.535E3,1.15275E3,2.612625E3,1.045125E3,1.75875E2,5.4E1,3.0225E2,1.00875E2,4.34625E2,6.38625E2,1.03125E3,6.49125E2,9.745875E3,9.0285E3,7.12875E2,2.31975E3,8.089875E3,4.45125E2,4.5675E2,6.96E2,2.2065E3,4.06125E2,6.82875E2,3.6225E2,5.0625E1,1.2525E2,2.325E1,3.075E1,2.25E2,7.725E1,2.775E1,7.3125E1,3.23625E2,1.11E2,4.47375E2,1.9125E2,9.3375E1,9.37875E2,4.26E2,2.23125E2,2.704125E3,7.04175E3,8.30925E3,7.1925E2,3.53625E2,3.5925E2,4.875E2,1.83225E3,8.46E2,7.243875E3,1.14375E2,3.3075E2,1.7625E1,4.39125E2,4.4175E2,2.5425E2,1.5435E3,6.63E2,1.86E2,2.20125E2,3.68625E2,3.1425E2,1.92375E2,1.69875E2,3.4875E1,1.575E1,8.325E1,4.2E1,1.275E1,1.8E1,4.5E0,2.205E2,1.9125E1,5.8125E1,1.3875E1,1.3875E1,3.4125E1,3.9E1,1.1175E2,2.11875E2,8.5125E1,2.5875E1,1.62E2,2.85375E2,2.775E1,1.635E2,4.95E1,4.3875E1,9.03E2,3.4875E1,3.05625E2,1.20375E2,8.3625E1,1.395E2,2.40975E3,2.94375E2,3.65625E2,6.676125E3,5.325E1,8.256E3,6.68625E2,5.0625E1,2.31375E2,1.2225E2,1.8075E2,1.785E2,2.28375E2,2.59125E2,7.08E2,1.12425E3],"tree_param":{"num_deleted":"0","num_feature":"9","num_nodes":"125","size_leaf_vector":"1"}},{"base_weights":[-1.5236063E-1,1.0697474E0,-4.303329E-1,4.5746705E-1,1.4115149E0,-5.124673E-1,1.4896598E-1,-2.3696756E-1,7.2596544E-1,1.0170337E0,1.4711194E0,-2.9199284E-1,-5.5388176E-1,-4.717164E-2,7.089436E-1,-3.4203753E-1,1.480297E-1,1.188337E0,4.066513E-1,7.206871E-1,1.1868092E0,1.5374848E0,1.3002107E0,-4.5804366E-1,-1.4730003E-1,-5.052603E-1,-6.080113E-1,3.9274895E-1,-2.929694E-1,1.1922618E0,3.3421698E-1,-4.5138595E-1,-1.259197E-1,-2.6181895E-2,3.3541733E-1,6.918303E-1,1.3724716E0,5.2258647E-3,5.447841E-1,9.9158275E-1,3.9751408E-1,1.3627924E0,8.579935E-1,1.0671982E0,1.5443726E0,1.0295453E0,1.3680856E0,-4.8387983E-1,-2.364693E-1,-1.5869718E-2,-4.077879E-1,-5.16169E-1,-3.691736E-1,-5.8726645E-1,-6.327067E-2,-2.1145927E-2,5.5016047E-1,-1.1222634E-1,-4.576602E-1,1.4447554E0,9.878516E-1,4.8324803E-1,-3.0172327E-1,-4.833738E-2,-2.5143934E-2,-2.002315E-2,8.282354E-2,-1.8855497E-2,6.530688E-2,-4.046701E-3,3.924374E-2,1.1116809E-2,8.4068105E-2,1.3918695E-1,-5.511492E-2,-1.6064553E-2,3.5261925E-2,3.9908722E-2,9.2430614E-2,5.256786E-2,1.2031718E-1,7.467618E-2,1.8668355E-3,2.8290842E-2,1.3928412E-1,1.1615854E-1,6.3770354E-2,1.2419529E-1,2.604394E-2,1.5462264E-1,3.3182945E-2,3.374319E-2,1.0655937E-1,5.1960815E-2,1.3807124E-1,-5.1330663E-2,-3.7943535E-2,-3.5386752E-2,-6.987794E-4,-1.3946096E-2,2.5638862E-2,9.3114525E-3,-4.2021345E-2,-5.36783E-2,-4.811495E-2,-4.650631E-2,-2.1040428E-2,-2.2042995E-2,-5.8912523E-2,-2.133814E-2,7.764085E-2,6.5873854E-2,1.0455071E-2,-2.099928E-2,6.298375E-2,-3.6290504E-2,-5.7570845E-2,1.1827635E-1,1.5061705E-1,1.2361168E-1,8.622597E-2,6.066206E-2,2.6219849E-2,-1.1565675E-2,-4.9407046E-2],"categories":[],"categories_nodes":[],"categories_segments":[],"categories_sizes":[],"default_left":[0,0,0,0,0,0,0,0,0,0,0,0,0,0,0,0,0,0,0,0,0,0,0,0,0,0,0,0,0,0,0,0,0,0,0,0,0,0,0,0,0,0,0,0,0,0,0,0,0,0,0,0,0,0,0,0,0,0,0,0,0,0,0,0,0,0,0,0,0,0,0,0,0,0,0,0,0,0,0,0,0,0,0,0,0,0,0,0,0,0,0,0,0,0,0,0,0,0,0,0,0,0,0,0,0,0,0,0,0,0,0,0,0,0,0,0,0,0,0,0,0,0,0,0,0],"id":4,"left_children":[1,3,5,7,9,11,13,15,17,19,21,23,25,27,29,31,33,35,37,39,41,43,45,47,49,51,53,55,57,59,61,63,65,67,69,71,73,75,77,79,81,83,85,87,89,91,93,95,97,99,101,103,105,107,-1,109,111,113,115,117,119,121,123,-1,-1,-1,-1,-1,-1,-1,-1,-1,-1,-1,-1,-1,-1,-1,-1,-1,-1,-1,-1,-1,-1,-1,-1,-1,-1,-1,-1,-1,-1,-1,-1,-1,-1,-1,-1,-1,-1,-1,-1,-1,-1,-1,-1,-1,-1,-1,-1,-1,-1,-1,-1,-1,-1,-1,-1,-1,-1,-1,-1,-1,-1],"loss_changes":[1.2905467E4,1.4724575E3,1.4726611E3,4.7065088E2,1.0471973E2,2.4734277E2,4.222261E2,2.8542053E1,2.6821857E2,2.9141052E1,4.248828E1,1.029733E2,5.9749023E1,3.080486E2,1.8020529E2,1.3026543E1,4.961246E0,6.6971436E1,5.977423E1,1.883979E1,2.0675293E1,7.4853516E0,1.886438E1,1.1314606E1,7.8502975E1,1.7663574E1,5.157715E0,6.65459E1,5.434883E1,2.1029602E1,5.351229E1,2.2272491E0,1.345282E1,8.89628E0,1.58395E0,1.7452225E1,2.0951172E1,1.6018028E1,4.3979904E1,1.1083588E1,1.3462313E1,7.5299683E0,8.241325E0,5.8709908E0,5.7285156E0,5.2612305E0,8.701782E0,5.2975464E0,5.666917E0,5.135689E1,4.825264E0,7.777832E0,1.3543777E1,3.8791504E0,0E0,4.3453304E1,3.5729126E1,6.3441177E1,1.0483627E1,1.3158875E0,6.529953E0,1.2292175E1,3.7909565E0,0E0,0E0,0E0,0E0,0E0,0E0,0E0,0E0,0E0,0E0,0E0,0E0,0E0,0E0,0E0,0E0,0E0,0E0,0E0,0E0,0E0,0E0,0E0,0E0,0E0,0E0,0E0,0E0,0E0,0E0,0E0,0E0,0E0,0E0,0E0,0E0,0E0,0E0,0E0,0E0,0E0,0E0,0E0,0E0,0E0,0E0,0E0,0E0,0E0,0E0,0E0,0E0,0E0,0E0,0E0,0E0,0E0,0E0,0E0,0E0,0E0,0E0],"parents":[2147483647,0,0,1,1,2,2,3,3,4,4,5,5,6,6,7,7,8,8,9,9,10,10,11,11,12,12,13,13,14,14,15,15,16,16,17,17,18,18,19,19,20,20,21,21,22,22,23,23,24,24,25,25,26,26,27,27,28,28,29,29,30,30,31,31,32,32,33,33,34,34,35,35,36,36,37,37,38,38,39,39,40,40,41,41,42,42,43,43,44,44,45,45,46,46,47,47,48,48,49,49,50,50,51,51,52,52,53,53,55,55,56,56,57,57,58,58,59,59,60,60,61,61,62,62],"right_children":[2,4,6,8,10,12,14,16,18,20,22,24,26,28,30,32,34,36,38,40,42,44,46,48,50,52,54,56,58,60,62,64,66,68,70,72,74,76,78,80,82,84,86,88,90,92,94,96,98,100,102,104,106,108,-1,110,112,114,116,118,120,122,124,-1,-1,-1,-1,-1,-1,-1,-1,-1,-1,-1,-1,-1,-1,-1,-1,-1,-1,-1,-1,-1,-1,-1,-1,-1,-1,-1,-1,-1,-1,-1,-1,-1,-1,-1,-1,-1,-1,-1,-1,-1,-1,-1,-1,-1,-1,-1,-1,-1,-1,-1,-1,-1,-1,-1,-1,-1,-1,-1,-1,-1,-1],"split_conditions":[5.431214E-1,4.8952394E0,3.6157E0,6.599018E-2,9.598032E1,8.410298E-1,3.300994E1,2.6405828E0,1.2889029E-1,1.5889855E1,1.1558835E-1,3.8316373E-2,8.400459E-1,8.5480535E-1,2.21E2,6.0976395E1,4.4897552E1,2.11E2,1.1699121E2,2.1383631E-1,1.7860228E-1,5.446958E-2,8.294004E0,2.5732548E0,1.6581571E-1,2.2279673E0,9.6343845E-1,1.8844224E-3,7.2684646E-1,1.2439294E-1,9.6140933E-1,3.3334743E-2,2.36E2,3.3334743E-2,2.9385366E0,1.07669464E2,9.73423E-1,2.3340335E0,2.7108083E0,3.3334743E-2,2.2036678E-1,6.488702E-2,2.2445688E-2,2.3738368E2,9.661962E-1,3.3334743E-2,-2.3968734E-1,-9.325807E-3,-2.8336316E-2,1.8199878E0,-4.3948385E-1,2.8372074E1,1.7706228E-2,1.872603E0,-6.327067E-2,1.1787096E1,2.087586E-1,1.5889855E1,9.515982E-1,2.0240617E-1,-3.8558885E-1,9.242869E-1,9.719428E-1,-4.833738E-2,-2.5143934E-2,-2.002315E-2,8.282354E-2,-1.8855497E-2,6.530688E-2,-4.046701E-3,3.924374E-2,1.1116809E-2,8.4068105E-2,1.3918695E-1,-5.511492E-2,-1.6064553E-2,3.5261925E-2,3.9908722E-2,9.2430614E-2,5.256786E-2,1.2031718E-1,7.467618E-2,1.8668355E-3,2.8290842E-2,1.3928412E-1,1.1615854E-1,6.3770354E-2,1.2419529E-1,2.604394E-2,1.5462264E-1,3.3182945E-2,3.374319E-2,1.0655937E-1,5.1960815E-2,1.3807124E-1,-5.1330663E-2,-3.7943535E-2,-3.5386752E-2,-6.987794E-4,-1.3946096E-2,2.5638862E-2,9.3114525E-3,-4.2021345E-2,-5.36783E-2,-4.811495E-2,-4.650631E-2,-2.1040428E-2,-2.2042995E-2,-5.8912523E-2,-2.133814E-2,7.764085E-2,6.5873854E-2,1.0455071E-2,-2.099928E-2,6.298375E-2,-3.6290504E-2,-5.7570845E-2,1.1827635E-1,1.5061705E-1,1.2361168E-1,8.622597E-2,6.066206E-2,2.6219849E-2,-1.1565675E-2,-4.9407046E-2],"split_indices":[2,1,1,3,4,2,1,1,2,1,2,3,3,2,0,4,4,0,4,2,5,3,1,1,5,1,3,3,3,5,3,3,0,3,1,4,3,1,1,3,4,5,2,4,3,3,3,3,3,1,8,4,3,4,0,1,5,1,3,8,3,3,3,0,0,0,0,0,0,0,0,0,0,0,0,0,0,0,0,0,0,0,0,0,0,0,0,0,0,0,0,0,0,0,0,0,0,0,0,0,0,0,0,0,0,0,0,0,0,0,0,0,0,0,0,0,0,0,0,0,0,0,0,0,0],"split_type":[0,0,0,0,0,0,0,0,0,0,0,0,0,0,0,0,0,0,0,0,0,0,0,0,0,0,0,0,0,0,0,0,0,0,0,0,0,0,0,0,0,0,0,0,0,0,0,0,0,0,0,0,0,0,0,0,0,0,0,0,0,0,0,0,0,0,0,0,0,0,0,0,0,0,0,0,0,0,0,0,0,0,0,0,0,0,0,0,0,0,0,0,0,0,0,0,0,0,0,0,0,0,0,0,0,0,0,0,0,0,0,0,0,0,0,0,0,0,0,0,0,0,0,0,0],"sum_hessian":[3.7987062E4,7.0386616E3,3.0948402E4,2.5222896E3,4.516372E3,2.710544E4,3.8429624E3,7.0333264E2,1.8189569E3,5.952028E2,3.9211694E3,4.2876523E3,2.2817787E4,2.8467693E3,9.9619305E2,5.526264E2,1.507062E2,7.419217E2,1.0770353E3,2.1870087E2,3.7650198E2,2.8186624E3,1.102507E3,1.9954681E3,2.2921838E3,1.2025932E4,1.0791855E4,1.02021857E3,1.8265507E3,4.341061E2,5.620869E2,3.6623508E2,1.8639133E2,7.8544655E1,7.216156E1,2.0199974E2,5.39922E2,2.759985E2,8.0103674E2,1.1784801E2,1.0085285E2,2.4319734E2,1.3330464E2,4.293695E1,2.7757256E3,2.2428656E2,8.7822034E2,1.7860287E3,2.0943947E2,1.5242019E3,7.67982E2,1.113089E4,8.950425E2,5.8785127E3,4.9133423E3,2.813384E2,7.388802E2,8.7163715E2,9.549135E2,1.9149622E2,2.4260988E2,4.555662E2,1.0652072E2,3.1450275E2,5.1732323E1,1.736567E2,1.2734639E1,6.3974197E1,1.4570456E1,9.54301E0,6.2618553E1,4.1572712E1,1.6042702E2,5.348054E2,5.1165633E0,1.8716812E2,8.8830376E1,5.8030975E2,2.2072696E2,3.789355E1,7.995446E1,5.1971012E1,4.888184E1,6.865938E0,2.363314E2,5.4257233E1,7.90474E1,3.48488E1,8.088152E0,2.7712134E3,4.5120096E0,1.1616462E1,2.126701E2,1.349575E1,8.647246E2,1.3903804E3,3.956484E2,1.3819804E2,7.1241425E1,1.0486545E3,4.755474E2,1.8432531E1,7.495495E2,6.997515E3,4.133374E3,5.568194E2,3.3822308E2,3.0239145E1,5.848274E3,2.2728749E2,5.405092E1,5.93732E2,1.4514813E2,7.708015E2,1.00835625E2,5.319784E2,4.2293515E2,4.021231E1,1.512839E2,7.853086E1,1.6407901E2,2.9126218E2,1.6430402E2,5.495827E1,5.156245E1],"tree_param":{"num_deleted":"0","num_feature":"9","num_nodes":"125","size_leaf_vector":"1"}},{"base_weights":[2.3165612E-1,-3.5903132E-1,1.2205346E0,-5.773672E-1,-1.1745868E-1,-3.6820534E-1,1.3128021E0,-6.192098E-1,-4.354425E-1,-4.39061E-1,1.4228895E-1,-4.4678864E-1,6.9650626E-1,9.6818614E-1,1.4994487E0,-6.3260293E-1,-5.0235033E-1,-3.4304932E-1,-4.6977726E-1,-2.7123764E-1,-5.1468307E-1,-2.0778948E-1,3.0716172E-1,-5.1799524E-1,4.4026308E-2,1.1301122E0,-1.3276431E-1,1.0903913E0,2.1902883E-1,2.0588954E-1,1.5117981E0,-5.980951E-1,-6.3989066E-2,-5.7822406E-2,-4.36763E-1,-3.5113436E-1,1.8893872E-1,-5.0350344E-1,-4.0496823E-1,-4.059548E-1,-1.7177226E-1,-5.389634E-1,-3.795744E-1,8.922385E-2,-3.982053E-1,3.352985E-2,8.355423E-1,-5.579021E-1,-3.1813937E-1,3.7011015E-1,-2.3435107E-1,3.4402706E-2,1.3543E-1,-5.9972294E-2,4.1593697E-2,6.2358003E-2,1.1885464E0,6.1285067E-1,-2.704237E-1,7.076276E-1,-3.0706218E-1,1.5460806E0,1.1310496E0,-6.023046E-2,-3.529046E-2,-3.3942398E-2,-5.1184773E-2,-3.2215934E-2,-5.185306E-2,-2.1364687E-2,7.751108E-2,-4.7131393E-2,-5.3936042E-2,-3.320492E-2,-4.419337E-2,-3.31397E-2,-5.8648564E-2,-2.3571862E-2,1.8068574E-2,-5.8166184E-2,-4.4771504E-2,-5.4476626E-2,-2.2045735E-2,5.4973155E-2,-2.2972939E-3,-5.1093686E-2,-1.0046182E-2,2.5126899E-2,-8.114062E-3,2.4027207E-3,9.1790184E-2,5.2410355E-3,-5.7251282E-2,9.8017445E-3,-4.3947175E-2,-3.2616206E-3,5.892564E-2,7.972925E-3,-4.300292E-2,2.766524E-2,-4.2083506E-2,1.357643E-1,9.3372375E-2,1.9865055E-2,1.00131944E-1,-3.9244723E-2,-5.824449E-3,2.4598876E-2,1.2434317E-1,7.96898E-2,-4.6663895E-2,1.56431E-1,9.219077E-2,5.4611858E-2,1.4691316E-1],"categories":[],"categories_nodes":[],"categories_segments":[],"categories_sizes":[],"default_left":[0,0,0,0,0,0,0,0,0,0,0,0,0,0,0,0,0,0,0,0,0,0,0,0,0,0,0,0,0,0,0,0,0,0,0,0,0,0,0,0,0,0,0,0,0,0,0,0,0,0,0,0,0,0,0,0,0,0,0,0,0,0,0,0,0,0,0,0,0,0,0,0,0,0,0,0,0,0,0,0,0,0,0,0,0,0,0,0,0,0,0,0,0,0,0,0,0,0,0,0,0,0,0,0,0,0,0,0,0,0,0,0,0,0,0],"id":5,"left_children":[1,3,5,7,9,11,13,15,17,19,21,23,25,27,29,31,33,35,37,39,41,43,45,47,49,51,53,55,57,59,61,63,-1,-1,65,67,69,71,73,75,77,79,81,83,85,87,89,91,93,95,97,-1,-1,-1,-1,99,101,103,105,107,109,111,113,-1,-1,-1,-1,-1,-1,-1,-1,-1,-1,-1,-1,-1,-1,-1,-1,-1,-1,-1,-1,-1,-1,-1,-1,-1,-1,-1,-1,-1,-1,-1,-1,-1,-1,-1,-1,-1,-1,-1,-1,-1,-1,-1,-1,-1,-1,-1,-1,-1,-1,-1,-1],"loss_changes":[2.2867145E4,1.2926228E3,2.1464902E3,7.617871E1,9.721223E2,6.760776E1,8.885176E2,1.523877E1,9.14801E0,6.584723E1,3.7165814E2,2.6222443E1,2.016954E1,4.450537E2,1.4303516E2,1.8588867E0,4.8576965E0,3.5019608E0,4.4665833E0,2.160064E1,1.1550049E1,1.1664728E2,6.3283203E2,5.0445557E0,8.791999E0,5.995472E0,5.376638E0,4.218662E2,1.3189421E2,2.235485E1,1.14271484E2,1.4074097E0,0E0,0E0,3.8816605E0,3.6509247E0,3.1408792E0,1.3631897E0,1.8384094E0,9.041336E0,2.1049967E1,1.1564392E1,1.43162155E1,4.1671967E1,4.2125977E1,7.204895E1,9.978882E1,4.884842E0,5.6632433E0,3.951315E0,3.2514431E0,0E0,0E0,0E0,0E0,3.7962452E1,1.6320508E2,6.078305E1,7.8840694E0,1.0524416E1,7.987502E0,9.130469E1,1.451264E2,0E0,0E0,0E0,0E0,0E0,0E0,0E0,0E0,0E0,0E0,0E0,0E0,0E0,0E0,0E0,0E0,0E0,0E0,0E0,0E0,0E0,0E0,0E0,0E0,0E0,0E0,0E0,0E0,0E0,0E0,0E0,0E0,0E0,0E0,0E0,0E0,0E0,0E0,0E0,0E0,0E0,0E0,0E0,0E0,0E0,0E0,0E0,0E0,0E0,0E0,0E0,0E0],"parents":[2147483647,0,0,1,1,2,2,3,3,4,4,5,5,6,6,7,7,8,8,9,9,10,10,11,11,12,12,13,13,14,14,15,15,16,16,17,17,18,18,19,19,20,20,21,21,22,22,23,23,24,24,25,25,26,26,27,27,28,28,29,29,30,30,31,31,34,34,35,35,36,36,37,37,38,38,39,39,40,40,41,41,42,42,43,43,44,44,45,45,46,46,47,47,48,48,49,49,50,50,55,55,56,56,57,57,58,58,59,59,60,60,61,61,62,62],"right_children":[2,4,6,8,10,12,14,16,18,20,22,24,26,28,30,32,34,36,38,40,42,44,46,48,50,52,54,56,58,60,62,64,-1,-1,66,68,70,72,74,76,78,80,82,84,86,88,90,92,94,96,98,-1,-1,-1,-1,100,102,104,106,108,110,112,114,-1,-1,-1,-1,-1,-1,-1,-1,-1,-1,-1,-1,-1,-1,-1,-1,-1,-1,-1,-1,-1,-1,-1,-1,-1,-1,-1,-1,-1,-1,-1,-1,-1,-1,-1,-1,-1,-1,-1,-1,-1,-1,-1,-1,-1,-1,-1,-1,-1,-1,-1,-1],"split_conditions":[8.4942514E-1,5.446958E-2,5.785874E-1,-6.6059455E-2,6.383407E-1,-9.003529E-2,9.436499E-1,6.0976395E1,2.3359125E0,3.8602054E0,8.891129E1,1.950358E-1,3.6157E0,1E0,6.41723E1,8.580656E-1,-2.544301E-1,8.75384E1,1.7706228E-2,2.7770734E-1,8.75384E1,2.2036678E-1,2.13298E-1,5.6109104E-2,3.9949925E0,3.1821585E-1,8.937233E-1,8.377663E1,4.499012E-1,-1.5304174E-2,1E0,3.4E2,-6.3989066E-2,-5.7822406E-2,1.07669464E2,9.9E1,5.431214E-1,8.3750135E-1,2.2036678E-1,2.86E2,2.087586E-1,1.4333655E-1,1.0820627E-1,7.079681E-1,7.2577286E1,6.986894E-1,-2.893457E-1,7.7504456E1,1.7882999E0,-2.8427762E-1,1E0,3.4402706E-2,1.3543E-1,-5.9972294E-2,4.1593697E-2,3.8028184E-1,1E0,3.647029E-1,1.8612743E2,9.687914E-1,2.2036678E-1,3.0754356E1,5.9588706E-1,-6.023046E-2,-3.529046E-2,-3.3942398E-2,-5.1184773E-2,-3.2215934E-2,-5.185306E-2,-2.1364687E-2,7.751108E-2,-4.7131393E-2,-5.3936042E-2,-3.320492E-2,-4.419337E-2,-3.31397E-2,-5.8648564E-2,-2.3571862E-2,1.8068574E-2,-5.8166184E-2,-4.4771504E-2,-5.4476626E-2,-2.2045735E-2,5.4973155E-2,-2.2972939E-3,-5.1093686E-2,-1.0046182E-2,2.5126899E-2,-8.114062E-3,2.4027207E-3,9.1790184E-2,5.2410355E-3,-5.7251282E-2,9.8017445E-3,-4.3947175E-2,-3.2616206E-3,5.892564E-2,7.972925E-3,-4.300292E-2,2.766524E-2,-4.2083506E-2,1.357643E-1,9.3372375E-2,1.9865055E-2,1.00131944E-1,-3.9244723E-2,-5.824449E-3,2.4598876E-2,1.2434317E-1,7.96898E-2,-4.6663895E-2,1.56431E-1,9.219077E-2,5.4611858E-2,1.4691316E-1],"split_indices":[3,3,2,3,2,8,3,4,8,1,4,2,1,7,4,2,3,1,3,2,1,4,5,2,1,5,3,4,8,8,7,0,0,0,4,0,2,2,4,0,5,2,5,1,4,1,8,4,1,8,6,0,0,0,0,8,6,5,4,3,4,1,5,0,0,0,0,0,0,0,0,0,0,0,0,0,0,0,0,0,0,0,0,0,0,0,0,0,0,0,0,0,0,0,0,0,0,0,0,0,0,0,0,0,0,0,0,0,0,0,0,0,0,0,0],"split_type":[0,0,0,0,0,0,0,0,0,0,0,0,0,0,0,0,0,0,0,0,0,0,0,0,0,0,0,0,0,0,0,0,0,0,0,0,0,0,0,0,0,0,0,0,0,0,0,0,0,0,0,0,0,0,0,0,0,0,0,0,0,0,0,0,0,0,0,0,0,0,0,0,0,0,0,0,0,0,0,0,0,0,0,0,0,0,0,0,0,0,0,0,0,0,0,0,0,0,0,0,0,0,0,0,0,0,0,0,0,0,0,0,0,0,0],"sum_hessian":[3.9146406E4,2.4507787E4,1.4638617E4,1.287229E4,1.1635497E4,8.033234E2,1.3835294E4,9.938754E3,2.933536E3,5.1984414E3,6.437056E3,7.4864825E2,5.4675205E1,4.862879E3,8.972414E3,8.912853E3,1.025902E3,7.9776874E2,2.135767E3,1.6162296E3,3.5822117E3,2.0608794E3,4.376177E3,6.537482E2,9.490001E1,3.566437E1,1.9010832E1,4.180488E3,6.8239105E2,8.501542E1,8.887399E3,1.5685771E3,7.344275E3,4.720274E2,5.538745E2,7.8616077E2,1.1607949E1,1.4002944E3,7.354727E2,6.851595E2,9.3107007E2,3.033986E3,5.482257E2,8.0529706E2,1.2555824E3,2.8838064E3,1.4923701E3,5.4344293E2,1.1030527E2,4.3553307E1,5.1346706E1,8.47665E0,2.7187721E1,1.02202E1,8.790633E0,3.6450122E2,3.8159868E3,3.7799652E2,3.0439453E2,4.2785618E1,4.22298E1,8.150471E3,7.369279E2,1.5406702E3,2.7907015E1,2.4359769E2,3.1027686E2,6.72654E2,1.1350677E2,7.258382E0,4.3495674E0,7.4533575E2,6.5495874E2,2.5077348E2,4.8469922E2,4.8690643E2,1.9825305E2,7.883679E2,1.4270218E2,2.0631755E3,9.708105E2,2.6778912E2,2.804366E2,1.5699931E2,6.482977E2,9.102339E2,3.4534854E2,9.9440826E2,1.8893982E3,1.376225E2,1.3547477E3,1.2645202E1,5.307978E2,2.4943598E1,8.536167E1,1.5648018E1,2.7905289E1,1.993763E1,3.1409077E1,2.5280885E2,1.1169237E2,2.2912314E3,1.5247552E3,1.8367093E2,1.9432558E2,1.9271513E2,1.1167942E2,2.3767277E1,1.9018343E1,4.8289633E0,3.7400837E1,7.917723E3,2.3274785E2,2.708805E2,4.6604745E2],"tree_param":{"num_deleted":"0","num_feature":"9","num_nodes":"115","size_leaf_vector":"1"}},{"base_weights":[-3.9080334E-1,-4.381347E-1,2.1148473E-1,-6.0776556E-1,-3.8793632E-1,4.739252E-1,-1.7638353E-1,-4.027062E-1,-6.1854446E-1,-2.8669658E-1,-5.6062114E-1,-1.56341E-1,5.872371E-1,2.89792E-3,-5.0702786E-1,-7.0133865E-2,-4.253891E-1,-6.295874E-1,-4.6160555E-1,-2.2567041E-1,-5.4132724E-1,-4.0736845E-1,-5.8719975E-1,1.3551301E-1,-3.6876106E-1,3.8864112E-1,7.834692E-1,-2.372821E-1,5.2698207E-1,3.780781E-2,-5.3469414E-1,2.748332E-2,-3.0757055E-1,-4.9632873E-2,-3.7604785E-1,-5.594322E-2,-6.338912E-2,-3.2250923E-1,-5.1604487E-2,-4.39933E-1,-5.517279E-2,-5.873197E-1,-4.3051827E-1,-3.3173504E-1,-5.439326E-1,-4.9501976E-1,-6.159473E-1,-2.6076356E-1,3.588886E-1,-4.2207543E-2,-4.6317434E-1,5.67939E-1,1.0862428E-1,-1.9578854E-2,8.5769135E-1,-1.06860034E-1,-5.225072E-1,1.21414244E-1,8.2101995E-1,-5.34891E-2,2.3689336E-1,-3.9214623E-1,-6.188782E-1,-5.1730163E-2,2.177467E-2,-2.5534227E-2,-4.4191517E-2,-1.3198473E-2,-4.975393E-2,-4.9650323E-2,-3.319824E-2,5.628543E-3,-2.72487E-2,-4.5054507E-2,-5.9996992E-2,-2.7083794E-2,-5.4876715E-2,-4.9632154E-2,-2.6620267E-2,-4.792816E-2,-5.872041E-2,-5.5665325E-2,-3.6341887E-2,-6.3056864E-2,-5.741765E-2,-1.2206794E-2,-5.3533692E-2,-3.6254627E-4,5.7886094E-2,-3.930073E-2,5.2416027E-2,-5.731175E-2,-2.7897501E-2,9.027062E-2,3.4470525E-2,4.763247E-2,-2.752754E-2,6.6907234E-3,-5.808374E-2,5.6018986E-2,1.0277599E-1,7.2444417E-3,-3.0055126E-2,-6.195129E-2,-3.0370383E-2,2.8019447E-2,-2.8004816E-2,9.047719E-2,-2.3119655E-2,5.8146473E-2,-2.7070547E-2,-4.6952303E-2,1.3878167E-3,-6.39498E-2,-3.924752E-2],"categories":[],"categories_nodes":[],"categories_segments":[],"categories_sizes":[],"default_left":[0,0,0,0,0,0,0,0,0,0,0,0,0,0,0,0,0,0,0,0,0,0,0,0,0,0,0,0,0,0,0,0,0,0,0,0,0,0,0,0,0,0,0,0,0,0,0,0,0,0,0,0,0,0,0,0,0,0,0,0,0,0,0,0,0,0,0,0,0,0,0,0,0,0,0,0,0,0,0,0,0,0,0,0,0,0,0,0,0,0,0,0,0,0,0,0,0,0,0,0,0,0,0,0,0,0,0,0,0,0,0,0,0,0,0],"id":6,"left_children":[1,3,5,7,9,11,13,15,17,19,21,23,25,27,29,31,33,35,37,39,41,43,45,47,49,51,53,55,57,59,61,-1,63,-1,65,-1,-1,67,-1,69,71,73,75,77,79,81,83,85,87,89,91,93,95,97,99,101,103,105,107,-1,109,111,113,-1,-1,-1,-1,-1,-1,-1,-1,-1,-1,-1,-1,-1,-1,-1,-1,-1,-1,-1,-1,-1,-1,-1,-1,-1,-1,-1,-1,-1,-1,-1,-1,-1,-1,-1,-1,-1,-1,-1,-1,-1,-1,-1,-1,-1,-1,-1,-1,-1,-1,-1,-1],"loss_changes":[1.0652358E3,2.9474854E2,2.7726718E2,1.723169E1,4.672234E2,1.1610019E2,6.518654E1,2.9712753E0,1.27282715E1,2.6179944E2,4.0003174E1,1.5445097E1,5.336084E1,9.0002106E1,5.847992E0,2.2631695E0,1.1162567E0,1.763916E0,3.6013794E0,4.9675043E2,1.6351074E1,1.4935318E1,2.2000244E1,9.417763E0,4.4198036E0,3.4399643E1,4.124295E1,1.8183897E1,2.6696419E1,2.3634262E0,4.173462E0,0E0,1.9004239E0,0E0,1.6653938E0,0E0,0E0,4.690674E0,0E0,3.66333E1,1.8346494E2,3.7085571E0,1.7966187E1,1.0053947E1,1.1734467E0,1.6069092E1,3.553955E0,1.4027653E0,5.4074554E0,6.8407664E0,2.1000977E0,3.0942703E1,3.81281E1,2.9269023E0,3.1460022E1,1.17508335E1,3.0719528E0,6.173269E0,1.167318E1,0E0,2.8247187E0,4.3849945E0,8.210449E-1,0E0,0E0,0E0,0E0,0E0,0E0,0E0,0E0,0E0,0E0,0E0,0E0,0E0,0E0,0E0,0E0,0E0,0E0,0E0,0E0,0E0,0E0,0E0,0E0,0E0,0E0,0E0,0E0,0E0,0E0,0E0,0E0,0E0,0E0,0E0,0E0,0E0,0E0,0E0,0E0,0E0,0E0,0E0,0E0,0E0,0E0,0E0,0E0,0E0,0E0,0E0,0E0],"parents":[2147483647,0,0,1,1,2,2,3,3,4,4,5,5,6,6,7,7,8,8,9,9,10,10,11,11,12,12,13,13,14,14,15,15,16,16,17,17,18,18,19,19,20,20,21,21,22,22,23,23,24,24,25,25,26,26,27,27,28,28,29,29,30,30,32,32,34,34,37,37,39,39,40,40,41,41,42,42,43,43,44,44,45,45,46,46,47,47,48,48,49,49,50,50,51,51,52,52,53,53,54,54,55,55,56,56,57,57,58,58,60,60,61,61,62,62],"right_children":[2,4,6,8,10,12,14,16,18,20,22,24,26,28,30,32,34,36,38,40,42,44,46,48,50,52,54,56,58,60,62,-1,64,-1,66,-1,-1,68,-1,70,72,74,76,78,80,82,84,86,88,90,92,94,96,98,100,102,104,106,108,-1,110,112,114,-1,-1,-1,-1,-1,-1,-1,-1,-1,-1,-1,-1,-1,-1,-1,-1,-1,-1,-1,-1,-1,-1,-1,-1,-1,-1,-1,-1,-1,-1,-1,-1,-1,-1,-1,-1,-1,-1,-1,-1,-1,-1,-1,-1,-1,-1,-1,-1,-1,-1,-1,-1],"split_conditions":[1E0,-2.1094172E-1,9.763146E-1,6.960703E-1,3.7645954E-1,5.7756725E1,6.0362715E-1,-4.3948385E-1,5.1085194E1,1.273639E1,-1.0847766E-1,5.363794E-1,1.6257706E2,1.7200697E2,-1.15641125E-1,3.5875256E1,1.3724253E1,-4.071641E-2,8.696859E-1,4.2E1,2.343419E-1,8.57E2,4.8474E-1,8.374006E-2,9.891019E-2,1.7282329E0,6.243463E-1,1.12751E0,5.1344883E-1,2.622649E-1,7.709446E-1,2.748332E-2,1.6136418E2,-4.9632873E-2,1.6136439E0,-5.594322E-2,-6.338912E-2,1.1224755E2,-5.1604487E-2,6.041148E-2,2.6875758E-1,9.330329E1,3.841832E1,1.2889029E-1,1.098E3,1E0,1.0270493E0,4.4152284E0,7.883986E-1,2.4058569E1,3.873189E1,1.59E2,1.07E2,8.24E2,5.796053E-1,4.4926754E-1,1.1224755E2,5.013817E-1,3.2787048E2,-5.34891E-2,9.7027767E-1,2.0305547E2,2.2437332E2,-5.1730163E-2,2.177467E-2,-2.5534227E-2,-4.4191517E-2,-1.3198473E-2,-4.975393E-2,-4.9650323E-2,-3.319824E-2,5.628543E-3,-2.72487E-2,-4.5054507E-2,-5.9996992E-2,-2.7083794E-2,-5.4876715E-2,-4.9632154E-2,-2.6620267E-2,-4.792816E-2,-5.872041E-2,-5.5665325E-2,-3.6341887E-2,-6.3056864E-2,-5.741765E-2,-1.2206794E-2,-5.3533692E-2,-3.6254627E-4,5.7886094E-2,-3.930073E-2,5.2416027E-2,-5.731175E-2,-2.7897501E-2,9.027062E-2,3.4470525E-2,4.763247E-2,-2.752754E-2,6.6907234E-3,-5.808374E-2,5.6018986E-2,1.0277599E-1,7.2444417E-3,-3.0055126E-2,-6.195129E-2,-3.0370383E-2,2.8019447E-2,-2.8004816E-2,9.047719E-2,-2.3119655E-2,5.8146473E-2,-2.7070547E-2,-4.6952303E-2,1.3878167E-3,-6.39498E-2,-3.924752E-2],"split_indices":[7,3,2,2,5,4,5,8,4,1,8,4,4,4,8,4,4,8,2,0,2,0,5,5,5,8,2,8,1,1,5,0,4,0,1,0,0,4,0,3,5,4,1,2,0,6,1,1,2,4,4,0,0,0,1,5,4,5,4,0,1,4,4,0,0,0,0,0,0,0,0,0,0,0,0,0,0,0,0,0,0,0,0,0,0,0,0,0,0,0,0,0,0,0,0,0,0,0,0,0,0,0,0,0,0,0,0,0,0,0,0,0,0,0,0],"split_type":[0,0,0,0,0,0,0,0,0,0,0,0,0,0,0,0,0,0,0,0,0,0,0,0,0,0,0,0,0,0,0,0,0,0,0,0,0,0,0,0,0,0,0,0,0,0,0,0,0,0,0,0,0,0,0,0,0,0,0,0,0,0,0,0,0,0,0,0,0,0,0,0,0,0,0,0,0,0,0,0,0,0,0,0,0,0,0,0,0,0,0,0,0,0,0,0,0,0,0,0,0,0,0,0,0,0,0,0,0,0,0,0,0,0,0],"sum_hessian":[3.7363133E4,3.46411E4,2.7220305E3,7.907817E3,2.6733285E4,1.6233877E3,1.0986428E3,3.968294E2,7.510988E3,1.6854611E4,9.878674E3,2.4732593E2,1.3760618E3,7.13021E2,3.856219E2,2.5598663E1,3.7123074E2,7.0144087E3,4.9657867E2,1.3597617E4,3.2569934E3,1.4624572E3,8.416217E3,1.0433591E2,1.4299002E2,6.8539294E2,6.906689E2,4.8932007E2,2.2370091E2,1.8617535E1,3.6700436E2,1.0371955E1,1.5226709E1,1.4856898E2,2.2266177E2,4.1300836E2,6.6014004E3,1.416295E2,3.549492E2,6.0247705E3,7.572847E3,2.2986243E3,9.583691E2,9.4340173E2,5.190554E2,2.0050807E3,6.4111357E3,3.755124E1,6.678467E1,3.2393955E1,1.1059607E2,4.1721637E2,2.6817654E2,5.8496857E1,6.3217206E2,3.3672418E2,1.5259589E2,9.461328E1,1.2908763E2,4.367381E0,1.4250153E1,1.3836714E2,2.2863722E2,1.08929825E1,4.3337264E0,8.032967E1,1.423321E2,6.865305E1,7.297645E1,3.9508013E3,2.0739692E3,5.006041E3,2.566806E3,1.9769978E2,2.1009246E3,4.0915152E2,5.492176E2,2.6678638E2,6.7661536E2,2.129568E2,3.060986E2,1.3633462E3,6.4173456E2,4.738419E3,1.672717E3,2.5908577E1,1.1642662E1,2.5592232E1,4.1192436E1,2.019288E1,1.2201076E1,6.79358E1,4.2660267E1,1.6569383E2,2.5152255E2,1.368553E2,1.3132123E2,5.1449615E1,7.0472417E0,2.3150085E2,4.006712E2,1.7518103E2,1.6154314E2,1.04454834E2,4.8141052E1,6.801507E1,2.6598207E1,1.1970013E2,9.387498E0,8.4014845E0,5.848668E0,1.1608771E2,2.2279432E1,2.078798E2,2.0757416E1],"tree_param":{"num_deleted":"0","num_feature":"9","num_nodes":"115","size_leaf_vector":"1"}},{"base_weights":[2.8728178E-1,1.2657609E0,-3.8513222E-1,1.3723977E0,5.915302E-1,4.7856852E-1,-4.9487996E-1,1.4587957E0,9.4469863E-1,8.024339E-1,-1.3651808E-1,-2.3056503E-1,8.1428725E-1,-5.558221E-1,-1.0372254E-1,1.52E0,1.1608256E0,1.0560482E0,6.0461545E-1,3.2982814E-1,1.1108301E0,-3.3832163E-1,1.9920324E-1,2.2140814E-1,-3.831378E-1,1.1953503E0,2.9375073E-1,-5.0718164E-1,-6.198616E-1,7.207196E-1,-3.1695795E-1,1.3430233E0,1.5353936E0,9.7807384E-1,1.3871542E0,1.1093501E0,2.1632835E-1,6.9630945E-1,1.1344916E-2,5.3183264E-1,-2.5848258E-2,1.213235E0,5.278303E-1,7.192478E-2,-3.6424604E-1,4.6645656E-1,-1.6381754E-2,1.3804401E-1,9.8447347E-1,-2.926183E-1,-6.0785003E-2,1.2910031E0,1.9628648E-1,-1.8079817E-1,9.823015E-1,-3.58164E-1,-5.535064E-1,-6.2745464E-1,-5.313931E-1,2.087899E-1,1.2052308E0,1.0289272E-1,-4.1934103E-1,1.365637E-1,5.6439724E-2,1.5445267E-1,1.3925765E-1,1.092924E-1,7.2756924E-2,8.0106795E-2,1.4099978E-1,5.5671137E-2,1.1422836E-1,7.991993E-4,1.1389158E-1,9.3256086E-2,4.162894E-2,-2.0770697E-2,9.114279E-2,7.367999E-2,1.6924102E-2,-2.6420623E-2,1.0329313E-2,1.2737769E-1,9.628742E-2,3.658722E-2,8.58064E-2,-4.596368E-2,-1.221876E-2,5.6529876E-2,-9.138113E-3,7.874904E-3,-5.591345E-2,3.2565225E-2,-1.2692577E-2,1.17774844E-1,4.822595E-2,-1.8309444E-2,-3.928192E-2,8.1073806E-2,1.4249599E-1,-3.1048054E-2,4.4089746E-2,-2.505731E-2,1.4992215E-2,4.58494E-2,1.4679807E-1,-4.506639E-2,3.9098874E-2,-3.5130586E-2,-5.6923617E-2,-1.9434143E-2,-6.286454E-2,-5.6244373E-2,1.12123685E-2,-1.7578868E-3,7.6769754E-2,1.3187401E-1,4.8534907E-2,3.6102157E-2,-2.3962291E-2,-4.583736E-3,-4.871186E-2],"categories":[],"categories_nodes":[],"categories_segments":[],"categories_sizes":[],"default_left":[0,0,0,0,0,0,0,0,0,0,0,0,0,0,0,0,0,0,0,0,0,0,0,0,0,0,0,0,0,0,0,0,0,0,0,0,0,0,0,0,0,0,0,0,0,0,0,0,0,0,0,0,0,0,0,0,0,0,0,0,0,0,0,0,0,0,0,0,0,0,0,0,0,0,0,0,0,0,0,0,0,0,0,0,0,0,0,0,0,0,0,0,0,0,0,0,0,0,0,0,0,0,0,0,0,0,0,0,0,0,0,0,0,0,0,0,0,0,0,0,0,0,0],"id":7,"left_children":[1,3,5,7,9,11,13,15,17,19,21,23,25,27,29,31,33,35,37,39,41,43,45,47,49,51,53,55,57,59,61,63,65,67,69,71,73,75,77,79,81,83,85,-1,87,89,91,93,95,97,-1,99,101,103,105,107,109,111,113,115,117,119,121,-1,-1,-1,-1,-1,-1,-1,-1,-1,-1,-1,-1,-1,-1,-1,-1,-1,-1,-1,-1,-1,-1,-1,-1,-1,-1,-1,-1,-1,-1,-1,-1,-1,-1,-1,-1,-1,-1,-1,-1,-1,-1,-1,-1,-1,-1,-1,-1,-1,-1,-1,-1,-1,-1,-1,-1,-1,-1,-1,-1],"loss_changes":[2.5872455E4,1.1507324E3,2.2094973E3,5.0961523E2,3.362248E2,6.258764E2,4.9290918E2,2.0800781E2,8.747339E1,2.4703723E2,3.3436657E1,5.837103E1,3.5350745E2,5.541797E1,4.905072E2,2.3925781E1,7.989087E1,7.815698E1,3.1340622E1,4.8274193E1,6.065918E1,8.706215E0,1.069786E1,1.3473941E1,1.2683273E1,9.814136E1,2.4697736E2,7.003589E1,4.8515625E0,1.4197015E2,9.531853E1,1.2810425E1,9.285156E0,3.0569458E1,1.0587036E1,2.9335815E1,2.0324072E1,3.2630295E1,1.5599617E1,3.1716843E1,7.5460234E0,1.199939E1,7.985466E0,0E0,6.900631E0,4.6213818E0,5.396518E0,9.687224E0,1.4615288E0,4.895626E0,0E0,5.9286255E1,1.1435307E1,1.037533E1,7.776593E1,1.675683E2,2.447998E1,3.5410156E0,1.2384964E1,3.5441013E1,2.3414307E1,3.8575764E1,4.5092194E1,0E0,0E0,0E0,0E0,0E0,0E0,0E0,0E0,0E0,0E0,0E0,0E0,0E0,0E0,0E0,0E0,0E0,0E0,0E0,0E0,0E0,0E0,0E0,0E0,0E0,0E0,0E0,0E0,0E0,0E0,0E0,0E0,0E0,0E0,0E0,0E0,0E0,0E0,0E0,0E0,0E0,0E0,0E0,0E0,0E0,0E0,0E0,0E0,0E0,0E0,0E0,0E0,0E0,0E0,0E0,0E0,0E0,0E0,0E0,0E0],"parents":[2147483647,0,0,1,1,2,2,3,3,4,4,5,5,6,6,7,7,8,8,9,9,10,10,11,11,12,12,13,13,14,14,15,15,16,16,17,17,18,18,19,19,20,20,21,21,22,22,23,23,24,24,25,25,26,26,27,27,28,28,29,29,30,30,31,31,32,32,33,33,34,34,35,35,36,36,37,37,38,38,39,39,40,40,41,41,42,42,44,44,45,45,46,46,47,47,48,48,49,49,51,51,52,52,53,53,54,54,55,55,56,56,57,57,58,58,59,59,60,60,61,61,62,62],"right_children":[2,4,6,8,10,12,14,16,18,20,22,24,26,28,30,32,34,36,38,40,42,44,46,48,50,52,54,56,58,60,62,64,66,68,70,72,74,76,78,80,82,84,86,-1,88,90,92,94,96,98,-1,100,102,104,106,108,110,112,114,116,118,120,122,-1,-1,-1,-1,-1,-1,-1,-1,-1,-1,-1,-1,-1,-1,-1,-1,-1,-1,-1,-1,-1,-1,-1,-1,-1,-1,-1,-1,-1,-1,-1,-1,-1,-1,-1,-1,-1,-1,-1,-1,-1,-1,-1,-1,-1,-1,-1,-1,-1,-1,-1,-1,-1,-1,-1,-1,-1,-1,-1,-1],"split_conditions":[1.06637366E-1,3.2009268E0,8.17717E1,5.7756725E1,1.846511E1,2.2036678E-1,2.2396386E0,-4.2412408E-2,4.3686178E-2,7.8391606E-1,1.7474373E-1,1.7232002E-1,5.7756725E1,4.6364036E-1,1.51451E2,7.972347E-1,2.2036678E-1,1E0,4.3E1,3.8316373E-2,1.8844224E-3,5.7351913E-2,3.5633926E1,8.3035344E-1,1.4823165E1,7.738101E0,3.8028184E-1,1.3469754E2,1E0,4.7236374E-1,2.0027085E-1,1E0,3.0793064E1,4.91257E-2,2.5154281E-2,3.4516668E-1,9.658277E-1,1.382041E0,9.3805814E-1,4.8043835E1,1.1E1,3.0793064E1,9.0984666E-1,7.192478E-2,1.3350745E-1,-2.8615618E-1,1.1341908E2,2.447668E0,9.019533E-1,3.6067608E-1,-6.0785003E-2,-9.282467E-2,6.746803E-1,9.5815554E-2,9.491382E-1,8.227542E-1,3.7464392E-1,7.106218E-1,1.0878606E0,9.294113E-1,1.4306375E2,2.0432467E0,1.75814E2,1.365637E-1,5.6439724E-2,1.5445267E-1,1.3925765E-1,1.092924E-1,7.2756924E-2,8.0106795E-2,1.4099978E-1,5.5671137E-2,1.1422836E-1,7.991993E-4,1.1389158E-1,9.3256086E-2,4.162894E-2,-2.0770697E-2,9.114279E-2,7.367999E-2,1.6924102E-2,-2.6420623E-2,1.0329313E-2,1.2737769E-1,9.628742E-2,3.658722E-2,8.58064E-2,-4.596368E-2,-1.221876E-2,5.6529876E-2,-9.138113E-3,7.874904E-3,-5.591345E-2,3.2565225E-2,-1.2692577E-2,1.17774844E-1,4.822595E-2,-1.8309444E-2,-3.928192E-2,8.1073806E-2,1.4249599E-1,-3.1048054E-2,4.4089746E-2,-2.505731E-2,1.4992215E-2,4.58494E-2,1.4679807E-1,-4.506639E-2,3.9098874E-2,-3.5130586E-2,-5.6923617E-2,-1.9434143E-2,-6.286454E-2,-5.6244373E-2,1.12123685E-2,-1.7578868E-3,7.6769754E-2,1.3187401E-1,4.8534907E-2,3.6102157E-2,-2.3962291E-2,-4.583736E-3,-4.871186E-2],"split_indices":[3,1,4,4,1,4,8,3,3,2,5,3,4,5,4,2,4,7,0,3,3,5,1,2,1,1,8,4,7,3,3,7,4,3,5,2,2,1,2,4,0,4,2,0,5,3,4,1,2,3,0,8,2,8,2,8,3,3,8,2,4,1,4,0,0,0,0,0,0,0,0,0,0,0,0,0,0,0,0,0,0,0,0,0,0,0,0,0,0,0,0,0,0,0,0,0,0,0,0,0,0,0,0,0,0,0,0,0,0,0,0,0,0,0,0,0,0,0,0,0,0,0,0],"split_type":[0,0,0,0,0,0,0,0,0,0,0,0,0,0,0,0,0,0,0,0,0,0,0,0,0,0,0,0,0,0,0,0,0,0,0,0,0,0,0,0,0,0,0,0,0,0,0,0,0,0,0,0,0,0,0,0,0,0,0,0,0,0,0,0,0,0,0,0,0,0,0,0,0,0,0,0,0,0,0,0,0,0,0,0,0,0,0,0,0,0,0,0,0,0,0,0,0,0,0,0,0,0,0,0,0,0,0,0,0,0,0,0,0,0,0,0,0,0,0,0,0,0,0],"sum_hessian":[3.9321504E4,1.6015414E4,2.330609E4,1.3827423E4,2.1879905E3,2.6271777E3,2.0678912E4,1.150161E4,2.3258127E3,1.6964535E3,4.9153705E2,8.442322E2,1.7829456E3,1.7891072E4,2.78784E3,9.538303E3,1.9633077E3,1.7505464E3,5.752665E2,6.7069995E2,1.0257535E3,3.0699393E2,1.8454314E2,2.1294992E2,6.312822E2,1.0286311E3,7.543144E2,1.0173124E4,7.7179478E3,5.723924E2,2.2154478E3,7.703214E2,8.767981E3,1.0891675E3,8.741403E2,1.6457593E3,1.0478706E2,4.98107E2,7.715949E1,4.274416E2,2.4325839E2,8.715781E2,1.5417543E2,6.705451E0,3.0028845E2,8.187805E1,1.02665085E2,1.9304126E2,1.9908659E1,4.5164926E2,1.79633E2,9.384861E2,9.0145096E1,4.469879E2,3.0732648E2,2.4145903E3,7.758534E3,7.102285E3,6.1566254E2,2.790169E2,2.933755E2,4.3433398E2,1.7811136E3,7.4784753E2,2.2473852E1,8.231755E3,5.362267E2,7.4447943E2,3.4468802E2,3.4145737E1,8.399946E2,9.3566986E1,1.5521923E3,8.630627E1,1.8480799E1,2.689039E2,2.2920308E2,6.2675488E1,1.4484008E1,2.724167E2,1.5502489E2,8.511487E1,1.5814352E2,6.985648E2,1.7301334E2,1.0485756E2,4.931788E1,2.1475761E2,8.5530846E1,6.954256E1,1.2335491E1,8.808153E1,1.4583551E1,1.1288533E2,8.015593E1,1.3404776E1,6.5038834E0,2.1713672E2,2.3451253E2,2.0621422E2,7.3227185E2,2.9259054E1,6.088604E1,3.6931308E2,7.7674835E1,1.4879468E2,1.5853178E2,2.149575E3,2.650153E2,5.616796E2,7.1968545E3,1.9923347E1,7.082362E3,5.8744354E2,2.8219038E1,1.9927505E2,7.9741844E1,2.526987E2,4.0676785E1,2.4764679E2,1.866872E2,2.7382336E2,1.5072903E3],"tree_param":{"num_deleted":"0","num_feature":"9","num_nodes":"123","size_leaf_vector":"1"}},{"base_weights":[-1.3710865E-1,9.473428E-1,-4.1383958E-1,3.6354572E-1,1.2140629E0,-4.6624064E-1,4.5564812E-1,-1.3041861E-1,6.7932266E-1,7.052939E-1,1.2508026E0,-1.3068685E-1,-5.1790637E-1,9.7197706E-1,2.0413105E-1,-3.4838548E-1,1.0316425E-1,1.0488964E0,3.2916012E-1,2.6620314E-1,9.803122E-1,1.290775E0,1.0151345E0,-2.757461E-1,2.8077543E-1,-4.5494235E-1,-5.840683E-1,6.0066396E-1,1.1285802E0,3.70425E-1,-2.768503E-1,-4.2425442E-1,-6.200364E-2,4.5829345E-2,1.0636687E0,6.278289E-1,1.2209182E0,-5.346365E-2,4.7081807E-1,3.741514E-2,4.9425462E-1,4.4899464E-1,1.1136074E0,1.0440513E0,1.3101529E0,8.1848395E-1,1.137038E0,-4.358321E-1,-1.4719349E-1,-2.1265827E-1,4.2254093E-1,-4.828361E-1,-2.467115E-1,-5.615443E-1,-6.1644495E-1,6.817698E-1,-1.2752417E-1,8.3526844E-1,1.217689E0,9.79789E-2,6.4755976E-1,-5.3371012E-2,-6.2778465E-2,-4.6009474E-2,-1.2063465E-2,1.2071016E-2,-2.5594154E-2,-1.4206918E-2,3.9594498E-2,5.9720427E-2,1.1924835E-1,3.8701825E-2,7.963081E-2,5.1266927E-2,1.267691E-1,1.2657441E-2,-3.598703E-2,6.0236227E-2,1.4515579E-2,-3.9074656E-2,3.1069312E-2,-3.783647E-2,5.628583E-2,7.944366E-2,2.9033625E-2,7.756332E-2,1.2352642E-1,1.21242166E-1,8.530429E-2,1.3118596E-1,-7.301323E-3,8.750635E-2,4.3291394E-2,1.2326141E-1,7.994914E-2,-4.7780458E-2,-3.5089098E-2,-2.019053E-3,-4.1564196E-2,-2.5681524E-2,5.8331262E-2,4.9700096E-2,-9.999423E-3,-5.0543547E-2,-3.8418714E-2,-3.4564268E-2,-1.00306E-2,-5.661094E-2,-4.0297125E-2,-1.19203525E-2,-6.168375E-2,5.332927E-2,8.3986185E-2,-3.794893E-2,3.794751E-2,8.734841E-2,8.484145E-4,1.283887E-1,9.673991E-2,5.006519E-2,3.3935886E-3,8.617033E-2,5.3514477E-2,3.44378E-2,-2.5361225E-2],"categories":[],"categories_nodes":[],"categories_segments":[],"categories_sizes":[],"default_left":[0,0,0,0,0,0,0,0,0,0,0,0,0,0,0,0,0,0,0,0,0,0,0,0,0,0,0,0,0,0,0,0,0,0,0,0,0,0,0,0,0,0,0,0,0,0,0,0,0,0,0,0,0,0,0,0,0,0,0,0,0,0,0,0,0,0,0,0,0,0,0,0,0,0,0,0,0,0,0,0,0,0,0,0,0,0,0,0,0,0,0,0,0,0,0,0,0,0,0,0,0,0,0,0,0,0,0,0,0,0,0,0,0,0,0,0,0,0,0,0,0,0,0,0,0],"id":8,"left_children":[1,3,5,7,9,11,13,15,17,19,21,23,25,27,29,31,33,35,37,39,41,43,45,47,49,51,53,55,57,59,61,63,65,67,69,71,73,75,77,79,81,83,85,87,89,91,93,95,97,99,101,103,105,107,109,111,113,115,117,119,121,-1,123,-1,-1,-1,-1,-1,-1,-1,-1,-1,-1,-1,-1,-1,-1,-1,-1,-1,-1,-1,-1,-1,-1,-1,-1,-1,-1,-1,-1,-1,-1,-1,-1,-1,-1,-1,-1,-1,-1,-1,-1,-1,-1,-1,-1,-1,-1,-1,-1,-1,-1,-1,-1,-1,-1,-1,-1,-1,-1,-1,-1,-1,-1],"loss_changes":[1.1241919E4,1.1854199E3,1.3599819E3,3.7284448E2,9.6822754E1,4.8793066E2,2.2016858E2,4.752623E1,1.8833069E2,4.2527756E1,4.4601562E1,2.2432567E2,1.0134863E2,3.1627808E1,9.1469925E1,1.0462452E1,2.4789465E1,5.057837E1,4.068177E1,7.173073E0,1.4903778E1,1.8536621E1,1.6124695E1,5.7112E1,6.862859E1,7.250098E1,8.324951E0,9.946709E0,9.166412E0,6.4059875E1,1.6135218E1,4.095543E0,3.6550343E0,2.812492E1,8.117428E-1,8.116898E0,1.5986389E1,1.12754755E1,2.3368095E1,8.298792E0,4.3404274E0,2.2519789E0,6.1634216E0,8.87439E0,9.199219E0,5.638443E0,1.3100708E1,4.2420654E0,5.2578754E1,7.859066E0,2.9676529E1,2.4384521E1,2.1387405E1,4.856201E0,8.7646484E-1,3.0817795E0,2.3889189E0,2.961731E0,3.6731262E0,1.1057441E1,9.66954E0,0E0,1.2637027E1,0E0,0E0,0E0,0E0,0E0,0E0,0E0,0E0,0E0,0E0,0E0,0E0,0E0,0E0,0E0,0E0,0E0,0E0,0E0,0E0,0E0,0E0,0E0,0E0,0E0,0E0,0E0,0E0,0E0,0E0,0E0,0E0,0E0,0E0,0E0,0E0,0E0,0E0,0E0,0E0,0E0,0E0,0E0,0E0,0E0,0E0,0E0,0E0,0E0,0E0,0E0,0E0,0E0,0E0,0E0,0E0,0E0,0E0,0E0,0E0,0E0,0E0],"parents":[2147483647,0,0,1,1,2,2,3,3,4,4,5,5,6,6,7,7,8,8,9,9,10,10,11,11,12,12,13,13,14,14,15,15,16,16,17,17,18,18,19,19,20,20,21,21,22,22,23,23,24,24,25,25,26,26,27,27,28,28,29,29,30,30,31,31,32,32,33,33,34,34,35,35,36,36,37,37,38,38,39,39,40,40,41,41,42,42,43,43,44,44,45,45,46,46,47,47,48,48,49,49,50,50,51,51,52,52,53,53,54,54,55,55,56,56,57,57,58,58,59,59,60,60,62,62],"right_children":[2,4,6,8,10,12,14,16,18,20,22,24,26,28,30,32,34,36,38,40,42,44,46,48,50,52,54,56,58,60,62,64,66,68,70,72,74,76,78,80,82,84,86,88,90,92,94,96,98,100,102,104,106,108,110,112,114,116,118,120,122,-1,124,-1,-1,-1,-1,-1,-1,-1,-1,-1,-1,-1,-1,-1,-1,-1,-1,-1,-1,-1,-1,-1,-1,-1,-1,-1,-1,-1,-1,-1,-1,-1,-1,-1,-1,-1,-1,-1,-1,-1,-1,-1,-1,-1,-1,-1,-1,-1,-1,-1,-1,-1,-1,-1,-1,-1,-1,-1,-1,-1,-1,-1,-1],"split_conditions":[5.431214E-1,3.9949925E0,1.1787096E1,1.7232002E-1,5.446958E-2,8.079764E-1,1.46E2,5.4402866E1,1.4333655E-1,1.0935122E1,2.5554562E-1,2.7108083E0,7.567085E-1,2.6680445E1,9.5033157E-1,2.2279673E0,2.44E2,2.68E2,1.3324658E2,4.8043835E1,-3.5176858E-1,9.330329E1,1.0935122E1,4.3686178E-2,-2.1585869E-2,2.5732548E0,9.6343845E-1,1.9794217E-1,-2.223755E-2,4.864027E1,3.841832E1,7.739859E-2,2.9385366E0,2.1318336E0,-5.078622E-1,1.2873212E0,9.7259224E1,6.031344E-1,2.087586E-1,-1.7124963E-1,4.2690473E0,2.5977684E-2,-4.546273E-1,1.571731E-1,1.1910907E0,2.2720839E-1,2.11E2,-2.1585869E-2,1.6408381E-1,1E0,1.9200484E-1,1.0995181E2,-1.5384103E-2,6.115466E0,-3.313237E-1,1.7154982E1,4.6030983E-1,2.2979814E-1,9.2E1,-7.591411E-1,2.9E2,-5.3371012E-2,9.6043265E-1,-4.6009474E-2,-1.2063465E-2,1.2071016E-2,-2.5594154E-2,-1.4206918E-2,3.9594498E-2,5.9720427E-2,1.1924835E-1,3.8701825E-2,7.963081E-2,5.1266927E-2,1.267691E-1,1.2657441E-2,-3.598703E-2,6.0236227E-2,1.4515579E-2,-3.9074656E-2,3.1069312E-2,-3.783647E-2,5.628583E-2,7.944366E-2,2.9033625E-2,7.756332E-2,1.2352642E-1,1.21242166E-1,8.530429E-2,1.3118596E-1,-7.301323E-3,8.750635E-2,4.3291394E-2,1.2326141E-1,7.994914E-2,-4.7780458E-2,-3.5089098E-2,-2.019053E-3,-4.1564196E-2,-2.5681524E-2,5.8331262E-2,4.9700096E-2,-9.999423E-3,-5.0543547E-2,-3.8418714E-2,-3.4564268E-2,-1.00306E-2,-5.661094E-2,-4.0297125E-2,-1.19203525E-2,-6.168375E-2,5.332927E-2,8.3986185E-2,-3.794893E-2,3.794751E-2,8.734841E-2,8.484145E-4,1.283887E-1,9.673991E-2,5.006519E-2,3.3935886E-3,8.617033E-2,5.3514477E-2,3.44378E-2,-2.5361225E-2],"split_indices":[2,1,1,3,3,2,0,4,2,1,2,1,3,1,3,1,0,0,4,4,8,4,1,3,3,1,3,5,8,1,1,3,1,1,3,1,4,3,5,3,1,2,3,5,5,5,0,3,5,7,5,4,3,1,8,1,8,5,0,3,0,0,3,0,0,0,0,0,0,0,0,0,0,0,0,0,0,0,0,0,0,0,0,0,0,0,0,0,0,0,0,0,0,0,0,0,0,0,0,0,0,0,0,0,0,0,0,0,0,0,0,0,0,0,0,0,0,0,0,0,0,0,0,0,0],"split_type":[0,0,0,0,0,0,0,0,0,0,0,0,0,0,0,0,0,0,0,0,0,0,0,0,0,0,0,0,0,0,0,0,0,0,0,0,0,0,0,0,0,0,0,0,0,0,0,0,0,0,0,0,0,0,0,0,0,0,0,0,0,0,0,0,0,0,0,0,0,0,0,0,0,0,0,0,0,0,0,0,0,0,0,0,0,0,0,0,0,0,0,0,0,0,0,0,0,0,0,0,0,0,0,0,0,0,0,0,0,0,0,0,0,0,0,0,0,0,0,0,0,0,0,0,0],"sum_hessian":[3.7458113E4,7.614812E3,2.9843303E4,2.3887278E3,5.2260845E3,2.8147416E4,1.6958859E3,9.317674E2,1.4569603E3,3.533342E2,4.87275E3,3.7561072E3,2.4391309E4,5.545693E2,1.1413167E3,4.8174115E2,4.5002625E2,7.0786224E2,7.4909814E2,1.3683427E2,2.1649992E2,4.1622954E3,7.104547E2,2.7773088E3,9.787984E2,1.2501729E4,1.1889581E4,1.6594409E2,3.8862518E2,8.482675E2,2.9304916E2,3.8046585E2,1.0127532E2,4.2566495E2,2.4361288E1,2.0665942E2,5.0120282E2,2.0257027E2,5.4652783E2,6.888794E1,6.794634E1,4.4297497E1,1.7220244E2,3.0710184E2,3.8551936E3,2.7482715E2,4.3562756E2,1.235881E3,1.5414279E3,2.183393E2,7.604591E2,1.1023718E4,1.4780105E3,7.022486E3,4.867095E3,1.4937085E2,1.6573233E1,9.2971695E1,2.9565347E2,4.2843478E2,4.1983273E2,1.3253288E2,1.6051628E2,3.3983517E2,4.0630665E1,5.2341064E1,4.8934258E1,2.7739047E2,1.4827448E2,6.491262E0,1.7870026E1,8.6426056E1,1.2023337E2,3.178996E1,4.6941287E2,1.2796667E2,7.46036E1,3.8867953E2,1.578483E2,2.6670986E1,4.221695E1,4.6233516E0,6.3322987E1,1.268079E1,3.1616705E1,4.753137E1,1.2467107E2,1.6038123E2,1.4672061E2,3.850494E3,4.6996107E0,2.3855188E2,3.627525E1,3.3743225E2,9.8195335E1,8.240591E2,4.1182196E2,1.0471136E3,4.943142E2,2.0750519E2,1.0834117E1,6.656539E2,9.480523E1,8.965663E3,2.0580544E3,8.811959E2,5.968146E2,6.8234785E3,1.9900713E2,4.0794997E0,4.8630156E3,7.9283035E1,7.0087814E1,1.1239166E1,5.3340664E0,8.881023E1,4.161471E0,2.3054752E2,6.510597E1,5.785455E1,3.7058023E2,1.4222937E2,2.7760336E2,5.096803E1,1.0954825E2],"tree_param":{"num_deleted":"0","num_feature":"9","num_nodes":"125","size_leaf_vector":"1"}},{"base_weights":[2.1698001E-1,-3.4310493E-1,1.0685954E0,-5.627371E-1,-1.13256454E-1,-3.7430423E-1,1.1397655E0,-6.056505E-1,-4.308357E-1,-4.3444332E-1,1.1856549E-1,-4.4211775E-1,6.302144E-1,9.00776E-1,1.3250566E0,-6.178468E-1,-4.9624163E-1,-3.3422458E-1,-4.6269563E-1,-5.128949E-1,-2.8883925E-1,-2.1948124E-1,2.6630887E-1,-5.231637E-1,4.059062E-3,-1.4412668E-1,9.000077E-1,9.9500674E-1,2.3423569E-1,3.6755368E-1,1.3321011E0,-5.664235E-2,-6.2441524E-2,-5.6249645E-2,-4.3621242E-1,-3.769919E-1,-2.462862E-1,-3.920729E-1,-4.9005538E-1,-3.9594787E-1,-5.363939E-1,-9.3925186E-2,-3.5942385E-1,5.235836E-2,-4.344451E-1,8.916881E-3,6.9460624E-1,-5.458972E-1,-3.672967E-1,2.8112286E-1,-2.326666E-1,3.4798525E-2,-5.627937E-2,6.708214E-1,1.4337069E-1,-2.820875E-2,1.0618355E0,5.853972E-1,-2.6000792E-1,1.2262704E-1,1.4659242E-1,1.353717E0,1.0777241E0,-2.5585115E-2,-4.999168E-2,-2.9862631E-2,-5.3189393E-2,-3.6417983E-2,-1.4061809E-2,-4.6439838E-2,-3.1329166E-2,-5.6316044E-2,-4.1385658E-2,-1.7568985E-2,-4.436452E-2,-5.679462E-2,-4.2157765E-2,-1.609472E-2,2.9989649E-2,-4.0111113E-2,-1.0971198E-2,3.9461307E-2,-4.583945E-3,-2.3869839E-2,-5.2450728E-2,2.3212101E-2,-7.380523E-3,7.914854E-2,1.4985434E-2,-1.6836742E-2,-5.5701196E-2,-5.2124675E-2,-1.48233E-2,1.5375967E-2,1.3008328E-1,4.726793E-3,-3.7696976E-2,3.2814431E-3,8.440491E-2,2.221281E-2,-3.247665E-2,1.14158474E-1,6.353127E-2,2.5269598E-2,8.386779E-2,-4.934094E-2,-4.7559626E-3,-2.5539814E-2,5.3956743E-2,1.3657337E-1,8.662101E-2,4.811346E-2,1.2493288E-1],"categories":[],"categories_nodes":[],"categories_segments":[],"categories_sizes":[],"default_left":[0,0,0,0,0,0,0,0,0,0,0,0,0,0,0,0,0,0,0,0,0,0,0,0,0,0,0,0,0,0,0,0,0,0,0,0,0,0,0,0,0,0,0,0,0,0,0,0,0,0,0,0,0,0,0,0,0,0,0,0,0,0,0,0,0,0,0,0,0,0,0,0,0,0,0,0,0,0,0,0,0,0,0,0,0,0,0,0,0,0,0,0,0,0,0,0,0,0,0,0,0,0,0,0,0,0,0,0,0,0,0,0,0],"id":9,"left_children":[1,3,5,7,9,11,13,15,17,19,21,23,25,27,29,31,33,35,37,39,41,43,45,47,49,51,53,55,57,59,61,-1,-1,-1,63,65,67,69,71,73,75,77,79,81,83,85,87,89,91,93,95,-1,-1,97,-1,99,101,103,105,-1,107,109,111,-1,-1,-1,-1,-1,-1,-1,-1,-1,-1,-1,-1,-1,-1,-1,-1,-1,-1,-1,-1,-1,-1,-1,-1,-1,-1,-1,-1,-1,-1,-1,-1,-1,-1,-1,-1,-1,-1,-1,-1,-1,-1,-1,-1,-1,-1,-1,-1,-1,-1],"loss_changes":[1.8721848E4,1.1952871E3,1.5995957E3,6.8275635E1,8.6164417E2,5.0193855E1,6.5599805E2,1.18811035E1,9.004883E0,5.526422E1,3.3575818E2,2.4844742E1,9.896605E0,4.07042E2,5.5881836E1,2.4206543E0,3.4180908E0,2.6961212E0,4.1267395E0,8.447449E0,2.336621E1,1.19509605E2,5.1566943E2,1.8596497E0,7.0571094E0,2.862294E0,3.2959785E0,3.884922E2,1.3977696E2,1.1663873E1,4.415918E1,0E0,0E0,0E0,5.4758224E0,5.874771E0,3.007492E0,3.43927E0,8.719086E0,5.5012436E0,9.2561035E0,1.2019117E1,1.2950577E1,3.0394327E1,2.0006454E1,5.398416E1,9.254938E1,2.026703E0,2.5216293E0,6.237589E0,2.3620412E0,0E0,0E0,2.8713808E0,0E0,2.6001076E1,1.8066406E2,3.944609E1,1.6580517E1,0E0,8.159739E0,4.3586914E1,6.642041E1,0E0,0E0,0E0,0E0,0E0,0E0,0E0,0E0,0E0,0E0,0E0,0E0,0E0,0E0,0E0,0E0,0E0,0E0,0E0,0E0,0E0,0E0,0E0,0E0,0E0,0E0,0E0,0E0,0E0,0E0,0E0,0E0,0E0,0E0,0E0,0E0,0E0,0E0,0E0,0E0,0E0,0E0,0E0,0E0,0E0,0E0,0E0,0E0,0E0,0E0],"parents":[2147483647,0,0,1,1,2,2,3,3,4,4,5,5,6,6,7,7,8,8,9,9,10,10,11,11,12,12,13,13,14,14,15,15,16,16,17,17,18,18,19,19,20,20,21,21,22,22,23,23,24,24,25,25,26,26,27,27,28,28,29,29,30,30,34,34,35,35,36,36,37,37,38,38,39,39,40,40,41,41,42,42,43,43,44,44,45,45,46,46,47,47,48,48,49,49,50,50,53,53,55,55,56,56,57,57,58,58,60,60,61,61,62,62],"right_children":[2,4,6,8,10,12,14,16,18,20,22,24,26,28,30,32,34,36,38,40,42,44,46,48,50,52,54,56,58,60,62,-1,-1,-1,64,66,68,70,72,74,76,78,80,82,84,86,88,90,92,94,96,-1,-1,98,-1,100,102,104,106,-1,108,110,112,-1,-1,-1,-1,-1,-1,-1,-1,-1,-1,-1,-1,-1,-1,-1,-1,-1,-1,-1,-1,-1,-1,-1,-1,-1,-1,-1,-1,-1,-1,-1,-1,-1,-1,-1,-1,-1,-1,-1,-1,-1,-1,-1,-1,-1,-1,-1,-1,-1,-1],"split_conditions":[8.4942514E-1,4.91257E-2,5.24038E-1,-8.379472E-2,6.103045E-1,-1.0847766E-1,9.5396394E-1,5.7756725E1,1.8279812E0,2.1383631E-1,8.549251E1,1.5965155E-1,8.7732667E-1,1E0,6.0976395E1,8.1394094E-1,-2.6993796E-1,4.4897552E1,2.2036678E-1,3.6157E0,1.3436935E0,2.2036678E-1,2.041663E-1,5.6109104E-2,3.4988575E0,3.4E2,9.562075E-1,7.7504456E1,4.3011484E-1,2.2036678E-1,1E0,-5.664235E-2,-6.2441524E-2,-5.6249645E-2,6.7251265E-1,2.2036678E-1,7.5154775E-1,1.8844224E-3,5.7756725E1,9.633724E-2,7.017786E1,2.2720839E-1,2.1533793E-1,7.794002E-1,1.8793786E-1,5.460429E-1,1E0,9.330329E1,-2.5832623E-1,2.8844925E2,1E0,3.4798525E-2,-5.627937E-2,1.7200697E2,1.4337069E-1,1.2096735E-1,2.8552775E0,3.647029E-1,1.659024E2,1.2262704E-1,2.8372074E1,3.300994E1,5.729381E-1,-2.5585115E-2,-4.999168E-2,-2.9862631E-2,-5.3189393E-2,-3.6417983E-2,-1.4061809E-2,-4.6439838E-2,-3.1329166E-2,-5.6316044E-2,-4.1385658E-2,-1.7568985E-2,-4.436452E-2,-5.679462E-2,-4.2157765E-2,-1.609472E-2,2.9989649E-2,-4.0111113E-2,-1.0971198E-2,3.9461307E-2,-4.583945E-3,-2.3869839E-2,-5.2450728E-2,2.3212101E-2,-7.380523E-3,7.914854E-2,1.4985434E-2,-1.6836742E-2,-5.5701196E-2,-5.2124675E-2,-1.48233E-2,1.5375967E-2,1.3008328E-1,4.726793E-3,-3.7696976E-2,3.2814431E-3,8.440491E-2,2.221281E-2,-3.247665E-2,1.14158474E-1,6.353127E-2,2.5269598E-2,8.386779E-2,-4.934094E-2,-4.7559626E-3,-2.5539814E-2,5.3956743E-2,1.3657337E-1,8.662101E-2,4.811346E-2,1.2493288E-1],"split_indices":[3,3,2,3,2,8,3,4,8,2,4,2,3,7,4,2,3,4,4,1,1,4,5,2,1,0,3,4,8,4,7,0,0,0,1,4,2,3,4,5,1,5,5,1,8,1,7,4,8,4,6,0,0,4,0,8,1,5,4,0,4,1,5,0,0,0,0,0,0,0,0,0,0,0,0,0,0,0,0,0,0,0,0,0,0,0,0,0,0,0,0,0,0,0,0,0,0,0,0,0,0,0,0,0,0,0,0,0,0,0,0,0,0],"split_type":[0,0,0,0,0,0,0,0,0,0,0,0,0,0,0,0,0,0,0,0,0,0,0,0,0,0,0,0,0,0,0,0,0,0,0,0,0,0,0,0,0,0,0,0,0,0,0,0,0,0,0,0,0,0,0,0,0,0,0,0,0,0,0,0,0,0,0,0,0,0,0,0,0,0,0,0,0,0,0,0,0,0,0,0,0,0,0,0,0,0,0,0,0,0,0,0,0,0,0,0,0,0,0,0,0,0,0,0,0,0,0,0,0],"sum_hessian":[3.9249285E4,2.367769E4,1.5571594E4,1.2107189E4,1.15705E4,7.31755E2,1.4839839E4,9.132418E3,2.9747717E3,4.8500005E3,6.720499E3,6.8600385E2,4.5751198E1,6.48339E3,8.356448E3,8.21231E3,9.2010846E2,7.405722E2,2.2341995E3,3.1501663E3,1.6998342E3,2.0437582E3,4.6767407E3,5.804037E2,1.0560013E2,1.1941982E1,3.3809216E1,5.6799116E3,8.034785E2,6.14193E1,8.295029E3,9.40047E2,7.2722627E3,4.3339554E2,4.8671292E2,4.960432E2,2.44529E2,6.281386E2,1.6060609E3,5.3006177E2,2.6201045E3,4.5253195E2,1.2473024E3,9.028218E2,1.1409364E3,2.9218376E3,1.7549032E3,5.0434198E2,7.606173E1,4.8568268E1,5.7031864E1,5.567098E0,6.3748837E0,2.523114E1,8.578076E0,3.482614E2,5.3316504E3,4.696245E2,3.33854E2,1.1638634E1,4.9780666E1,7.6413774E3,6.536517E2,1.2834785E2,3.5836508E2,3.3134314E2,1.6470006E2,1.1442211E2,1.301069E2,3.249354E2,3.032032E2,8.164087E2,7.896522E2,9.518715E1,4.3487463E2,2.0521987E3,5.679057E2,3.8722406E2,6.5307884E1,1.068345E3,1.789574E2,2.0060893E2,7.022128E2,3.606744E2,7.8026196E2,7.8957324E2,2.1322644E3,1.4895479E3,2.653554E2,1.4885366E1,4.894566E2,4.3859463E1,3.2202267E1,4.419859E1,4.3696775E0,1.9627943E1,3.740392E1,5.6417384E0,1.9589401E1,1.8898349E2,1.5927792E2,4.490384E3,8.4126654E2,2.0385063E2,2.6577386E2,1.5845192E2,1.7540208E2,2.4781115E1,2.499955E1,7.455795E3,1.8558281E2,1.4686705E2,5.067846E2],"tree_param":{"num_deleted":"0","num_feature":"9","num_nodes":"113","size_leaf_vector":"1"}},{"base_weights":[-3.7541857E-1,-4.2178547E-1,1.7799623E-1,-5.6787914E-1,-3.6186096E-1,4.0345713E-1,-1.3254501E-1,-6.0176814E-1,-4.0761447E-1,-2.4350742E-1,-5.418736E-1,1.497711E-1,6.661609E-1,-3.419768E-1,1.4331944E-1,-5.0200486E-1,-6.1749715E-1,-5.235862E-1,-3.2623923E-1,-1.6522391E-1,-5.263184E-1,-3.6040032E-1,-5.667171E-1,3.4175333E-1,-4.940802E-2,-8.057349E-2,7.342089E-1,1.1202019E-1,-4.005791E-1,3.736333E-1,-4.4190094E-1,-2.641938E-1,-5.1381785E-1,-6.2303133E-2,-5.6818485E-1,-4.635918E-1,-5.862836E-1,-4.091842E-1,-1.5605667E-1,-3.9368546E-1,-3.7899584E-2,-5.6909376E-1,-3.949683E-1,-5.210773E-1,-2.8868982E-1,-4.636507E-1,-5.973426E-1,-5.9121557E-2,4.0714043E-1,1.06639616E-1,-3.5197628E-1,-4.8395157E-2,2.7499093E-2,3.5623097E-1,8.4125775E-1,-2.1861576E-1,4.17153E-1,-4.637552E-1,-1.6064104E-1,1.5078934E-2,5.0423133E-1,4.8857223E-2,-4.839188E-1,-1.8986467E-2,-5.8019836E-2,-5.1901843E-2,-2.4064505E-2,-5.759534E-2,-3.044625E-2,-4.3190844E-2,-6.33103E-2,-5.9412606E-2,-2.0328796E-2,-3.2843184E-2,-4.7593568E-2,-1.1868917E-3,-3.9158586E-2,-4.418818E-2,-2.4826832E-2,-3.005187E-2,5.616152E-3,-4.5015063E-2,-5.824503E-2,-2.3314549E-2,-5.343726E-2,-1.6074186E-2,-5.3904183E-2,-2.472817E-2,-5.1330756E-2,-5.2337434E-2,-3.405818E-2,-5.636208E-2,-6.237186E-2,6.626672E-2,1.2048503E-2,-1.1500245E-2,2.8583292E-2,4.4746026E-2,-3.8506627E-2,-4.361075E-2,1.5274412E-2,-2.1539336E-2,5.6157213E-2,4.2208698E-2,9.396555E-2,-3.9254157E-3,-5.2919365E-2,5.3958025E-2,-5.207485E-2,-3.6167607E-2,-5.3572487E-2,-4.0885746E-3,-6.1536636E-2,-2.6067615E-2,3.939394E-2,8.166271E-2,3.2347053E-2,-5.422259E-2,-1.2526634E-2],"categories":[],"categories_nodes":[],"categories_segments":[],"categories_sizes":[],"default_left":[0,0,0,0,0,0,0,0,0,0,0,0,0,0,0,0,0,0,0,0,0,0,0,0,0,0,0,0,0,0,0,0,0,0,0,0,0,0,0,0,0,0,0,0,0,0,0,0,0,0,0,0,0,0,0,0,0,0,0,0,0,0,0,0,0,0,0,0,0,0,0,0,0,0,0,0,0,0,0,0,0,0,0,0,0,0,0,0,0,0,0,0,0,0,0,0,0,0,0,0,0,0,0,0,0,0,0,0,0,0,0,0,0,0,0,0,0,0,0],"id":10,"left_children":[1,3,5,7,9,11,13,15,17,19,21,23,25,27,29,31,33,35,37,39,41,43,45,47,49,51,53,55,57,59,61,63,65,-1,67,69,71,73,75,77,79,81,83,85,87,89,91,-1,93,95,97,-1,99,101,103,105,107,109,111,113,115,-1,117,-1,-1,-1,-1,-1,-1,-1,-1,-1,-1,-1,-1,-1,-1,-1,-1,-1,-1,-1,-1,-1,-1,-1,-1,-1,-1,-1,-1,-1,-1,-1,-1,-1,-1,-1,-1,-1,-1,-1,-1,-1,-1,-1,-1,-1,-1,-1,-1,-1,-1,-1,-1,-1,-1,-1,-1],"loss_changes":[9.2576074E2,2.9120312E2,1.9536118E2,5.233008E1,5.028208E2,1.0762387E2,6.788348E1,1.222583E1,1.5804138E1,3.152812E2,4.2010498E1,3.1510487E1,4.0394836E1,1.7809685E1,6.855483E1,2.935608E0,1.5275879E0,2.347519E0,1.4015335E1,3.2455478E2,1.712378E1,1.2872482E1,2.5713867E1,2.5832188E1,1.9164268E1,2.9426703E0,2.9140503E1,7.871415E0,8.893204E0,1.7067608E1,5.8566513E0,1.1534479E0,1.353302E0,0E0,1.2735138E0,1.663353E0,8.9060974E-1,3.4550018E0,1.1149582E1,2.7875183E1,1.770324E2,3.4345703E0,1.7060493E1,2.1630096E0,7.1623764E0,1.37187805E1,5.291748E0,0E0,2.867891E1,1.067807E1,3.8247242E0,0E0,3.198813E0,1.9173841E1,2.2959808E1,2.0775585E0,4.9255695E0,3.2427368E0,6.772739E0,1.0381525E1,1.4827766E1,0E0,2.8188477E0,0E0,0E0,0E0,0E0,0E0,0E0,0E0,0E0,0E0,0E0,0E0,0E0,0E0,0E0,0E0,0E0,0E0,0E0,0E0,0E0,0E0,0E0,0E0,0E0,0E0,0E0,0E0,0E0,0E0,0E0,0E0,0E0,0E0,0E0,0E0,0E0,0E0,0E0,0E0,0E0,0E0,0E0,0E0,0E0,0E0,0E0,0E0,0E0,0E0,0E0,0E0,0E0,0E0,0E0,0E0,0E0],"parents":[2147483647,0,0,1,1,2,2,3,3,4,4,5,5,6,6,7,7,8,8,9,9,10,10,11,11,12,12,13,13,14,14,15,15,16,16,17,17,18,18,19,19,20,20,21,21,22,22,23,23,24,24,25,25,26,26,27,27,28,28,29,29,30,30,31,31,32,32,34,34,35,35,36,36,37,37,38,38,39,39,40,40,41,41,42,42,43,43,44,44,45,45,46,46,48,48,49,49,50,50,52,52,53,53,54,54,55,55,56,56,57,57,58,58,59,59,60,60,62,62],"right_children":[2,4,6,8,10,12,14,16,18,20,22,24,26,28,30,32,34,36,38,40,42,44,46,48,50,52,54,56,58,60,62,64,66,-1,68,70,72,74,76,78,80,82,84,86,88,90,92,-1,94,96,98,-1,100,102,104,106,108,110,112,114,116,-1,118,-1,-1,-1,-1,-1,-1,-1,-1,-1,-1,-1,-1,-1,-1,-1,-1,-1,-1,-1,-1,-1,-1,-1,-1,-1,-1,-1,-1,-1,-1,-1,-1,-1,-1,-1,-1,-1,-1,-1,-1,-1,-1,-1,-1,-1,-1,-1,-1,-1,-1,-1,-1,-1,-1,-1,-1],"split_conditions":[1E0,-4.2412408E-2,9.714424E-1,3.0793064E1,3.7645954E-1,1.5269485E2,1.540164E2,8.2333714E-1,-3.1731248E-1,1.1787096E1,-1.3041192E-1,1.2962748E0,6.636276E-1,-9.563794E-2,6.765962E-1,1.5965155E-1,3.0199883E0,9.0984666E-1,5.3E1,3.9E1,3.2203296E-1,3.837241E-2,4.7944653E-1,-3.680494E-1,1.7670366E-1,1.7940685E2,7.3E1,5.7122624E-1,1.2069814E0,3.392699E-1,-1.1910637E-1,7.017786E1,2.8670833E-1,-6.2303133E-2,-8.379472E-2,2.2951714E2,5.4122E2,8.549251E1,2.7108083E0,1.15244925E-1,1E0,1.0416655E2,4.138237E1,9.7259224E1,6.765962E-1,1E0,9.703584E-1,-5.9121557E-2,1.85E2,5.4402866E1,3.8466804E0,-4.8395157E-2,6.3535206E-2,4.1303378E-1,9.0693325E-2,5.522692E-1,9.711326E-1,9.9394935E-1,9.77E2,1.9703888E2,3.8464704E-1,4.8857223E-2,1.4243677E0,-1.8986467E-2,-5.8019836E-2,-5.1901843E-2,-2.4064505E-2,-5.759534E-2,-3.044625E-2,-4.3190844E-2,-6.33103E-2,-5.9412606E-2,-2.0328796E-2,-3.2843184E-2,-4.7593568E-2,-1.1868917E-3,-3.9158586E-2,-4.418818E-2,-2.4826832E-2,-3.005187E-2,5.616152E-3,-4.5015063E-2,-5.824503E-2,-2.3314549E-2,-5.343726E-2,-1.6074186E-2,-5.3904183E-2,-2.472817E-2,-5.1330756E-2,-5.2337434E-2,-3.405818E-2,-5.636208E-2,-6.237186E-2,6.626672E-2,1.2048503E-2,-1.1500245E-2,2.8583292E-2,4.4746026E-2,-3.8506627E-2,-4.361075E-2,1.5274412E-2,-2.1539336E-2,5.6157213E-2,4.2208698E-2,9.396555E-2,-3.9254157E-3,-5.2919365E-2,5.3958025E-2,-5.207485E-2,-3.6167607E-2,-5.3572487E-2,-4.0885746E-3,-6.1536636E-2,-2.6067615E-2,3.939394E-2,8.166271E-2,3.2347053E-2,-5.422259E-2,-1.2526634E-2],"split_indices":[7,3,2,4,5,4,4,2,3,1,8,8,2,8,5,2,1,2,0,0,2,2,5,3,5,4,0,1,1,1,8,1,5,0,3,4,4,4,1,3,6,4,1,4,5,6,3,0,0,4,4,0,2,1,8,5,3,2,0,4,5,0,1,0,0,0,0,0,0,0,0,0,0,0,0,0,0,0,0,0,0,0,0,0,0,0,0,0,0,0,0,0,0,0,0,0,0,0,0,0,0,0,0,0,0,0,0,0,0,0,0,0,0,0,0,0,0,0,0],"split_type":[0,0,0,0,0,0,0,0,0,0,0,0,0,0,0,0,0,0,0,0,0,0,0,0,0,0,0,0,0,0,0,0,0,0,0,0,0,0,0,0,0,0,0,0,0,0,0,0,0,0,0,0,0,0,0,0,0,0,0,0,0,0,0,0,0,0,0,0,0,0,0,0,0,0,0,0,0,0,0,0,0,0,0,0,0,0,0,0,0,0,0,0,0,0,0,0,0,0,0,0,0,0,0,0,0,0,0,0,0,0,0,0,0,0,0,0,0,0,0],"sum_hessian":[3.607385E4,3.3285336E4,2.7885159E3,9.679238E3,2.36061E4,1.6153971E3,1.1731189E3,7.9874814E3,1.691757E3,1.4243636E4,9.362463E3,8.226021E2,7.927949E2,6.6671783E2,5.06401E2,1.0923082E3,6.895173E3,6.953484E2,9.964085E2,1.1156926E4,3.0867095E3,1.1292421E3,8.233221E3,4.18504E2,4.0409814E2,6.619628E1,7.2659863E2,7.6117485E1,5.9060034E2,3.6364847E2,1.4275255E2,5.27972E1,1.0395111E3,6.1889717E3,7.0620135E2,3.5962335E2,3.3572504E2,6.6896063E2,3.2744788E2,3.9919568E3,7.164969E3,2.3259192E3,7.6079034E2,3.465298E2,7.8271234E2,1.8897255E3,6.3434956E3,2.6883133E1,3.9162085E2,2.6702783E2,1.3707033E2,1.3252743E1,5.2943535E1,1.6132066E2,5.6527795E2,3.666814E1,3.944934E1,4.6676697E2,1.238334E2,9.7387764E1,2.662607E2,5.7086425E0,1.370439E2,4.4039307E1,8.757894E0,1.01920776E3,2.030327E1,6.848438E2,2.1357492E1,3.0598044E2,5.3642933E1,3.284483E2,7.2767506E0,3.0541107E2,3.6354956E2,2.0375949E2,1.2368839E2,2.996705E3,9.9525165E2,1.8889147E3,5.2760547E3,2.3832059E2,2.0875984E3,3.533214E2,4.0746893E2,1.6928265E1,3.2960153E2,6.6265356E2,1.20058754E2,1.2701073E3,6.1961816E2,2.7938809E3,3.5496147E3,2.0635909E2,1.8526176E2,1.1953482E2,1.47493E2,4.9503355E0,1.3212E2,1.0732842E1,4.2210693E1,4.2621876E1,1.1869879E2,1.0847369E2,4.5680426E2,2.3958357E1,1.2709784E1,3.5270115E1,4.179225E0,1.9550098E2,2.71266E2,9.8881996E1,2.4951399E1,5.6543964E1,4.08438E1,9.6305405E1,1.6995529E2,1.1743958E2,1.9604317E1],"tree_param":{"num_deleted":"0","num_feature":"9","num_nodes":"119","size_leaf_vector":"1"}},{"base_weights":[2.5655568E-1,1.0994409E0,-3.65536E-1,1.1937022E0,5.4264826E-1,4.3739736E-1,-4.683609E-1,1.261839E0,8.351546E-1,7.297266E-1,-1.7088246E-1,-2.0995985E-1,7.869696E-1,-5.3675336E-1,-9.75893E-2,9.940807E-1,1.3090012E0,8.732915E-1,1.3979861E-1,9.584854E-1,2.3207885E-1,-3.625688E-1,9.9929065E-2,1.5819593E-1,-4.3263948E-1,1.0545651E0,2.888852E-1,-4.8028976E-1,-6.0026705E-1,6.728259E-1,-3.2439673E-1,1.1796669E0,8.302511E-1,1.3320379E0,1.1440587E0,3.423376E-1,9.2805994E-1,-1.9261114E-1,1.0177608E0,4.5953533E-1,1.0537826E0,1.1048723E-1,5.657465E-1,4.9172023E-1,-3.937159E-1,-4.4587445E-1,1.4738637E-1,3.5741886E-1,1.7737577E-2,-3.274855E-1,-5.6035167E-1,4.7656756E-2,1.126782E0,-1.0852323E-1,9.4286346E-1,-3.2081732E-1,-5.3265136E-1,-6.085637E-1,-5.04461E-1,1.2746301E-1,9.922148E-1,1.3491178E-1,-4.243704E-1,1.3632075E-1,1.1003234E-1,9.280049E-2,6.335604E-2,1.1850411E-1,1.3376172E-1,8.918583E-2,1.1901748E-1,4.8717324E-2,-8.054499E-3,1.20057754E-1,8.434539E-2,1.2858085E-2,-3.2395504E-2,5.5458505E-2,1.3484325E-1,6.518969E-2,1.5448411E-2,9.3013264E-2,1.21868275E-1,2.8280163E-2,-2.5184928E-3,7.0566386E-2,3.24504E-2,1.7027462E-2,8.1530385E-2,-5.740251E-2,-3.427044E-2,-9.007274E-3,-6.043383E-2,6.342867E-3,5.8164626E-2,3.109594E-2,1.0527276E-1,2.176262E-2,-1.667744E-2,-2.8619776E-2,-5.556499E-2,-2.3796497E-2,-5.7637878E-2,3.72294E-2,-2.4137137E-2,7.582798E-2,1.2521213E-1,-2.0253977E-2,2.2552526E-2,5.0434854E-2,1.248576E-1,-4.296798E-2,2.6866471E-2,-3.714444E-2,-5.551943E-2,-6.1309803E-2,-5.3079415E-2,-5.7876866E-2,-2.1008601E-2,-2.8559536E-2,3.7306484E-2,1.11458614E-1,4.548016E-2,3.593197E-2,-1.7600622E-2,-6.0083102E-2,-2.8906116E-2],"categories":[],"categories_nodes":[],"categories_segments":[],"categories_sizes":[],"default_left":[0,0,0,0,0,0,0,0,0,0,0,0,0,0,0,0,0,0,0,0,0,0,0,0,0,0,0,0,0,0,0,0,0,0,0,0,0,0,0,0,0,0,0,0,0,0,0,0,0,0,0,0,0,0,0,0,0,0,0,0,0,0,0,0,0,0,0,0,0,0,0,0,0,0,0,0,0,0,0,0,0,0,0,0,0,0,0,0,0,0,0,0,0,0,0,0,0,0,0,0,0,0,0,0,0,0,0,0,0,0,0,0,0,0,0,0,0,0,0,0,0,0,0,0,0,0,0],"id":11,"left_children":[1,3,5,7,9,11,13,15,17,19,21,23,25,27,29,31,33,35,37,39,41,43,45,47,49,51,53,55,57,59,61,63,65,67,69,71,73,75,77,79,81,83,85,87,89,91,93,95,97,99,101,103,105,107,109,111,113,115,117,119,121,123,125,-1,-1,-1,-1,-1,-1,-1,-1,-1,-1,-1,-1,-1,-1,-1,-1,-1,-1,-1,-1,-1,-1,-1,-1,-1,-1,-1,-1,-1,-1,-1,-1,-1,-1,-1,-1,-1,-1,-1,-1,-1,-1,-1,-1,-1,-1,-1,-1,-1,-1,-1,-1,-1,-1,-1,-1,-1,-1,-1,-1,-1,-1,-1,-1],"loss_changes":[2.0752775E4,8.814219E2,1.8802778E3,3.5006445E2,3.251781E2,5.85293E2,5.1185254E2,1.511836E2,6.0819336E1,2.1943079E2,2.6336441E1,7.44615E1,2.2350842E2,6.083203E1,5.497679E2,5.412964E1,3.7476562E1,6.3028442E1,3.5414104E1,6.2352295E1,2.46431E1,8.093052E0,5.525055E0,9.584354E0,7.4136047E0,7.934949E1,1.5298337E2,7.520923E1,6.0654297E0,1.2452371E2,1.1165831E2,1.0841431E1,1.7987E1,5.796875E0,1.3650024E1,1.2612051E1,4.4503418E1,3.7698584E0,4.352459E0,1.2439297E1,2.1475342E1,1.0470041E1,5.25251E0,9.9367285E-1,2.4429436E0,9.1016984E-1,7.0602183E0,4.249115E0,7.4889455E0,2.7863579E0,1.1754684E0,7.044531E0,4.6108887E1,1.1565111E1,2.919162E1,1.4347028E2,2.448523E1,2.2749023E0,1.3982132E1,2.703677E1,2.9163788E1,3.0428345E1,4.7489105E1,0E0,0E0,0E0,0E0,0E0,0E0,0E0,0E0,0E0,0E0,0E0,0E0,0E0,0E0,0E0,0E0,0E0,0E0,0E0,0E0,0E0,0E0,0E0,0E0,0E0,0E0,0E0,0E0,0E0,0E0,0E0,0E0,0E0,0E0,0E0,0E0,0E0,0E0,0E0,0E0,0E0,0E0,0E0,0E0,0E0,0E0,0E0,0E0,0E0,0E0,0E0,0E0,0E0,0E0,0E0,0E0,0E0,0E0,0E0,0E0,0E0,0E0,0E0,0E0],"parents":[2147483647,0,0,1,1,2,2,3,3,4,4,5,5,6,6,7,7,8,8,9,9,10,10,11,11,12,12,13,13,14,14,15,15,16,16,17,17,18,18,19,19,20,20,21,21,22,22,23,23,24,24,25,25,26,26,27,27,28,28,29,29,30,30,31,31,32,32,33,33,34,34,35,35,36,36,37,37,38,38,39,39,40,40,41,41,42,42,43,43,44,44,45,45,46,46,47,47,48,48,49,49,50,50,51,51,52,52,53,53,54,54,55,55,56,56,57,57,58,58,59,59,60,60,61,61,62,62],"right_children":[2,4,6,8,10,12,14,16,18,20,22,24,26,28,30,32,34,36,38,40,42,44,46,48,50,52,54,56,58,60,62,64,66,68,70,72,74,76,78,80,82,84,86,88,90,92,94,96,98,100,102,104,106,108,110,112,114,116,118,120,122,124,126,-1,-1,-1,-1,-1,-1,-1,-1,-1,-1,-1,-1,-1,-1,-1,-1,-1,-1,-1,-1,-1,-1,-1,-1,-1,-1,-1,-1,-1,-1,-1,-1,-1,-1,-1,-1,-1,-1,-1,-1,-1,-1,-1,-1,-1,-1,-1,-1,-1,-1,-1,-1,-1,-1,-1,-1,-1,-1,-1,-1,-1,-1,-1,-1],"split_conditions":[9.849997E-2,3.0199883E0,7.7504456E1,5.7756725E1,1.7154982E1,2.2036678E-1,1.9772855E0,2.2036678E-1,1E0,-2.1585869E-2,1.6581571E-1,2.1621482E-1,5.7756725E1,4.3089277E-1,1.540164E2,-1.5384103E-2,2.2220482E1,4.4029626E-1,9.5474E-1,6.960703E-1,8.1394094E-1,5.979462E-2,2.2445688E-2,1.5381733E0,5.092214E0,4.8454976E-1,5.9379315E-1,1.3324658E2,1E0,8.9852464E-1,1.8585667E-1,-2.6993796E-1,4.91257E-2,4.1702803E-2,7.63847E-1,5.2E1,-2.2505634E-1,3.3E1,4.9E1,4.8043835E1,9.326253E-1,3.8316373E-2,4.91257E-2,6.636276E-1,1E0,2.24E2,3.87E2,8.7249625E-1,1.3558131E-1,8.1357026E-1,2.4879624E-1,3.6157E0,-5.2011453E-2,1.4608493E-1,9.4464374E-1,5.9379315E-1,4.3135065E-1,2.1357157E1,2.4048975E-1,5.785874E-1,1.4679545E0,2.1318336E0,1E0,1.3632075E-1,1.1003234E-1,9.280049E-2,6.335604E-2,1.1850411E-1,1.3376172E-1,8.918583E-2,1.1901748E-1,4.8717324E-2,-8.054499E-3,1.20057754E-1,8.434539E-2,1.2858085E-2,-3.2395504E-2,5.5458505E-2,1.3484325E-1,6.518969E-2,1.5448411E-2,9.3013264E-2,1.21868275E-1,2.8280163E-2,-2.5184928E-3,7.0566386E-2,3.24504E-2,1.7027462E-2,8.1530385E-2,-5.740251E-2,-3.427044E-2,-9.007274E-3,-6.043383E-2,6.342867E-3,5.8164626E-2,3.109594E-2,1.0527276E-1,2.176262E-2,-1.667744E-2,-2.8619776E-2,-5.556499E-2,-2.3796497E-2,-5.7637878E-2,3.72294E-2,-2.4137137E-2,7.582798E-2,1.2521213E-1,-2.0253977E-2,2.2552526E-2,5.0434854E-2,1.248576E-1,-4.296798E-2,2.6866471E-2,-3.714444E-2,-5.551943E-2,-6.1309803E-2,-5.3079415E-2,-5.7876866E-2,-2.1008601E-2,-2.8559536E-2,3.7306484E-2,1.11458614E-1,4.548016E-2,3.593197E-2,-1.7600622E-2,-6.0083102E-2,-2.8906116E-2],"split_indices":[3,1,4,4,1,4,8,4,7,3,5,3,4,5,4,3,4,2,2,2,2,5,2,1,1,2,8,4,7,2,3,3,3,5,2,0,3,0,0,4,2,3,3,2,6,0,0,2,3,3,3,1,8,8,2,8,3,1,8,2,1,1,6,0,0,0,0,0,0,0,0,0,0,0,0,0,0,0,0,0,0,0,0,0,0,0,0,0,0,0,0,0,0,0,0,0,0,0,0,0,0,0,0,0,0,0,0,0,0,0,0,0,0,0,0,0,0,0,0,0,0,0,0,0,0,0,0],"split_type":[0,0,0,0,0,0,0,0,0,0,0,0,0,0,0,0,0,0,0,0,0,0,0,0,0,0,0,0,0,0,0,0,0,0,0,0,0,0,0,0,0,0,0,0,0,0,0,0,0,0,0,0,0,0,0,0,0,0,0,0,0,0,0,0,0,0,0,0,0,0,0,0,0,0,0,0,0,0,0,0,0,0,0,0,0,0,0,0,0,0,0,0,0,0,0,0,0,0,0,0,0,0,0,0,0,0,0,0,0,0,0,0,0,0,0,0,0,0,0,0,0,0,0,0,0,0,0],"sum_hessian":[3.9576188E4,1.680541E4,2.2770775E4,1.43713E4,2.43411E3,2.5846501E3,2.0186125E4,1.2074246E4,2.2970542E3,1.9284684E3,5.0564163E2,9.064449E2,1.6782053E3,1.7042096E4,3.14403E3,1.8115312E3,1.0262715E4,2.1773796E3,1.1967467E2,1.3205238E3,6.079446E2,2.9587558E2,2.0976604E2,3.4173868E2,5.6470624E2,1.090967E3,5.872383E2,9.026291E3,8.015804E3,7.146281E2,2.4294019E3,8.4646045E2,9.650708E2,8.9988125E3,1.263902E3,2.0427554E2,1.9731041E3,8.737412E1,3.230055E1,2.1270105E2,1.1078228E3,4.4654907E2,1.6139554E2,9.88789E0,2.859877E2,1.6108458E1,1.936576E2,1.4067035E2,2.0106831E2,3.1166003E2,2.5304623E2,7.312046E1,1.0178466E3,3.657898E2,2.2144849E2,2.2328994E3,6.793392E3,7.372043E3,6.437614E2,2.644587E2,4.5016943E2,4.3420178E2,1.9952001E3,2.5059438E2,5.95866E2,6.421893E2,3.2288153E2,3.3686E2,8.661952E3,1.9852812E2,1.0653739E3,1.5204774E2,5.222779E1,4.6432263E2,1.5087815E3,2.5365547E1,6.200857E1,1.45697155E1,1.7730831E1,1.2974712E2,8.295394E1,6.3689185E2,4.7093088E2,1.9623308E2,2.50316E2,1.009315E2,6.0464035E1,5.725969E0,4.161921E0,6.080587E1,2.2518184E2,5.446884E0,1.0661572E1,1.6324303E2,3.0414555E1,1.3321628E2,7.4540815E0,9.6426476E1,1.0464183E2,2.6581372E2,4.584629E1,1.2734669E1,2.4031157E2,3.430307E1,3.8817394E1,2.6012384E2,7.577228E2,2.8575806E2,8.003172E1,9.2054695E1,1.2939378E2,1.8850494E3,3.4784998E2,8.3557745E2,5.9578145E3,6.9593965E3,4.1264615E2,5.132405E2,1.3052092E2,9.855089E1,1.6590782E2,3.6580096E2,8.436846E1,2.5209453E2,1.8210725E2,8.644309E2,1.1307693E3],"tree_param":{"num_deleted":"0","num_feature":"9","num_nodes":"127","size_leaf_vector":"1"}},{"base_weights":[-1.3231352E-1,8.4661305E-1,-3.9809936E-1,3.404557E-1,1.0763862E0,-4.7505972E-1,2.0705709E-1,-2.4320516E-1,5.4100204E-1,7.5921106E-1,1.1198359E0,-2.7575082E-1,-5.260378E-1,-4.3898225E-2,5.400524E-1,-2.7700353E-1,4.431419E-1,9.4054997E-1,3.5428828E-1,4.5912388E-1,9.276634E-1,1.1729114E0,9.8709613E-1,-3.4579152E-1,2.3753999E-2,-4.7348005E-1,-5.7542235E-1,3.2897547E-1,-2.9315948E-1,9.1026074E-1,2.620637E-1,-3.5998774E-1,-4.517197E-2,1.0769764E0,1.2073529E-1,3.5911888E-1,1.0566504E0,1.3157709E-2,4.6925482E-1,1.6001415E-1,6.409226E-1,9.9664193E-1,5.6706864E-1,1.1741316E0,2.5478119E-2,8.449757E-1,1.0798784E0,-4.596089E-1,-2.431594E-1,-3.3170122E-1,1.6734509E-1,-4.8597074E-1,-3.3623502E-1,-5.4289204E-1,-5.957197E-1,-2.6820315E-2,4.445605E-1,-1.1437822E-1,-4.5080835E-1,1.0272242E0,6.529257E-1,4.118373E-1,-2.0508336E-1,-5.1342797E-2,-2.7151017E-2,6.330121E-2,-1.0368054E-2,1.4563514E-1,4.232725E-2,-2.0035528E-2,7.4080676E-2,-1.3598523E-2,5.832347E-2,1.070441E-1,-3.822159E-2,2.0972531E-2,-1.8564489E-2,2.7651144E-2,6.3503556E-2,1.2871586E-3,5.343737E-2,8.7275885E-2,4.9414128E-2,3.948043E-2,1.0150894E-1,1.4375932E-2,7.1206056E-2,9.058782E-2,1.1778277E-1,9.159277E-2,7.034131E-2,1.1203511E-1,6.876724E-2,-4.9527865E-2,-4.026364E-2,-1.4999238E-2,-4.5381095E-2,4.0910384E-3,-3.6909506E-2,3.6583763E-2,5.4218684E-4,-4.9659E-2,-4.049557E-2,-4.6548266E-2,-1.9606292E-2,-5.526188E-2,-3.7511017E-2,-5.797965E-2,-6.1258473E-2,-6.3063176E-3,8.3600715E-2,5.614523E-2,-5.8637256E-6,-1.9975075E-2,1.6872326E-2,4.079289E-2,-4.6915557E-2,-3.3237293E-2,1.0471278E-1,8.4907025E-2,5.019184E-2,1.8376887E-2,5.6398746E-2,3.5031743E-3,-3.8089346E-2],"categories":[],"categories_nodes":[],"categories_segments":[],"categories_sizes":[],"default_left":[0,0,0,0,0,0,0,0,0,0,0,0,0,0,0,0,0,0,0,0,0,0,0,0,0,0,0,0,0,0,0,0,0,0,0,0,0,0,0,0,0,0,0,0,0,0,0,0,0,0,0,0,0,0,0,0,0,0,0,0,0,0,0,0,0,0,0,0,0,0,0,0,0,0,0,0,0,0,0,0,0,0,0,0,0,0,0,0,0,0,0,0,0,0,0,0,0,0,0,0,0,0,0,0,0,0,0,0,0,0,0,0,0,0,0,0,0,0,0,0,0,0,0,0,0],"id":12,"left_children":[1,3,5,7,9,11,13,15,17,19,21,23,25,27,29,31,33,35,37,39,41,43,45,47,49,51,53,55,57,59,61,63,65,67,69,71,73,75,77,79,81,83,85,87,-1,89,91,93,95,97,99,101,103,105,107,109,111,113,115,117,119,121,123,-1,-1,-1,-1,-1,-1,-1,-1,-1,-1,-1,-1,-1,-1,-1,-1,-1,-1,-1,-1,-1,-1,-1,-1,-1,-1,-1,-1,-1,-1,-1,-1,-1,-1,-1,-1,-1,-1,-1,-1,-1,-1,-1,-1,-1,-1,-1,-1,-1,-1,-1,-1,-1,-1,-1,-1,-1,-1,-1,-1,-1,-1],"loss_changes":[9.559726E3,9.120928E2,1.3458784E3,2.8702844E2,7.350781E1,2.603286E2,2.7252905E2,1.46790695E1,1.3577972E2,3.259323E1,3.2260742E1,1.0958731E2,5.2711914E1,1.7301234E2,1.43992E2,1.1501034E1,5.966786E0,3.880548E1,4.8823425E1,1.2775177E1,9.816284E0,3.491211E0,1.7036621E1,4.9342957E1,5.0635513E1,1.6798828E1,6.6223145E0,3.0685577E1,3.1390724E1,1.7407715E1,5.618581E1,5.843746E0,6.3726463E0,1.8469028E0,4.309983E0,1.0968166E1,1.0000122E1,1.2343346E1,2.957904E1,4.9979744E0,4.569729E0,3.4743652E0,4.1534443E0,2.2827148E0,0E0,4.8021545E0,1.2245239E1,3.8778076E0,4.3664886E1,3.9926891E0,2.2705685E1,7.599365E0,1.4921219E1,6.4074707E0,1.3818359E0,5.801463E0,2.9262306E1,1.2700578E1,9.5262985E0,1.1475433E1,5.214409E0,2.0977005E1,8.259287E0,0E0,0E0,0E0,0E0,0E0,0E0,0E0,0E0,0E0,0E0,0E0,0E0,0E0,0E0,0E0,0E0,0E0,0E0,0E0,0E0,0E0,0E0,0E0,0E0,0E0,0E0,0E0,0E0,0E0,0E0,0E0,0E0,0E0,0E0,0E0,0E0,0E0,0E0,0E0,0E0,0E0,0E0,0E0,0E0,0E0,0E0,0E0,0E0,0E0,0E0,0E0,0E0,0E0,0E0,0E0,0E0,0E0,0E0,0E0,0E0,0E0,0E0],"parents":[2147483647,0,0,1,1,2,2,3,3,4,4,5,5,6,6,7,7,8,8,9,9,10,10,11,11,12,12,13,13,14,14,15,15,16,16,17,17,18,18,19,19,20,20,21,21,22,22,23,23,24,24,25,25,26,26,27,27,28,28,29,29,30,30,31,31,32,32,33,33,34,34,35,35,36,36,37,37,38,38,39,39,40,40,41,41,42,42,43,43,45,45,46,46,47,47,48,48,49,49,50,50,51,51,52,52,53,53,54,54,55,55,56,56,57,57,58,58,59,59,60,60,61,61,62,62],"right_children":[2,4,6,8,10,12,14,16,18,20,22,24,26,28,30,32,34,36,38,40,42,44,46,48,50,52,54,56,58,60,62,64,66,68,70,72,74,76,78,80,82,84,86,88,-1,90,92,94,96,98,100,102,104,106,108,110,112,114,116,118,120,122,124,-1,-1,-1,-1,-1,-1,-1,-1,-1,-1,-1,-1,-1,-1,-1,-1,-1,-1,-1,-1,-1,-1,-1,-1,-1,-1,-1,-1,-1,-1,-1,-1,-1,-1,-1,-1,-1,-1,-1,-1,-1,-1,-1,-1,-1,-1,-1,-1,-1,-1,-1,-1,-1,-1,-1,-1,-1,-1,-1,-1,-1,-1],"split_conditions":[5.431214E-1,4.1325836E0,4.4152284E0,6.041148E-2,9.185527E1,8.6705875E-1,1.846511E1,2.64E2,8.071705E-2,1.376956E1,1.1558835E-1,2.3340335E0,7.63921E-1,8.6705875E-1,2.07E2,2.0863678E0,3.4075603E-2,1.7E2,1.1572686E2,4.3686178E-2,2.4457636E-1,9.661962E-1,1.273639E1,4.3686178E-2,-1.5384103E-2,2.3340335E0,9.4211394E-1,-2.1585869E-2,7.63921E-1,1.6757166E-1,9.562075E-1,1.5E1,8E0,4.13E2,8.891129E1,1.3883406E2,9.67953E-1,1.3198297E-1,1.3436935E0,4.8043835E1,1.1558835E-1,-4.3948385E-1,3.6117363E0,5.446958E-2,2.5478119E-2,3.4516668E-1,8.2996523E-1,-5.781116E-2,2.0218231E-1,4.5568567E-2,7.37886E-1,1.659024E2,-1.03707604E-1,5.97E2,9.727213E-1,1.7154982E1,2.0218231E-1,9.426183E0,-3.4092197E-1,6.233934E-2,1E0,4.864027E1,9.670685E-1,-5.1342797E-2,-2.7151017E-2,6.330121E-2,-1.0368054E-2,1.4563514E-1,4.232725E-2,-2.0035528E-2,7.4080676E-2,-1.3598523E-2,5.832347E-2,1.070441E-1,-3.822159E-2,2.0972531E-2,-1.8564489E-2,2.7651144E-2,6.3503556E-2,1.2871586E-3,5.343737E-2,8.7275885E-2,4.9414128E-2,3.948043E-2,1.0150894E-1,1.4375932E-2,7.1206056E-2,9.058782E-2,1.1778277E-1,9.159277E-2,7.034131E-2,1.1203511E-1,6.876724E-2,-4.9527865E-2,-4.026364E-2,-1.4999238E-2,-4.5381095E-2,4.0910384E-3,-3.6909506E-2,3.6583763E-2,5.4218684E-4,-4.9659E-2,-4.049557E-2,-4.6548266E-2,-1.9606292E-2,-5.526188E-2,-3.7511017E-2,-5.797965E-2,-6.1258473E-2,-6.3063176E-3,8.3600715E-2,5.614523E-2,-5.8637256E-6,-1.9975075E-2,1.6872326E-2,4.079289E-2,-4.6915557E-2,-3.3237293E-2,1.0471278E-1,8.4907025E-2,5.019184E-2,1.8376887E-2,5.6398746E-2,3.5031743E-3,-3.8089346E-2],"split_indices":[2,1,1,3,4,2,1,0,2,1,2,1,3,2,0,1,2,0,4,3,5,3,1,3,3,1,3,3,3,5,3,0,0,0,4,4,3,5,1,4,2,8,4,3,0,2,3,3,5,5,2,4,3,0,3,1,5,1,8,5,6,1,3,0,0,0,0,0,0,0,0,0,0,0,0,0,0,0,0,0,0,0,0,0,0,0,0,0,0,0,0,0,0,0,0,0,0,0,0,0,0,0,0,0,0,0,0,0,0,0,0,0,0,0,0,0,0,0,0,0,0,0,0,0,0],"split_type":[0,0,0,0,0,0,0,0,0,0,0,0,0,0,0,0,0,0,0,0,0,0,0,0,0,0,0,0,0,0,0,0,0,0,0,0,0,0,0,0,0,0,0,0,0,0,0,0,0,0,0,0,0,0,0,0,0,0,0,0,0,0,0,0,0,0,0,0,0,0,0,0,0,0,0,0,0,0,0,0,0,0,0,0,0,0,0,0,0,0,0,0,0,0,0,0,0,0,0,0,0,0,0,0,0,0,0,0,0,0,0,0,0,0,0,0,0,0,0,0,0,0,0,0,0],"sum_hessian":[3.673976E4,7.8446455E3,2.8895115E4,2.45004E3,5.3946055E3,2.5635193E4,3.259922E3,6.264975E2,1.8235425E3,6.5219226E2,4.742413E3,5.2226436E3,2.0412549E4,1.8594515E3,1.4004706E3,5.976627E2,2.88348E1,5.7947955E2,1.2440629E3,2.358198E2,4.163725E2,3.3822114E3,1.3602018E3,4.23266E3,9.899837E2,9.893709E3,1.0518841E4,7.448698E2,1.1145818E3,5.9963666E2,8.008339E2,4.3971405E2,1.5794867E2,8.932852E0,1.9901949E1,9.713258E1,4.8234702E2,3.1386682E2,9.3019604E2,8.985818E1,1.4596161E2,3.4803302E2,6.833948E1,3.377444E3,4.767334E0,5.412472E2,8.189546E2,2.0053171E3,2.2273428E3,2.8447205E2,7.0551166E2,9.066064E3,8.2764404E2,4.0521921E3,6.4666484E3,1.8283424E2,5.620355E2,5.2309393E2,5.9148785E2,4.1020102E2,1.8943565E2,6.0650024E2,1.9433366E2,1.5906181E2,2.8065225E2,1.1764535E1,1.4618413E2,4.8755164E0,4.057336E0,1.3558076E1,6.343872E0,3.0389973E1,6.674261E1,4.780215E2,4.3254886E0,1.5779292E2,1.5607391E2,4.3135403E2,4.9884198E2,6.524709E1,2.4611082E1,5.4668533E1,9.129308E1,1.1016804E1,3.370162E2,1.7943699E1,5.039578E1,4.9248528E1,3.3281956E3,3.5689792E2,1.8434924E2,7.4066675E2,7.82878E1,1.2284861E3,7.768311E2,1.5455074E3,6.8183527E2,2.5936209E1,2.5853586E2,3.1639795E2,3.891137E2,8.0108867E3,1.055178E3,4.2939426E2,3.982498E2,3.8279797E3,2.2421237E2,3.3444001E3,3.1222483E3,1.7635347E2,6.4807744E0,4.4482648E2,1.17209045E2,4.0212338E2,1.2097055E2,1.1928797E1,5.79559E2,5.691896E0,4.0450912E2,8.039166E1,1.0904399E2,2.4358362E2,3.6291666E2,8.248262E1,1.1185104E2],"tree_param":{"num_deleted":"0","num_feature":"9","num_nodes":"125","size_leaf_vector":"1"}},{"base_weights":[1.9965245E-1,-3.3621982E-1,9.488077E-1,-5.3988564E-1,-1.1199924E-1,-3.7127194E-1,1.0071578E0,-5.9305704E-1,-3.979013E-1,-4.3340173E-1,1.0210404E-1,-4.2578614E-1,4.9252677E-1,6.7517155E-1,1.1002433E0,-6.050439E-1,-4.8920977E-1,-2.5913808E-1,-4.215272E-1,-5.0269115E-1,-2.8241816E-1,-5.701195E-2,3.25022E-1,-5.061911E-1,-1.3749728E-1,7.4273534E-2,1.13781296E-1,8.031031E-1,-3.3228954E-3,-1.17862746E-1,1.1301419E0,-6.130581E-2,-5.7727236E-2,-5.515741E-1,-4.2223898E-1,-3.010144E-1,-4.588465E-2,-4.681423E-1,-3.7720522E-1,-4.1153607E-1,-5.253206E-1,-1.2166562E-1,-3.4193304E-1,1.1907822E-1,-1.2502533E-1,-2.0420457E-1,4.4496357E-1,-5.246104E-1,-1.2683834E-1,-3.285188E-1,1.2965675E-1,6.7043865E-1,-4.1050535E-2,1.0067331E0,5.1843995E-1,3.368941E-1,-2.888871E-1,7.143459E-1,-2.5124216E-1,1.1500976E0,5.6444305E-1,-1.4235397E-2,-5.569308E-2,-2.9166011E-2,-4.704662E-2,-3.370803E-2,-8.270552E-3,-1.0066162E-2,6.621059E-2,-5.1493037E-2,-3.6676146E-2,-2.9342372E-2,-4.146084E-2,-3.446126E-2,-5.612566E-2,-5.648805E-2,-4.2358886E-2,5.0542217E-2,-1.8068856E-2,-3.686173E-2,-1.5093751E-2,2.3122182E-2,-3.903683E-2,-2.9525746E-2,-8.401053E-3,3.6680322E-2,-3.029113E-2,9.4994577E-4,6.745801E-2,-3.0304322E-3,-5.295949E-2,-3.6956977E-2,3.995779E-2,1.622882E-3,-4.1294973E-2,8.454076E-2,-1.0350284E-2,2.3198228E-2,8.685497E-2,1.068538E-1,2.8478289E-2,7.026952E-2,-5.357852E-3,2.876292E-2,1.5052383E-1,-4.154516E-3,-3.9528664E-2,2.894025E-2,9.93635E-2,1.3128576E-2,-5.4381963E-2,7.582458E-2,1.1653685E-1,4.1733485E-2,1.1373817E-1],"categories":[],"categories_nodes":[],"categories_segments":[],"categories_sizes":[],"default_left":[0,0,0,0,0,0,0,0,0,0,0,0,0,0,0,0,0,0,0,0,0,0,0,0,0,0,0,0,0,0,0,0,0,0,0,0,0,0,0,0,0,0,0,0,0,0,0,0,0,0,0,0,0,0,0,0,0,0,0,0,0,0,0,0,0,0,0,0,0,0,0,0,0,0,0,0,0,0,0,0,0,0,0,0,0,0,0,0,0,0,0,0,0,0,0,0,0,0,0,0,0,0,0,0,0,0,0,0,0,0,0,0,0,0,0],"id":13,"left_children":[1,3,5,7,9,11,13,15,17,19,21,23,25,27,29,31,33,35,37,39,41,43,45,47,49,51,-1,53,55,